style,0,1,2,3,4,5,6,7,8,9,10,11,12,13,14,15,16,17,18,19,20,21,22,23,24,25,26,27,28,29,30,31
Experimental,0.06550953,-0.14688945,0.1602351,-0.15226936,0.030245561,-0.360136,-0.08070598,0.14826223,-0.011129191,-0.26971075,0.40574142,-0.3573349,0.06774563,-0.45585078,0.0030061048,0.20383404,-0.2154477,-0.008697067,0.020450206,-0.27553216,0.10224237,0.19908684,0.34870827,-0.039371904,0.34721196,0.06247703,-0.22857547,0.45548636,0.3269549,0.18971498,0.09075702,0.1296025
Ambient,0.13132522,-0.27626523,0.05076694,-0.2901601,0.15015554,-0.34416237,-0.03299131,0.055409797,0.11210237,-0.25977933,0.33434394,-0.27690545,0.07874046,-0.6204286,0.04567931,0.15667175,-0.23501305,0.08986853,-0.18853146,-0.1601291,0.1313597,0.10351524,0.38251293,-0.05153881,0.5341511,0.2143852,-0.2712393,0.3453478,0.44189534,0.18243909,0.109600745,0.06357256
Pop_Rock,-0.17248242,-0.11685818,0.08636631,0.20778824,-0.034968063,-0.2521449,0.31402272,0.099165864,-0.11783966,-0.022463797,0.19907348,-0.30384874,0.2891695,-0.26853135,-0.0048214244,-0.01607875,0.074626215,0.16300245,0.21762416,-0.16347232,0.33451113,0.4012782,0.52996147,-0.08683436,0.018811127,0.004828898,0.14230467,-0.09815314,0.19384009,-0.28498414,0.07283624,-0.13610712
House,-0.34198877,-0.21560967,-0.03643683,0.0003764288,0.13407074,-0.46603492,0.2805488,0.07136978,0.10302099,-0.049552403,0.42611074,-0.15215357,0.04052175,-0.7729065,0.18256031,0.24380745,-0.33363238,0.12295353,-0.09928943,-0.12143811,0.3383892,0.3329908,0.16955669,-0.3295098,0.030326543,0.38000408,0.0074854824,-0.031855162,-0.21308728,0.42387885,-0.08973659,0.05673658
Techno,-0.19251642,-0.15774554,-0.06751248,-0.16514656,0.11086886,-0.31809285,0.12285657,0.17758194,0.09878569,0.00041797748,0.55890447,-0.122023426,-0.011463879,-0.5421163,0.13882166,0.37729326,-0.6351145,0.07860378,-0.12541367,-0.07925004,0.3779201,0.25868338,0.32157552,-0.30970454,0.34267825,0.35856995,-0.15560605,0.1868492,0.017750371,0.38880014,-0.0999564,-0.13706273
Synth-pop,-0.22960825,-0.20166932,-0.10281444,0.023863308,-0.029628413,-0.24582338,0.29122764,0.04203324,0.10152066,0.093879946,0.49820912,-0.2933422,0.16046321,-0.48524225,0.17228495,0.19939733,-0.038525663,-0.03576602,0.18038398,-0.20864467,0.015666693,0.32603702,0.48339853,-0.28577828,0.18665598,0.3201032,0.21359718,-0.042430095,0.14354366,0.026397754,0.08911904,-0.16770537
Punk,0.0024966854,-0.08203137,0.12000518,0.3088163,-0.11071981,-0.62565494,-0.23981056,0.21640871,-0.22340402,-0.16594046,0.3686413,0.018739793,0.43666363,-0.29756713,0.1431593,0.17587876,-0.42380214,-0.006632045,0.15101044,-0.6114379,0.43025112,0.27245367,0.37535915,0.043926325,-0.016601201,-0.12607439,0.11865203,0.16798864,0.36083412,-0.28468406,-0.27901354,-0.14533876
Vocal,0.01189006,0.007553057,0.0900847,0.2560022,-0.09447446,-0.15976614,0.5792527,0.267765,-0.123542845,0.10504076,-0.044589404,-0.50906324,0.21286741,-0.1965878,0.29098985,0.16294304,0.10136802,0.0248328,0.11545729,0.2585245,0.21384574,0.46427163,0.34082818,-0.20561083,0.055611737,0.05377287,-0.004238347,0.070923015,0.012929214,-0.43081018,-0.11011965,0.0052425484
Electro,-0.35017133,-0.30834916,-0.022108389,-0.0626251,0.00031892757,-0.21354409,0.15840942,0.054721363,0.016675754,-0.038481414,0.6296371,-0.21957241,-0.09806223,-0.5472711,0.2034607,0.3409389,-0.3462283,-0.022484893,0.06885647,-0.1417617,0.200997,0.2276639,0.26449993,-0.2069595,0.18755737,0.3075903,0.05734124,0.17872782,0.0720432,0.24225485,0.02304064,-0.022944653
Alternative_Rock,-0.038571857,-0.1457188,0.18964927,0.10991366,-0.061145052,-0.2747697,-0.12721363,0.14288904,-0.2354446,-0.13595878,0.46238768,-0.12246598,0.19489375,-0.3084112,0.19003005,-0.058478985,0.052904025,-0.10503649,0.17647904,-0.38337767,0.55841404,0.2711043,0.605443,-0.01907005,-0.023816211,0.05074095,0.011646025,-0.07682037,0.4467498,-0.17515895,-0.047289483,0.05974508
Ballad,-0.006520637,0.0071852566,-0.10984595,0.31889105,-0.053383026,-0.113963276,0.5160157,0.16392311,-0.12089961,0.12766954,0.26847738,-0.4273701,0.3696891,-0.2661085,0.18804073,-0.011900508,0.09492264,0.031502593,0.14230396,0.104387276,0.24545503,0.34008962,0.38484305,-0.30670702,0.028769435,0.03658467,0.094468676,-0.051710945,0.03740217,-0.36177132,0.08775623,-0.0072273687
Downtempo,-0.13826504,-0.1739054,-0.08185776,-0.07173634,0.031332705,-0.3583567,0.2931899,-0.030940143,0.04570989,-0.17047742,0.43541712,-0.107358746,0.10310066,-0.6351346,0.111429244,0.1276564,-0.027423104,0.094060294,-0.12896958,-0.05779409,0.24728794,0.24292056,0.22981839,-0.049849167,0.50672245,0.33683473,-0.25090677,0.17593518,0.1598156,0.22315268,-0.07092898,0.015681546
Hardcore,0.14033556,-0.11291655,-0.024886582,0.08726575,-0.15715791,-0.61978287,-0.24235314,0.17927296,-0.70531774,-0.36377007,0.44349712,0.06356805,0.3640524,-0.25154293,0.30394354,0.42611358,-0.7032196,0.0122540705,0.061896507,-0.42926502,0.32570657,0.19181837,0.39817178,0.12418637,0.11911912,0.16864425,-0.03204024,0.025328169,0.06663431,-0.05022935,-0.2783213,-0.1746239
Indie_Rock,-0.03159134,-0.046720367,0.11186692,0.01570344,0.019493178,-0.42255524,-0.022897253,0.11065939,-0.18387455,-0.08513824,0.40333688,-0.04609646,0.30936947,-0.25624448,0.20912005,-0.13675126,0.018498229,-0.18853271,0.22625159,-0.356271,0.52418524,0.3614949,0.5902708,-0.034557756,-0.072493844,0.1127608,-0.059435815,-0.005005028,0.52263075,-0.22534962,-0.009031666,0.2712043
Disco,-0.31426048,-0.07704144,0.09400368,-0.031313058,0.01696798,-0.17497914,0.25421494,-0.110162236,-0.08323467,0.11144372,0.32586017,-0.2714411,-0.0066644694,-0.63761514,0.30152014,0.14637527,0.054474335,0.28475428,-0.065527424,-0.069560856,0.06778227,0.45284134,0.4226536,-0.2270573,0.012469272,0.13101177,0.21476996,-0.08574007,-0.15342823,-0.09052635,-0.016345061,-0.3002177
Soul,-0.27218604,-0.113938555,0.04188986,-0.05598277,-0.0948498,-0.19627073,0.28356606,-0.1399913,-0.078613974,-0.11535496,0.27438867,-0.47556192,0.035908822,-0.5570629,0.33941734,-0.14467289,0.14401688,0.4453869,0.1581244,-0.07309654,0.10426589,0.55666846,0.13600676,-0.23370594,-0.109586515,0.03823448,0.15431128,-0.01024729,-0.08997281,-0.34316313,-0.18599594,-0.47702855
Folk,0.039257754,-0.086296335,-0.011960689,0.16418402,0.023526771,-0.22027223,0.0958039,0.01759701,-0.36159444,0.17760374,0.07776151,-0.6037893,0.35293725,-0.24739784,0.17261314,-0.0009588441,0.20919818,0.2852051,0.049603406,0.4270411,0.18644573,-0.005323398,0.40682048,0.03992266,-0.22236235,0.22489795,-0.19616613,0.14826642,0.47420603,-0.24920303,-0.048172392,0.30397934
Psychedelic_Rock,-0.29989472,-0.23803732,0.33812696,-0.095696196,0.14279516,-0.5090777,0.0016127629,0.06923345,-0.19350643,-0.3344121,0.060699258,-0.29764357,0.15551703,-0.2891743,-0.17583498,-0.13998115,-0.015832545,0.095833495,0.08474074,-0.3093617,0.6099485,0.32443926,0.45932865,-0.086627245,0.11890861,-0.16328123,0.078007825,0.08854644,0.27119902,-0.18748108,0.1839971,0.03316963
Industrial,0.05106099,-0.32323754,0.28233188,-0.0025731598,-0.13212636,-0.13076656,-0.18967238,0.15082783,-0.12257662,-0.3118141,0.69837385,-0.39248848,-0.009702122,-0.4424773,-0.04412812,0.33863086,-0.37246186,-0.20818542,0.12344419,-0.24818516,0.12619817,0.13566124,0.30740833,-0.063109405,0.3010185,0.1376415,0.06491579,0.40400314,0.30333984,0.16712119,0.08072668,0.0047886013
Funk,-0.2382747,-0.121130474,-0.023594044,0.13620724,0.048969284,-0.071520925,0.23238854,-0.3193521,-0.12688872,-0.052280772,0.31909278,-0.24239668,-0.13899894,-0.76468915,0.3484253,-0.009458238,0.19446635,0.460359,-0.034179788,-0.15852378,0.03480922,0.5229177,0.2131544,-0.2468403,0.006714119,-0.07866435,0.15616453,0.018836029,-0.077670194,-0.25820434,0.06494265,-0.42181924
Noise,0.18694831,-0.19175684,0.42722392,-0.025547696,-0.12134747,-0.28406495,-0.27207914,0.31217444,-0.1734827,-0.37737575,0.5326414,-0.37211815,0.080179475,-0.45039505,-0.06973468,0.14880504,-0.29382396,-0.038772065,-0.003683874,-0.4652637,0.15643321,0.26051992,0.4403643,0.062157374,0.2992907,0.008529726,-0.18907082,0.524304,0.10040937,0.22414124,0.070979856,0.07811428
Abstract,0.13710791,-0.3591417,0.092100084,-0.16999064,0.029782824,-0.28547156,-0.031314343,0.15373704,0.1660838,-0.27596256,0.4672205,-0.39939344,0.045291416,-0.4722584,0.10771923,0.22472177,-0.2568679,0.07604939,-0.066836305,-0.21546915,0.066974655,0.16269566,0.35127893,-0.110606454,0.51511896,0.03395523,-0.28499663,0.49000993,0.14558396,0.13330463,0.04286628,0.1306772
Rock_&_Roll,-0.23118702,-0.2802811,0.1092093,0.1645094,-0.26838478,-0.59373677,0.39869103,0.1310674,-0.16915429,-0.07127952,0.28321892,-0.44349694,0.16613948,-0.07938368,-0.08921595,-0.13729887,-0.18517989,0.2045807,0.12916757,-0.17927441,0.30735916,0.44774625,0.4015458,0.10344554,-0.08445097,-0.37461635,0.04498551,-0.019274263,0.069007665,-0.47222793,-0.18005721,-0.21802312
Soundtrack,-0.04741289,-0.35695764,-0.19423649,0.18380804,0.05318439,-0.04285897,0.31136334,-0.18158536,-0.2049427,-0.24437137,-0.27630204,-0.4643713,0.33847037,-0.2675529,0.44087082,-0.2736512,-0.11509855,-0.13114487,-0.4496322,0.058305264,-0.049324133,0.5305025,0.45987508,-0.30093667,0.2619855,-0.11200198,0.50244194,0.18845496,0.429167,0.108539775,-0.21946649,0.008708641
Folk_Rock,-0.08216712,-0.076681964,0.22427358,0.10296754,0.04298155,-0.38891587,0.0129493335,0.17587793,-0.11352257,-0.05750373,0.1531817,-0.44519752,0.31545687,-0.28969207,0.0658401,-0.063999556,0.15868409,0.0534636,0.07344174,-0.17340134,0.5808758,0.17421216,0.5339058,0.04889912,-0.2888891,0.033534456,-0.029150449,0.030977564,0.2684849,-0.2785542,0.1313878,-0.050459433
Trance,-0.19984531,-0.013529185,-0.30030665,0.06956233,0.5415984,-0.3919226,0.24270219,0.16169374,-0.066420175,-0.118853554,0.5703009,-0.3457316,0.0919038,-0.47854206,0.087682016,0.3879795,-0.5688006,0.07167216,-0.032739673,-0.20765676,0.44722882,0.44765955,-0.040645164,-0.19642092,0.45342717,0.74984217,-0.11218361,-0.29991224,0.027662413,0.1798406,-0.1331007,0.11967481
Hard_Rock,-0.040329415,-0.11476137,0.14632973,0.31051302,-0.10124943,-0.10055637,0.06519496,0.07363607,-0.2576068,-0.37835333,0.18314002,-0.40192616,0.103646636,-0.25737762,0.045407556,0.059537984,-0.32195675,0.14034715,0.064944215,-0.4129073,0.90292525,-0.0090608215,0.77658784,0.18667336,-0.0075556594,-0.15887484,0.40709955,0.03710813,0.14741626,-0.3787666,0.20342208,-0.22515927
Minimal,-0.021634974,-0.12722255,0.151443,-0.1161798,9.7688426e-05,-0.28109932,0.18732396,0.12609404,0.33280087,-0.06845612,0.49631968,-0.15938447,-0.056635737,-0.6750428,0.054683316,0.19715662,-0.5391545,-0.06306319,-0.13014202,-0.13992158,0.3466551,0.26441503,0.39100984,-0.2729015,0.17909719,0.15490286,-0.12476737,0.39222628,0.17128246,0.45833448,-0.0082776565,0.117339216
Deep_House,-0.35852444,-0.23815466,0.024972355,-0.06567439,0.11653335,-0.4451488,0.22867566,0.13336033,0.32276392,-0.01154004,0.53786975,-0.1256288,0.051750485,-0.84739447,0.21605724,0.20124312,-0.29989877,0.21248128,-0.2134127,0.022656199,0.47582293,0.22044244,0.12081412,-0.25014964,0.1910963,0.28345397,-0.031876862,0.091706276,-0.24099837,0.5315317,-0.10026522,-0.04196773
Romantic,-0.049877353,-0.5523403,0.8086702,0.3025011,-0.43590337,0.16521014,-0.011622415,-0.14624952,-0.13655654,0.22517067,-0.046846855,-0.5932685,0.5095693,0.012176557,0.5726304,0.50415915,-0.069971874,0.1727228,-0.4639728,0.66790074,0.21694748,1.0797143,0.06751214,0.025858866,0.39601818,-0.09702182,-0.28094584,-0.10694967,0.5189996,0.061185572,0.36975586,0.076407105
New_Wave,-0.12098966,-0.14434586,0.057965416,0.11639403,-0.18570234,-0.4684619,-0.108568594,0.0926471,0.13035972,-0.019022243,0.48254684,-0.17997761,0.052273054,-0.34472162,0.060318608,0.19868778,-0.038112246,-0.11802834,0.2973002,-0.34673363,0.15703586,0.4554005,0.56569,-0.10860592,-0.0046112463,0.1796749,0.24584419,0.021864992,0.36867762,-0.11425381,0.03697817,-0.13170503
Drone,0.26882207,-0.16022742,0.24341363,-0.29991058,0.07019006,-0.27790824,-0.13357115,0.27510145,0.022632694,-0.3587029,0.40276968,-0.48345464,0.103653386,-0.5977422,-0.088093854,0.07454026,-0.27671945,-0.04854316,-0.08409454,-0.20877783,0.04822356,0.1414177,0.41516367,-0.046732705,0.43366215,0.055935156,-0.31358865,0.46084112,0.33721432,0.14844212,0.11458274,0.12076722
Tech_House,-0.35129517,-0.18004243,0.072705574,-0.14220051,0.12508658,-0.35285076,0.12722026,0.17767787,0.38130298,-0.013116444,0.5586208,-0.17820333,-0.014649226,-0.7337635,0.2040822,0.3072896,-0.49648222,0.0033309537,-0.22954799,0.032579508,0.5246355,0.29397446,0.268361,-0.28315702,0.15703526,0.284923,-0.118485734,0.0888797,-0.1789166,0.48284552,-0.15090683,-0.08140867
Euro_House,-0.18706812,0.045843344,-0.20361367,0.048913453,0.10469736,-0.40523526,0.38379323,-0.078272246,-0.26117593,0.18995193,0.4107507,-0.45560938,0.25474727,-0.5323194,0.020283585,0.2803631,-0.28020838,0.12975937,0.20155956,-0.2914006,0.26677188,0.42197916,0.06895961,-0.44434425,0.22597477,0.62373906,-0.023096638,-0.27921575,-0.18072617,0.3197109,-0.13731593,0.13441694
Easy_Listening,0.0714364,0.14982392,-0.045135323,0.28435904,-0.039324407,-0.26313928,0.588423,-0.047890574,-0.1344024,-0.34875986,-0.10913185,-0.49992007,-0.006499454,-0.18448608,0.17906484,0.3174438,0.20972553,-0.19837242,-0.18463303,0.38109088,0.19260284,0.70855963,0.21233076,-0.0427711,0.09207737,-0.11475865,0.018232828,0.16781208,0.11325972,-0.3132108,-0.072511956,-0.040994644
Breakbeat,-0.2095475,-0.3444526,-0.1592165,0.09160311,0.110564716,-0.4204366,0.14319305,0.2505095,-0.260833,-0.165787,0.4336951,0.049861476,0.13988882,-0.4864887,0.24718207,0.4918705,-0.38282877,0.017630562,-0.032822818,-0.2236829,0.3522887,0.21181849,0.23963508,-0.10408626,0.29675192,0.2563296,-0.21879235,0.2516725,-0.14178233,0.4286559,-0.23347427,-0.14625838
IDM,-0.10403009,-0.39659104,-0.030226305,-0.19807465,0.10252048,-0.26691565,0.1505527,0.2186903,-0.053063843,-0.29052824,0.5058405,-0.1388778,-0.030666463,-0.5468749,0.1593007,0.2648842,-0.20720132,-0.014482552,0.053499833,-0.16199175,0.15732469,0.11199429,0.3412042,-0.036316633,0.46875116,0.24765433,-0.2544204,0.42980683,0.25628594,0.25453666,-0.013821308,-0.022177935
Rhythm_&_Blues,-0.24810112,-0.5908655,0.056169588,-0.13277629,-0.018784821,-0.355642,0.35562655,-0.07282389,-0.1919991,0.16851169,0.23417057,-0.4370527,-0.029845014,-0.27217922,0.14396037,-0.15852898,0.0035812194,0.35400948,0.032267004,-0.012583127,0.2528426,0.66845304,0.23430532,-0.09349885,-0.047352023,-0.20996621,0.11901739,-0.09534986,-0.1324795,-0.6757034,-0.15905789,-0.31674257
Prog_Rock,-0.14717957,-0.0027388728,0.37146178,-0.06358687,0.109992154,-0.27472523,0.09755611,-0.003460604,-0.21640828,-0.22182217,-0.060938533,-0.4427649,0.22242045,-0.18733491,-0.067122854,0.06685809,0.102645,0.1948934,0.13630801,-0.33903372,0.75330883,0.12476889,0.69172734,-0.020656414,0.24181606,-0.038609155,0.36336103,0.21634763,0.27706605,-0.06641653,0.16500834,0.046912145
Garage_Rock,-0.23014526,-0.18937868,0.14619681,0.048862066,-0.11920444,-0.7475982,0.05552703,0.13259883,-0.20920938,-0.053144712,0.3227394,-0.16437902,0.3389035,-0.11331221,-0.18696193,-0.33947244,-0.23864545,0.08903691,0.043767232,-0.30431485,0.4281047,0.5176367,0.5240888,0.16760668,-0.10914865,-0.22918156,0.08353133,0.20452458,0.20812649,-0.41877073,-0.034981024,-0.065069936
Chanson,-0.19177413,0.048112582,0.052666135,0.32548234,-0.13986191,-0.1399855,0.3622534,0.34731174,-0.0275647,0.10298861,0.022304509,-0.46154252,0.2728224,-0.21611597,0.064748354,0.085955665,0.19931315,0.10890121,0.12875332,0.22616138,0.21535873,0.58219624,0.47939584,-0.2427625,0.043818396,-0.057949256,0.10946012,-0.0402715,0.012736775,-0.25158733,-0.07336842,0.1197615
Soft_Rock,-0.19707991,-0.12472353,0.048084997,0.23993245,-0.021868108,-0.17070271,0.37793863,0.19185963,-0.063612364,-0.07897307,0.14077544,-0.52643794,0.262815,-0.27343804,0.14359502,0.0588837,0.111552835,0.10927539,0.24885531,-0.07516364,0.36782667,0.25431308,0.4334167,-0.07570444,-0.021205345,0.07904277,0.015772318,-0.11921672,0.08782429,-0.34051684,0.09051174,-0.21676232
Europop,-0.27271697,0.026890384,-0.14959109,0.21779196,-0.1424811,-0.24291371,0.38332075,0.09682076,-0.20724835,0.28174642,0.20416954,-0.4006061,0.29588017,-0.46501124,0.11603612,0.19668306,0.00404453,0.088483766,0.19271033,-0.055714842,0.14702165,0.33117375,0.34250402,-0.4155873,0.12037007,0.37801313,-0.026454216,-0.26248258,-0.043597843,-0.07861786,-0.08323008,0.22457439
Heavy_Metal,-0.014831783,-0.09828789,0.04954688,0.2797016,-0.4793128,-0.41888806,-0.124080814,0.21638289,-0.34990662,-0.2950745,0.123789474,-0.4195533,0.12052786,-0.21299043,0.08840928,0.34054327,-0.31456366,0.31479827,-0.032377243,-0.52405965,0.79115564,-0.16942592,0.5452873,0.29059976,0.34823614,-0.10713176,0.57143646,-0.08034018,0.30121407,-0.19096439,0.23048076,-0.19471006
Acoustic,0.08790464,-0.18392286,0.10172222,-0.06323209,0.0048035686,-0.29436085,0.018560093,0.1621939,-0.14706226,-0.042499855,0.1477127,-0.46575883,0.45058313,-0.30427837,0.11871328,-0.006648783,0.15158561,0.01284568,0.13342918,-0.09469646,0.5951658,0.067560814,0.43257096,-0.07538309,-0.051197093,0.13184254,-0.14453869,-0.059328996,0.29979774,-0.35884812,0.061567757,-0.05432547
Dub,0.061837766,-0.3581578,-0.08167889,0.06170198,0.01679127,-0.2630786,0.109488234,-0.115320265,0.008257662,0.00989955,0.10865335,0.019948937,0.2391048,-1.1199139,-0.17943974,0.15544292,-0.14247526,-0.03658871,0.33544996,-0.09675838,0.39704147,0.3614507,0.021358665,0.2995118,0.45194793,0.09735148,-0.1543109,0.07071943,0.32866868,0.22517963,-0.41993567,-0.25321952
Blues_Rock,-0.1510408,-0.5473954,0.10532137,0.021872032,-0.019903969,-0.32556185,0.1907142,-0.12516657,-0.24617702,-0.06355793,0.099214,-0.5519124,0.084485896,-0.17921571,-0.074417405,-0.09657974,-0.016549667,0.16218284,0.13531595,-0.22975546,0.6746159,0.1606669,0.6870812,0.03186594,-0.16755027,-0.10037506,0.10451214,-0.03274967,0.059724655,-0.3384234,0.113764666,-0.16723615
Classical,-0.13583846,-0.46819332,0.69039685,0.1244912,-0.45972198,-0.020954674,0.07921648,-0.061996177,-0.13573638,0.21830367,-0.24274468,-0.52806836,0.49878225,0.034256455,0.5597497,0.4130715,-0.19029883,0.17508176,-0.34291783,0.5464463,0.2105759,0.894375,0.14885451,0.028362308,0.31241825,-0.026895547,-0.3251308,0.008809882,0.58001703,0.17167835,0.44289804,0.04704514
Dark_Ambient,0.17750676,-0.30534193,0.26298472,-0.19848125,-0.03190054,-0.25769433,-0.22829929,0.18571456,-0.03369383,-0.45432127,0.5330418,-0.49767762,0.09293407,-0.59356755,-0.03945762,0.2759861,-0.2486607,-0.100564025,-0.08942496,-0.21010593,-0.05883211,0.0729324,0.2956224,-0.025334066,0.42870995,0.14877774,-0.15994841,0.35687202,0.41403472,0.05764903,0.032605883,0.0482891
Country,-0.12624627,-0.20021284,-0.022302281,0.26695082,0.12450331,-0.47646064,0.436602,0.25488257,0.013928954,0.21085224,-0.021852877,-0.9198391,0.14031236,-0.2675289,0.33564362,0.08721082,0.15218988,0.183908,-0.049815793,-0.1790745,0.22786069,0.06380842,0.24932104,0.24872595,-0.63946724,-0.09257204,-0.32236233,0.09318849,0.42599967,-0.3630879,-0.097270675,0.016041955
Progressive_House,-0.31666324,-0.190347,-0.15835026,0.13119692,0.47539058,-0.41553697,0.20943429,0.22200765,0.11693526,-0.1938371,0.5525374,-0.25814122,-0.035321794,-0.6391212,0.107707605,0.32685015,-0.4743459,-0.043314923,-0.2368997,-0.0550117,0.56195027,0.463523,-0.029098283,-0.17007096,0.22623405,0.6115877,-0.16593443,-0.25678563,-0.14802498,0.32643503,-0.043591846,0.07872325
Classic_Rock,-0.31372526,-0.17480391,0.022154685,0.12556908,-0.09820752,-0.25687584,0.15740536,0.034852035,-0.13165958,-0.21276838,-0.003687203,-0.64996284,0.25800008,-0.107478514,-0.07755689,0.0059433654,0.022891011,0.11809301,0.113756485,-0.25116038,0.6844896,0.26870883,0.72582036,0.09864159,-0.06686274,-0.07353188,0.08760892,-0.1383222,0.019373637,-0.26826757,0.17067453,-0.21192251
Schlager,-0.34997374,0.21740553,-0.039594714,0.34663075,-0.16828457,-0.06308045,0.37761754,0.3512408,-0.18718627,0.42405108,0.051182214,-0.5691993,0.3070764,-0.26902533,-0.015953561,0.34640342,0.17164516,0.019466344,-0.073516585,0.21268736,0.12771708,0.4446903,0.49197462,-0.14992623,0.059248246,0.06339832,0.032963235,0.009040069,0.050731383,-0.48059896,-0.1476264,0.16819611
Acid,-0.08648818,-0.19292943,-0.08939436,-0.21180138,0.15400232,-0.20732088,0.2307816,0.138378,-0.17370689,-0.17819782,0.56784,-0.09339675,-0.05060286,-0.48868844,0.12877175,0.47208732,-0.72009015,0.07978813,-0.16422324,-0.121257424,0.52787924,0.2247571,0.30381167,-0.29371017,0.35495982,0.40113017,-0.1476855,0.26167318,-0.05619824,0.41226646,-0.28964603,-0.10736624
Black_Metal,0.31390116,-0.024829326,0.33126557,-0.21677065,-0.43168387,-0.6652341,-0.3959553,0.51587963,-0.43150806,-0.26232404,0.51665473,-0.3937832,0.23605135,-0.706849,0.1617942,0.21200551,-0.22676767,0.30832794,-0.29522327,-0.48003632,0.30286935,-0.15927099,0.09978559,0.2994602,0.2232254,0.042574015,0.6605779,0.19656122,0.39312106,-0.07939665,0.25528994,-0.022000264
Drum_n_Bass,-0.33224905,-0.52673334,-0.18974246,0.05981935,0.040544935,-0.5646261,0.10909885,0.50634277,-0.2915554,-0.3433228,0.36148146,0.04783938,0.19332293,-0.39077124,0.2533291,0.5327363,-0.011152955,-0.11825164,0.12873344,-0.15961522,0.35964215,0.09599108,0.16048998,0.039554585,0.63958097,0.24492586,-0.3337611,0.26042932,-0.029519118,0.4049156,-0.21926497,-0.35056266
Leftfield,-0.08168433,-0.27921543,-0.037502743,-0.09475582,0.11933829,-0.29198596,0.15321054,0.016638787,0.067644045,-0.14380862,0.41232494,-0.14361735,0.03961803,-0.5601451,0.17392208,0.15140995,-0.0651781,-0.018007932,0.061284482,-0.1406049,0.29979998,0.18912919,0.33785164,0.006053382,0.43631932,0.117424205,-0.20532827,0.2551629,0.24976751,0.12186081,0.022350714,0.035199117
Avantgarde,0.055149317,-0.09691085,0.34347558,-0.10569722,-0.056113414,-0.4420793,-0.24234006,0.099108994,-0.13923506,-0.18337727,0.22037491,-0.37334412,0.13897568,-0.42085367,0.024243126,0.1873155,-0.021841776,0.050526477,0.06760845,-0.3549727,0.28033423,0.17949261,0.40450326,0.059523135,0.2692328,-0.037003472,0.078706026,0.3451723,0.29321274,0.013896068,0.12589195,0.22506021
Baroque,0.065689966,-0.52661204,0.7456606,0.14707765,-0.3824813,0.12449909,0.34773043,0.053063475,-0.19256033,0.30211982,-0.033299126,-0.44695634,0.5859125,0.04833017,0.71318704,0.311214,-0.35070217,0.21993475,-0.27421108,0.545958,0.110344745,1.011905,-0.00374761,0.08929894,0.19005515,-0.011375726,-0.12784566,0.20711857,0.8010203,0.21770568,0.7801519,0.31689146
Post-Punk,-0.05825218,-0.18837059,0.034891147,-0.026291834,-0.18131654,-0.55148417,-0.2813852,0.124477655,0.03425875,-0.031664014,0.47363693,-0.0068663736,0.04313954,-0.37990952,-0.012492375,0.10780089,-0.210402,-0.29170743,0.26878923,-0.39046523,0.2658078,0.4386595,0.636681,-0.092180714,-0.14061356,0.19050875,0.32684082,0.24728721,0.66362095,-0.11765083,0.07373187,0.014516943
Modern,0.079797134,-0.49857745,0.719398,0.017817287,-0.3833069,-0.01522199,0.01675621,-0.027254552,0.030342417,0.2942724,-0.30246034,-0.6812126,0.5789456,-0.06401481,0.5990385,0.45251068,-0.18190417,0.12080749,-0.4364797,0.45892447,0.12949698,0.9376607,0.07432934,-0.028852837,0.40775338,-0.11820012,-0.27752808,0.047890242,0.5776442,0.1738558,0.41415218,-0.03351886
Breaks,-0.34277496,-0.32213587,-0.1546281,0.012281216,0.18538964,-0.31457952,0.21838994,0.06287667,-0.10597804,-0.18168633,0.5662419,-0.061879095,0.11639844,-0.54130304,0.2940714,0.3966356,-0.25451052,-0.1534101,-0.1541997,-0.054044195,0.37594417,0.18206483,0.15254194,0.037921455,0.44240475,0.25882903,-0.105238825,0.15022255,-0.009426396,0.2598302,-0.22856428,-0.08883732
Swing,0.24624035,0.1898274,-0.08388134,-0.101842724,-0.24567495,-0.4199238,0.5455,0.1973313,-0.15255116,0.101050586,-0.2548205,-0.65298116,-0.14488171,-0.112120815,0.5229339,0.46751532,0.18019229,-0.378731,0.137197,0.48197213,0.42457417,0.61691254,0.23744349,-0.29394776,0.055738248,-0.21617743,0.05526006,0.4016736,-0.09992373,-0.5328174,-0.32977596,-0.017319774
Indie_Pop,-0.19538817,-0.043110907,0.15583166,-0.025758205,0.021188645,-0.5168736,0.035509065,0.18918763,-0.098745786,0.05152113,0.35656133,-0.04788276,0.19917724,-0.3190474,0.28488985,-0.20072864,0.25791594,-0.2038316,0.21354385,-0.32939172,0.4235387,0.37057063,0.5407883,-0.16850856,-0.14239453,0.13689882,-0.12848361,0.1464526,0.45768356,-0.1324551,0.13722765,0.053452007
Death_Metal,0.19247003,0.06732641,0.42543253,-0.11416509,-0.52098644,-0.589563,-0.5161531,0.72130007,-0.58630615,-0.1792396,0.4005342,-0.47057378,0.30442727,-0.6048143,0.0911362,0.3573284,-0.32973543,0.15665378,-0.1954726,-0.57760817,0.50317127,-0.053374927,0.28344834,0.3917014,0.25077528,-0.011117725,0.6769922,0.31535128,-0.024890948,0.0044376617,0.10010829,-0.16685364
Lo-Fi,-0.07874863,-0.08659641,0.105599746,-0.18207,-0.043293875,-0.5357259,-0.20119287,0.12843397,-0.1248971,-0.11119198,0.5191696,-0.1720292,0.23234114,-0.26957795,0.013269371,-0.113712765,-0.08788602,0.012751188,0.13610604,-0.28222632,0.24827196,0.3154982,0.50741214,-0.014825698,-0.017959693,0.05857636,-0.16281626,0.23743546,0.52723557,-0.26905096,0.10325891,0.11986772
Art_Rock,-0.16127387,-0.07268619,0.39851016,-0.13752678,0.115348175,-0.3653246,-0.08566678,0.043726046,-0.054909393,-0.23753376,0.262592,-0.26946956,0.20368041,-0.26786336,0.03026309,0.11922179,0.045067135,-0.08069353,0.26870272,-0.27702895,0.537275,0.2518241,0.5786545,-0.0012278652,0.25184387,-0.07197706,0.17595154,0.15851288,0.37603074,-0.11394967,0.10968765,0.023296157
Country_Rock,-0.12443207,-0.34303954,0.20633863,0.2599062,0.14673845,-0.35618907,0.35015097,-0.07050606,-0.20894517,-0.018709742,0.31888747,-0.60495824,0.121351354,-0.14932725,0.0884368,-0.03465254,0.111807674,0.023106327,-0.003945227,-0.36507228,0.52051204,0.16800809,0.51623195,0.18771076,-0.40316883,-0.15321395,-0.18003437,-0.071449794,0.2393276,-0.30271176,0.11538572,0.037632305
Dance-pop,-0.3150321,0.019933272,-0.17325488,0.2225452,0.03583844,-0.28367886,0.2757607,0.16604227,-0.03430032,0.042235166,0.45418948,-0.2794404,0.275281,-0.5890714,0.3244507,0.063583456,-0.15068494,-0.07036908,0.16110985,-0.04381239,0.044435833,0.4101245,0.21527848,-0.4105443,0.109332874,0.33149186,-0.10439056,-0.28688902,-0.13881883,0.17267598,0.25613204,-0.0486527
Bolero,0.18053089,0.46354857,-0.48590776,0.23632203,0.012341655,-0.11765797,0.36619377,-0.18387629,-0.41173926,0.019781262,0.6685434,-0.56431055,0.38220876,-0.22276098,-0.08275709,0.5472734,0.39953426,0.19955286,0.0742082,0.59036493,0.50216746,0.7380549,0.08806338,-0.23838528,-0.20885205,-1.0306513,0.10139258,0.2272997,0.22949119,0.27461487,-0.06536383,-0.27337322
Hip_Hop,-0.40434095,-0.20433064,-0.322958,0.043362074,-0.18399931,-0.23637433,0.09425525,-0.08101749,-0.15401249,-0.15619159,0.43772575,-0.16850781,0.122893274,-0.6805782,0.27108848,0.23740238,-0.09038584,0.083860345,0.050939225,-0.15964696,0.14430887,0.13492136,0.15441762,-0.1442656,0.33612326,0.10860995,-0.1537107,0.19752708,0.010551259,0.09506617,-0.06704361,0.043940626
Pop_Rap,-0.5041363,-0.04675365,-0.35982686,0.06771312,-0.33779213,-0.109568626,0.22311148,0.033166327,-0.21347368,-0.05952421,0.27074346,-0.47375816,0.17081259,-0.6326842,0.43443817,-0.06408533,-0.15377297,0.00615738,0.28103974,-0.37315357,0.27855602,0.4219869,-0.03804569,-0.36224467,0.17141575,0.22576268,-0.111164466,-0.20474073,-0.10154487,0.0035454733,0.11274052,0.14130248
Thrash,0.28058743,-0.14475775,-0.08136009,0.23986472,-0.46765366,-0.4321086,-0.26824683,0.44763497,-0.5875523,-0.07101337,0.4506859,-0.28872302,0.2983919,-0.4045775,0.09069571,0.3672865,-0.4550382,0.23395683,-0.23914261,-0.67335194,0.66340256,-0.12244543,0.3317765,0.4398484,0.19168979,-0.057605576,0.64456826,0.323168,0.12785816,-0.11991983,0.1736687,0.0058668307
Holiday,0.039231706,0.037074372,0.16368015,0.11384412,-0.09575954,-0.08435754,0.5124421,0.1396252,-0.10389652,0.047581963,-0.16202635,-0.42862755,0.2827049,-0.1725365,0.54253346,0.3081154,-0.04410849,0.41573033,0.15409233,0.366501,0.1064374,0.54495466,0.17291702,0.2297323,-0.17028634,0.1260146,0.033626635,0.01146423,0.4955601,-0.29848808,0.09894287,-0.051783796
Big_Band,0.106217615,0.09184658,-0.047818225,0.17844461,-0.117334165,-0.18612938,0.77483344,-0.14710152,-0.23498143,0.041758403,-0.2544706,-0.4604113,-0.3212952,-0.26290908,0.4261819,0.42111507,-0.015835552,-0.33155757,0.011959561,0.36362526,0.3269401,0.6735606,0.4193891,-0.29772365,0.007927494,-0.3737939,0.108835466,0.4356828,-0.07434745,-0.5592269,-0.14264895,0.3908346
Doom_Metal,0.16403325,-0.22544742,0.49244642,-0.13084085,-0.33053875,-0.53121614,-0.20856546,0.39224654,-0.6940659,-0.44346908,0.25121838,-0.21852365,-0.052444465,-0.7692305,-0.060994215,0.19194536,-0.28026095,0.23782647,-0.23327091,-0.5161931,0.51477224,-0.12596697,0.16775796,0.042286217,0.18415838,-0.16540691,0.60526377,0.10882272,0.41099864,-0.04378923,0.30196476,0.3189159
Post_Rock,0.05492024,-0.0719534,0.2975308,-0.30898494,-0.0096316775,-0.5248059,-0.18712129,0.14002246,-0.30417538,-0.21370958,0.39568442,-0.055894528,0.047815945,-0.59686553,0.13687517,-0.0078489585,-0.06786699,-0.039256405,-0.070867024,-0.36590892,0.40569538,0.075235575,0.4320597,-0.047044188,0.34766164,-0.07348008,0.07143476,0.051535174,0.55915594,-0.11044671,0.13008836,0.24119684
Jazz-Funk,-0.02977755,0.0019947796,0.033278573,0.09203692,0.22170419,-0.28991005,0.045924246,-0.6469478,-0.045499228,-0.4182332,0.031935774,-0.32787037,0.051823,-0.4036623,0.49410754,0.32824978,0.36584085,0.12387536,0.14748663,0.047830928,0.23985888,0.6056034,0.32053834,-0.070889294,0.15127267,-0.018131834,0.25961235,0.40190247,-0.2059691,-0.2994831,-0.0037324948,-0.24343246
Trip_Hop,-0.29137996,-0.32088208,-0.11009031,-0.08902444,-0.05237924,-0.37180316,0.27248922,-0.003746031,-0.06796154,-0.2887595,0.5050054,-0.01386893,0.12963362,-0.5796676,0.26647276,0.0548822,0.10095106,0.053847782,0.02507572,-0.06676697,0.17630666,0.20337826,0.20377463,0.048000563,0.5087449,0.17197923,-0.14963916,0.2782822,0.1994581,0.18266061,-0.15445364,0.04222142
Modern_Classical,0.1287697,-0.24107952,0.16786173,-0.2357757,0.004568276,-0.20302108,-0.02875831,-0.0016373268,0.21011162,-0.31807607,0.22601041,-0.53917915,0.28519222,-0.3546197,0.14449213,0.2378223,-0.24549529,-0.09287069,-0.32955036,-0.034428526,0.12486899,0.18561648,0.30793896,-0.024163637,0.47611856,0.18443193,-0.10501814,0.22343595,0.5869942,0.18505952,-0.10314543,-0.15443356
Fusion,-0.044397857,0.035627443,0.10448216,0.10713575,0.29422298,-0.308052,0.057574615,-0.5654916,-0.17425515,-0.29458898,-0.104009874,-0.27176145,0.03979427,-0.38034225,0.3840495,0.28710875,0.47796547,0.12515071,0.15869993,0.07960973,0.47541592,0.42601377,0.3839288,0.056243613,0.24378607,0.02378312,0.36114526,0.663418,-0.20969616,-0.12065799,0.17736888,-0.043912597
Contemporary,0.11441081,-0.3418657,0.37464473,-0.022193404,-0.09836452,-0.27114105,0.03564028,-0.3400008,-0.018086448,-0.0384107,-0.16657075,-0.49244162,0.42142534,-0.09924242,0.40455654,0.2527804,-0.28506935,0.05206985,-0.37106517,0.3066919,-0.050090693,0.5550196,0.169705,-0.027181545,0.46805102,-0.09927861,-0.20541154,0.12791915,0.56753266,0.20947546,0.2954409,0.2507659
Instrumental,-0.50053763,-0.10062688,-0.5484159,-0.16321616,-0.34992546,-0.32270327,0.44516277,-0.26768395,-0.22923715,-0.15226388,0.2591272,-0.18873684,0.11684056,-0.42594582,0.19910441,0.01934013,-0.19514358,0.055210285,-0.1828707,0.017531166,0.17237674,0.36027297,-0.0046481336,0.08856853,0.3929998,-0.28763905,-0.27849022,0.45615506,0.21262497,-0.30557632,-0.02423968,0.13026
Progressive_Trance,-0.09370682,-0.16037428,-0.3063607,-0.091559336,0.47341028,-0.40719405,0.056413066,0.30851826,0.06934811,-0.30164328,0.7158519,-0.4120054,0.19745825,-0.46207362,-0.15036401,0.44662756,-0.51380074,-0.01335237,-0.2616786,0.12630492,0.6414274,0.6584892,-0.21243209,-0.006265601,0.5542976,0.9261766,-0.13532183,-0.37570027,-0.11283451,0.08750959,-0.23312747,0.034134567
Contemporary_R&B,-0.35589907,-0.1902239,-0.27527383,0.117633,-0.17643525,-0.07339059,0.324207,-0.07624982,-0.1729188,-0.15353073,0.39813983,-0.38748497,0.1351329,-0.7104751,0.6279213,-0.23899454,-0.06832157,0.12248781,0.15366408,-0.19868536,0.12564221,0.4509403,-0.0366879,-0.22371297,-0.13579822,0.19786435,0.06624227,-0.047688484,-0.242816,-0.12479868,0.20128632,-0.031134095
Shoegaze,-0.08356868,-0.14577806,0.18407942,-0.30346027,0.0885918,-0.5213906,-0.27917922,0.2464824,-0.15072063,-0.2472837,0.49589738,-0.035486985,0.1617842,-0.39539665,0.08673337,-0.115782514,0.024394974,-0.20473796,0.1456156,-0.3203132,0.4659913,0.30501342,0.45655948,-0.09320176,0.12118016,0.120115615,0.020301698,0.06938652,0.72667426,-0.12195903,0.13398992,0.2157781
Theme,0.1612379,-0.22489691,-0.07325659,0.42122313,0.056013968,-0.13513052,0.40124735,0.060715128,-0.034714855,-0.3741066,-0.17332421,-0.4362272,0.3013891,-0.29658872,0.40089658,0.012840182,0.06070287,-0.13836302,-0.45175087,0.17256734,-0.114255756,0.5456775,0.3918785,-0.46732944,0.25198385,-0.20926002,0.33069873,-0.14039391,0.2983123,-0.2136921,-0.048451558,-0.076973625
Score,0.13056114,-0.33498642,0.13347188,0.34582654,-0.0857992,-0.014009136,0.23283955,-0.100771755,0.08530194,-0.24198118,-0.101939455,-0.53603786,0.17510948,-0.2120187,0.49265572,-0.10283165,-0.008685525,-0.24267718,-0.6572961,0.028804699,0.031994417,0.60239893,0.39075124,-0.18953992,0.496259,-0.15977232,0.22645055,0.033465553,0.4482604,0.19568747,-0.30365553,0.0287322
Hard_Trance,-0.10064232,0.07974589,-0.14247201,-0.11948571,0.5864444,-0.39002636,0.35553205,0.17567492,-0.35265326,-0.09789879,0.49095562,-0.29978547,0.20195489,-0.34661973,0.09092826,0.58574915,-0.81221896,0.18242857,-0.02856128,-0.41322887,0.5971606,0.49926576,-0.11246562,-0.4362444,0.16778447,0.80974644,-0.062009145,-0.13167438,-0.02946143,0.20124647,-0.1682535,0.04109485
Reggae,-0.015560602,-0.19505334,-0.077577956,0.36750978,-0.0077012433,0.022429192,0.042272497,-0.22973126,-0.3006231,0.044454303,-0.070804566,-0.16788526,0.17930032,-1.2860366,-0.12828048,-0.012461443,-0.20307955,-0.09005777,0.54673713,-0.23438838,0.3306715,0.5181098,-0.075017914,0.36120194,0.19232218,-0.09090045,-0.017881785,-0.041624043,0.27471784,0.14109464,-0.55923176,-0.38177076
Tribal,0.13549185,-0.00030855008,-0.06950323,-0.09789899,-0.049246985,-0.390175,0.038747024,-0.06475284,-0.104496025,-0.2639394,0.27208874,-0.050425537,0.033887558,-0.66919607,-0.0763288,0.16176888,-0.7455777,0.17870314,-0.066785775,0.20869623,0.27119136,0.16768855,0.37495714,-0.24446438,0.5107221,0.4336039,-0.19396713,0.1738145,0.15100005,0.16936481,-0.11104163,-0.11961199
Contemporary_Jazz,0.3708437,-0.08888836,0.15238829,0.12850598,0.12958856,-0.5470648,0.1236792,-0.58870035,0.015212919,-0.11740329,-0.060975455,-0.46939933,-0.018865386,-0.25479537,0.5231388,0.3047144,0.26899976,-0.06534861,0.22123228,0.16017622,0.32179692,0.46938357,0.21896558,-0.0013414226,0.4043722,0.07552878,0.14946918,0.6275797,-0.22615662,-0.26005438,0.11975816,0.105655305
Religious,-0.003778445,-0.075349085,0.27868307,0.25627097,0.092652485,0.17978247,0.28649807,0.37867686,-0.031748142,-0.094884545,-0.20546125,-0.4692317,0.2687034,-0.19994442,0.64506835,0.13092446,-0.25013873,0.6093734,0.20627232,0.6384301,0.2517624,0.47117153,-0.06256217,0.30196744,-0.29069352,0.069115825,-0.12157606,0.33233854,0.5756817,-0.2419376,0.44588763,-0.1192335
EBM,-0.3264029,-0.21825549,0.27769476,0.15347965,-0.17883873,0.008879991,0.07203844,0.18549132,0.06639414,-0.21806069,0.9245931,-0.37318558,-0.28278133,-0.40535662,0.06403613,0.45098507,-0.36924684,-0.2843363,0.15014301,-0.30894658,0.11991455,0.23601769,0.32691434,-0.19615944,0.19507773,0.34471792,0.20147121,0.4353611,0.28856614,0.3753047,0.050589062,-0.0805647
Salsa,0.16033943,0.55291206,-0.47751,0.19199105,0.17840016,-0.021139368,0.3872648,-0.21397342,-0.49666435,0.14124684,0.73222893,-0.5730688,0.07093266,-0.36087394,0.2276359,0.45682535,0.33413416,0.18900917,0.11123691,0.34550336,0.4208681,0.7428083,0.14717281,-0.12666745,-0.061154645,-1.0632824,-0.10124063,0.0016253304,0.079560876,0.36006585,0.16955458,-0.41820267
Beat,-0.35648033,-0.15429406,0.15024701,0.12435163,0.04704873,-0.5542164,0.3578745,0.26920307,-0.1883591,-0.08046654,0.25081715,-0.15799376,0.32651183,-0.08225216,-0.14058235,-0.2546028,-0.11811286,0.21056443,0.18929987,0.094173424,0.26789078,0.6911482,0.2957528,-0.18815552,0.09081243,-0.3833859,0.2201933,0.09234581,0.016939925,-0.5448765,0.028033946,-0.062262382
Power_Pop,-0.112112336,-0.013750057,0.044533797,0.17795047,-0.03694298,-0.47106436,0.09251825,0.105595,-0.101293586,-0.14514175,0.4373919,0.010591538,0.35971546,-0.2678011,0.07739332,-0.20300849,-0.14356866,-0.10651217,0.13737707,-0.3518499,0.44106522,0.46958813,0.626253,0.07347059,-0.22253819,-0.07348214,0.036948916,0.036235716,0.39549127,-0.37800854,0.011373157,-0.02573562
Spoken_Word,0.20250653,-0.21848695,-0.22679359,-0.0032622372,-0.058924925,-0.080136806,-0.14131108,0.37424886,0.079021014,-0.4424421,-0.13567802,-0.37445208,0.11151231,-0.3600986,0.24225754,0.14227161,-0.14543013,0.6627716,0.20475353,0.2395636,-0.09350141,0.64394593,0.60170203,0.19361193,0.03454342,-0.15718608,-0.102895744,0.16808647,0.24960715,0.081027396,0.06349356,0.7220306
Soul-Jazz,0.18463667,-0.06875712,0.003197819,0.06821081,0.05261605,-0.4197343,0.27015173,-0.55263364,-0.08865115,-0.30736786,-0.042816,-0.3357515,-0.09370434,-0.46793425,0.5761615,0.21467212,0.22118565,-0.06645107,0.14293623,0.21504828,0.27475205,0.5904351,0.27679852,-0.034039307,0.12868564,0.008568278,0.3142943,0.3510179,-0.3282602,-0.35550898,-0.08761996,-0.16309574
Cha-Cha,0.19645123,0.61399597,-0.25183222,0.29842588,-0.08314395,-0.19196339,0.5856269,-0.19814967,-0.49825168,0.018055227,0.5540139,-0.60966164,0.030979345,-0.2940259,-0.029191352,0.35749546,0.3133659,0.05557005,-0.11291702,0.55864644,0.40136093,0.8055965,0.08030194,-0.30665585,-0.06460555,-0.95519197,-0.003978516,0.0013969907,0.06365087,0.24871163,-0.108481236,-0.13628766
Darkwave,-0.14584325,-0.20577703,0.04126697,-0.20042837,-0.23613253,-0.27285573,-0.16265115,0.036105268,0.14960378,-0.037791785,0.67374563,-0.30314332,-0.09231427,-0.4563136,-0.0866983,0.3476569,-0.2553045,-0.42654252,0.21820834,-0.060311764,-0.01333929,0.32948694,0.50986993,-0.120183386,0.075515464,0.3840319,0.3616941,0.3216737,0.6813566,0.13566935,0.14001949,-0.18377912
New_Age,0.20030563,-0.02950174,-0.01718502,-0.26859188,0.15008278,-0.24362902,0.03318861,0.053289846,0.14764448,-0.23698823,-0.07290863,-0.45310518,0.15141678,-0.54992557,0.11418752,0.0022097693,-0.18321851,0.19506444,-0.16325925,-0.0002649678,0.07566095,0.29627863,0.3892428,0.023327162,0.36281976,0.31374258,-0.24199745,0.48632023,0.392097,0.21314603,0.26066172,-0.10681507
Latin_Jazz,0.23101883,0.41505927,-0.25682172,0.31454727,-0.03300744,-0.41569948,0.43627152,-0.4658641,-0.026456233,-0.28412107,0.13971291,-0.33140877,-0.060785554,-0.28573692,0.30541015,0.4495625,0.5990657,-0.10556025,0.0068632895,0.3114472,0.52702594,0.7403029,0.16041905,-0.12335207,0.025954915,-0.3950814,0.14704284,0.33787003,-0.04025722,0.0063786944,-0.013267777,-0.25412717
Dubstep,-0.51817685,-0.48658073,-0.29859477,-0.044235636,0.2545322,-0.4033215,0.18263128,0.36042294,-0.10529293,-0.25674325,0.41083077,0.021486595,0.16568825,-0.8280029,0.2454025,0.37325668,-0.37446806,-0.3689292,0.0031705713,0.026794894,0.1915917,0.09345822,0.12115957,-0.0060613914,0.28526092,0.038156297,-0.095724836,0.16433975,0.0020485085,0.2939568,0.023887305,-0.03215452
Gospel,-0.06465125,-0.2188464,0.18251953,0.32890683,0.12538207,-0.07228681,0.5079118,-0.015529434,-0.259274,-0.0017925595,0.032525145,-0.5075616,-0.28442243,-0.2731926,0.5822716,-0.063768744,-0.099090986,0.63605106,0.26203153,0.24692751,0.1992609,0.35809243,0.05477608,0.1613212,-0.39719555,0.23001632,-0.22643904,0.19021395,0.33342808,-0.27174315,0.1522226,-0.18379147
African,-0.20405452,0.13421762,0.018417409,0.7106381,0.23590429,-0.48914623,-0.30571076,-0.4010033,-0.15976827,-0.080657125,0.2652869,-0.36429718,-0.45801544,-0.6023052,0.11428904,0.19763298,-0.08643609,0.5513827,0.38501015,0.77150697,0.20627463,0.09955415,-0.06347857,-0.31406838,0.13438207,-0.48985568,-0.19564691,-0.0021925538,0.305165,-0.029698238,-0.013782143,-0.45338878
Grindcore,0.39327052,-0.085455894,0.17222385,0.06265578,-0.2322244,-0.50941706,-0.6192514,0.6602533,-0.7447946,-0.2646388,0.43171358,-0.39451686,0.3282128,-0.54770154,0.053636294,0.19210316,-0.36109442,0.13936938,-0.20122196,-0.81542504,0.1884613,0.20702885,0.30564976,0.1658829,-0.006484362,0.0614771,0.2338248,0.5502947,-0.21841745,-0.09017312,-0.001737067,-0.002346127
Stoner_Rock,-0.15405896,-0.27044928,0.33231473,-0.09090259,-0.25098473,-0.5955543,-0.18084128,0.13404919,-0.69988763,-0.44101563,0.07953227,-0.1402626,-0.066591285,-0.5710944,-0.32534802,-0.03751495,-0.1444284,0.100597,-0.028550444,-0.3730742,0.6669483,0.109028295,0.49896264,-0.011395809,0.09129786,-0.18643251,0.27552763,-0.060628287,0.24974436,-0.19885392,0.4685818,0.22145098
Choral,-0.117719375,-0.13922307,0.79679966,0.3780203,-0.35847387,0.115064085,0.42906123,0.20961466,-0.1783605,0.11344102,-0.26356015,-0.54533565,0.47331208,-0.07801726,0.6502835,0.31966206,-0.19114226,0.2915582,-0.0073912446,0.6450547,0.2351214,0.84389466,-0.18446144,0.33257735,-0.19064891,0.23143981,-0.20613113,0.39064962,0.63146865,0.06493904,0.6800567,0.016618362
Jungle,-0.22482799,-0.711385,-0.4184048,0.0143503025,0.14285281,-0.42698908,0.26157668,0.29229495,-0.60568285,-0.2773946,0.3502108,0.43615836,0.34194392,-0.5389606,0.34529778,0.57454664,-0.28342578,-0.07079234,-0.06726034,-0.22690111,0.24970646,0.13927029,0.36950058,0.22014758,0.23501386,0.21478651,-0.22825187,0.31512338,-0.058918133,0.31660333,-0.008010475,-0.1786459
Emo,0.028268876,0.10253513,0.23380929,0.048231065,0.028656777,-0.49846843,-0.41597608,0.31685433,-0.46453133,-0.037758373,0.30461916,0.23764212,0.19727652,-0.32422018,0.49032402,-0.0039746547,-0.3786026,-0.13043542,0.031653445,-0.67854244,0.57309574,0.36945185,0.54806566,-0.20597745,-0.013112949,0.033002805,-0.114509396,0.15506671,0.5017724,-0.1858899,-0.2294055,-0.010198673
Jazz-Rock,-0.11136904,0.026995528,0.3002914,0.032999173,0.11675435,-0.3259354,-0.06770531,-0.47063017,-0.0961979,-0.404017,-0.27885857,-0.58803815,0.095557965,-0.22970417,0.22242628,0.22754878,0.3585059,0.14885089,0.23103727,-0.17512698,0.55318505,0.5196359,0.45755532,-0.06562222,0.08277944,0.0431331,0.20685151,0.461548,-0.19250935,-0.17955561,0.24488194,-0.072356254
Field_Recording,0.3183127,-0.27880847,-0.11113415,-0.18363756,0.14928235,-0.36348465,-0.25853497,0.3156445,0.016856277,-0.29842603,0.13097334,-0.39125004,-0.07673552,-0.43728715,0.07435818,0.112964824,-0.29371095,0.27277172,0.013415482,0.29284394,-0.06916055,0.21485396,0.4831815,-0.031272106,0.20590366,0.034489438,-0.35026863,0.5353762,0.33602723,0.121861055,0.14790305,0.3999585
Goth_Rock,-0.020012999,-0.2161547,0.06301035,0.0894503,-0.24415575,-0.4880506,-0.16996694,0.1511848,0.06569897,-0.24132998,0.59446734,-0.19353515,-0.041872285,-0.4063246,0.02260654,0.24038243,-0.22151996,-0.28967276,0.3061944,-0.19725472,0.38430747,0.08477524,0.42651233,-0.041127983,-0.16104725,0.32712105,0.67313933,0.15237772,0.7631385,-0.11501975,0.12759161,-0.2074026
Synthwave,-0.096779786,-0.2028705,-0.17447647,-0.009911206,-0.0939267,-0.43948305,0.039963454,0.1227728,0.10573767,-0.17236233,0.48120874,-0.30833194,-0.14845496,-0.3754736,-0.0054785847,0.32097167,-0.058536705,-0.3357377,-0.009162747,-0.23097537,-0.07171234,0.39851522,0.47621337,-0.014500676,0.18959127,0.46006614,0.060834363,0.2603472,0.49060214,0.3548507,0.34655797,-0.2962963
Future_Jazz,-0.016510062,-0.33044302,-0.10557329,-0.11717261,-0.037415903,-0.3900095,0.37425628,-0.22886194,0.06586281,-0.36017698,0.49274918,0.028177407,0.06963292,-0.7539901,0.24727383,0.18097763,0.17704974,0.18766125,-0.23801024,0.142015,0.4026386,0.24499357,0.20163722,0.081982315,0.43335518,0.25619158,-0.048457786,0.35928103,-0.23885387,0.36103153,-0.13898346,0.109050445
Rockabilly,-0.14779128,-0.48926008,0.06395521,0.28603804,-0.11011762,-0.69816893,0.589624,0.10417144,-0.09432358,0.18452881,0.516793,-0.55992514,0.029166432,0.07747693,0.10017896,-0.14462572,-0.12371657,0.23508121,0.10224287,-0.25908902,0.3348086,0.3377798,0.3053796,0.38424957,-0.14596923,-0.39799136,0.03674855,-0.0422455,0.26588407,-0.54211146,-0.33130112,0.058147945
Orchestra,0.1332754,-0.8242529,0.7027804,0.25034496,-0.38411164,-0.09745198,-0.07811816,-0.17033641,-0.27590045,0.52784705,-0.27757996,-0.46130723,0.47188038,-0.20571865,0.31057182,0.5440317,-0.27771586,0.13196568,-0.6541641,0.6188293,0.15773371,1.5438668,-0.08971392,-0.1210949,0.23477739,-0.040563405,-0.23060682,-0.055090602,0.62708485,0.009529938,0.73822314,0.025527392
Ska,0.023530522,-0.017959712,0.029142948,0.33235952,-0.19849275,-0.22299844,-0.039759368,-0.048985016,-0.3565698,0.007811099,-0.01741626,0.03747996,0.36086965,-0.8806586,-0.08493203,0.0053721173,-0.41411707,-0.11784493,0.33537254,-0.3586134,0.43247813,0.49550304,0.24290006,0.33654472,-0.059245385,-0.21931382,0.12913173,0.014372895,0.35874256,-0.18380462,-0.5502221,-0.3635978
Glitch,-0.079789355,-0.3403654,-0.045509763,-0.29450884,0.13141453,-0.31619483,-0.011149305,0.26429778,0.021016927,-0.12506068,0.53432065,-0.21166438,0.11530934,-0.6252433,0.13362859,0.38186467,-0.27620944,0.012703222,-0.053101886,-0.26033586,0.032277837,0.037338644,0.34032494,-0.024266532,0.58995324,0.01123538,-0.3606592,0.3750732,0.2870707,0.17284629,0.0451608,-0.0019225469
Opera,-0.25751114,-0.49205524,0.7780576,0.18655005,-0.66996175,-0.018395957,0.19714937,-0.25090376,-0.23649831,0.3114418,-0.45594746,-0.5241491,0.50933135,-0.20834045,0.55613023,0.4469572,-0.32720676,0.0715263,-0.36590466,0.70925415,0.14453384,0.8085021,0.19074123,-0.15116823,0.15222517,-0.1883074,-0.26104453,-0.06226957,0.447609,0.21223137,0.34173846,0.23822924
Cumbia,0.21653739,0.4336018,-0.4604193,-0.019254815,0.27707395,0.056853857,0.1765488,-0.20606332,-0.47321376,0.12609127,0.8083845,-0.59399354,0.399393,-0.46824634,-0.16012599,0.34936422,0.24172853,0.24912518,0.02363693,0.43291298,0.42601684,0.7592737,-0.03497682,-0.22545692,-0.29603103,-1.0436802,-0.089492746,0.11495793,0.2515474,0.15978537,0.04334513,-0.3832585
Eurodance,-0.23265533,0.09889202,-0.3419169,0.1234078,0.04435607,-0.41347995,0.3935704,-0.0045821792,-0.31844103,0.1292562,0.39839372,-0.38010564,0.35040292,-0.43302822,0.07534937,0.23501696,-0.2532877,0.23134978,0.30413765,-0.24215762,0.21797277,0.468661,0.13756919,-0.43734685,0.25664097,0.6451336,-0.046673615,-0.37463075,-0.18552299,0.36372247,-0.12956321,0.15561232
Samba,0.27075225,0.11362008,-0.329151,0.70269805,-0.31876493,-0.27609345,0.4412252,-0.20646252,-0.13230388,-0.06891997,0.11725311,-0.082847625,-0.014434719,-0.41939098,-0.12662132,0.4771221,0.7404868,0.36365393,-0.31641555,0.23849066,0.60142523,0.71068823,-0.059355892,-0.6563114,-0.25520092,-0.49561426,0.05036596,0.3598013,0.31822017,0.13754973,-0.17702058,-0.13962369
Garage_House,-0.44648665,-0.21459572,0.07520049,-0.10590109,0.09665896,-0.6431728,0.13137834,0.10173181,0.27225435,-0.049059983,0.38543501,-0.20092084,0.27578256,-0.8180622,0.3736647,0.20706806,-0.1560461,0.16405503,0.037046146,0.1207458,0.40480006,0.25548264,0.04167735,-0.29131722,0.017125456,0.3376045,0.015704261,-0.12122412,-0.3699329,0.54825926,-0.12450328,-0.059694856
Rumba,-0.11243427,0.5651681,-0.17113724,0.41907316,0.048781328,-0.4208476,0.28572163,-0.27421424,-0.31746507,-0.026169525,0.37597132,-0.3800279,-0.1286017,-0.24606015,0.09092168,0.3276844,0.16177034,0.43084466,0.15768017,0.7546205,0.3861221,0.37554032,0.14423424,-0.5966074,0.25643897,-0.91490126,-0.070972,0.014385964,0.36451718,0.22564706,-0.22451887,-0.43150073
Comedy,0.01161599,-0.15296263,-0.27238747,0.18656577,-0.10458552,0.15667836,-0.062624216,0.5395368,-0.12637176,-0.012552115,-0.081598856,-0.4174136,-0.00026406796,-0.3022016,0.21726257,0.3032931,-0.017659724,0.565298,0.09224917,0.2267011,0.011036727,0.6469592,0.98908895,0.17848831,-0.058697186,-0.25831532,-0.19235206,-0.020749588,-0.0017579936,-0.038499344,-0.14975095,0.736381
Glam,-0.19205128,-0.1197969,0.120434165,0.36754787,-0.21400543,-0.3121837,0.15901776,0.11106879,-0.17756112,-0.24143013,0.2667372,-0.27102473,0.042837612,-0.1051309,-0.0691835,0.048570134,-0.2123708,0.2575725,0.17591777,-0.30884993,0.64617103,0.24973343,0.6681378,0.103274934,0.14365031,-0.017431736,0.2876921,-0.1463117,0.26903695,-0.28536227,0.097935,-0.3152154
RnB/Swing,-0.5380889,-0.13053136,-0.35110006,0.03556897,-0.19996843,-0.2203637,0.270717,-0.09919869,-0.17340696,0.01231742,0.22286527,-0.43491545,0.08752827,-0.7321373,0.33098876,-0.051462032,-0.10210135,-0.009635937,0.24565856,-0.22169523,0.29983667,0.39262542,-0.06101652,-0.4184906,0.18318781,0.3061217,-0.021962129,-0.058759447,-0.20936646,0.071390845,0.13033737,0.14201756
Surf,-0.377167,-0.18436985,0.052377764,0.14682119,-0.031653307,-0.6208273,0.30272704,0.08714691,-0.18857865,-0.25104523,0.41296926,-0.296478,0.24254605,0.015475624,-0.17026705,-0.23862362,-0.28420693,0.08284063,0.14001332,-0.12966757,0.19845605,0.6574529,0.34231868,0.16988443,0.08437576,-0.47012854,0.11304927,0.03841475,0.21712148,-0.45916933,-0.06717212,0.077361956
Electro_House,-0.44821623,-0.23133904,-0.28883463,0.13578139,0.25949878,-0.6416214,0.06868936,0.28597626,0.15602772,-0.14045413,0.39543748,-0.22387335,0.12466572,-0.6314948,0.2655943,0.2910602,-0.29146266,-0.15563081,-0.10781689,-0.10682575,0.3771596,0.32231066,0.014262345,-0.4149842,0.07614508,0.3043109,-0.18467538,-0.22434615,-0.16513255,0.29458076,0.123811305,-0.02330079
Latin,-0.030323023,0.012595777,-0.19228958,-0.05701777,-0.00550715,-0.456038,0.35863814,-0.06541208,-0.04160585,-0.10384352,0.4313684,-0.24635793,0.17997086,-0.5926146,0.0959842,0.20562801,0.03206849,0.30018622,0.0242834,-0.027452074,0.41585976,0.32061765,0.09758723,-0.316736,0.1623605,0.2446534,0.04711879,-0.106418505,-0.13889036,0.40135702,-0.18474576,-0.169405
Free_Improvisation,0.4822041,-0.22284484,0.33167052,0.14476967,0.30138448,-0.72331953,-0.105354674,-0.41035506,0.120682254,-0.12998883,0.10696345,-0.47167522,-0.0005314634,-0.34596196,0.22630276,0.34058064,-0.061890457,-0.14119165,0.24382897,-0.17248942,0.11647976,0.3427106,0.22233677,0.087962426,0.39331946,-0.09939254,0.031881277,0.6256049,-0.04373714,-0.06727438,0.32458362,0.4633348
Kaykyoku,0.09407034,-0.3490037,0.05694276,0.49223918,0.22349857,0.017129859,0.35782763,0.21891728,-0.0003061251,-0.22098824,0.21699199,-0.283335,0.42564142,-0.52263737,0.16373608,-0.010444759,-0.008982838,0.07217039,0.06749708,0.108881146,-0.1183472,0.38880646,0.4187124,-0.7680938,0.061880935,-0.029117925,0.24216732,-0.0727692,-0.080949046,-0.67833364,0.33145064,-0.5190422
Krautrock,-0.31141007,-0.14323574,0.26518697,-0.15691105,0.39893,-0.4681464,-0.07321057,-0.01175838,-0.075377956,-0.33267745,0.14796594,-0.33663768,0.10193866,-0.43180057,-0.29136267,0.09999291,0.0721451,-0.02590051,0.046091177,-0.30398422,0.4364519,0.18154159,0.5730519,-0.123394474,0.29856625,-0.019372199,0.14840968,0.34013486,0.3225737,-0.020500699,0.23654258,0.107239164
Space_Rock,-0.27764282,-0.15741779,0.47459698,-0.28283048,0.078373216,-0.474216,-0.1051789,-0.06124761,-0.36133265,-0.41978195,0.0070538595,-0.28816447,0.12706304,-0.44932207,-0.25592968,-0.14644657,7.1815375e-05,0.019709105,0.10109741,-0.37142375,0.6326046,0.2533194,0.6010305,-0.046362214,0.21560057,-0.0521423,0.116522714,0.15248369,0.25845972,0.019671626,0.2294023,0.14168856
Mambo,0.19683614,0.53827906,-0.34646964,0.34484297,-0.073142715,-0.24320102,0.541808,-0.23533845,-0.5270409,-0.2052086,0.52630246,-0.47569025,0.02674981,-0.254546,0.12673411,0.32527944,0.3574653,0.057616606,-0.02044553,0.6034726,0.46351445,0.7510524,0.09788253,-0.19431333,-0.07352906,-0.86384153,0.07294378,-0.03455594,0.13142854,0.21041034,-0.11413217,-0.122943036
Merengue,0.15759063,0.5769746,-0.43670824,0.12526055,0.062139004,-0.08256402,0.45645696,-0.14399539,-0.5545451,0.2019149,0.5891623,-0.5148018,0.052957352,-0.6536373,0.016285554,0.40336376,0.27142718,0.32996362,0.01186927,0.35895032,0.29293725,0.8360477,0.06963765,-0.25664896,-0.28604916,-1.0919411,-0.08661917,-0.01730439,0.14984646,0.55198604,0.024612922,-0.24081968
Boogie,-0.31045666,-0.119745634,0.071710534,0.070484005,0.04734517,-0.15840223,0.11086668,-0.055153314,-0.129847,-0.03538889,0.3150422,-0.19707915,-0.113683134,-0.7671928,0.3863474,0.014356477,0.12022478,0.49842104,-0.05972542,-0.012070961,-0.023946725,0.48544967,0.20956019,-0.5017527,-0.035494816,0.11798173,0.21683823,0.004672453,-0.23280929,-0.4207498,0.123684846,-0.72441024
Novelty,-0.19773819,0.037093207,-0.08417563,0.05204436,-0.2398044,-0.23615807,0.35177794,0.54456466,-0.117648505,0.13892634,-0.12710573,-0.52906364,0.08795177,-0.16251485,0.20861477,0.2438751,0.007434589,0.29499525,0.25017226,-0.016876312,-0.062016606,0.6808885,0.5635932,0.16856575,0.099131435,-0.16085547,-0.15606348,-0.0382434,0.15382273,-0.37171286,-0.20722038,0.21035661
Happy_Hardcore,-0.06467887,-0.10891521,-0.31865078,0.11720504,0.34422725,-0.5864756,0.15436985,0.1826275,-0.6264315,-0.20561156,0.28422543,-0.07161758,0.5272524,-0.21221747,0.26714873,0.6794267,-0.650551,0.22043389,0.041134946,-0.62937266,0.24351771,0.25546536,0.11822248,-0.28524444,0.24952823,0.48103222,-0.017352736,0.105051845,-0.07189567,0.2406981,-0.16960159,-0.10374732
Breakcore,-0.04754199,-0.51387525,-0.063854896,-0.03838819,0.1727111,-0.27741823,-0.03525907,0.33070645,-0.6452047,-0.3711176,0.4478704,-0.10062377,0.27800596,-0.2698906,0.17767182,0.5289892,-0.25273857,-0.03859405,-0.0760039,-0.44026044,-0.055181026,0.15575427,0.43897986,0.1274767,0.42925566,0.2065681,-0.3681037,0.511309,0.09851118,0.36361143,-0.044574965,-0.09407161
J-pop,0.18689716,-0.3818733,-0.011786046,0.33917353,0.10722554,-0.2020313,0.32592452,0.121814355,-0.05902606,-0.5647947,0.30017114,-0.22284079,0.5421879,-0.4552621,0.5800312,0.016020777,-0.08512103,-0.26046667,-0.00022266865,-0.059958432,0.022089945,0.24489777,0.316941,-0.4748175,0.13941182,0.047177337,0.18473347,-0.53791773,0.19474414,-0.19835126,0.09500928,-0.12128744
Musique_Concrte,0.25225943,-0.30102187,0.28125492,-0.10186735,0.06406268,-0.24730821,-0.115981154,0.112274714,0.02625797,-0.27548963,0.37812525,-0.4781547,0.20601965,-0.49745673,0.036335986,0.17120205,-0.41550088,-0.09757406,0.012061845,-0.19241999,-0.076566294,0.19824743,0.33232424,0.09143538,0.52070683,-0.10051103,-0.45655915,0.45133442,0.21468805,0.19299924,0.3458412,0.3301585
Vaporwave,-0.1294093,-0.18322805,-0.2774647,-0.28843704,-0.073087186,-0.57959783,-0.118622854,0.08426576,-0.080906846,-0.38921374,0.31169844,-0.33648863,-0.123868674,-0.5843817,-0.0052696285,0.13595624,-0.06679901,-0.10089997,-0.20374069,-0.26884982,-0.16598226,0.38781515,0.45501566,0.18333492,0.31612477,0.48867774,-0.41426554,0.38787043,0.27632713,0.21980277,0.3048306,-0.26595172
Conscious,-0.57509434,-0.10884129,-0.70008844,-0.1717634,-0.8222157,-0.002888439,0.14015523,-0.29680732,-0.3897125,-0.31137642,0.29956937,-0.522791,0.08757412,-0.67247933,0.50961876,-0.149872,-0.11913415,0.1458593,0.2316217,-0.34939644,0.39555445,0.2712887,-0.27208263,-0.23819233,0.5558193,0.04304675,-0.40276536,0.45827028,-0.057683825,-0.12809817,0.08706855,0.09650702
Italo-Disco,-0.45028248,-0.012565251,-0.0858768,0.0014930118,0.041469794,-0.33554158,0.34899017,-0.08994557,-0.079377316,0.4198211,0.5008251,-0.36884663,-0.019187214,-0.42408636,0.18611701,0.35795572,-0.07911278,0.24222445,0.3247907,-0.1726371,-0.24693015,0.37346622,0.7605783,-0.22156468,0.18036889,0.3362989,0.3419215,-0.30687916,0.04312844,0.24867472,0.11965239,-0.0688855
Gangsta,-0.7760181,0.0009870996,-0.8646349,-0.25669897,-0.4870372,0.34890127,-0.03902057,0.1883724,-0.30256733,-0.16925526,0.13796605,-0.6727141,-0.20978367,-0.7971849,0.7274631,-0.19509782,-0.1940884,-0.11882519,0.49473938,-0.56576264,0.55844796,0.59354454,-0.25288063,-0.32207978,0.5288916,-0.067067534,-0.19548966,0.32394654,0.016799228,-0.120628,0.23481947,0.023401044
Gabber,0.044809703,-0.22409782,-0.016083429,0.19927442,0.23541902,-0.53872967,-0.10733277,0.1969666,-0.7208179,-0.2960201,0.27389312,0.04947595,0.42505383,-0.14431863,0.15549342,0.6909948,-0.790333,0.034789328,-0.04998934,-0.75141,0.203706,0.23714878,0.37793916,-0.2578411,0.25648063,0.3107031,-0.19841179,0.35433373,0.05546943,0.13730007,-0.20258099,-0.20893303
Smooth_Jazz,0.3042519,0.09540875,-0.11086055,0.038783614,0.06321126,-0.3272532,0.3444243,-0.4854061,-0.029965894,-0.32295033,-0.09550248,-0.30664605,0.025939098,-0.44305608,0.41780397,0.23337324,0.19492716,0.019791087,-0.115969546,0.07506996,0.33750615,0.5908993,0.31477666,-0.06007374,0.062914364,0.19639133,0.17679684,0.51762444,-0.18641579,-0.25303653,0.12120729,-0.15206948
Free_Jazz,0.49052966,-0.08693017,0.2947533,0.09732058,0.24496351,-0.79479903,-0.09801441,-0.6213038,0.105669744,-0.18165976,-0.09098946,-0.49242604,-0.075827844,-0.40154088,0.27081656,0.4757092,-0.042858884,-0.02943251,0.2758807,-0.26318923,0.25508213,0.4473245,0.15945642,0.0621781,0.35533848,-0.1577507,0.06474654,0.8061899,-0.2753656,-0.091731906,0.26508278,0.404963
Parody,-0.24091005,0.0019368156,-0.076700024,0.12645143,-0.08160014,-0.17229708,-0.06154478,0.4261313,-0.26866907,0.0457704,0.005943514,-0.44791865,0.2011409,-0.17639579,0.10503118,0.40741816,-0.0043231295,0.3359821,0.23111926,-0.072319485,0.0015401671,0.48868456,0.71782964,0.17903441,0.21234803,-0.13641693,-0.044022534,-0.12794638,0.1745167,-0.36050788,-0.36640424,0.3724099
Pop_Punk,0.019802375,0.06595156,0.09436369,0.20763355,-0.032976896,-0.43621907,-0.29475805,0.15679477,-0.4276282,-0.086719856,0.4676939,0.16001317,0.38453302,-0.26229182,0.34334055,-0.16611175,-0.31994906,-0.3135005,0.012769438,-0.3752991,0.4552787,0.45475876,0.66600484,0.10970021,-0.13212179,-0.02882265,0.000113322014,0.009080008,0.4654514,-0.40104985,-0.26280603,-0.14548285
Hard_House,-0.2422735,0.019382382,-0.1619461,-0.2972971,0.84651035,-0.36682123,0.04110673,0.20366916,-0.18555859,-0.121820435,0.36902177,-0.2943219,0.22999597,-0.46472237,0.33131003,0.5201937,-0.6676804,0.26919755,-0.0007510487,-0.2609322,0.4717633,0.49394605,-0.09391841,-0.46221036,0.25567028,0.58868194,0.09927496,-0.109250456,-0.07921232,0.26264262,-0.14003883,0.07987476
Psychedelic,-0.08334654,0.040259942,0.09739685,-0.067968495,0.30626017,-0.16788419,-0.015125965,-0.35746232,-0.21007015,-0.182045,0.41521472,-0.21338472,-0.060439613,-0.5092574,0.24132249,-0.14535235,0.20343204,0.26255852,-0.16634656,-0.08195758,0.22281419,0.54339916,0.32104054,-0.10649948,0.17250118,-0.2317118,0.079393715,0.29720256,0.048994545,-0.23308766,-0.0805278,-0.08236738
Guaracha,0.20574741,0.57947713,-0.38389796,0.07379972,0.05374754,-0.11104388,0.38828588,-0.32104266,-0.64833313,0.028812585,0.715881,-0.7200672,0.17025274,-0.4881111,-0.06663208,0.37757578,0.35050806,0.1921813,0.105426796,0.5213056,0.3619321,0.8712076,0.080764264,-0.15597701,-0.44517756,-1.1998262,0.043146193,0.2640825,0.15934613,0.5137273,0.09342757,-0.24076118
Neo-Classical,0.10048073,-0.3058077,0.63773346,-0.17406069,-0.26623422,-0.098452374,-0.15082684,-0.11881917,0.12890877,-0.05838595,0.070214495,-0.6163115,0.42496222,-0.3910202,0.2732014,0.45475057,-0.08827038,-0.15685217,-0.442623,0.18341191,-0.10535546,0.44202805,0.14227057,0.079927325,0.3070242,-0.055207033,-0.20121792,0.06962091,0.67891765,0.2229883,0.2608202,-0.053005714
Broken_Beat,-0.2142665,-0.37651256,-0.03389435,-0.07983057,0.059198033,-0.38151494,0.19633882,0.07008926,0.082958244,-0.3403917,0.5638197,0.0038485439,0.04488438,-0.6772034,0.284122,0.23931417,0.17691848,0.13388349,-0.15424055,-0.046349946,0.35570875,0.2370789,0.11047841,-0.0043887882,0.5279151,0.06935132,-0.22661202,0.3802228,-0.15627438,0.22700551,-0.2752459,-0.010327597
Acid_House,-0.20183875,-0.30895454,0.007465892,-0.044923294,0.07270756,-0.32668358,0.19420066,0.06904991,-0.016685262,0.08029851,0.6267492,-0.09077425,-0.079448536,-0.7827457,0.13710077,0.27480438,-0.4213354,0.05004122,-0.14536206,0.013116715,0.39497027,0.1448828,0.4034278,-0.32064703,0.146948,0.4196978,-0.13165395,0.061614767,-0.27544978,0.46075377,-0.11959355,-0.060975812
Hindustani,-0.033572726,-0.54384845,-0.088058665,0.49720544,0.5635637,0.19677714,0.058386773,0.08628254,-0.41708696,0.01916115,-0.14396143,-0.6844282,0.20709378,-0.13742603,0.57105595,-0.70214224,0.019270608,-0.1547267,-0.29264298,0.19288926,0.09253941,0.62806743,0.11159864,-0.29809695,0.4111467,0.08445511,0.7956768,0.6365169,0.66092104,0.47444323,-0.6803806,-0.16312803
Hi_NRG,-0.32631928,-0.052938007,-0.15511572,0.04241971,0.20783408,-0.4008477,0.46847168,-0.13068792,-0.2033241,0.39089605,0.4863061,-0.42821088,0.10808369,-0.57130563,0.27463454,0.30405208,-0.07572359,0.28010237,0.19436939,-0.4849162,-0.33495924,0.47215578,0.56927764,-0.27545458,0.04951124,0.36527833,0.33230338,-0.3922064,-0.11909011,0.43415686,0.118187204,-0.08617135
Doo_Wop,-0.06458086,-0.4823411,-0.0046221563,-0.035834786,-0.2157814,-0.37842104,0.46603265,0.076111324,-0.14587523,0.14208043,0.24590284,-0.46015885,0.17265621,-0.09105913,-0.065141104,-0.23969904,0.00998465,0.47847053,0.22440691,0.009466392,0.15925603,0.66855764,0.37427837,-0.05181763,-0.06087463,-0.2920751,-0.014034231,0.062300038,0.028083645,-0.5523204,-0.20320395,-0.35233647
Guaguanc,0.31766394,0.5363761,-0.5419442,0.08371349,0.06581358,-0.2310737,0.55376375,-0.33179227,-0.50234896,0.0014523852,0.8227533,-0.6242242,-0.02411704,-0.41323644,0.12089661,0.3660103,0.45515472,0.21197267,0.09056024,0.69696957,0.48551673,0.8361148,0.18388179,-0.066467814,-0.05052155,-1.1291431,-0.04070123,-0.12890281,0.15014139,0.38752946,0.04966369,-0.3779759
Italodance,-0.042294506,0.16151516,-0.27863836,0.061464764,0.20878401,-0.40974945,0.26442888,-0.079390645,-0.31919962,0.10149076,0.44968277,-0.4459645,0.14076953,-0.6068352,-0.01516534,0.36991102,-0.32934478,0.2193611,0.3562808,-0.26887584,0.22790639,0.5243308,0.12638927,-0.47041374,0.34775996,0.698505,-0.049497902,-0.47332245,-0.24578147,0.46506447,-0.097134985,0.26519603
Bossa_Nova,0.4780504,0.08192051,-0.2608085,0.42211354,-0.039754853,-0.26108843,0.65782505,-0.20571043,0.05279803,-0.10973177,0.006611817,-0.067209266,0.034968987,-0.3104363,0.30873552,0.43930924,0.52385956,0.015546756,-0.16312577,0.13201772,0.6378358,0.6927657,0.21526311,-0.30888355,0.07932096,-0.24888767,0.15568222,0.38166857,-0.044636827,-0.16846405,-0.005266094,-0.15131065
Oi,0.17646968,0.0371174,0.004164057,0.2579622,-0.50366765,-0.5673161,-0.29027674,0.013714569,-0.3713209,-0.26526394,0.31248894,0.06388702,0.57411027,-0.3100797,-0.015707772,0.23625071,-0.6497728,0.13995968,0.03816828,-0.44232458,0.5064922,0.23243465,0.6436943,0.24399514,-0.13253176,-0.06975554,0.19337256,0.10141011,0.32691082,-0.3441887,-0.3175275,-0.40885723
Roots_Reggae,0.09519989,-0.44316566,-0.035161212,0.39713943,0.055457547,0.13163109,0.3044082,-0.2570679,-0.14207815,0.056714132,-0.010449436,0.0042728065,0.29311016,-1.5621061,-0.30543557,0.11277971,-0.22116332,-0.08892003,0.5988388,-0.3153705,0.46845612,0.4366211,-0.13768041,0.49288905,0.28517795,-0.05353608,-0.11610751,0.07443089,0.33490202,0.2737896,-0.56649214,-0.2261458
Reggae-Pop,-0.096229285,-0.022356998,-0.13153067,0.19669202,-0.081924364,-0.23586437,0.26741818,-0.12333649,-0.13318856,0.25380746,0.07645515,-0.30973405,0.34940374,-0.89411294,0.0071599227,0.0798832,-0.16195412,0.020940766,0.47376186,-0.33341882,0.27415377,0.60892504,0.019613149,-0.03380329,0.17911193,0.19171031,-0.02726582,-0.38835692,0.0018190208,0.15855335,-0.27207175,-0.18638112
Ethereal,0.06729427,-0.061737992,0.26541153,-0.22813527,0.04409456,-0.3027791,0.01609835,0.08028499,-0.091193825,-0.25964117,0.3510196,-0.18689352,-0.01219041,-0.4608752,0.09835102,-0.06051333,-0.029666318,-0.1070823,0.02990158,-0.27978948,0.47679284,0.211801,0.4114672,-0.015127291,0.11394371,0.27085435,0.043943625,0.2838405,0.707431,0.030646868,0.21843605,0.15817736
Dancehall,-0.18119982,-0.19811016,-0.34163433,0.17534997,-0.07832855,0.108038336,0.14571819,-0.091838054,-0.1984355,0.17255016,-0.016823038,-0.059476953,0.41323447,-1.542897,-0.21193841,0.14561221,-0.3169115,-0.19070351,0.7136898,-0.11049304,0.429188,0.45171583,-0.093158506,0.27276868,0.2838699,-0.07805195,-0.07223685,-0.14824885,0.23904878,0.28239802,-0.38932058,-0.4332117
Power_Electronics,0.17554915,-0.37835932,0.48390067,-0.11186038,-0.053303722,0.0066515775,-0.054646224,0.26030672,-0.17140897,-0.3469025,0.79546666,-0.5611387,0.1414349,-0.45467642,-0.094863035,0.118049055,-0.518563,-0.17080052,0.223815,-0.37044713,-0.03156139,0.12816446,0.44294557,-0.035749815,0.20054615,-0.04806221,-0.020527488,0.6368132,0.1453198,0.31711033,0.16117981,0.14090762
Bop,0.438603,0.037452944,-0.18674868,0.06274297,-0.12756482,-0.56550133,0.6145485,-0.27808613,0.11286859,0.18329401,-0.2557961,-0.5184108,-0.2816634,-0.27641803,0.82023954,0.58984333,-0.065904334,-0.3192311,0.28259245,0.40402797,0.46862745,0.53063595,0.12868674,-0.14269362,0.25537634,-0.36308438,0.3592818,0.5776426,-0.18917732,-0.5762903,-0.1269086,0.1703405
Dub_Techno,-0.033284165,-0.14369641,0.08945876,-0.19513059,0.034892224,-0.24745642,0.16487594,0.15496445,0.30451638,-0.05527319,0.3952552,-0.080025025,-0.07919885,-0.86272395,-0.0123462165,0.15884376,-0.6223192,-0.028850647,-0.27699086,0.038900986,0.49702948,0.1587247,0.50520587,-0.19691162,0.22846985,0.18944477,-0.39610124,0.41492173,0.055036563,0.42053762,-0.1826014,-0.10266099
Jazzy_Hip-Hop,-0.56625307,-0.14331472,-0.69148487,-0.12119683,-0.7234695,-0.07599549,0.08925327,-0.44482276,-0.27334002,-0.452152,0.5796811,-0.47220993,0.20302,-0.57795906,0.47228712,-0.040205184,-0.052274242,0.05246149,0.07171108,-0.22425088,0.33715352,0.3307616,-0.3748024,-0.09092131,0.61067164,0.053724196,-0.43102935,0.4250696,-0.06464891,-0.28002498,0.0017669349,0.16223225
Trap,-0.69192964,-0.03334637,-0.8745103,-0.009141646,-0.19885106,-0.1721511,-0.010551006,0.2741358,-0.19706617,-0.40320382,0.29763982,-0.31860393,0.02590107,-0.7539964,0.34353685,0.037548173,-0.2626662,-0.28832716,0.16411802,-0.43257326,0.14777298,0.29763165,0.09129396,-0.3097792,0.20216528,-0.047489576,-0.49235648,0.09755323,0.21632092,0.055837594,0.37710196,-0.07107561
Concerto,0.12132885,-0.52929187,0.6540889,0.3118126,-0.22778039,-0.11200519,-0.002695582,-0.00056358497,-0.1918013,0.53340626,-0.201919,-0.53925455,0.66243756,0.1037676,0.41370967,0.44520697,-0.19153903,0.09162689,-0.5902599,0.5392563,0.2489255,1.4978571,0.036135748,0.17853984,0.37598595,-0.034920864,-0.3002874,0.041145112,0.5458389,0.14703366,0.87511516,0.036725245
Tango,0.04533765,0.312922,-0.022137865,0.30267975,-0.23908526,-0.20398639,0.5441983,-0.05980464,-0.49109966,-0.019677904,0.24564579,-0.36880925,0.26370433,-0.2253418,-0.24942726,0.4921817,0.41377518,0.08325053,-0.123029284,0.5684121,0.21472546,0.49433526,0.109660625,-0.4270948,0.07530528,-0.5130429,-0.03384532,0.17640573,0.37126398,-0.029329455,-0.30131847,0.042430494
Sludge_Metal,-0.022440808,-0.10280754,0.47619703,-0.25340074,-0.40103173,-0.62804,-0.31928477,0.52620554,-0.8770615,-0.5112459,0.21633832,-0.06209448,-0.06599863,-0.7216365,-0.15220363,0.1398452,-0.3975664,0.19275516,-0.09019525,-0.44049793,0.5048942,0.05215902,0.27910194,-0.0014838512,0.23862906,-0.20600142,0.34867522,0.07093799,0.26921642,-0.20350051,0.2748966,0.27151528
Hardcore_Hip-Hop,-0.7192183,0.11461512,-0.88477886,-0.13962306,-0.7785005,0.12614122,0.068506315,-0.108422555,-0.3799715,-0.28213736,0.45950338,-0.49481192,0.16706865,-0.5442714,0.7163259,-0.12685764,-0.26268783,0.04654008,0.33328614,-0.60675424,0.45589218,0.2937669,-0.29910645,-0.31871238,0.6570722,-0.16147934,-0.21051656,0.4373563,0.20922554,-0.15879309,0.2616512,0.11511518
AOR,-0.06662485,-0.18896092,0.004216066,0.45653513,-0.00068905205,-0.12922978,0.23087594,0.13665491,0.049468674,-0.37270918,0.10698018,-0.30767524,0.23614553,-0.29213974,0.16863638,0.1033908,0.054597635,0.2297434,0.14841075,-0.18831424,0.6788147,0.0021242867,0.7686137,-0.113502815,0.06309418,0.057522263,0.12802365,-0.11837616,0.037805602,-0.46966803,0.5030954,-0.58447236
UK_Garage,-0.76943326,-0.4073536,-0.22524987,-0.31340417,0.15939102,-0.71825075,0.16156477,0.40163243,0.038558032,-0.32767832,0.3176356,-0.19634317,0.33136076,-0.8321196,0.2782077,0.42023867,-0.30948567,-0.42453882,-0.030378366,0.058467265,0.17261283,0.20356579,0.013208601,-0.06948256,0.18721049,-0.043571535,0.017085934,-0.0584957,-0.2461772,0.36363932,0.040727668,0.13100274
Cool_Jazz,0.43507573,-0.087297805,-0.24018809,0.0024639827,-0.06800224,-0.41200963,0.52309537,-0.22874813,0.079434425,-0.06450611,-0.20909491,-0.3628696,-0.19844246,-0.48820513,0.7379836,0.3858891,0.08013274,-0.33606896,0.12611166,0.36474335,0.38084733,0.58529556,0.13991268,-0.1324963,0.36991495,-0.21912038,0.3503319,0.50119305,-0.27560318,-0.50471246,-0.10494051,0.06000772
Avant-garde_Jazz,0.40362033,0.0013050601,0.23459433,0.004406162,0.17144902,-0.7215697,-0.23758931,-0.63627315,-0.051841415,-0.24279091,-0.0928265,-0.5121017,-0.16693515,-0.36171913,0.43862087,0.32480842,0.099605165,-0.16005324,0.32656136,-0.029130708,0.19660121,0.53135234,0.20771827,0.14899302,0.47760922,-0.18059817,-0.045064937,0.7391639,-0.27231872,-0.045971125,0.21490616,0.35532084
MPB,0.32059005,0.004532469,-0.20743065,0.74173033,-0.1613249,-0.2759501,0.23230973,-0.07561622,0.023700213,-0.1285475,0.16238105,-0.17594796,-0.10297103,-0.40764356,-0.06317997,0.38400316,0.8226758,0.49536473,-0.40775806,-0.22245672,0.7531571,0.59796906,-0.21279901,-0.72098,-0.24065195,-0.2650509,0.017376814,0.45270705,0.34437108,-0.025537532,-0.1608161,-0.22854343
City_Pop,0.07551466,-0.06822888,-0.024424955,0.34223032,0.17824297,-0.046976805,0.51967746,0.13028623,0.0044655018,-0.008885293,0.35895163,-0.12216128,0.37601823,-0.5863048,0.27096775,0.08006591,0.05399124,0.20561528,-0.01566896,0.043367397,-0.036182046,0.24080786,0.5459387,-0.774391,0.07681424,0.057545803,0.14549726,-0.02426954,-0.040379506,-0.7944114,0.41914892,-0.61509466
Progressive_Metal,0.12536596,0.0930492,0.2820517,-0.16630718,-0.07672321,-0.40392238,-0.26885322,0.5022768,-0.65329427,-0.13460466,0.2995449,-0.45701772,0.030067706,-0.46790135,0.363822,0.30465108,-0.23302145,0.2048172,-0.1916763,-0.6106063,0.70515394,-0.24722874,0.4996049,0.32340232,0.6033608,-0.15179539,0.85878474,0.13613907,0.21550213,-0.11374981,0.3013912,0.11151183
Post-Hardcore,0.124261275,0.051503867,0.3470726,-0.07817204,-0.0048188902,-0.5281029,-0.493289,0.16978987,-0.7196754,-0.21235317,0.4739503,0.2703881,0.11866899,-0.5066079,0.6742305,0.13909079,-0.41226026,-0.082758516,0.07666935,-0.5158205,0.41097832,0.073621385,0.63236403,-0.16039537,0.14806682,-0.17314695,-0.011364164,-0.16552918,0.5249543,-0.2276754,-0.18941481,0.15853034
Afro-Cuban,0.039077777,0.6732245,-0.25124055,0.32223487,0.020699112,-0.3296705,0.37830165,-0.49955386,-0.4566993,-0.2063393,0.62485516,-0.27889073,-0.15617885,-0.3301797,0.14860962,0.31548616,0.25336486,0.05410239,0.045701224,0.52677065,0.4649424,0.5687382,0.2216286,-0.19292693,0.011265359,-0.84798723,-0.011308413,0.08966051,0.22876996,0.17547707,-0.05135786,-0.37325042
Bollywood,0.024324346,-0.4785706,-0.12425729,0.48553962,0.34144136,0.30529645,0.19283035,0.09181507,-0.33573583,-0.08238682,-0.047428347,-0.8963221,0.19206743,-0.07997601,0.59051204,-0.6841264,-0.06019457,-0.27073777,-0.3827641,0.06184191,0.023238322,0.6271548,0.22195502,-0.2364817,0.44853613,-0.046169575,0.70019436,0.46791235,0.5816491,0.3574185,-0.7172901,-0.06844044
Neofolk,-0.014372009,-0.12438559,0.23646344,-0.2336,-0.04444863,-0.27836993,-0.086394,0.095693134,0.068864346,-0.25391397,0.23788503,-0.4019161,0.23580272,-0.65002877,0.13457963,0.12737171,-0.1318517,-0.044697393,-0.06441149,0.052541297,0.11791073,-0.12983891,0.4111617,-0.040064044,0.08204423,0.089060046,-0.04704739,0.23470992,0.6739609,-0.12169903,0.17742494,0.057160065
Grunge,-0.039818287,-0.16897522,0.33560476,0.18179226,-0.073745884,-0.31171075,-0.19905719,0.14166456,-0.25003755,-0.2375753,0.5672459,-0.04773406,0.18898311,-0.33058524,0.18172243,-0.06373666,-0.30878827,-0.029777365,0.09732378,-0.41722238,0.7163985,0.09971175,0.5633293,-0.058209702,-0.07341198,-0.18329884,0.051107842,-0.10292708,0.42696702,-0.2546199,0.09115147,0.18547772
Acid_Jazz,-0.13163127,-0.13491243,-0.10339148,0.045645252,-0.16367473,-0.42768514,0.29614758,-0.2074637,-0.0013532928,-0.25658196,0.48766172,-0.010519606,0.056731753,-0.6253444,0.389658,0.17429133,0.39008594,0.165469,-0.12423626,-0.08671374,0.29970247,0.4179406,0.13582312,-0.073363,0.44784233,0.23047984,-0.1072301,0.2449345,-0.2078428,0.13172178,-0.30596736,-0.12800924
Polka,-0.43284646,0.2605412,-0.2972255,0.5291356,0.08444482,0.050747026,-0.10518534,-0.044671874,-0.33011898,0.3722911,0.0076294523,-0.6231172,0.722272,-0.36680827,-0.16628236,0.6791495,0.1618378,0.25258103,-0.2043181,0.6588753,0.058449365,0.29689702,0.2390208,-0.08385611,-0.4260048,-0.19987106,0.15451291,0.48618865,0.38428846,-0.37119082,-0.2730135,0.4910248
Psy-Trance,-0.11503686,0.027145075,-0.18477532,0.12413754,0.6718487,-0.19031496,0.10209538,0.41730767,-0.19233562,-0.3552338,0.8129704,-0.21529397,-0.35483247,-0.7031821,-0.050702997,0.37394258,-0.39246622,-0.095467314,-0.4779799,-0.03504231,0.5061174,0.83409137,-0.040327832,0.35547957,0.4671797,0.9033536,-0.38979515,-0.3872058,-0.026748065,-0.11664444,-0.2008694,0.18334712
Son,0.18414117,0.6785789,-0.5297563,0.14819497,0.17294908,-0.20791392,0.4750387,-0.35707864,-0.56246287,-0.042347856,0.724792,-0.61406004,0.29469615,-0.30101702,0.122943416,0.42160967,0.3774951,0.26376718,0.09238523,0.5114255,0.40406108,0.74939996,0.18424402,-0.17396148,-0.105815835,-1.1878544,-0.1313192,0.056198455,0.29038584,0.3706086,0.083193645,-0.27967715
Mod,-0.4860021,-0.015226598,0.20989981,-0.006914032,0.008882514,-0.5964607,0.07515667,0.15679161,-0.072361134,-0.049474794,0.21698384,-0.099950954,0.31292444,-0.22301817,-0.0913745,-0.47889438,-0.05863887,0.115046464,0.27132252,-0.12459748,0.38007277,0.8475395,0.46621072,-0.051132295,-0.022834133,-0.33344194,0.18045065,0.26141632,0.07493797,-0.42313117,-0.19264781,-0.22957823
Musical,0.024086127,-0.1277456,0.069446675,0.35690314,-0.2114092,0.11930889,0.25415626,0.11130085,-0.13563888,-0.13474104,-0.37129954,-0.7496099,0.2060793,-0.09585317,0.45843777,0.0082366625,-0.105311364,-0.13973667,-0.33447814,0.3701486,0.042416465,0.7578906,0.48603353,-0.062847786,0.13567033,-0.10616721,0.0711004,-0.069609836,0.26240602,-0.03569155,-0.3964678,0.15161577
Arena_Rock,-0.17513369,-0.100599095,-0.050689377,0.33279863,-0.10194872,-0.029639518,0.2881914,0.047270756,-0.12050219,-0.36958295,0.18205613,-0.5500867,0.1936338,-0.21112867,-0.04808537,0.047477446,-0.15154356,0.26152867,0.17104769,-0.40975055,0.90059793,-0.053450223,0.6999701,0.019489164,0.019639116,0.03383138,0.21933684,-0.10040967,0.2216071,-0.28376135,0.25189584,-0.47716162
Piano,0.03499976,-0.7528992,0.36083975,0.26235232,-0.2537002,0.064931445,-0.11042523,-0.038939543,-0.12072006,0.6885395,-0.2643658,-0.6735627,0.42290312,0.11296747,0.459434,0.5879868,-0.14745797,0.27985948,-0.6443652,0.52340996,0.43306223,1.290352,0.08471167,-0.03013624,0.59000784,-0.17189945,-0.23582529,-0.030886928,0.723841,0.040904284,0.9545369,-0.05567648
Math_Rock,-0.025157912,0.07901276,0.44175637,-0.03347951,0.1005362,-0.348627,-0.3695591,0.26897386,-0.6135663,-0.11139313,0.44583264,-0.048594408,0.085459724,-0.336743,0.46877664,-0.01390356,-0.18363732,-0.006373256,0.08854127,-0.5574322,0.5617596,0.045662344,0.54685915,-0.0383755,0.21187846,-0.024523746,0.09966411,0.18202907,0.48027703,-0.12438704,-0.12097216,0.15340842
Bass_Music,-0.7748184,-0.40194887,-0.36308834,-0.065567635,-0.068684824,-0.27356502,-0.051949836,0.32028762,-0.037629053,-0.30962238,0.44980848,-0.22031291,0.028178167,-0.82502145,0.26023102,0.24998167,-0.23056336,-0.39192298,0.11521299,0.0011667557,0.15252623,0.10606062,-0.0102400705,-0.33527645,0.37184238,-0.1724807,-0.3699237,0.1605113,-0.008705801,0.11032415,0.16402812,-0.12846653
Boom_Bap,-0.7773882,-0.057148956,-0.80961597,-0.048640482,-0.9472403,-0.0394939,0.117093995,-0.32329497,-0.39927578,-0.4416706,0.59363055,-0.47512773,0.13946801,-0.5045929,0.49425462,-0.09139766,-0.16000684,0.0787696,-0.03045517,-0.41098514,0.39173394,0.25923553,-0.33102715,-0.18801922,0.6829611,-0.026508544,-0.60589784,0.48422226,0.1167354,-0.21557264,0.068290755,0.057917062
Tribal_House,-0.22668076,-0.20684043,-0.21198271,-0.04553333,0.16884643,-0.6366986,0.18217254,0.07258436,0.2868944,-0.16435108,0.49959755,-0.29708096,0.22962631,-0.6600358,0.13143039,0.20896257,-0.364621,0.19053037,-0.21299282,0.0537805,0.5158558,0.27960572,-0.08674082,-0.44506386,0.08856472,0.511821,-0.11382001,-0.0700119,-0.24487853,0.3728522,-0.05560769,-0.15828882
Renaissance,-0.019967575,-0.28568208,0.7351557,0.054822404,-0.5991723,-0.107920095,0.39687303,-0.035345294,-0.22559315,0.18360996,-0.17212643,-0.51276714,0.62025493,-0.057698656,0.7692891,0.20708703,-0.3253954,0.2284333,-0.19943908,0.78588134,0.18275638,0.7112996,-0.13156651,0.32133597,0.05556594,0.23134452,-0.19853868,0.4783576,0.7664482,0.37274516,0.7374577,0.24891128
Nu-Disco,-0.42784864,0.016123645,-0.3767756,-0.029626966,0.13371536,-0.6307699,0.223619,-0.06528796,0.16580722,-0.002427567,0.42817032,-0.2348661,-0.17653252,-0.6820509,0.12384355,0.14955048,-0.14032736,0.24280609,-0.28866136,-0.1542215,0.050858025,0.34221992,0.42367247,-0.24254638,0.11589873,0.42340165,0.03254587,0.045197308,-0.07838862,0.25350922,0.21857443,-0.36867467
Post_Bop,0.66793376,-0.13829109,-0.0789571,0.21962114,0.1415947,-0.78361464,0.17420663,-0.7713667,0.12310574,0.120796174,-0.21062553,-0.43730465,-0.29452398,-0.4978674,0.73852366,0.44558248,0.12356967,-0.09629989,0.30524376,0.21247427,0.41339856,0.512606,0.0609965,-0.033579167,0.4371549,-0.24207495,0.5041019,0.6555803,-0.35195777,-0.44896194,0.09192828,0.21723929
Hip-House,-0.30920127,-0.2295031,-0.31409842,0.12582348,-0.16653548,-0.5495714,0.16292681,-0.062379308,-0.13580824,-0.038036834,0.5005434,-0.27706197,-0.029080348,-0.74168515,0.30681935,0.25322935,-0.03408183,-0.008296234,0.23217262,-0.23210955,0.24802306,0.35567927,0.046395842,-0.28645882,0.13794099,0.24062422,-0.16893975,-0.33875254,-0.25444922,0.48990503,-0.21626379,0.23900029
Chiptune,-0.079311945,-0.38954404,-0.15794729,0.034912106,0.11891396,-0.3538425,0.023764823,0.31338125,-0.3826236,-0.23538421,0.31947,-0.34195805,0.086849384,-0.24127358,0.15084425,0.24665196,-0.1564263,-0.10683195,-0.29063475,-0.40434125,-0.19492158,0.27379218,0.46950495,0.08881347,0.4584292,0.26748103,-0.04514246,0.31172347,0.3625207,0.47793382,-0.0054888246,-0.31418157
Metalcore,0.09838866,0.0565845,0.130221,0.017409468,-0.22442457,-0.5635809,-0.44571984,0.58762395,-0.759225,0.08010591,0.44359863,0.012638809,0.2016258,-0.32386002,0.7570335,0.25691885,-0.44863573,0.060960226,-0.08552,-0.7197878,0.5219877,0.0013742703,0.4154366,0.105570465,0.4491227,-0.12678911,0.26729584,0.13179378,0.09525575,-0.13971323,-0.08015695,0.028455425
Crust,0.21425551,0.11460688,0.049230363,0.22015549,-0.34201175,-0.74647564,-0.39610547,0.57072514,-0.7108858,-0.3378226,0.3814021,0.00787778,0.50544834,-0.46814033,0.1519453,0.28158697,-0.6441865,0.1476823,-0.22374621,-0.6055119,0.1794355,0.19124623,0.41878608,0.23353599,-0.2746511,0.06702971,0.32828146,0.3348487,0.07242118,-0.09149721,-0.20463853,-0.2472327
Rhythmic_Noise,0.0012134748,-0.54988503,0.14163375,-0.03436338,-0.013593456,-0.18787584,-0.13049823,0.07530677,-0.05314673,-0.3004533,0.6975251,-0.2627339,0.057577845,-0.41655532,0.00054560206,0.38077903,-0.37894896,-0.09548646,0.05260914,-0.3272871,-0.045544986,0.22375974,0.43658355,-0.1410899,0.2993219,0.18623744,-0.19919826,0.56654376,0.1377511,0.14375453,0.04980376,0.021722468
Big_Beat,-0.31219205,-0.5589988,-0.20206206,0.0056001255,-0.006381956,-0.125228,0.2890816,0.037978396,-0.1888018,-0.17498864,0.4343986,0.016762912,0.2721864,-0.5838117,0.35807544,0.36949953,-0.15533486,-0.028713696,-0.09555906,-0.25627947,0.4380908,0.235383,0.20532548,0.14260373,0.28247136,0.36856806,-0.0961813,0.068678014,0.02850803,0.33655748,-0.13131942,-0.07822316
Afrobeat,-0.29174194,0.25775486,0.19697255,0.4302709,0.13486746,-0.475724,-0.263698,-0.46479312,-0.16407867,-0.1348307,0.13752745,-0.14257073,-0.4592545,-0.7671985,0.45692232,0.124507084,0.19137724,0.37395784,0.22781129,0.16462952,0.119944304,0.44189864,0.0806889,-0.18018286,0.27086824,-0.2579832,-0.078292996,0.0804158,0.027145062,-0.12140411,-0.06618772,-0.46469733
Country_Blues,0.22765842,-0.68456095,-0.16378938,-0.3434678,0.098463394,-0.4838165,0.2681846,-0.006111406,-0.55904984,0.27057257,-0.12691036,-0.94866794,-0.40373164,-0.12672131,0.35270154,-0.09507634,0.07343043,0.18801785,0.1726817,0.048257057,0.48433232,0.06679392,0.5351701,-0.05848673,-0.5799465,-0.07995961,-0.3414346,0.057488125,0.24313754,-0.45290563,-0.1521149,-0.03309694
Symphonic_Rock,-0.39438525,0.06664381,0.34825295,-0.27717486,0.053357854,-0.085180566,0.061342657,0.057861485,-0.104391634,-0.09688724,-0.068486325,-0.62991333,0.22582877,-0.11976681,0.034544535,0.16016799,0.08079503,0.0024077443,0.10208354,-0.17436017,0.84585744,0.113452174,0.92031276,0.21336627,0.40026066,0.014795607,0.38483253,0.059684973,0.24742132,0.0031887332,0.069710165,-0.29573262
Freestyle,-0.27591956,-0.2185892,0.050423022,-0.069982514,0.1782859,-0.3482668,0.16713996,-0.058721244,0.059086975,-0.14158244,0.49577734,-0.329959,0.13913637,-0.61737865,0.19088368,0.33833176,-0.1212629,0.22753043,0.20613736,-0.1515466,0.06399737,0.287565,0.25399172,-0.34943983,0.2247304,0.2954872,-0.005605818,-0.09209731,-0.15623651,0.25140947,0.08572228,-0.028325694
Celtic,-0.089388765,0.1370502,0.08279406,0.19364157,0.05876067,-0.32498136,-0.12385164,0.1263049,-0.20403606,0.20808208,-0.28603074,-0.7416957,0.557748,-0.32890293,0.18823461,-0.121499605,0.04595489,0.20710479,-0.11440338,0.45318654,0.25612617,-0.19266368,0.40431926,-0.15350622,-0.2041862,0.13252246,-0.23633038,0.30656156,0.5435709,-0.10178225,-0.062022477,-0.0024849826
Lounge,-0.068284854,-0.0553865,0.08558039,0.102184564,-0.16155411,-0.43848255,0.5869489,-0.020028647,-0.15241924,-0.40059194,0.1681457,-0.28557143,0.018564386,-0.3101406,0.035258748,-0.082439505,0.21077064,-0.07915104,-0.16024804,0.019305704,0.09614369,0.5804559,0.38502106,0.1082127,0.17768212,0.08761722,0.06149503,0.28696707,0.07991378,-0.07534258,-0.09626313,0.018990057
Southern_Rock,-0.2297491,-0.42358214,0.21286893,0.15728377,-0.05216517,-0.33623487,0.008833964,-0.044346716,-0.46721473,-0.1633914,0.19511794,-0.8234685,-0.18408051,-0.23995917,-0.009825526,-0.014687605,0.14304247,0.21577264,-0.09961158,-0.43222478,0.6302092,-0.06593183,0.6561033,0.07409189,-0.29616308,-0.23522761,-0.06449148,-0.31191355,0.13587558,-0.20137578,0.16830143,-0.07091665
Symphony,0.058397558,-0.8418456,0.9031971,0.09756148,-0.32191363,0.07194781,-0.013289067,-0.20539892,-0.41429177,0.43901616,-0.41444388,-0.5630313,0.445206,-0.20491183,0.25528717,0.6297606,-0.2571462,0.39067045,-0.6497765,0.5448863,0.114846304,1.4803543,-0.005191971,-0.17022154,0.22703923,0.013515642,-0.20647024,0.14527534,0.50719255,0.121788405,0.65951204,0.014416402
Poetry,0.25998002,-0.1626285,-0.116150804,0.1583877,-0.14927696,-0.03282911,-0.23764831,0.31003156,0.18476209,-0.3251574,0.019192234,-0.4479889,0.2707892,-0.23835692,0.30843207,0.031051815,0.08420104,0.61394554,0.32565257,0.56365836,0.11635507,0.44969562,0.6327926,0.17718652,0.20252928,0.016920974,-0.0005210669,0.3720807,0.13849269,0.19359405,-0.19240516,0.5824154
Bluegrass,-0.03773501,-0.3022385,0.13987663,0.32956666,0.31797403,-0.5112356,0.35271317,0.029206693,-0.14575605,0.1518231,-0.021578286,-0.84032553,0.14764766,-0.32568648,0.5074558,0.11498613,0.18866992,0.35632285,-0.10351604,-0.1300453,0.36908585,-0.077201106,0.12348799,0.37201083,-0.8056435,0.09771403,-0.32693395,0.18929356,0.41032496,-0.45636034,-0.14313665,0.25069138
Dream_Pop,-0.085933745,0.03237587,-0.053474892,-0.06946117,0.2160529,-0.50032467,-0.031785864,0.2271095,-0.17404345,-0.21544537,0.57097113,0.024719598,0.047027532,-0.2707308,0.23057747,-0.38958085,0.17211197,-0.18393861,0.07232617,-0.3673909,0.46907446,0.36508912,0.5669372,-0.09906251,-0.10542212,0.3180216,-0.124307126,0.2656363,0.7646732,-0.1942987,0.3710793,0.30095145
Bossanova,0.2689825,0.13759722,-0.29135814,0.5332002,0.008556627,-0.35581636,0.43895295,-0.10723493,-0.07825421,-0.14099103,0.15558733,-0.052543703,-0.04295293,-0.443214,-0.19636029,0.425811,0.73516667,0.25694644,-0.16730538,0.03732868,0.5951277,0.7752738,-0.022510879,-0.726572,-0.15071134,-0.34865993,-0.08896122,0.35271543,0.16279067,0.07325671,-0.20151445,-0.101163074
Mandopop,0.018558357,0.03660487,-0.07679009,0.25314865,-0.077598624,-0.17948562,0.6123341,0.338761,-0.19625776,-0.06166922,0.20648196,-0.3671673,0.53805774,-0.39879718,0.4432119,-0.04378028,0.10056702,-0.24248064,0.2735189,0.33000892,0.14144564,0.06843146,0.42239922,-0.49283263,0.15144414,0.24527405,0.04587398,-0.11956538,-0.07304929,-0.2206911,0.24590823,-0.22557066
Video_Game_Music,0.039074432,-0.4567056,-0.19721346,0.273193,-0.06082423,-0.06356568,0.28416502,0.14443901,-0.19094312,-0.5739361,0.01909778,-0.60230017,0.21589242,-0.06537122,0.36452067,-0.035559732,0.059559934,-0.21529081,-0.59438133,-0.28465033,-0.051093742,0.54315746,0.28294447,-0.054558545,0.46846732,0.18492413,0.21676947,0.15720698,0.4083048,0.41619024,-0.22793993,-0.3330384
Sonata,-0.15007968,-0.5274431,0.3776644,0.48125488,-0.405995,-0.053221695,-0.31553933,0.053740546,0.1650423,0.6153282,-0.13176027,-0.696211,0.56317705,0.13203435,0.7027143,0.5218377,-0.23042582,0.077209465,-0.5842795,0.6286638,0.29829007,1.1975763,0.115647994,-0.05022711,0.40687764,-0.19572838,-0.46827495,0.06319527,0.63683844,0.030529592,0.93316364,-0.15409352
Sound_Collage,0.077474095,-0.15892835,-0.012272324,-0.14497134,-0.081002526,-0.20794562,-0.10456187,0.31331748,0.04156126,-0.36804238,0.35968718,-0.31564662,-0.06642804,-0.46595126,0.096252374,0.14128882,-0.3293264,0.16777492,0.16143309,-0.3231905,-0.03168289,0.3616934,0.377305,-0.09152332,0.5027473,-0.0061887656,-0.24593255,0.5482399,0.30295473,0.22820543,0.2088136,0.31081972
Chillwave,-0.41849178,-0.012062518,-0.39020753,-0.079981424,0.07396801,-0.6539185,0.16817304,-0.05735443,0.06648604,-0.31850603,0.39004636,-0.20949106,-0.18764563,-0.5521391,0.069804266,0.14303929,-0.16068098,-0.11767084,-0.26778418,-0.25362226,-0.14329603,0.25635996,0.4265666,0.12828176,0.319843,0.54967564,-0.30103803,0.38051456,0.5374689,0.08791801,0.43835425,-0.2460108
Impressionist,0.014008097,-0.46975294,0.6324439,0.15503705,-0.438783,0.011441971,-0.03976271,-0.2816355,-0.04495495,0.33930412,-0.22365065,-0.59481174,0.5927872,-0.06710366,0.5976393,0.43647543,-0.2412457,0.1923697,-0.53176486,0.505194,0.12305177,0.92189795,0.27104846,-0.024834493,0.3884048,-0.23331082,-0.44878346,-0.14856547,0.6311474,0.20965458,0.5120067,-0.09268748
Flamenco,-0.06876098,0.2111746,-0.0005150715,0.43405107,-0.16761328,-0.30957827,0.35163513,-0.39010793,-0.51422787,-0.36777592,0.4407739,-0.59604055,0.15107559,0.0736352,-0.012176289,0.28253427,0.07556134,0.41603187,0.39599112,0.64257365,0.2323115,0.22476526,-0.13907355,-0.58263505,0.24871816,-0.28364542,0.25143677,-0.06901311,0.5544229,0.31530738,-0.31883922,-0.044817906
Ranchera,0.18022013,0.18056813,-0.7273229,0.27622303,0.32851872,-0.007490291,0.41520762,-0.49219593,-0.29834303,0.24162692,0.838696,-0.65155214,1.0292127,-0.3477981,-0.21030657,0.5523097,-0.16110767,0.37415737,-0.07728739,0.7741853,0.49688876,0.2539736,-0.15558146,-0.219599,-0.3761246,-0.9827463,0.14065233,0.34705892,0.25423852,-0.25275004,0.13731539,0.119955964
Neo_Soul,-0.36673307,-0.2022535,-0.13444564,-0.08060858,-0.3984072,-0.21463594,0.20953701,-0.2036935,0.06737805,-0.3629138,0.37024748,-0.42701036,0.23513795,-0.6643207,0.57099146,-0.18427819,0.27668026,0.18343922,0.05335226,-0.02097861,0.29138824,0.39947194,-0.016207878,-0.16955458,0.06859701,0.14783072,0.047281425,0.13405432,-0.29476303,-0.23684719,-0.104042605,-0.19766074
Speed_Metal,0.34688306,-0.22115637,-0.09586215,0.12302582,-0.557116,-0.40256047,-0.26566035,0.50603926,-0.51478463,-0.2765057,0.42216438,-0.34811524,0.36388606,-0.17534396,0.19660386,0.36576545,-0.5072512,0.37228802,-0.18107525,-0.54835767,0.91066015,-0.13955,0.57632774,0.57501537,0.3032097,-0.08736371,0.8613466,0.06452551,0.19467804,-0.1299952,0.12230758,-0.32364953
Nu_Metal,-0.028231224,0.08620859,-0.0063564014,0.17016947,-0.51540464,-0.032661326,-0.22801676,0.14876527,-0.45408356,-0.04415663,0.4667856,-0.05533067,0.09624721,-0.46372834,0.54718375,0.05408033,-0.40941957,-0.14908594,0.06489365,-0.58493704,0.7188569,0.052920666,0.52549225,0.26880506,0.3112058,-0.06136176,0.30178106,0.1452604,0.31403774,-0.17597741,0.14071359,0.10258381
Dungeon_Synth,0.40179127,0.08927761,0.28341863,-0.53613645,-0.10698116,-0.23815714,0.004526489,0.19718309,-0.12829243,-0.41028753,0.35124266,-0.8376907,0.072766826,-0.8131586,0.095124185,0.37526837,-0.18109545,-0.016454393,-0.49636358,-0.31711915,-0.2074105,-0.16000918,0.2089809,0.13909785,0.10525815,0.15623082,0.118494526,0.16487715,0.893402,0.28618106,0.21054639,-0.2264438
Power_Metal,0.12965707,0.027923973,-0.088401906,0.13390557,-0.32851368,-0.2572185,0.05999622,0.371928,-0.46856543,-0.19454402,0.36967507,-0.5321594,0.14502774,-0.20250355,0.25168693,0.4325218,-0.47320676,0.1469572,-0.31948048,-0.6609737,0.97206444,-0.39992082,0.74662274,0.42052436,0.5655541,-0.172825,0.9033101,0.094352305,0.26408315,-0.184817,0.38863143,-0.080839224
String_Instrument,0.016976915,-0.6598432,0.5410912,0.38695768,-0.35477227,-0.2638705,-0.076206625,-0.15196513,-0.016145915,0.63300747,-0.20654163,-0.5231476,0.60206723,0.040987898,0.4105831,0.6730133,-0.15304805,0.30248398,-0.55291945,0.5742601,0.27971455,1.3293803,-0.09635936,0.055572707,0.5572353,-0.034351442,-0.14565265,-0.10467691,0.75425875,0.003930471,0.85342485,0.07645615
Chamber_Music,-0.03354755,-0.43591297,0.41830227,0.27393788,-0.53662145,-0.06516346,-0.13453543,0.016426628,0.11670199,0.7289795,-0.07601861,-0.8220776,0.5785698,0.05306926,0.6100352,0.5141925,-0.09477913,0.025130736,-0.5679865,0.60683525,0.18128648,1.1564643,0.12982605,-0.016388182,0.5377861,-0.27474442,-0.3450771,-0.102266446,0.71637464,0.24406058,0.7166261,0.20072298
Minimal_Techno,-0.04866812,-0.17011163,0.01677365,-0.13654394,-0.031165794,-0.21554632,0.2095794,0.20479754,0.34403262,0.06360914,0.59159374,-0.2136806,-0.04913026,-0.50992674,0.110044755,0.13253668,-0.7063318,0.14213239,-0.02576636,-0.022019843,0.5945481,0.2028385,0.30611193,-0.33111387,0.13682842,0.21162255,-0.33846676,0.44547212,0.016513413,0.47623616,-0.08778165,-0.101820484
Story,0.29649827,-0.2952511,-0.5378924,0.48407936,-0.13258234,0.21274866,-0.09566243,0.75317,0.2262175,-0.3972047,-0.36703995,-0.5538128,0.16382328,-0.24349149,0.6184875,0.17266324,-0.0868301,0.5680467,0.32519555,0.37493715,-0.03993934,0.97958285,0.42582548,0.23715352,-0.19795816,0.028262671,0.2074375,-0.09369399,0.45011404,0.16178238,-0.111338526,0.53957474
Berlin-School,0.022631811,0.035252478,0.07879056,-0.39653504,0.2998225,-0.39721167,-0.02435149,0.04044699,0.10513738,-0.18428335,0.06735202,-0.6118207,-0.025779014,-0.4182387,-0.12681974,0.18051413,-0.24661946,-0.12522382,-0.18992393,-0.10384353,0.15000132,0.17868301,0.49067014,-0.1634006,0.60427654,0.26514646,-0.26236176,0.4441555,0.56014574,0.24917722,0.0103034265,-0.042593475
Volksmusik,-0.6351244,0.22285175,-0.07044506,0.5736248,-0.14059032,0.20049137,-0.14489621,0.14963971,-0.34560534,0.21595477,-0.030636769,-0.58565664,0.76413673,-0.3066474,-0.011558226,0.553715,0.2052354,0.30617607,-0.12072669,0.6820146,-0.082232594,0.44332245,0.38189715,0.050645135,-0.30499303,0.16052738,0.09273907,0.40614504,0.30505848,-0.5669648,-0.29736435,0.51055
Marches,-0.49988803,-0.053132206,0.22733845,0.24152781,-0.15199798,0.18634968,-0.45620808,-0.062186725,-0.15006961,-0.34519148,0.08331443,-0.6054526,0.47052464,-0.3054885,0.13416322,0.93392336,-0.11443153,0.05611627,-0.6550722,0.800073,-0.21269499,0.5362401,0.39208078,-0.24992192,-0.445915,-0.111978196,-0.12170307,0.31766906,0.3074578,-0.5235403,-0.46165538,0.37567928
Dixieland,-0.02478267,-0.014848854,-0.10370667,-0.16699657,-0.06329111,-0.28080657,0.3730655,0.24525814,-0.3575345,0.20085613,-0.47358778,-0.64226955,-0.55017173,-0.08235075,0.5244594,0.66581494,0.04422791,-0.48950636,-0.013150607,0.37704936,0.34742448,0.6696486,0.4791921,-0.33599764,-0.18500966,-0.28944167,-0.081923306,0.3660335,0.1293643,-0.5643527,-0.39137352,0.07885199
Space-Age,0.16306305,0.10464196,0.17024653,0.21102746,0.121081255,-0.6328856,0.6376607,-0.2852255,-0.27686024,-0.5019238,-0.16566017,-0.43556142,-0.22133142,-0.34834647,0.08355296,0.11869576,-0.0019522524,-0.30403298,-0.13048366,0.30673975,-0.008951598,0.7345651,0.0980878,0.21060866,0.31969175,-0.15027772,0.06807464,0.31361476,0.05248802,-0.29313022,0.07122794,0.21866131
Acid_Rock,-0.4660041,-0.21765208,0.3081021,-0.046137158,0.19507727,-0.61285836,0.034910325,-0.05127601,-0.43346766,-0.35994142,0.10702276,-0.3279465,0.11721516,-0.28226978,-0.23972577,-0.2193127,0.04005368,0.3580086,0.061274845,-0.57459515,0.4633528,0.15869868,0.5605814,0.020902202,0.13441841,-0.16067734,0.2050789,0.24628186,0.32052743,-0.14589898,0.3495895,0.20774065
Anison,0.2882922,-0.51045877,0.11351564,0.42052448,0.12874973,-0.0075585437,0.21572496,0.32447803,0.108696565,-0.6639308,0.18613572,-0.46596378,0.4189692,-0.31182924,0.8217285,-0.27321357,0.054126095,-0.39569595,-0.35057613,0.063955605,-0.15977922,0.40974835,0.47768795,-0.5809704,0.25214982,-0.1776366,0.38616896,-0.39538568,0.36843356,-0.0399855,-0.0571427,-0.24038649
Calypso,-0.075193636,0.008309554,-0.08193804,0.27176383,0.13646066,-0.16995247,0.08378401,0.23726557,-0.71589935,0.5300024,0.14443493,-0.44464278,-0.44648865,-0.84912854,-0.102465585,-0.014044321,0.27749285,-0.40491876,0.39641076,0.41331196,0.2281791,0.74941456,-0.07393982,0.22745596,-0.0209352,-0.7413978,0.105876476,0.06987068,0.10228013,0.1640248,-0.32634908,-0.6243434
Speedcore,0.0904031,-0.41125146,-0.037325073,-0.0063108685,0.34100187,-0.351656,-0.06734347,0.19064213,-0.8868756,-0.3545096,0.38151607,-0.050402638,0.30050072,-0.16108273,0.07129978,0.7074472,-0.69678575,0.061423022,-0.04541639,-0.6580319,0.03952811,0.24809238,0.3277191,-0.1447938,0.14105725,0.28126556,-0.22318359,0.49611777,0.15922302,0.22988611,-0.015288053,-0.1921699
Dialogue,0.08429141,-0.39474845,-0.45792788,-0.048528794,0.054917563,0.10135259,-0.27163056,0.46057728,-0.036609832,-0.34212884,-0.19065616,-0.5645627,0.044284016,-0.11797916,0.49746767,0.07546421,-0.08241828,0.5335034,-0.0639213,0.106711164,-0.04085561,0.6907598,0.97883916,-0.021393038,0.11430267,-0.2497466,-0.0641646,-0.053889558,0.1659302,0.07825233,-0.33688977,0.57617205
Descarga,0.11111875,0.5855267,-0.48902345,-0.09652972,0.10469535,-0.21655501,0.33893624,-0.5113584,-0.46350318,-0.10129671,0.6639933,-0.47749308,0.029283227,-0.4046434,0.27362034,0.3390046,0.45632425,-0.031160658,0.054931432,0.6840517,0.4883717,1.0020638,0.31830686,0.06748704,-0.24342011,-1.0925457,0.06822438,-0.004011431,0.16490129,0.4997466,0.051731154,-0.40904924
Organ,0.16388151,-0.33211944,0.5059909,0.09935015,-0.440168,-0.04163822,0.36074242,0.07375996,-0.20147893,0.22023389,-0.20790765,-0.5317123,0.64586556,0.12326931,0.541331,0.40060875,-0.28139606,0.2586555,-0.29189155,0.63172984,0.0451126,1.0254248,0.09167104,0.3339783,0.015360337,0.07760589,-0.3052242,0.26451656,0.70373636,0.29823762,0.6786409,-0.09458922
Post-Metal,0.19472668,0.14320302,0.53632355,-0.30466595,-0.27581814,-0.8459635,-0.22117592,0.6464461,-0.70983154,-0.33041298,0.18506962,-0.06219273,-0.1874497,-0.8717429,0.2045248,0.24050795,-0.20764893,0.05006088,0.026498253,-0.5960044,0.2891066,-0.07593363,0.100461625,-0.11660218,0.51333827,-0.10550795,0.46115905,-0.020524696,0.6728846,-0.19603084,0.2775122,0.27187967
Modal,0.59425086,0.042153656,-0.17239867,0.06555808,0.04744876,-0.8091035,0.26341194,-0.7705711,0.14430091,0.111339316,-0.13150436,-0.6626913,-0.36922392,-0.37296668,0.65387267,0.47033316,0.28737068,-0.2214004,0.17562817,0.1661614,0.42153522,0.536488,0.115379125,-0.108914845,0.36839837,-0.047226466,0.5054288,0.67869276,-0.2905387,-0.16707562,0.14461076,0.08463745
Thug_Rap,-0.69772273,-0.027208874,-0.9413048,-0.26005912,-0.70047414,0.022994213,0.1368974,-0.11037162,-0.24023713,-0.18821752,0.3160506,-0.47542068,0.038527593,-0.7602872,0.77395093,-0.11683043,-0.23597774,-0.10901833,0.3584146,-0.50859374,0.5966047,0.3122991,-0.3215435,-0.31883055,0.75372976,-0.16704527,-0.20676775,0.36292636,0.08483286,-0.2116937,0.35103056,0.16685332
Electroacoustic,0.3794428,-0.16532128,0.18523565,-0.3576339,-0.08412324,-0.42728183,-0.014444402,-0.04597594,0.21263193,-0.3226737,0.5122425,-0.46862185,0.20370491,-0.45986307,0.017133147,0.26241946,-0.2868682,0.15686752,0.17232144,-0.16282293,-0.007841387,0.10560705,0.33795488,-0.066021256,0.5919197,-0.10010783,-0.33807984,0.45053756,0.25252277,0.2390121,0.4243422,0.16287425
Cut-up/DJ,-0.52386,-0.21855254,-0.5068969,-0.059335068,-0.37949282,0.16399418,0.27328178,-0.19191916,-0.30414638,-0.3361283,0.55199486,-0.14200771,0.11067564,-0.63660866,0.48873633,0.12458877,-0.18940666,0.15734099,0.027021725,-0.3067628,0.26181978,0.16703801,-0.12890728,-0.38638467,0.5172283,0.014681018,-0.56120217,0.50221145,0.13899916,-0.2540584,-0.06489738,-0.024366353
Hard_Bop,0.6816926,-0.04954212,-0.1325238,0.13403325,0.03386384,-0.6219316,0.35847977,-0.7153448,0.008162241,0.21078438,-0.12127916,-0.39770257,-0.30243984,-0.3741785,0.9244747,0.5325484,-0.046311963,-0.33137995,0.49444202,0.20744434,0.42618912,0.66205734,0.29177323,-0.07821163,0.2931274,-0.2968775,0.36616135,0.6146759,-0.4095413,-0.37430382,-0.023667121,0.16390797
Interview,0.274931,-0.48525503,-0.102865264,0.05989759,-0.12509911,-0.0057459157,-0.11143072,0.43601573,0.037105747,-0.42795894,0.016569749,-0.21176371,-0.008670945,-0.2141552,0.17772648,0.14798544,0.010264671,0.5675384,0.23967822,0.19802754,0.5238236,0.57935876,0.7518898,0.14366148,-0.014967018,-0.1709235,0.090573356,-0.00020828642,-0.008877199,0.039990544,0.106203556,0.50362706
Guajira,-0.077394836,0.79144776,-0.38134733,0.10492909,0.09463127,-0.09588032,0.4648495,-0.21591066,-0.6136263,-0.1546675,0.6882063,-0.6207011,0.12547976,-0.38534006,0.16326956,0.22935875,0.33586192,0.27788016,-0.0005838137,0.65725815,0.5427218,0.7397498,0.20361732,-0.17035161,-0.21296088,-1.0893382,0.13980855,-0.14321877,0.2499064,0.47771582,0.031157756,-0.23156105
Harsh_Noise_Wall,0.327244,-0.10010234,0.53227276,-0.12602387,0.2815576,-0.13552998,-0.3036915,0.21286176,-0.2099369,-0.5010317,0.6432379,-0.5925064,0.17524368,-0.5177866,-0.1611939,0.17837042,-0.4008279,-0.08164624,0.24929301,-0.3170334,-0.043868985,0.13426222,0.34385517,-0.09725313,0.3065826,0.041177183,-0.110474385,0.62240225,0.2270192,0.14496435,0.11633969,0.08853619
Jazzdance,-0.09312373,-0.044314608,-0.048445005,0.05238642,-0.021172326,-0.5898471,0.3939159,-0.29293817,-0.04080163,-0.2319816,0.51621425,0.071335405,-0.03398124,-0.7944937,0.36117882,0.31332698,0.2997916,0.2879104,-0.19765577,-0.06615482,0.3072587,0.29244685,0.045451466,-0.09495908,0.37256637,0.2010425,-0.031680614,0.19402204,-0.24865574,0.27216753,-0.3221809,-0.10729638
Electric_Blues,0.012789668,-1.2088158,-0.08284287,-0.28843075,-0.21284337,-0.29123062,0.14105424,-0.39858308,-0.47190663,0.11522755,0.07677885,-0.6817596,-0.33196786,-0.051977914,0.15837424,0.119099915,-0.044241957,0.1316602,0.2729042,0.03088789,0.796139,0.14749886,0.5410106,-0.48531613,-0.49976522,-0.102056436,-0.13812152,0.0059055057,-0.057614088,-0.49429458,-0.14147305,-0.29527467
Deep_Techno,-0.06413841,-0.019588517,0.18893655,-0.21942665,0.0105429785,-0.36757714,0.1306149,0.1782038,0.2556,0.096424244,0.49436778,-0.010971462,-0.020974053,-0.67626613,0.24619092,0.21584088,-0.69156605,0.07436377,-0.4866576,0.15597716,0.56759495,0.098644085,0.3481803,-0.4580741,0.32494622,0.3242705,-0.350109,0.38721287,0.015269983,0.4552158,-0.12640232,-0.023888152
Afro-Cuban_Jazz,0.14727765,0.5568867,-0.35783258,0.23325676,-0.042655896,-0.40584213,0.36212364,-0.52003986,-0.21380496,-0.25344956,0.10992314,-0.36388814,-0.2610297,-0.57149744,0.45592114,0.40873677,0.35519984,-0.21976838,0.37280804,0.44858298,0.26777822,0.6283785,0.21869819,0.05699842,0.18087658,-0.46812692,0.19947499,0.3178418,-0.12292911,0.088919446,-0.1270376,-0.27740943
