style,0,1,2,3,4,5,6,7,8,9,10,11,12,13,14,15,16,17,18,19,20,21,22,23,24,25,26,27,28,29,30,31,32,33,34,35,36,37,38,39,40,41,42,43,44,45,46,47,48,49,50,51,52,53,54,55,56,57,58,59,60,61,62,63
Experimental,0.044091195,-0.24620278,0.17169128,0.2674613,0.19696726,0.027121754,0.060615025,0.11934419,-0.29071012,0.008879933,-0.07578067,-0.104539156,0.09988544,0.10862158,0.13231595,0.3207597,0.061212976,0.2125497,-0.32799757,0.23664537,0.09399397,0.13732708,0.17299818,-0.30637696,-0.18387619,0.09744384,0.0059325034,-0.025859445,-0.11273652,-0.33204842,0.11408019,0.015905043,0.05966206,0.00421653,-0.16171414,0.0021367522,-0.0448529,0.06845414,0.24976635,0.20108809,-0.09102094,0.17732078,-0.042673476,-0.06271622,-0.24738841,-0.115090765,-0.14105715,-0.07991919,0.04073909,0.2643508,-0.18953171,-0.12312643,0.1678192,0.46081915,-0.008288564,-0.12819588,0.28583282,-0.20969917,-0.15065013,0.25426647,0.13681765,0.104814775,0.14242226,-0.031153133
Ambient,0.04475982,-0.24119933,0.0131530585,0.25232378,0.01933462,-0.09325127,-0.028764779,0.15925147,-0.3328778,-0.10768643,0.12798184,-0.1379561,0.009220221,0.17138712,0.099936426,0.22639391,0.06857179,0.27471444,-0.24657194,0.19620077,0.04973218,0.17248365,0.21220629,-0.24257833,-0.30379975,0.22671846,-0.1481505,-0.09023353,-0.020256976,-0.37252066,0.033004574,0.0010618499,0.059980318,0.12579079,-0.37610102,0.06568319,-0.013098124,0.016267233,0.17314194,0.09557876,-0.12682936,0.04993748,0.019214502,-0.05826424,-0.28712365,-0.09646115,-0.049287032,-0.16263852,0.3755308,0.25091064,-0.260211,0.0014693653,0.26412183,0.40648118,0.23683524,-0.040178906,0.41114005,-0.13889864,-0.16679122,0.124769285,0.012822765,0.24372487,-0.14941527,0.017154973
Pop_Rock,0.24528593,-0.2275024,0.44118127,0.0421962,-0.09454261,-0.17116496,-0.14303473,0.08567365,-0.11537631,-0.11531116,0.1201665,-0.08172294,-0.09196606,0.026196811,-0.051918317,0.090298295,-0.08611501,-0.101211496,-0.07439493,0.23242538,0.46068355,-0.12841833,0.23553783,-0.11209761,0.068267934,0.3407342,-0.170924,-0.31339553,0.011551119,-0.0779738,0.0123243015,0.21461307,0.17813326,0.04969662,0.00032964163,-0.006739454,-0.014138382,0.22761881,0.08366656,-0.017493581,-0.15886457,-0.021456325,-0.13177137,-0.10508419,0.016300334,-0.060620908,-0.11265281,-0.122200206,-0.10427782,-0.07681401,-0.084277384,-0.18139948,0.055617716,0.32144213,-0.04905139,0.21342474,0.0051930607,0.10894713,-0.03559726,0.11876323,-0.0028013042,-0.24134026,0.21624255,-0.041130494
House,0.07523966,-0.5057598,-0.12740535,0.24447401,-0.1558566,0.19593628,-0.13534354,0.0684352,-0.28217825,0.1731196,-0.038021468,-0.21946904,-0.030769497,0.4240202,-0.14199299,0.4199833,-0.1287643,0.08044653,-0.095913246,0.19877148,0.2490019,-0.052326787,0.36407343,-0.22915497,-0.058494516,0.17736353,-0.09386744,-0.17078634,-0.053752374,-0.1957637,-0.15277189,-0.1695133,0.14719762,-0.147246,-0.32268423,0.37268442,0.06702605,0.19118898,0.23957834,0.072360046,-0.05790741,-0.2704444,-0.04745356,0.02106363,0.17296237,-0.0674882,-0.06353509,-0.14592326,-0.04354879,0.13254818,-0.43939757,0.0973602,0.29196495,0.42798153,0.18356965,-0.025020953,-0.16639246,0.025485512,0.004652204,0.20014893,-0.065085,0.09744246,-0.00436032,-0.049410123
Techno,0.17096242,-0.5603279,-0.13477537,0.34775713,0.11403121,-0.0581378,-0.08600413,0.17191277,-0.24353185,0.13461801,0.4371166,0.037965868,-0.0716522,0.2710423,0.099091195,0.44491136,0.014040242,-0.018050803,-0.15892525,0.08832011,0.14098045,-0.017621396,0.18897006,-0.3607856,-0.07868036,0.21380606,0.17966361,-0.22488932,-0.15996705,-0.37915742,-0.09944519,-0.27058455,-0.08824344,0.00970073,-0.17119324,0.4511809,-0.06075133,0.08234812,0.30686915,0.0116711045,-0.24514078,-0.28229737,-0.007781537,0.027840525,-0.030806486,0.06326472,-0.095463954,-0.23850565,0.20213807,0.18784098,-0.3644175,-0.012112003,0.37019807,0.37847468,0.06997395,-0.045410402,0.056263056,-0.053376473,0.058361568,0.25587296,0.031170668,0.13194466,-0.015524523,-0.052036446
Synth-pop,0.09150393,-0.5054489,0.32859582,0.31852004,-0.18629493,-0.13003433,-0.073648155,0.02201655,-0.20277987,-0.06226104,0.036497105,0.08833664,0.076106705,-0.02722921,-0.06393114,0.18467137,-0.011100547,0.038365237,0.033869695,0.21476991,0.17396736,-0.07406011,0.34602675,-0.2145712,-0.01799709,0.22714,-0.14302948,-0.05143864,-0.057977073,-0.33134845,-0.022684904,0.12486136,0.1131405,-0.01537694,0.005713822,0.12073801,0.02916897,0.15716438,0.14411862,0.12344005,0.18213446,-0.109437585,-0.2156283,-0.08433775,0.035033602,-0.019290835,-0.17128927,-0.39885366,0.07300601,0.06849927,-0.29156566,-0.04059005,0.10669295,0.31350425,-0.02230944,-0.05529682,-0.094752066,-0.054209962,-0.05215037,0.14751819,-0.17244096,-0.07337655,0.091569595,-0.019778762
Punk,0.24315655,-0.3614086,0.32139286,0.033859536,-0.034463875,0.019247497,-0.12420028,0.16989812,0.076478176,-0.21883187,0.3572708,-0.18229441,-0.1501662,-0.073009744,-0.0004533137,0.17871685,-0.11597467,-0.17471994,-0.32245454,-0.041051,0.2649052,0.13773817,0.2236775,-0.2648831,-0.35013288,0.47142994,-0.10340511,-0.069819696,-0.42679906,-0.55131805,-0.07364942,0.33991882,-0.02215528,0.16552739,-0.117982395,0.19982068,-0.06958823,-0.23986599,0.17250359,-0.0026485398,-0.32742122,-0.027113426,-0.108703144,-0.042253766,0.00077284646,-0.27449936,0.025836242,-0.11628391,-0.25410017,-0.07206176,0.08961769,-0.07864117,0.04773187,0.33717585,-0.21248133,-0.3465899,-0.09581717,0.046031296,-0.08015081,0.2851921,0.36458147,-0.22751936,0.4468183,-0.042419724
Electro,0.21675,-0.4885549,0.0719874,0.31243145,0.112180844,0.021935552,0.024782803,0.015038881,-0.11801222,0.03533787,0.17617361,0.08667006,0.09305456,-0.015432613,-0.007848101,0.42845717,-0.029963631,0.05337605,-0.1604723,0.20757642,0.25772715,0.019026428,0.30691397,-0.14090906,-0.23237899,0.12145747,-0.009832289,-0.24674472,0.0772646,-0.3912808,-0.020008007,-0.1635823,0.08138165,-0.0024487716,-0.19427086,0.23564672,0.0146145765,0.005926709,0.3102796,0.04817605,0.06910011,-0.14490779,-0.029019786,-0.11907119,0.012457684,0.0700455,-0.11598873,-0.19965857,0.1015877,0.01447344,-0.33831695,-0.07173113,0.324519,0.28705376,0.14065956,-0.07815835,-0.08284257,-0.12973985,0.005655394,0.12206574,-0.13639133,0.10620524,-0.00016967622,-0.053214155
Vocal,0.014621376,-0.22098245,0.2820762,0.06593253,-0.12569278,-0.22041777,-0.09767875,-0.07245849,-0.18989454,-0.060059413,0.1623716,0.042930778,-0.2724309,-0.065984756,0.055032995,0.14725451,0.007879095,0.04790405,0.17612894,0.34283125,0.23815459,-0.00130575,0.20167786,-0.13862754,0.14328438,0.28799644,-0.40044,-0.2902658,0.19918407,-0.098252796,0.0919965,0.010999854,0.10226212,0.010724199,-0.18293056,0.05705453,-0.020932894,0.21152091,-0.028601607,-0.030076446,-0.0975274,0.09559379,-0.2818447,0.24615496,0.2909383,-0.050605543,-0.057609785,-0.28101075,-0.0076709264,0.046944894,0.3123232,-0.013986503,0.27177438,0.05371853,-0.10444916,0.29648107,0.035205714,-0.020592202,-0.005015294,0.10994242,-0.058131754,-0.17874286,0.19231993,-0.21938649
Ballad,-0.07397291,-0.3029609,0.38251537,0.072467566,-0.1311334,-0.20233195,-0.10678529,0.06952295,-0.106852375,0.11143859,0.08879984,-0.05298218,-0.20008978,-0.004800814,-0.11760047,0.046162665,0.036350865,-0.112258956,0.15082586,0.3753431,0.34945732,-0.11150864,0.1410964,-0.36620334,0.100895144,0.2818114,-0.23036095,-0.28653863,0.13351105,-0.15427157,0.17319626,0.26050904,0.07229543,-0.010784027,0.03776106,3.6686975e-05,0.20338194,0.15299734,-0.064817205,-0.00908141,-0.022852356,-0.12036556,-0.0984452,-0.05691632,0.21624717,0.022275317,0.04289542,-0.1301947,-0.14781407,0.110375375,0.028929995,-0.16374823,0.2342144,0.2865717,-0.047255926,0.2395492,0.012654748,-0.035745252,0.013151731,0.06972475,-0.16091077,-0.13546866,0.08362702,-0.20678666
Alternative_Rock,0.37396178,-0.38080308,0.37915507,0.0318484,0.050523523,0.037792347,0.057419233,-0.041992594,-0.11870287,0.034202762,0.023080058,-0.19310367,-0.11353478,0.08267308,-0.03316984,0.19112802,-0.11810181,-0.1010335,-0.30815864,0.0466639,0.273462,0.0070419856,0.16492608,-0.2709993,-0.116729654,0.14682393,-0.2782098,-0.12775837,-0.0883589,-0.46819204,0.039403316,0.22154953,0.12919354,0.18835326,-0.14032166,-0.09806108,0.06419105,0.12398229,0.11454963,-0.11156231,-0.083480895,-0.21521097,-0.27248758,-0.19731374,-0.13611732,0.031314053,-0.016126882,-0.09195902,-0.203242,-0.07654115,0.053267285,-0.18535744,0.048786297,0.3905212,-0.11006366,-0.02152121,0.01651788,-0.12913062,-0.27917156,0.346233,0.24609342,-0.097902626,0.16626434,0.0852294
Downtempo,0.04624815,-0.3495284,0.0146447215,0.3305716,0.037552178,-0.0068521607,-0.2132146,0.20075259,-0.2594529,-0.13283347,0.072760224,-0.12060558,-0.07631003,7.677538e-05,0.034260828,0.29886955,0.071766995,0.2757454,-0.061767466,0.19446428,0.19579525,0.04802435,0.119475186,-0.15910482,-0.121947594,0.117567666,0.008446325,-0.21585953,-0.013735195,-0.30933782,0.13879572,-0.06268894,0.02415173,0.0733499,-0.3461618,0.1648966,0.13529122,0.03539567,0.23701173,-0.019789191,0.021594362,-0.15097862,-0.0950079,-0.04742496,-0.032540314,-0.17611,-0.016135622,-0.081236586,-0.08413098,0.20229794,-0.42015865,-0.045384597,0.26891303,0.500405,0.1459889,-0.17160408,0.16620399,-0.06458621,0.016036319,0.15731166,-0.1009146,0.033681422,-0.11268429,0.0960629
Hardcore,0.24854688,-0.2625508,0.07103888,0.09830273,0.19341758,-0.09266991,0.17351113,-0.07525941,0.18259436,-0.17980872,0.20977841,-0.35116053,-0.009413863,-0.050230816,-0.1921666,0.28304565,-0.19106013,0.05666504,-0.40012193,0.19068927,0.37122482,-0.010453775,0.2905815,-0.6490274,-0.2712609,0.24372233,0.087847516,-0.08843153,-0.19280827,-0.43397743,-0.081538185,-0.029395359,0.032343864,0.45276555,-0.21868655,0.5453105,0.11587965,-0.046444047,0.28901833,-0.097666726,-0.41570765,0.1163525,0.08275193,0.02530892,0.07272319,-0.1911081,-0.019997811,-0.21390982,-0.032409146,-0.12756096,-0.09254747,-0.20268488,0.25524405,0.31860122,0.069703266,-0.22909725,-0.2944256,-0.35067633,0.07905799,0.17677628,0.40908986,-0.16737802,0.37209737,0.044447616
Indie_Rock,0.5483658,-0.29714254,0.3366012,0.04404247,0.043091513,0.040999155,-0.0041026445,-0.15929289,-0.062151738,-0.021399109,0.1149294,-0.09367873,0.011674565,-0.10614097,-0.029767951,0.18639913,-0.123034604,0.017681638,-0.42146376,0.023106327,0.33492854,0.07573837,0.16527578,-0.14945902,-0.090376094,0.10750232,-0.3335123,-0.06595438,-0.09292537,-0.31064722,0.20500648,0.06161692,0.3558353,0.071670525,-0.14034216,-0.019119212,0.17836522,0.106834546,0.047792178,0.03160851,-0.06347948,0.0014710365,-0.34008977,-0.17748003,-0.18848214,-0.07628484,-0.08411027,-0.041813582,-0.10301088,-0.124826215,0.0014452363,-0.103866965,0.15174247,0.3324001,-0.12692866,-0.057588972,0.14510621,-0.033344604,-0.14025658,0.28880548,0.22013904,-0.18441853,0.20270273,0.059889898
Disco,0.27196392,-0.41261482,0.307981,0.17150182,-0.31017247,-0.20306158,-0.08763812,0.22716959,-0.3235018,-0.037816934,-0.027034374,-0.012330125,0.103108875,-0.057397913,-0.24896002,0.3878875,0.031793106,0.09207721,-0.046472885,0.2554475,0.41360828,0.089859806,0.098432,0.058473386,-0.0720786,0.26814255,-0.09445659,-0.047171503,0.20446809,-0.08575419,-0.19543302,-0.09547611,0.09502886,-0.019300018,0.006308333,0.22927731,0.006925949,0.30777463,0.08587001,-0.011975182,0.0517606,-0.10850965,0.08053089,0.026924826,0.034923747,0.041508585,0.07031675,-0.16690639,-0.20644401,0.17433102,-0.20218416,0.019982459,0.26460925,0.3165198,0.01144404,-0.068228334,-0.16004981,0.014776638,0.08086682,0.095416844,-0.19813286,-0.07646459,-0.07926718,-0.050844308
Soul,0.14450347,-0.26034933,0.48829728,0.09388389,-0.106730625,-0.13164416,-0.20835117,0.08549534,-0.40656337,-0.0038627044,-0.0611253,-0.033785045,-0.16038531,-0.043119878,-0.096156016,0.42869094,-0.115141734,0.15440138,0.017276274,0.22016743,0.55061555,0.259888,0.004681275,0.08834622,-0.14324977,0.18523635,-0.14684258,-0.17145161,0.014066145,-0.060580213,-0.17196122,0.16841471,0.054715034,-0.023982452,0.106936224,0.20188157,0.07725642,0.27290004,0.05844874,-0.009524047,0.2551705,-0.001976621,-0.01688391,0.100571625,0.1580624,-0.15681349,-0.2475305,0.046758905,-0.2898871,0.12972246,-0.25943732,0.0780672,0.26908708,0.088554084,0.12952384,0.16998747,-0.055674825,0.22121973,-0.09644586,0.04674891,-0.105045855,-0.18180896,0.09576245,-0.0439751
Folk,0.2578163,-0.20090422,0.29306933,-0.045094993,-0.04750968,-0.30961242,-0.06949556,-0.12542152,0.019870788,0.17665727,0.16594616,-0.045212734,-0.16577964,-0.15932976,-0.075952366,0.014351275,0.042320393,0.020626279,-0.40781546,0.30807525,0.0009266555,-0.0063385344,0.1493383,-0.3270985,0.0687771,0.37306765,-0.010592146,-0.21199699,0.11305194,0.15914233,0.22578754,-0.11544205,-0.0094349,0.025852103,-0.13722655,-0.02721884,-0.14073867,-0.02530891,-0.32264003,0.06171944,-0.015677199,0.045619547,-0.4452493,-0.04030075,-0.077570654,-0.30700886,0.057994764,-0.19475497,-0.26713744,0.13689974,-0.12993287,0.171155,0.16219203,0.028629888,-0.13653994,0.19080967,0.33265185,-0.15414837,-0.18775004,0.21905959,-0.3103153,0.07687447,0.22353463,-0.11133988
Industrial,0.34854063,-0.22223902,0.35215047,0.3366839,-0.04210061,-0.13974607,0.17530096,0.05283469,-0.038684558,-0.1684794,0.030786421,-0.114836454,0.18348417,0.24836177,0.14355507,0.46801046,0.13121507,-0.03502954,-0.15127553,0.24109614,-0.0034615942,-0.025628597,0.34570566,-0.19663835,-0.35427067,0.14219716,0.051515765,-0.18088737,-0.011637917,-0.59256643,0.06348323,0.07901176,-0.2221082,0.039498,-0.17242,0.02019188,-0.17152236,-0.11638067,0.39737576,0.16898422,0.08864258,0.19203146,0.0073349015,-0.12091803,-0.0859613,-0.031781532,-0.17723885,-0.080937356,0.25648776,0.09218646,-0.31895927,-0.07228978,0.18967512,0.47800025,0.024161795,-0.0838219,0.10181985,-0.15207145,-0.077955455,0.23960681,0.10361872,-0.026062243,0.26621652,-0.09492824
Psychedelic_Rock,0.37132627,-0.21684085,0.6467879,-0.1482511,0.03832277,0.11968843,0.121068805,0.09087057,-0.23280473,-0.03256468,0.07734967,-0.00391196,-0.13860905,0.14945816,-0.00264216,0.47430962,-0.15688781,-0.06737839,-0.29632923,0.12085499,0.26323488,0.04309294,-0.041643888,0.07804462,-0.2312179,0.15756032,-0.20767435,-0.18359508,-0.008637693,-0.12942937,-0.001763061,0.27929553,0.3269963,0.18043871,-0.09176336,-0.024017472,0.24503452,-0.017985977,0.0890567,-0.021762265,-0.3292215,0.14619958,-0.11654073,-0.09358516,-0.27404416,-0.14957775,0.029664489,-0.26441112,-0.17330213,0.013945399,-0.059813403,-0.20813496,0.18047214,0.27622545,-0.10714016,-0.01019985,0.17125879,-0.10139185,-0.17302305,0.056230213,-0.009751594,-0.027303208,0.32710904,0.17060627
Noise,0.3191,-0.2511625,0.29737303,0.40867293,0.02996631,-0.029970217,0.29825962,0.2197544,-0.2566336,0.004090149,0.18601921,-0.13044178,0.17083022,0.15588526,0.077581935,0.31081492,0.12070041,0.22479036,-0.36899143,0.08048078,-0.052719407,0.03242287,0.3086684,-0.35812664,-0.27561623,0.21773139,-0.16240428,-0.11388162,-0.2174554,-0.35310835,0.24765444,0.032853678,-0.115367815,0.21651773,-0.042589802,0.024944978,0.0051432764,-0.120777786,0.22995777,0.3077379,-0.2804744,0.25837776,0.13648605,0.12742858,-0.16366176,-0.1531262,-0.30319932,-0.05281372,0.012477449,0.005049762,-0.2993594,-0.046916164,0.12050875,0.4194153,0.16133745,-0.049818892,0.28045034,-0.40977794,-0.06641792,0.15448771,0.0867032,0.008749963,0.17741382,-0.034727797
Funk,0.26110792,-0.30579054,0.38099557,-0.018445842,-0.15485048,-0.16670921,0.034855135,0.001966751,-0.4059293,-0.1458087,-0.14218473,-0.14024206,0.105642855,0.010175765,-0.15304534,0.30930313,0.04436945,0.13172776,-0.15480545,0.36374313,0.30631304,0.23488171,0.11757665,0.0254025,0.038219176,0.291421,-0.11396583,-0.3640976,0.113816135,-0.15550701,-0.26125556,0.21885848,0.055523343,0.038305257,0.069112055,0.23284413,0.14615479,0.24012493,-0.04508674,0.00027582757,0.25270566,-0.1983779,-0.06736122,0.14839783,-0.010232099,-0.12956673,-0.0982319,0.12774587,-0.24475722,0.31072205,-0.04573319,0.017877623,0.22915685,0.17157735,0.010100834,-0.014373402,-0.32348672,0.30375758,-0.021668756,-0.016941044,-0.059459206,0.037917092,0.0060502817,-0.10431468
Abstract,0.21782933,-0.23891445,0.1679243,0.37893024,0.13562305,-0.08994686,0.0027848203,0.11250766,-0.33641562,-0.13582112,0.15443864,-0.03416272,0.093639694,0.13404469,0.051702254,0.39367828,0.16292283,0.14920576,-0.28502092,0.1528623,-0.00018091775,0.15806173,0.31778637,-0.23255225,-0.24739124,0.021299813,0.07328348,-0.11011018,-0.0393321,-0.25049043,0.25691766,0.06767289,0.05287505,0.036514338,-0.19091618,0.028982332,-0.011443252,0.025510548,0.26808044,0.15341099,-0.21932054,0.0143672805,-0.046802975,-0.05435477,-0.09413276,-0.12771393,-0.18377015,-0.057364754,0.077730134,0.22620998,-0.2454449,0.019407308,0.2632085,0.38189656,0.13202527,-0.15169297,0.32638046,-0.061496124,-0.11160921,0.15211438,0.16295825,0.14450067,-0.013834087,0.08341626
Rock_&_Roll,0.42623562,-0.17733438,0.72410536,-0.05527049,-0.03374464,-0.011135081,-0.2816881,-0.160864,-0.1375634,-0.13876823,0.0071390574,-0.029571624,-0.13002783,0.1046189,-0.06063913,0.119005054,-0.05946999,0.12673502,-0.07885924,0.08430404,0.55728984,-0.027312962,0.066011705,-0.08973625,-0.19712633,0.3281134,-0.2816711,-0.08629183,0.12137082,-0.014537764,0.1407033,0.38235956,0.037987515,0.18737414,0.0101342825,0.41348794,-0.035654947,0.084214725,0.028828284,0.08525528,-0.019395601,0.055612892,-0.11432991,0.08353577,-0.027499652,-0.12644772,-0.0054355413,-0.21781321,-0.1507665,-0.02063382,0.013911216,0.03358823,0.088951305,0.24408765,-0.069162264,0.1549002,0.206294,0.066196434,-0.004875053,-0.19873658,0.28280443,-0.07935485,0.17149106,-0.29879507
Soundtrack,-0.0057684607,-0.6045468,0.16960905,0.3271628,-0.082449935,-0.3490429,0.08101944,-0.119146705,-0.4356345,-0.1715822,0.15763345,-0.3206635,-0.008068522,-0.09657066,0.27326846,0.11991949,-0.07122363,-0.20228487,0.2847894,0.18145266,0.17858025,0.58825713,0.22488599,-0.22548099,0.07676054,0.24125865,-0.17482965,0.035036016,0.1317596,-0.011354612,0.029970579,0.037939746,0.11745353,0.039559457,-0.08845617,0.036030367,-0.17345203,0.21103646,-0.0823715,-0.1802874,-0.39770308,0.17712747,-0.2874298,-0.3336284,0.034822762,-0.16170874,0.067210965,0.33867303,-0.11307185,0.08523423,-0.2280336,-0.08065753,0.016078297,0.12359763,0.102858245,0.1786167,0.041728288,-0.23635805,-0.17786579,-0.17583205,-0.018637668,0.13259763,-0.029032674,-0.23867558
Folk_Rock,0.3136667,-0.3375311,0.39421204,-0.04961959,0.033505514,-0.114629716,-0.0660235,0.00026656812,0.05298748,0.21033041,-0.01828774,-0.04182445,-0.29406416,-0.10881921,0.07130462,0.14786957,-0.07858858,0.055237927,-0.50172424,0.20481865,0.37573805,0.04578936,0.14629745,0.014657931,0.13756007,0.09732027,-0.21514527,-0.15095004,0.035122592,-0.19272321,0.05217047,0.22261396,0.11833608,0.25452533,-0.05592444,0.03278915,0.06292611,-0.10452903,-0.029396545,-0.037204117,-0.08850411,0.058422476,-0.2794604,-0.15452874,-0.035240628,-0.09795834,0.15644656,0.035282377,-0.0627182,0.030693347,0.03473225,-0.13584746,0.2818901,0.27738684,0.10523597,0.21431026,0.20964506,-0.06556275,-0.20007241,0.42037705,-0.019227592,-0.2188398,0.27411085,-0.016225878
Trance,0.067788914,-0.5484656,-0.12398924,0.29987308,-0.21868846,-0.06893159,-0.21089038,0.23125604,-0.084449455,0.21137397,0.26171118,-0.29419464,-0.11795279,0.28149134,0.010647887,0.5386123,-0.41895342,0.31158727,-0.20020428,0.04493077,0.24490826,-0.3285593,0.42366505,-0.27224568,-0.18548025,0.35837027,-0.013689567,-0.4424007,-0.12811373,-0.37371993,-0.11053908,-0.18653463,0.08648907,-0.11627044,-0.14219998,0.27816072,0.06205665,0.0075702025,0.38765883,-0.18889959,-0.19259867,-0.014413735,-0.43222147,0.09085541,-0.008769,0.1285607,-0.12199297,-0.08279645,0.2946104,0.22195241,-0.44073278,0.11252769,0.3033885,0.11676865,0.05196276,-0.18963785,-0.13099419,-0.061934024,0.13647191,-0.11535973,-0.10125044,0.020639421,-0.015338163,0.19640027
Minimal,0.09405487,-0.3161466,0.07596703,0.19393128,-0.02953718,0.07013262,0.002780915,0.03258185,-0.3447857,-0.10268766,0.16986728,-0.07042257,0.20514059,0.3980536,0.037385855,0.28114703,-0.14587256,0.01738539,-0.22417422,0.32251534,0.041744526,-0.036165763,0.2091829,-0.13340983,-0.21823,0.31358227,0.027861942,-0.019830411,0.11222371,-0.35308218,0.05218564,-0.016635364,0.10698361,-0.298927,-0.3095862,0.323114,-0.10487719,0.049762703,0.38168535,0.11296569,-0.15483537,-0.21566592,0.04355274,-0.17967072,0.027361594,-0.011985596,-0.26430193,-0.097566746,0.08124535,0.2310566,-0.11117648,-0.17692128,0.49703306,0.29687774,0.19794682,-0.28300783,0.17610984,-0.10818623,-0.08956191,0.25658342,-0.023473559,0.16997343,0.06628444,0.05031624
Hard_Rock,0.4281612,-0.026860923,0.37275854,-0.16658202,-0.15518527,-0.074480936,-0.07027965,-0.07675586,-0.1425511,-0.15039442,0.06129577,-0.006300711,-0.05330016,0.07395798,0.12391623,0.47788334,-0.11182548,-0.084562466,-0.16215922,0.011278659,0.4078525,-0.00854997,0.16692722,-0.06385562,0.011275051,0.36697394,-0.123923995,-0.048533406,0.05139589,-0.3544258,0.051394727,0.32781887,0.035402477,0.5403488,-0.3237652,0.09108531,-0.012399017,-0.028552903,0.1848655,0.083076574,-0.3632499,-0.10459454,-0.10807024,-0.101197794,-0.02477068,-0.043775164,0.21460131,-0.07067092,-0.26760745,0.42640322,-0.08452647,-0.31870902,-0.19774157,0.518154,-0.075769536,0.37165177,0.023376886,-0.00018627483,-0.015318886,0.10916867,0.16654022,-0.15735543,0.6458643,0.23987311
New_Wave,0.32044613,-0.5137465,0.18617481,0.24147493,-0.035490178,-0.022564879,-0.04433832,-0.17226838,-0.15469112,-0.10609833,0.021377621,-0.029609818,0.031667776,-0.06220325,-0.08153596,0.2913372,-0.03314026,0.013283149,-0.0695687,0.06445093,0.3448556,0.092011146,0.28653806,-0.076348685,-0.06054693,0.1812672,0.03201407,0.04285422,-0.06259536,-0.36591217,-0.13820073,0.1147117,0.17137031,0.045789875,0.10311994,-0.05031066,0.16225497,0.13854523,0.20909932,0.13549842,-0.041337036,-0.09453413,-0.011129176,-0.035726577,-0.08900696,-0.086899765,-0.030473331,-0.38424,0.01898844,-0.017332654,-0.06215228,-0.015789798,0.10716718,0.40006673,-0.25053272,-0.020917675,0.29654607,-0.022619816,-0.19489245,0.21013305,0.12229188,-0.2245023,0.340026,-0.03272147
Drone,0.23614962,-0.14253846,0.24541193,0.5836278,0.15413688,-0.027567264,0.11465162,0.17264499,-0.32467297,0.014851934,0.18685435,-0.015659425,0.040765334,0.033806,0.19472943,0.19796479,0.21028942,0.16649027,-0.21624337,0.1368229,0.054391075,0.095562056,0.2828862,-0.34028283,-0.20773792,0.06402206,-0.046099037,-0.02543632,-0.037073113,-0.17628966,0.30242383,0.16768645,0.04613699,-0.012421793,-0.21740636,0.18416928,0.08927072,-0.13408561,0.15310992,0.12107547,-0.09247345,0.1214482,0.03138618,0.05991792,-0.1279129,-0.07749052,-0.17385699,0.008513334,0.142866,0.40713975,-0.42098355,-0.102542415,0.27340758,0.32334048,0.00051689293,-0.1696371,0.40260804,-0.16640894,-0.16912559,0.38431105,0.2954167,0.13335137,-0.024060884,0.0017702586
Deep_House,0.24081558,-0.5070114,-0.3430435,0.14106716,-0.24823639,0.2770794,-0.0903182,0.09928125,-0.34021917,0.10338925,0.13531287,-0.09459709,-0.049513757,0.10139803,-0.050087836,0.42805558,-0.2636862,0.040675182,-0.19182032,0.18847223,0.26756567,-0.030172015,0.2053916,-0.064437844,-0.27405766,0.15892728,0.31023216,-0.17178923,0.010709084,-0.33202502,0.09627983,-0.120214865,0.08721279,-0.12407954,-0.15439074,0.49091217,0.0973089,0.40941128,0.3732296,0.10643716,-0.12743206,-0.363769,0.01022432,-0.016425218,-0.054630477,-0.09451326,-0.24670081,-0.2172348,-0.16091126,0.18708225,-0.35668504,-0.01939149,0.35546923,0.47820005,0.1948756,-0.05630246,0.14511439,0.00929434,0.0056463787,0.073192164,-0.05408942,0.09359346,-0.093540445,-0.2572702
Romantic,-0.16007878,-0.17337477,0.13919571,-0.14384371,-0.15522458,-0.47677618,-0.06546215,-0.6299358,-0.898312,0.22881912,0.042621974,-0.3321407,-0.31364796,-0.1789089,0.3106149,0.15928265,-0.3965058,-0.11932309,-0.1536094,0.48691294,0.21162036,0.54701173,0.31612688,-0.2655419,0.15953946,0.12412846,0.08027594,-0.23481281,0.45668778,0.065537184,0.06894141,0.2200573,-0.045092452,0.21005024,-0.2849328,-0.07618079,-0.57435656,-0.24355838,-0.52407837,0.5207805,-0.13299133,0.086089306,0.21022333,-0.008609675,0.047132898,0.055216204,-0.23553309,-0.19989327,0.23754427,-0.03880155,0.30531335,0.17172168,0.36610165,0.41952923,-0.197864,-0.15213785,0.44387063,-0.32801452,0.28037673,0.066656336,-0.26609656,-0.20741507,-0.023734927,-0.10240525
Euro_House,0.060431052,-0.5612389,0.038870487,0.0044471277,-0.21816309,0.076956734,-0.3116684,0.21625255,-0.1049408,-0.0742683,-0.0105956495,-0.032374848,0.019593032,0.2685541,-0.15146543,0.08970636,-0.34791544,0.013617955,-0.03541252,0.22506697,0.5800666,-0.095942274,0.5409708,-0.29097983,-0.06365702,0.22613677,-0.054868843,-0.1435152,-0.018379455,-0.2579167,0.0036660705,-0.2484902,-0.0097536985,-0.0661403,-0.018998142,0.3585813,0.03812074,0.0818941,0.3258673,-0.12783672,-0.1815727,0.096117996,-0.21533686,0.12460265,0.28392076,0.2809527,0.052174,-0.06327867,0.091281444,0.087338,-0.47779292,0.046186507,0.24469872,0.44464305,-0.09831045,-0.014123417,0.04177875,0.10656499,0.1790679,0.09470183,-0.30471838,-0.0016459187,-0.026337843,0.24037665
Breakbeat,0.16692646,-0.15053543,-0.14307764,0.14890207,-0.022164876,-0.030858988,-0.232593,-0.030793576,-0.124394454,-0.27053386,0.31658652,-0.21967365,-0.21420728,-0.010220311,-0.13250042,0.4136252,-0.044830084,0.2149665,-0.07464401,0.190638,0.29400843,0.024912145,0.1913158,-0.44715026,-0.2971401,-0.13526218,0.023920855,-0.1747033,-0.11455382,-0.41591915,0.05479955,-0.086305924,0.05525265,0.14442486,-0.08753605,0.35721216,-0.10590018,-0.037554454,0.19588974,0.032750897,-0.14455925,-0.13021787,-0.2002161,0.024448868,-0.057995964,-0.20803967,-0.04273822,-0.25435174,0.07983717,0.13880624,-0.6056185,0.018998107,0.2837902,0.44973305,0.3221267,-0.25677896,-0.15202066,-0.09363993,0.029475268,0.030661898,-0.0761598,0.017420972,0.019314881,-0.08476497
Easy_Listening,0.014709194,-0.34754154,0.18617478,0.16921142,-0.07977714,-0.11514599,0.09696424,-0.07345135,-0.18601255,-0.19680688,3.761937e-05,-0.21751696,-0.18418618,0.11106155,0.21775232,0.12990594,-0.037211575,0.2688954,0.09717603,0.2962732,0.2866233,0.20375101,-0.21218006,-0.0752875,0.13713254,0.1681916,-0.12447754,-0.3390217,0.3826124,-0.12102937,0.18648939,0.2350582,-0.03718496,0.036599673,-0.17008677,-0.0091948155,0.017947344,0.068091765,0.010532115,0.089585006,-0.08414086,0.19707553,-0.14101605,0.18773152,0.40583113,-0.48760206,0.04147297,-0.12451372,-0.10527736,-0.06396535,-0.0036996265,0.08215307,0.18138061,0.10139923,-0.4729839,0.29499996,-0.19484837,-0.19244905,-0.05602211,0.31071764,-0.15660432,-0.048012678,-0.17661287,-0.4691936
Tech_House,0.30434832,-0.5658682,-0.303475,0.43484053,0.07021245,0.11333871,-0.077312805,0.12021383,-0.24306603,0.2520902,0.28064495,-0.17640312,-0.30720392,0.44554102,-0.14575785,0.3363261,-0.07263545,0.0018031471,-0.058377612,0.31394932,0.26421925,-0.0064804154,0.26188797,-0.05722517,-0.14014514,0.32163346,0.06798565,-0.100323185,0.074747056,-0.2783555,-0.08812828,-0.034739785,0.21979623,-0.04051503,-0.08401375,0.37507877,-0.016059566,0.10133284,0.4492696,0.10662362,-0.104572006,-0.44824797,-0.0020702693,-0.07414404,-0.09640125,-0.034276154,-0.02377194,-0.1530162,0.1525192,0.097538866,-0.43132672,0.13841116,0.24800242,0.3813136,0.25025377,-0.26275346,0.18646054,-0.09400143,0.28678262,0.16787185,-0.108467765,0.03971658,-0.015220952,-0.1016948
IDM,0.12388373,-0.2815072,0.10475175,0.2669127,0.22732274,-0.11771917,0.14320323,0.16875081,-0.29573914,-0.14138184,0.16497278,0.007669531,0.11286788,0.06379909,-0.010214666,0.40588704,0.21992704,0.08786039,-0.16351484,0.3165358,0.16569057,0.072436996,0.23527694,-0.28662682,-0.27774963,-0.1385439,-0.08743556,-0.105374806,-0.1865707,-0.349566,0.03302539,-0.19441561,-0.058208227,0.062497903,-0.2786412,0.19397834,-0.10095306,0.0033770285,0.36328238,0.055831205,-0.27625075,-0.1535156,-0.19404873,-0.061640657,-0.13032639,-0.1770509,-0.2054993,-0.121347725,0.21192135,0.22676821,-0.2274475,-0.03265104,0.41500327,0.5283155,0.1268218,-0.20011836,0.18549804,-0.10699063,0.010846067,-0.017392088,-0.020298108,0.10961479,-0.014391787,0.102793716
Prog_Rock,0.5360666,-0.06393995,0.35012594,-0.11393765,0.13612041,0.024200356,0.24724612,0.1580091,-0.16924068,0.037308667,-0.10031139,0.03320733,-0.36437494,-0.04258144,-0.011246196,0.29836595,-0.14713043,0.073334835,-0.31966424,0.045438148,0.27474976,0.240947,0.2656375,-0.021477066,0.05793622,0.27665606,-0.120024905,-0.11941312,0.24858199,-0.36437088,0.067011096,0.004008063,0.2934585,0.23057331,-0.003074593,0.020905398,-0.06524726,0.08681489,0.129556,0.12809832,-0.21912254,0.22418384,-0.18079822,-0.16155683,-0.33175677,-0.055314988,-0.1202759,-0.09815937,-0.069835454,0.26972204,-0.2449762,-0.39362904,-0.22101434,0.37757382,-0.20603985,0.23234256,0.013005346,0.09487291,-0.21972995,0.20782715,-0.06569154,-0.15461583,0.28319553,-0.011680572
Chanson,0.0012445113,-0.3024701,0.3043435,-0.022431921,-0.066474654,-0.14232448,-0.15119681,0.11775478,-0.10973838,0.0009204783,0.16888174,-0.16704221,-0.12751655,-0.10480832,-0.03643906,0.16196279,-0.054149076,-0.120688334,-0.043124277,0.39829916,0.24918851,0.013244458,0.024221491,-0.0044305883,0.1442776,0.46351382,-0.3184418,-0.084064126,0.41363835,-0.14007142,0.05122844,0.19219667,0.12100859,-0.08436838,0.048682895,-0.17238195,0.043789383,0.082523145,-0.082638025,-0.0690647,-0.053205866,0.18844308,-0.26137748,0.1274796,0.15843566,0.07435518,-0.081399456,-0.2316954,-0.0038988611,-0.121650554,0.04492431,0.06463076,0.17646195,0.3904357,-0.064396225,0.27371562,0.11661438,-0.037013832,-0.058654226,-0.046356928,-0.0919934,-0.022080759,0.1792249,-0.3671485
Rhythm_&_Blues,0.28437424,-0.27704188,0.7101196,-0.092826106,0.05551593,-0.056762755,-0.38219246,0.09257049,-0.253034,-0.2511412,-0.04523441,0.07119415,-0.123215064,0.0058879904,0.10733674,0.25356176,0.018438244,0.03949533,-0.16568914,0.2347497,0.4626936,0.17007163,-0.09558304,-0.35669512,-0.2021512,0.38923952,-0.5670356,-0.3496983,0.059178874,0.28886682,-0.18274887,0.066549815,0.05443357,0.040801156,0.07894944,0.39416838,-0.042790413,0.1454861,0.15776028,0.07961784,0.29885423,-0.044155568,0.22559036,0.07532708,0.068048574,-0.100056246,0.1349446,-0.056813672,-0.16884264,0.22115509,0.043885767,0.010648046,0.21557109,0.090854555,-0.084603876,0.15286092,-0.1057658,-0.0064046886,-0.02971726,-0.044219937,-0.074531175,0.070225105,0.21527511,-0.18987016
Garage_Rock,0.41740698,-0.2708942,0.600131,-0.13631868,0.08239587,0.16448471,-0.0035707129,-0.04312743,-0.19270043,-0.25194427,0.023386102,-0.26845512,-0.17192012,0.26619035,0.030669807,0.15476215,-0.056730095,-0.07302826,-0.19328837,-0.04057564,0.38242057,0.110754944,0.11673847,-0.34091493,-0.2017232,0.23997691,-0.32442877,-0.0024426756,-0.025300186,-0.1712937,-0.046549648,0.1625903,0.36456412,0.2847802,0.03112625,0.124788046,0.030859046,-0.04098799,0.20930359,-0.016060347,-0.19034511,-0.020813387,-0.23718368,0.13885081,-0.1846327,-0.08839478,-0.07126606,-0.19367945,-0.22934133,-0.10910611,0.016771043,0.016662303,0.12020295,0.28189027,-0.09229535,-0.1687669,0.21120259,0.016890055,-0.011472562,0.034220245,0.25916916,-0.27048704,0.3929608,-0.07229448
Soft_Rock,0.24270685,-0.33357882,0.33367038,-0.07023434,-0.13466914,-0.2718999,-0.26080963,0.017280476,-0.043326307,-0.03434081,0.007943624,0.09938607,-0.14758381,-0.10492284,-0.07149615,0.15444885,-0.06772979,0.04647283,-0.076222636,0.28276023,0.3820358,0.047166858,0.16841906,-0.09684777,0.13811299,0.32366857,-0.2081904,-0.18454546,0.049228948,-0.2793699,0.0109910965,0.06281333,0.23703696,0.19852233,0.07924369,-0.0023085605,-0.06674344,0.1271359,0.08009781,0.03846619,-0.13044982,-0.044043638,-0.07479073,0.021802833,0.21754874,0.053219993,-0.040819284,-0.27587745,-0.16357003,0.11141653,0.0006766018,-0.1760018,0.128267,0.16234004,0.036813736,0.29189643,0.14086947,0.029680474,-0.114647284,0.21346596,-0.08540847,-0.100567386,0.16452922,0.046825588
Heavy_Metal,0.133281,-0.14671059,0.40809193,0.08491029,-0.023141755,0.0018957519,0.26965895,0.06374249,0.1300562,0.05830649,0.05571685,-0.2588116,-0.26150322,-0.0893547,-0.11101586,0.5422181,-0.10344539,-0.19485691,-0.3202559,0.041770753,0.60663533,0.15182953,0.31352207,-0.03827453,-0.6076428,0.3044972,-0.3432571,0.063494675,0.18693879,-0.22567669,0.122348554,0.31337655,-0.13089688,0.36394787,-0.3020403,0.09742116,-0.12547615,-0.26550627,-0.049934678,0.080162875,-0.28502634,-0.26426455,0.051705018,0.09822715,-0.040488508,0.051437534,0.11565085,-0.14622097,-0.21267718,0.18580216,-0.182692,-0.49275637,-0.20396884,0.4559661,-0.10945958,0.22616053,-0.03870793,-0.049727578,-0.026614755,0.219853,0.34320274,-0.095344566,0.48206484,0.2195316
Dub,0.3971385,-0.36715895,-0.2036825,0.12427714,0.11665509,0.069970064,-0.035392266,0.07168371,-0.48815233,-0.19796376,-0.07454257,-0.023325128,0.010646315,-0.13139358,-0.05149185,0.3977478,0.036679365,-0.031845998,-0.05509419,0.39851892,0.42450225,-0.070269525,0.0012985171,-0.35035574,-0.24296589,0.18047395,-0.06252157,-0.26327768,0.2297113,-0.4387456,0.17761391,-0.12424463,-0.12402052,-0.01696515,0.0417683,0.25756073,0.2155986,0.021532262,0.08052543,-0.17985167,-0.019919198,-0.075463526,-0.010883375,0.19989428,0.020535083,-0.4020116,-0.16677278,-0.20394345,0.23049575,0.12864478,-0.07158983,0.17932914,-0.061420638,0.26577356,0.5418239,-0.43886086,0.25332582,0.14617051,-0.39826682,0.18660033,0.026984345,0.16778255,0.044395402,0.17792729
Acoustic,0.37436742,-0.19872639,0.39120802,-0.09906344,-0.12049865,-0.13936682,-0.11628324,0.059585724,-0.06667727,0.10957887,0.10634696,-0.17777686,-0.15579905,0.012489009,0.12388324,0.04590041,-0.019850448,-0.05844901,-0.35350266,0.13127445,0.40710998,-0.07653953,0.123586856,-0.095266305,0.028304404,0.22350954,-0.23602463,-0.116951756,-0.07813272,-0.30605322,0.07464453,0.13444598,0.17107248,0.034931816,-0.17438155,-0.082127474,-0.05964206,0.032494105,0.02144486,0.0093452195,-0.10468658,-0.017558163,-0.21485111,-0.17859861,-0.108869314,-0.17665654,-0.085452765,-0.18721244,-0.27389225,-0.056033224,-0.07310852,-0.0463904,0.13563874,0.10909338,0.04933339,0.064259954,0.36054486,-0.1786621,-0.059222296,0.15852077,-0.17707723,-0.00557392,0.16240463,0.09388892
Europop,0.09822316,-0.46060398,0.26927906,0.08134575,-0.1910285,-0.13824424,-0.29956457,0.02038665,-0.22152483,0.018507188,0.1561143,0.09521128,0.04704605,-0.030989485,-0.18424147,0.0662291,-0.2914405,0.07566663,0.13406864,0.34309715,0.14327213,-0.2031924,0.42718023,-0.24533764,-0.0142230885,0.3366338,-0.15570703,-0.11866018,0.12526037,-0.19941677,0.06412841,0.096178144,0.17948827,-0.042049095,-0.07274761,0.15148771,0.1542551,0.26578027,-0.042927735,0.07908362,-0.115346104,-0.0097493045,-0.38538373,0.004146278,0.31006703,0.16361278,-0.0839576,-0.16315761,0.021178247,0.18245983,-0.2694479,0.23515502,0.12785858,0.28274584,0.10652227,0.21693687,-0.089162536,0.102597445,0.1067991,0.12670538,-0.10288124,-0.062134076,0.14988515,0.11004442
Dark_Ambient,-0.04579947,-0.28339878,0.18724667,0.2471854,-0.042875975,-0.046168827,0.05844022,0.09208458,-0.20741405,-0.33181685,0.0710776,-0.15425017,0.18087052,0.1349771,0.17061172,0.3889347,0.20257188,0.22220907,-0.39391583,0.35299483,0.039382968,-0.008856104,0.37171996,-0.19668469,-0.28029993,0.14320987,-0.012879903,-0.055894658,-0.054642916,-0.44925073,0.26504558,0.15810047,-0.008656836,-0.03979611,-0.22314969,0.14369558,0.07731277,-0.14476688,0.1848289,0.18455671,-0.1916718,0.21102586,0.04176377,0.13919537,-0.35162348,-0.0414706,-0.1990431,-0.07506801,0.18124776,0.055048265,-0.25118685,-0.04798818,0.19781518,0.33507285,0.12986772,-0.066636786,0.50596774,-0.26594913,-0.020471677,0.124319285,0.15908879,0.16581842,-0.11089667,-0.018453453
Classical,-0.15513638,-0.13591017,-0.0541545,0.051733922,0.052319046,-0.46437272,-0.2358984,-0.39779544,-0.93336433,0.23201786,0.0018442739,-0.41393596,-0.17122792,-0.20759338,0.28146866,0.11752247,-0.33538035,-0.15551232,-0.23960899,0.46369967,0.23966189,0.42160976,0.23586825,-0.344882,0.13065194,0.1463493,-0.0442116,-0.20265597,0.45791426,0.15871184,-0.032544967,0.04901334,-0.055166554,0.057128023,-0.27923006,-0.0797182,-0.5330057,-0.19183867,-0.29034698,0.35545862,-0.35371804,0.20543551,0.19544016,-0.033256013,-0.110091075,-0.011867859,-0.3188174,-0.28620812,0.16130728,-0.1000404,0.08617322,0.24532819,0.27208567,0.1393834,-0.24574447,0.1539018,0.19330737,-0.122328125,-0.14859076,0.13843922,-0.15229169,-0.28293553,-0.06486992,-0.1796318
Blues_Rock,0.5136506,-0.31037155,0.51328987,-0.35523126,0.046258274,0.05171836,-0.087932646,0.072785504,-0.11336355,-0.08508578,-0.01347843,0.029631801,-0.40605342,0.10854424,0.12300844,0.28511277,-0.023282867,-0.18312751,-0.27270535,0.24943377,0.47112143,-0.063563086,0.21421023,0.024788503,-0.033783842,0.059937507,-0.5813544,-0.15540856,0.020126902,-0.22511458,-0.118535675,0.2397387,0.030457398,0.18335629,-0.07751091,0.1477233,-0.09431172,0.074661955,-0.022871535,0.12138452,-0.18335359,0.1608432,0.07110871,-0.23556665,-0.0079770405,-0.08522485,-0.01962313,-0.08601418,-0.2238044,0.25119123,-0.07881924,0.06361374,0.046043333,0.16138408,-0.24236685,0.12240251,0.06776665,0.12095571,-0.25196892,-0.072224006,0.0101746395,-0.18650748,0.2194014,0.10482466
Acid,0.04787251,-0.6182422,-0.04808216,0.25222898,-0.082474664,-0.08001935,-0.014921723,0.11956981,-0.07329992,0.010249596,0.31808427,-0.19778556,-0.03892915,0.4089821,0.049345966,0.48270765,-0.18754907,0.13025992,-0.31110168,0.29508865,0.053879246,-0.18297914,0.12654059,-0.28697887,-0.25061092,-0.025457019,0.1572529,-0.19069968,-0.06624708,-0.4954274,-0.047219824,-0.21376272,-0.01357303,0.008647616,-0.2231828,0.27631477,-0.11118032,-0.12939747,0.3148327,0.03343284,-0.15916823,-0.10005117,-0.08074189,0.04170742,0.090864606,-0.08088651,-0.12478096,-0.17183217,0.22121991,0.30833858,-0.29496613,-0.14773731,0.33583888,0.4295479,0.21242204,-0.3212239,-0.0865694,-0.041622248,0.18275923,0.049415376,-0.053654432,-0.00892606,0.10769535,-0.021883816
Progressive_House,0.13316372,-0.58134216,-0.2089523,0.28622174,-0.010351585,0.1940775,-0.22872236,0.19572043,-0.12614444,0.07472729,0.1425674,-0.20892593,-0.11367536,0.22606349,-0.025918335,0.3968112,-0.3153208,0.15748082,-0.018078169,0.11906109,0.22564675,-0.17161286,0.4254488,-0.33135456,-0.034697637,0.31255886,-0.115272336,-0.32655096,0.10506388,-0.34721133,-0.24795157,-0.213765,0.2186631,-0.20148458,-0.23362121,0.51967573,-0.02248604,0.21367368,0.34312218,-0.05885341,-0.073644765,-0.23397459,-0.0782326,0.20801452,-0.035933234,0.057395287,-0.17603837,0.043022484,0.023112917,0.23511823,-0.43039024,-0.009377458,0.29959252,0.30619833,0.08670123,-0.33007956,0.00545463,-0.18880105,0.015841264,-0.13664143,-0.12697674,0.14158826,0.04750243,0.08325016
Schlager,-0.015005186,-0.01980351,0.48219615,0.12239438,-0.24805509,-0.29871762,-0.22627847,0.1347047,0.035309397,-0.012663549,0.06672181,-0.20654981,-0.24415547,-0.047727637,0.012001395,-0.0511984,-0.27496597,0.04972744,-0.18908517,0.39683208,0.25536168,0.04675811,0.08719352,-0.3011665,-0.01193234,0.28292495,0.05661294,-0.15512723,0.53823817,-0.106877916,-0.090022266,0.13508512,0.31952307,-0.17090344,0.005566887,-0.18949738,0.14327858,-0.03037594,0.06932636,-0.14901622,-0.12813298,-0.16843401,-0.23474708,0.35842255,0.22187082,0.06630007,-0.080941536,-0.07578405,0.049693923,0.16745958,0.22017759,0.124601,-0.012224901,0.50180733,-0.22494361,0.32912695,0.09054892,-0.23339735,0.029099466,-0.051056597,-0.3716991,-0.20949721,0.31341136,-0.34677747
Country,0.32384527,-0.074137636,0.61848557,-0.102438316,-0.2020632,-0.3218082,-0.5894202,-0.043318532,-0.205367,0.06488102,0.26810288,-0.09655196,-0.39308378,0.06758121,0.019484172,0.26438847,0.2803907,0.09738756,-0.21683308,0.2664454,0.5224078,-0.094607286,0.3249283,-0.07667108,0.10127183,0.06164536,0.10061624,0.068307586,-0.07588515,-0.018902978,-0.20940012,0.064524025,-0.042711712,-0.10072352,-0.27849245,0.1949239,0.031687073,-0.045948353,-0.21706288,-0.15166429,-0.051159512,0.18260728,-0.29493117,-0.23593624,-0.0055692713,-0.15829502,0.06505671,-0.09837466,-0.12474607,-0.05440175,0.52473724,-0.08496395,0.23350772,0.087233506,0.06644118,0.25685677,0.24167286,-0.03631044,-0.22058257,0.1760191,-0.09582583,-0.07168224,0.0530015,-0.27684498
Drum_n_Bass,0.025487877,-0.26215476,-0.31154257,0.32561344,0.10597786,0.070729464,-0.29651934,0.14098296,-0.07433153,-0.27931142,0.27652088,-0.22860892,0.022098158,-0.14393476,-0.2863044,0.39965996,0.043945245,0.121362396,-0.06785249,0.25658548,0.27067113,0.09107044,0.31305888,-0.38102743,-0.37323153,-0.15359046,-0.08768872,-0.40708008,-0.16615081,-0.3735447,0.09877662,-0.029520078,0.05508763,0.23949805,-0.01387526,0.24192892,0.0019131975,-0.1510136,-0.01358328,0.08408911,-0.13147733,-0.067434326,-0.16108188,0.10518675,0.07201064,-0.41127235,-0.115787104,-0.20205133,0.24916075,0.11367456,-0.49479488,-0.15622862,0.37787905,0.53436613,0.4467308,-0.13054964,-0.054559086,-0.20565742,-0.022008564,-0.13035265,0.019236483,0.3675864,0.32025933,-0.0564955
Classic_Rock,0.3407983,-0.29858282,0.45005882,-0.18139645,-0.057016835,0.031746753,-0.07349215,0.09434186,-0.04360879,0.0076682935,-0.09249618,-0.07258029,-0.09628983,-0.051068332,0.013433273,0.16344273,-0.08125704,0.04505432,-0.18085656,0.26224872,0.4860652,0.0986155,0.21412122,-0.08645274,-0.014227279,0.3215038,-0.39224187,-0.12132764,0.24096557,-0.07047718,-0.068584606,0.46984592,0.20747948,0.31719437,-0.107346244,0.06255048,0.0048023025,-0.06721761,-0.025615245,0.01892876,-0.36088088,-0.15661365,-0.05738469,-0.16622885,0.054022882,0.11731366,-0.20137678,-0.019280372,-0.16634321,0.19886549,-0.08527867,-0.31106165,-0.08785405,0.2504011,0.05179642,0.21649607,0.12647228,0.11356216,-0.26985177,0.022808107,-0.046089027,-0.20294344,0.327843,0.017249444
Avantgarde,0.101335935,-0.3711834,0.19617663,0.02281993,0.16106941,0.014955039,0.32155174,0.12161772,-0.2561937,-0.19576822,0.03629821,-0.054542143,-0.03754769,0.112328194,-0.03754537,0.2500621,-0.025596226,0.05418721,-0.5659655,0.09280259,-0.047068983,0.268468,0.42598167,-0.07318593,-0.17499161,0.16566755,-0.23712404,-0.14407581,0.11914711,-0.28533643,0.12684746,0.07567502,-0.045075487,0.17661491,-0.014389553,-0.009163624,-0.030006407,-0.029499877,0.18492924,0.1609268,-0.028993824,0.18789472,-0.10716352,-0.08340707,-0.08911363,-0.19728196,-0.11322233,-0.08873799,0.037956726,0.020977888,-0.14275281,-0.14657587,0.09097578,0.30597463,-0.08916246,-0.14220487,0.28859946,-0.19471629,-0.11972915,0.31235275,-0.09757006,-0.040475614,0.36686525,0.07615461
Leftfield,0.17451756,-0.32054242,0.12258433,0.31711265,-0.08158307,0.013226401,0.020940278,0.048700824,-0.25129786,-0.019304246,0.12634116,-0.054165527,-0.08295084,0.08612458,0.03318516,0.36077994,0.07267307,0.10998396,-0.2756612,0.17159669,0.2421759,0.18860815,0.26437443,-0.17330341,-0.1267911,0.010202529,-0.10786616,-0.14680906,-0.14074798,-0.19323492,0.062215343,0.027160645,0.12879583,-0.085151814,-0.16700776,0.093460605,0.036590308,0.0030321488,0.36261758,0.12687431,0.1337422,-0.004933015,-0.10001126,0.026817348,-0.10399819,-0.15777212,-0.0744833,-0.09117329,0.14890347,0.106368326,-0.18158236,-0.12873219,0.25957254,0.5372787,0.29656684,-0.15301843,0.14036751,-0.07564575,-0.24634227,0.06967909,-0.023117092,0.13314521,-0.0056445184,-0.006373337
Black_Metal,-0.2646846,-0.0340527,0.31735525,0.14111082,-0.052360572,-0.046687216,0.42288196,-0.009094887,-0.15981892,-0.13265589,0.2258463,-0.2622428,-0.32090533,-0.03581158,-0.108792625,0.30979323,0.109637715,-0.2089091,-0.671556,-0.16831298,0.49155292,0.025662908,0.615966,-0.1966323,-0.5618309,0.54674387,-0.1683467,-0.11129088,-0.16597018,-0.5156823,0.027270729,0.1136167,-0.14193122,0.28372312,-0.11523746,0.37431908,0.24521525,-0.14424229,0.06835319,0.33331156,-0.054280695,0.13804284,-0.09907626,0.059105612,-0.49152753,0.11381566,0.019413538,-0.11190392,-0.16420555,0.42726994,-0.11563879,-0.20682429,0.050175965,0.23762698,0.19001442,-0.08545351,0.15894282,-0.52475226,-0.10213468,0.2893822,0.34583056,0.120557725,0.35615864,0.13497838
Post-Punk,0.33363107,-0.44896126,0.34369034,0.38143668,0.063946165,0.06358697,0.0085806735,-0.31836468,-0.026947403,-0.19715658,0.2222313,-0.25468734,0.20293705,0.2261851,-0.2116227,0.31976792,-0.20149495,0.18055718,-0.25363225,0.08792406,0.08093954,0.028978163,0.20654775,-0.25349626,-0.2093648,0.3830113,-0.16345502,-0.06960495,-0.19632581,-0.40524366,-0.01797407,0.2543487,0.14863046,0.060821712,-0.012689908,-0.08813227,0.113871865,-0.03985356,0.07958957,0.20319164,0.13674499,-0.06285382,-0.0947975,-0.18899244,-0.29893386,-0.099413715,0.1505534,-0.15525131,-0.007895782,-0.18941194,-0.017163407,-0.10657848,0.034773648,0.3327228,-0.2343037,-0.19961949,0.04058795,-0.32232174,-0.345702,0.3945669,0.06109369,-0.15959789,0.33611438,0.24571133
Baroque,-0.31776232,-0.30948073,-0.02396295,0.09293846,0.27356642,-0.51134074,-0.2805909,-0.57316256,-0.91564333,-0.08273308,-0.087168574,-0.16398354,-0.3152577,-0.3410278,0.24333228,0.3494442,-0.4864573,-0.22344576,-0.34465256,0.6379524,0.37411857,0.4697452,0.26288956,-0.21628636,0.06471335,0.006200094,0.055795155,-0.3200992,0.19444692,0.16037126,-0.13333897,0.04050102,0.1892835,-0.07546035,-0.50132513,-0.16187562,-0.6206456,-0.39395818,-0.25334373,0.55184805,-0.31370124,0.04083103,0.06505687,0.124667056,0.04337063,0.096873984,-0.22679098,-0.12120189,0.08683884,0.075781316,0.48082978,-0.1480676,0.32608968,-0.062730454,-0.14325449,-0.024291757,0.33084893,-0.102139205,0.18264443,0.22869448,-0.24503595,-0.39595008,-0.07803675,-0.16897997
Breaks,0.09635911,-0.4719265,-0.13098343,0.23850517,0.14076622,0.07165347,-0.14421484,0.16118617,-0.20525001,-0.051247064,0.2235402,-0.13471133,-0.09405212,-0.0081516635,-0.12935096,0.42987323,-0.03258431,0.23320866,0.06974153,0.24272606,0.18566652,0.054311905,0.17563187,-0.24986465,-0.22845747,-0.05184106,-0.01130587,-0.3661602,-0.17520283,-0.31307906,0.07179516,-0.19369283,-0.030748323,0.12740207,-0.37931606,0.25806382,0.03089135,-0.02173467,0.27272713,-0.07600273,-0.15591948,-0.3053586,-0.1441449,-0.07597981,-0.01637234,-0.120383605,-0.123863205,-0.054181185,0.0906516,0.10143239,-0.34604642,0.05173123,0.41162443,0.41622016,0.19149595,-0.06585064,-0.045262888,-0.041293044,-0.176897,0.115564875,-0.10260717,0.071572244,0.09955965,-0.19172056
Modern,-0.32994038,-0.16698079,0.05763367,0.13781759,-0.07958975,-0.4108726,-0.09261213,-0.49143103,-0.953657,-0.014102559,0.07422229,-0.43496856,-0.12178023,-0.19285205,0.32248798,0.10496145,-0.23018505,-0.04024665,-0.16925853,0.30289784,0.3366764,0.36199906,0.21373063,-0.34861273,0.19686593,0.16128136,-0.083192416,-0.32970363,0.3530506,0.011534754,0.07122771,0.11593741,-0.19167934,0.056965087,-0.19327092,-0.1462243,-0.5348874,-0.38357183,-0.16813494,0.42803472,-0.4454279,0.10111734,0.39591104,-0.123171754,-0.07717824,-0.058146846,0.02177905,0.011327096,0.05467536,-0.04450383,0.15854928,0.14820695,0.40269372,0.18306327,-0.28643537,-0.03159571,0.26286775,-0.2922389,0.027667377,0.23823719,-0.38449028,-0.43813157,-0.09866231,-0.16169047
Indie_Pop,0.17318387,-0.5257567,0.36813566,0.048875857,-0.048534628,-0.091266625,0.09068213,-0.0101035405,-0.2568642,0.08070344,-0.07071709,-0.20983364,-0.10101801,0.06210759,0.037388474,-0.03599847,0.10151119,-0.11707259,-0.2726888,-0.079108074,0.32670206,-0.080207385,0.1544395,-0.30586073,-0.052336276,0.06495276,-0.32138506,-0.27428597,-0.26206246,-0.22900851,0.054806184,0.07238736,0.22353493,-0.10259677,-0.18289565,-0.25583032,0.17057721,-0.023011593,0.001667769,0.09097129,0.057002302,-0.086082764,-0.44853777,-0.19443327,-0.22517397,-0.09277005,-0.11329956,-0.2353027,-0.20153874,-0.012107226,0.061622936,-0.068557836,0.27044058,0.5590886,-0.052350767,-0.048335385,0.057902712,-0.031817902,-0.08775102,0.1455843,-0.059408907,0.00068814016,0.012840593,0.13778207
Death_Metal,-0.15158774,-0.13696195,0.2309023,0.14466119,0.09160398,-0.025691232,0.48922896,0.2674293,0.03608232,0.12681797,0.24882759,-0.15930697,-0.32682878,-0.13290645,-0.086821154,0.5366547,0.07203295,-0.21958257,-0.6483507,-0.050512224,0.5220355,0.03368505,0.6106907,-0.1913697,-0.60100794,0.67252254,-0.057507783,0.04090808,-0.022049468,-0.37556514,-0.073084,0.10185033,-0.26123685,0.70875126,-0.4561656,0.10952044,0.28516704,-0.10979275,-0.034545135,0.103086054,-0.1743026,0.13962641,0.008678458,-0.0195666,-0.13551334,-0.09566517,-0.1427882,0.015333337,-0.2460043,0.12975049,-0.3137902,0.14428802,-0.019781595,0.2768348,-0.08522613,-0.08272643,-0.0147137,-0.5037621,0.053628083,0.25038365,0.44797862,-0.060243156,0.37033814,0.24700534
Swing,0.099712245,-0.45932823,0.05525008,0.13533068,-0.09515704,0.03146673,-0.18279795,-0.2733813,-0.17378505,-0.119368054,0.5388919,-0.11077796,-0.22735044,0.0023864172,0.29730102,0.2199561,0.2482355,0.1975544,0.12888359,0.16727544,0.3510174,0.30686018,-0.12441911,-0.05881245,-0.2825602,0.24905328,-0.2929739,-0.42690256,0.5719923,0.031107914,0.083565325,-0.076538004,0.19171298,-0.20652081,0.13887334,0.07963667,0.23918621,0.24098335,-0.24848658,0.31231344,-0.18465851,0.2674149,-0.18299672,0.07429743,0.5138258,-0.24180114,-0.13630521,-0.23444618,-0.10421612,0.15272577,0.30936435,-0.10816374,0.06966814,0.12091499,-0.41289195,0.39811924,-0.070105575,-0.29111588,0.10638246,-0.14422196,-0.12226392,0.13418894,0.009301167,-0.3336829
Country_Rock,0.36128902,-0.17093982,0.62341845,-0.16313191,-0.21790752,-0.06328955,-0.3506818,0.10967284,-0.1280618,0.13567682,-0.012206027,-0.1450853,-0.27106476,0.012280534,0.009603581,0.09932438,0.10406953,0.12496219,-0.2651134,0.26893917,0.59615433,-0.21933696,0.15736991,-0.068699464,0.14769119,0.073782034,-0.30719027,0.0050131665,-0.094602644,-0.172235,-0.0873348,-0.07197516,0.19675528,0.08390678,-0.11931016,0.0942333,0.034047395,-0.0051294724,-0.2265898,0.05982238,-0.12576196,0.022372397,-0.20954414,-0.24199557,-0.11013707,-0.2909098,-0.096058935,-0.17078054,-0.2884007,0.0073925783,-0.03992384,0.004520747,-0.05132168,0.142253,-0.09046761,0.14077805,0.25145143,-0.23833387,-0.27853516,0.070043564,-0.004393712,-0.09473921,0.16723701,-0.10025441
Art_Rock,0.42039672,-0.3000295,0.46875378,0.082996726,0.20749731,0.06610491,-0.022225818,-0.067991085,-0.26996365,-0.021239908,-0.07945926,-0.06774703,-0.08721356,0.08501297,-0.14265086,0.2680176,-0.09973721,0.082362644,-0.35343757,-0.059632175,0.26768547,0.03938043,0.2003753,0.009272158,-0.078747086,0.18476084,-0.21235423,-0.1280209,-0.06941659,-0.29617882,0.16418743,0.20829625,0.19509058,0.158895,0.013080564,-0.15821178,-0.042237747,0.053410005,0.111357026,0.1501671,-0.29559806,0.019569868,-0.09728175,-0.1215201,-0.1630365,-0.122124694,-0.1012136,-0.08028441,0.17204964,0.09331113,-0.05847477,-0.20466405,-0.019257318,0.30962282,-0.05701533,-0.15144652,0.0437722,-0.1501073,-0.24057059,0.23395957,-0.08668055,-0.028921477,0.40752396,0.075882256
Dance-pop,0.12361986,-0.5066878,-0.040187955,0.20115392,-0.12087007,-0.10253044,-0.2618525,0.11607463,-0.18536414,0.10036579,-0.21262746,-0.24551468,-0.12714548,0.11375657,-0.1598804,0.14583401,0.046234563,-0.08709986,0.100976795,0.109807804,0.36983448,-0.20812309,0.4081485,-0.31966856,0.04042392,0.26455045,-0.2034911,-0.08107237,-0.032928437,-0.35541356,0.100085996,0.09074614,0.16424176,0.104729325,-0.019944895,0.16716263,0.24025838,0.18221916,0.14115584,0.054566108,0.07498803,-0.020076381,-0.019425347,0.030668085,0.15654907,0.19769043,0.05485051,-0.29773414,-0.04710757,0.2074516,-0.31277213,0.030994039,0.33665547,0.35022658,-0.0032484713,0.1333374,-0.005195133,0.031926647,0.2849247,0.05153377,-0.4047808,0.022256764,0.15233442,0.124095306
Lo-Fi,0.3195959,-0.33953202,0.32729754,0.07753706,0.058185864,0.08219057,-0.0017584757,0.082015075,-0.18115859,0.040750965,0.09000941,-0.16152008,0.0014304081,0.065012425,0.008392477,0.2709299,0.0800028,0.03924382,-0.4598309,-0.13274598,0.29573295,0.12479495,0.050121397,-0.21539563,-0.12938485,0.098617725,-0.22318679,-0.05852685,-0.15010366,-0.31865117,0.13086525,0.12875427,0.121851064,0.095837116,0.0009583339,-0.05500313,0.07499901,-0.04118665,0.103913404,0.09094571,-0.07519076,0.048616167,-0.32296184,-0.1197497,-0.19473238,-0.13107306,0.010038901,-0.19030653,-0.117338665,-0.02600188,-0.043181576,0.027813911,0.25787348,0.514989,-0.14623065,-0.22519505,0.2518124,-0.2600546,-0.2918287,0.25785503,0.3364122,-0.14577664,0.08978443,0.13394818
Hip_Hop,0.067218564,-0.39374974,0.14758797,0.29875985,0.16524115,0.07864196,-0.16379032,0.17105052,-0.2592804,-0.001344606,0.057102077,-0.093317404,0.01957548,-0.017493105,-0.06761256,0.4692785,-0.077916734,0.15534548,-0.040918343,0.1730716,0.18909968,0.0681226,0.26165172,-0.1952859,-0.20836855,-0.08272215,0.003951843,-0.29649273,-0.072752856,-0.40656513,0.3266529,0.02033233,-0.014715896,0.17612284,-0.16980821,0.12641875,0.07627855,0.11101949,0.23089615,0.091247186,0.08576371,-0.13673458,-0.09048424,-0.03716537,0.12490776,0.0208625,0.04787039,-0.10536129,-0.046730768,0.2903989,-0.23601031,0.22874178,0.25125492,0.3382189,0.16482303,-0.17084788,-0.17217806,-0.039819222,-0.055424925,0.14842929,-0.23738351,0.15196012,0.039680485,0.1840834
Post_Rock,0.08928264,-0.16215335,0.22339985,0.17658934,0.039371785,-0.036340337,0.33058056,0.06262339,-0.3378812,-0.13121916,0.055068325,-0.25555828,-0.2530711,0.1513868,0.04125617,0.31018776,-0.15804085,0.09316458,-0.42856863,-0.1086976,0.11211423,0.20113777,0.13723709,-0.26445007,-0.33018664,0.12771612,-0.19593227,-0.2054017,-0.14281774,-0.18999766,0.116937615,0.077575006,0.24236876,0.04429021,-0.20571397,-0.06513417,0.21791756,0.2512974,-0.049611177,0.07028581,-0.08475346,0.13867308,-0.005899627,-0.2037376,-0.14990148,-0.059147164,-0.28215796,-0.20933722,0.07397734,0.041022286,-0.08700091,-0.06684592,0.16883565,0.3926472,-0.15754397,-0.18204255,0.28515416,-0.20757204,-0.25170943,0.36167192,0.21889387,0.071023904,0.44705448,0.23545185
Bolero,-0.014957305,0.069230236,0.16295868,0.35462135,-0.35030788,-0.41239983,0.013871257,0.033513125,-0.1833383,-0.14524037,0.17718549,0.12382194,0.16666992,0.50491786,0.1851521,0.027798824,-0.26457658,0.007812691,-0.072225474,0.66266465,0.7924922,0.05935942,0.09118921,-0.039653756,-0.20833908,0.14469,-0.19128144,-0.21670587,0.54069364,-0.29856825,0.28417736,-0.058674026,0.28681824,0.34613875,0.13705368,-0.03549268,0.26428667,0.21092883,-0.4300623,0.3198942,-0.20074965,-0.02899893,-0.29493916,0.19294648,0.2035214,-0.18091962,0.27581966,0.19275935,-0.43072197,-0.116289206,0.21255147,0.0607032,0.28286332,0.010812325,-0.69743395,-0.22203234,-0.061517633,0.3462234,-0.13976799,-0.3019964,-0.444077,0.30587852,0.07654321,-0.4253321
Doom_Metal,-0.08021622,0.045715444,0.19885388,-0.006906079,-0.14475662,0.06631438,0.45008814,0.17607926,-0.09919069,-0.1819761,0.18590945,-0.30516428,-0.42749205,0.15523979,0.011453346,0.62018144,-0.12634103,-0.28831023,-0.51597893,0.109964505,0.035011303,0.1242045,0.47473106,-0.23439364,-0.47692826,0.26035511,-0.3183309,0.066466406,0.07976094,-0.40613458,-0.0054282635,-0.011626813,-0.040402398,0.33794615,-0.29655066,0.28745577,0.5336971,-0.054851964,-0.005797001,0.13925318,-0.21823516,0.23586659,0.06340032,0.080293424,-0.33062762,-0.0025156352,0.0019297398,-0.32936314,-0.07784184,0.2559464,-0.21910809,-0.07420791,0.15228102,0.19584994,-0.21067047,0.084547505,0.19729428,-0.19920138,-0.3405081,0.38074434,0.28225252,-0.21622463,0.489488,0.12664708
Jazz-Funk,0.06928307,-0.094772786,0.3378646,-0.08129192,-0.0011448724,-0.09301548,0.1919421,-0.12997551,-0.3479569,-0.05473831,0.005030131,0.10223725,-0.15274638,-0.11066814,0.08036979,0.2570329,-0.024030909,0.40184525,0.010604389,0.20661163,0.47978914,0.55211234,0.08851687,0.2211958,-0.035494827,0.28361022,-0.07209529,-0.43791914,0.17788954,-0.41889286,-0.06840573,-0.070821635,0.08607055,-0.18331133,0.20382331,0.031290166,0.064342365,0.18864703,0.112758495,-0.07871661,0.030459205,0.15494987,0.014050969,-0.03964756,0.19634801,-0.45090654,-0.21251331,0.035003193,-0.26506835,0.32105413,-0.086104505,-0.1376907,0.18924898,0.21962324,-0.19096315,-0.1148361,-0.45979303,0.054138355,-0.014574356,0.26137972,-0.22003615,0.0032697567,-0.11298974,-0.2715259
Thrash,-0.014528853,-0.08719194,0.18799359,0.32695088,0.12638706,-0.26557976,0.27893952,0.04931361,-0.025822973,-0.22312777,0.08397677,-0.28386274,-0.14919138,-0.13450167,0.05776236,0.3769467,-0.05348603,-0.09162445,-0.78367454,-0.22938916,0.3625145,-0.06972272,0.36827278,-0.24235691,-0.52807814,0.43642676,-0.23246665,0.1490192,-0.067242585,-0.40143183,-0.1111942,0.17185447,-0.20084363,0.528464,-0.36274472,0.527014,0.04132464,-0.0934846,0.0633567,0.08144394,-0.41806555,0.10563694,-0.2305931,0.07965779,-0.24910617,0.0029533957,-0.11874287,-0.21259439,-0.332197,0.19483638,-0.14791141,-0.24842092,-0.182034,0.29651836,-0.04461291,0.13726395,-0.16388589,-0.033967607,0.07854507,0.20912635,0.2605171,0.00850108,0.60100514,-0.05970327
Pop_Rap,0.07332769,-0.39222968,0.29809818,0.3697813,0.1635418,0.016009886,-0.33409873,0.2126054,-0.2465128,0.039601807,-0.049130984,-0.21543276,0.026770724,0.10984055,-0.11498994,0.18447457,-0.3777887,-0.25706697,0.08432765,0.12950838,0.31097138,0.11807442,0.4143305,-0.08553339,0.02819615,0.051632203,-0.071308576,-0.32328752,-0.10733279,-0.646069,0.2537903,0.038110107,0.2138875,0.089065276,-0.21674922,0.26324475,0.09685152,0.21770208,0.028238812,-0.05585092,0.061131924,-0.042097457,-0.08396588,0.10112696,0.32745758,0.042788416,0.07816005,-0.18603635,-0.101056956,0.25723788,-0.012781694,0.23097326,0.06442263,0.16755614,0.16829507,0.09071297,-0.04670356,0.17487493,0.2054356,0.10218987,-0.09994701,-0.08958887,-0.074318334,0.26046234
Holiday,0.20220928,-0.2967448,0.1898262,-0.034352876,-0.048336793,-0.18772873,-0.23367853,0.02970845,-0.3414466,-0.2273688,-0.017196754,-0.15244634,-0.382489,0.0456842,-0.18188825,0.29464698,-0.20855808,-0.13104865,-0.037467945,0.50007564,0.4237839,0.02515962,0.07578459,-0.15284427,0.18317664,0.13890381,0.15607733,-0.33684295,0.21934715,0.13454671,0.004713561,-0.041418187,-0.14620404,0.16846572,-0.16192943,-0.18678628,-0.2317345,0.20238248,-0.31522316,0.13515405,0.07548053,0.21822642,-0.15407565,0.25696856,0.14770792,-0.041529354,-0.05618857,-0.07042292,0.043807287,0.07785539,0.4980352,-0.15555519,0.0858546,0.09433682,-0.25036284,0.16590488,0.31711212,-0.36797634,0.12785631,0.07226598,-0.037392914,-0.067216225,-0.010919006,-0.16250308
Big_Band,0.18551077,-0.29855955,0.119931996,0.12726393,-0.088675275,-0.036753215,-0.09472636,-0.10006349,-0.42402932,-0.07382423,0.28139207,-0.2307748,-0.3070399,-0.039237306,0.47789973,0.10772898,0.16672519,0.119967476,0.066365495,0.20953304,0.27390254,0.28063238,-0.15190418,-0.12446113,-0.2670911,0.03636968,-0.23837028,-0.40791082,0.507275,-0.0012289942,0.10570329,0.20312136,0.120741956,0.11187059,0.2008741,0.029333688,0.07172821,0.2565897,0.03196986,0.0148816835,0.088757135,0.2988369,-0.3304886,0.14936407,0.6839901,-0.10015258,-0.25144893,-0.05296834,-0.12611172,-0.14608683,0.17892139,-0.2453254,0.082308404,0.057733763,-0.4016598,0.14016709,-0.12405153,-0.3335605,-0.062403575,0.07138546,-0.2566542,0.06624445,0.15837449,-0.3948356
Modern_Classical,-0.060784783,-0.41058227,0.08491517,0.2610853,-0.014540637,-0.20796604,0.120943375,0.07703141,-0.45485455,-0.3054087,0.07025647,-0.1312379,0.014776339,0.02123667,0.19405487,0.1400331,0.10395026,0.11287322,-0.049317937,0.18923028,0.17195368,0.27660948,0.20565262,-0.19055496,-0.095862225,0.1279703,-0.067936346,-0.056916703,-0.021652335,-0.2945875,0.12259431,-0.009315126,-0.11269029,0.019900601,-0.20416437,0.23999195,-0.11696437,0.016808823,0.12659197,0.12531194,-0.37786114,-0.062044695,-0.07858865,-0.08836505,-0.28345287,-0.0014739014,-0.033291057,-0.08425413,0.11284341,0.15642448,-0.33082974,-0.030535333,0.09903427,0.19930314,0.004238953,0.10024625,0.46622604,-0.3214737,-0.21748418,0.198535,-0.000120907185,0.22330643,-0.14154723,-0.083184145
Fusion,0.06480346,-0.20546609,0.30740872,0.08689802,0.2821241,-0.12806307,0.12140195,0.0225052,-0.5217942,0.027241249,-0.08352942,-0.19044025,-0.28217,-0.0062647257,0.07815732,0.14277917,0.14322047,0.34767124,-0.16673811,0.19656952,0.20463416,0.23374116,0.17471172,0.4057662,0.1042688,0.018569015,-0.15447828,-0.5715,0.15189832,-0.1553473,-0.17593771,0.020444063,-0.06474797,0.13975042,0.2413819,0.086522005,0.16547433,0.090219505,0.0069430373,-0.05190949,-0.28727594,0.2568301,-0.032978985,-0.011475329,-0.081766084,-0.32801902,-0.1723553,-0.111323416,-0.3260933,0.24695095,-0.28403205,-0.38641953,-0.13154545,0.322417,-0.29883644,-0.11216197,-0.1141837,0.16617352,0.039077852,0.40958497,-0.33755186,0.43100402,0.1524211,-0.3057016
Progressive_Trance,0.026940938,-0.74894714,-0.17823696,0.15292433,0.021564312,-0.24704261,-0.21219775,0.11319405,-0.10942588,0.07292488,0.22581509,-0.4075433,0.096294805,0.39272073,-0.07474059,0.5973326,-0.32544512,0.4420185,0.07394368,0.040987533,0.37393382,-0.3447903,0.24981388,-0.119574875,-0.21410774,0.07263609,-0.14594361,-0.4301182,-0.0812945,-0.16063222,-0.2593779,-0.021033049,0.02705947,0.011070171,-0.39066312,0.2924148,0.30020323,0.18160927,0.28901234,-0.3500126,-0.26654774,-0.09520719,-0.42728147,0.15780063,0.008842385,0.26424876,-0.20549312,0.108366445,0.269179,0.41508347,-0.58161265,-0.04130616,0.31539753,0.25328955,-0.030244794,-0.58765453,0.18693541,-0.05490588,0.32811686,0.12092706,-0.050443612,0.19380781,0.01699406,-0.1175065
Trip_Hop,0.026094664,-0.24589872,0.067257866,0.26402894,0.06967873,0.056843676,-0.13552512,0.07677876,-0.247891,-0.23017848,0.12539388,0.019235438,-0.070658624,0.0077933725,0.08976051,0.3650657,0.056252398,0.080521226,-0.03973582,0.27248317,0.23383395,0.073799066,0.36645848,-0.17245992,-0.26849946,-0.006613454,-0.063416675,-0.2071228,-0.17140721,-0.30793923,0.11566081,-0.18024133,0.03296129,0.013444662,-0.30656832,0.03944948,0.11576315,0.0304604,0.33284122,0.025904357,0.13242604,-0.12711525,-0.15063573,0.0033347297,0.047026083,-0.43506777,-0.012521709,-0.17650323,0.013721973,0.2085251,-0.16936783,0.18389012,0.017527888,0.5836045,0.059679266,-0.28436717,-0.07355802,-0.09111374,-0.19870482,0.12133904,-0.15476798,0.13540109,-0.1369589,0.027219003
Contemporary,-0.06281385,-0.08130345,0.1556261,0.05311946,0.06491231,-0.25952125,0.022552863,-0.3224392,-0.9390218,0.08233794,-0.083076686,-0.20582154,0.024504697,-0.03760897,0.22402845,0.018749643,-0.2911119,-0.049034417,-0.15120055,0.3942522,-0.02725966,0.44151995,0.29566544,-0.11630429,-0.011556572,0.15802692,0.06922374,-0.0683284,0.16894045,-0.105546236,0.0395829,0.15607406,-0.07564505,0.12500808,-0.14609039,0.07809142,-0.46225768,0.034501504,-0.09265244,0.23551303,-0.38537097,0.042092897,-0.07618075,-0.20958635,0.05196641,-0.16568264,-0.21459281,0.044320118,0.24010853,0.03943509,-0.121980816,0.11708439,0.23363402,0.14620112,-0.1529285,0.022791851,0.3756452,-0.36433128,0.048542008,0.20636012,0.0046986905,-0.14394401,-0.10514666,-0.071218155
Instrumental,-0.0024569181,-0.20697124,0.29596153,0.34526289,0.1326807,0.00588501,-0.17606638,0.23693839,-0.36732784,-0.007384682,0.0677439,0.099583015,0.083666615,0.08893532,0.12804545,0.12792557,-0.32719016,-0.04392044,0.10425754,-0.011251083,0.111856855,0.5204135,0.017801426,-0.20524812,-0.101768106,-0.095603235,-0.023343131,-0.3906334,0.10943655,-0.32706445,0.17535667,-0.019147245,0.3340306,0.33467233,-0.41639107,0.35394934,-0.11522001,0.05191328,-0.028141756,-0.11176791,0.20727508,0.03455577,-0.19542384,0.32751083,0.11139951,-0.5749122,-0.14114697,-0.08294959,0.020092636,0.15596616,0.2204223,0.13152479,-0.022474386,0.35771048,-0.06855028,0.009655989,0.065902025,-0.13384737,0.1645732,0.07800905,-0.19625582,0.027457451,0.11514165,-0.12937972
Contemporary_R&B,0.2214629,-0.25002825,0.26771918,0.015497627,0.020976482,-0.039766878,-0.1583408,0.14207752,-0.25827327,-0.054011595,-0.38128474,-0.26791596,-0.02815905,-0.02596939,-0.008452033,0.39674714,-0.025300888,-0.015261042,-0.0076664137,0.18499182,0.2450365,0.10316768,0.4067973,-0.2772541,-0.089075,0.30208325,-0.13055919,-0.4826652,-0.23163657,-0.22009276,0.0053801327,0.12388589,0.18324114,0.0363077,-0.12508762,0.35886753,0.26224655,0.37318084,0.07236755,0.03948621,0.11849303,-0.34333315,-0.07710727,-0.16584253,0.20681547,0.08052845,0.08604469,-0.12033463,-0.1777167,0.07179098,-0.013117113,0.16935982,0.16266358,0.073745236,-0.009784688,0.082541436,0.013047237,0.056649175,0.40094495,0.27655837,-0.37257382,0.15797454,-0.09225254,-0.032827508
Shoegaze,0.42813763,-0.38747975,0.2905722,0.08686222,0.3073143,-0.01715926,0.12847817,-0.02535351,-0.17391185,-0.14060326,0.1556636,-0.30849025,-0.044955693,-0.01492453,-0.1584821,0.16280685,-0.054112952,-0.05697932,-0.43718567,-0.14093445,0.3405724,0.2117835,-0.01292,-0.27436337,-0.25798437,0.14983118,-0.2526238,0.018560035,-0.17799932,-0.36426377,0.19480187,-0.10929992,0.22693878,0.03610208,-0.088478416,-0.27298898,0.23731895,-0.16543484,0.17891797,0.083465785,0.17163512,-0.04181461,-0.2567687,-0.10457394,-0.27280018,0.10612823,-0.14248647,-0.06190299,0.060405735,0.009245502,-0.11740065,-0.12212267,0.39954883,0.47714853,-0.21934558,-0.08514944,0.24347132,-0.19372542,-0.23091078,0.35371006,-0.09447022,0.07281997,0.19012812,0.31805542
Theme,-0.011817018,-0.33620614,0.3175767,0.12368116,-0.3670915,-0.5317311,-0.065833755,-0.09865606,-0.37530395,-0.10284908,0.2649571,-0.23719887,-0.2451829,-0.24465112,0.18475793,0.2754556,-0.09481875,0.05614451,0.21817961,0.21931686,0.27890843,0.41583902,0.18778475,-0.19821733,0.213365,0.12897338,-0.22382365,-0.066818945,0.11685687,-0.18777366,0.33613405,0.07424805,0.013244134,0.125784,0.16089837,-0.15938693,-0.10059886,0.29330888,0.32589644,-0.25444505,-0.4195961,-0.099279925,0.024848556,-0.19210775,0.155172,-0.16484675,0.055520583,-0.06162786,0.04521939,0.016541509,0.015265171,-0.097834505,0.021911956,0.06518106,-0.28856206,0.20467322,0.009721954,-0.001974913,-0.104128614,-0.0023849884,0.01879436,0.02582262,-0.22712773,-0.37208673
Salsa,0.07548811,-0.16762769,-0.0066484027,0.330688,-0.17130683,-0.45847848,0.09403018,0.12256324,-0.2594305,-0.21581383,0.18334064,0.03804954,0.27819854,0.47836912,0.10304144,0.035060894,-0.36818326,-0.16296972,-0.054627378,0.4926029,0.7762318,-0.07004502,0.113262884,-0.03560705,-0.15260613,0.047885038,-0.14452085,-0.35429525,0.29735756,-0.4392148,0.20337114,-0.069479726,0.5678293,0.47964886,0.14143924,0.07971936,0.20763958,0.06593106,-0.59114504,0.23276807,-0.019189037,-0.048371058,-0.2074319,0.4349982,0.30538929,-0.17199597,0.19258714,0.04900447,-0.4206391,0.047458842,0.0634986,-0.07091685,0.36489704,-0.23302321,-0.3793837,-0.1599696,-0.19573022,0.32031974,-0.2837092,-0.019927584,-0.30966258,0.24622121,-0.13046639,-0.6102647
Contemporary_Jazz,-0.024155036,-0.24538553,0.12326889,0.188012,0.038940657,-0.03225133,0.11195392,-0.08081,-0.54439336,0.096795104,0.015922101,-0.094924904,-0.16929829,-0.092001736,0.25637412,0.068232454,0.19735375,0.4420826,-0.17595156,0.14393596,0.19538076,0.40520525,0.17149892,0.22385435,-0.30963317,0.19690096,0.05487107,-0.59063375,0.34989718,-0.2929916,-0.13009499,-0.124070205,0.06496085,-0.016979577,0.18943469,-0.12671015,0.19486597,0.14731686,0.022138322,-0.072681375,-0.27528358,0.29888877,0.25192422,-0.17673703,0.39315575,-0.39925477,-0.09022123,-0.11390519,-0.2267766,0.299922,0.18877625,-0.10493483,0.25852105,0.12031578,-0.25786301,-0.042881057,-0.016993776,-0.06928427,0.1447499,0.32239014,-0.38070896,0.1891189,0.2353578,-0.17870076
Score,-0.21423827,-0.44239983,0.38690618,0.3769014,-0.24428006,-0.34644297,0.045698546,-0.27023506,-0.352741,-0.30190474,0.109589815,-0.5033379,-0.26820582,-0.30065742,0.28954175,0.022516716,-0.25312012,0.030014927,0.11476087,0.22172557,0.19987038,0.36077127,0.29402962,-0.062261835,0.0943654,0.022772439,-0.12900674,-0.135367,0.35887438,-0.23001564,0.2086632,0.04895194,0.05659509,-0.17147844,-0.0060030636,-0.046292715,-0.26905015,0.13052322,0.049415857,0.13503915,-0.25453022,0.062216166,0.12017822,-0.26459607,0.21404248,-0.29467136,0.18291724,0.14881545,0.06379036,0.19737205,-0.17786224,-0.06567271,0.11562714,0.14831099,0.0036596213,-0.08944746,0.25000346,-0.14407,-0.0797265,-0.16002934,0.2813273,0.1783407,-0.12468766,-0.21281183
Reggae,0.34932533,-0.17406489,-0.030431615,0.20248671,-0.15108894,0.08309634,-0.12392993,0.07577898,-0.21962793,-0.20536068,-0.18311337,0.24083786,-0.057433393,-0.29271612,-0.17022537,0.42690003,-0.10166431,-0.037117526,-0.0036019047,0.41162008,0.6329929,0.13577859,-0.3437629,-0.3767427,-0.14597242,0.41439444,-0.40222958,-0.14810318,0.14897156,-0.40172333,0.03491982,-0.07627676,-0.27097788,-0.06684822,0.22249077,0.3868779,0.13489518,0.009746772,-0.25589606,-0.088159695,-0.07939192,0.0639567,-0.239054,0.18071085,0.027304174,-0.34373996,-0.0055918344,-0.0068260236,0.15992118,0.08066788,-0.060239647,0.04372949,-0.17973948,0.23686677,0.3838563,-0.49050942,0.29896405,0.23774235,-0.17291594,0.45586514,-0.223927,0.1730351,0.043390725,0.10102875
EBM,-0.03160716,-0.49637502,0.27096504,0.5113138,0.1408876,0.053510785,-0.028182197,-0.14771506,-0.06606925,-0.060036056,0.3206212,-0.033181176,0.30564776,0.23679073,0.18038695,0.5393261,0.21887928,-0.15951717,-0.042217944,0.37112924,0.10963426,0.02209368,0.3299252,-0.031413995,0.15911108,0.12038055,-0.07175367,-0.015127525,-0.050354216,-0.64542496,-0.045286965,-0.26865798,0.026731126,0.011278201,-0.2891785,0.07532943,0.069053665,-0.042440236,0.24276595,0.27191436,0.0780019,-0.16956596,-0.03140655,0.2062724,-0.26818386,0.03560092,-0.3459599,-0.41485512,-0.06796499,0.040272046,-0.37416115,-0.28734347,0.22950672,0.2346912,0.0054963133,-0.19663773,0.0317539,-0.18618615,-0.1573535,-0.012062658,0.14582747,-0.06096686,0.21457608,0.1280487
Tribal,0.11701814,-0.38741466,0.12417847,0.1997413,0.16290997,-0.13154894,0.060559534,0.25552768,-0.21521637,0.06290427,0.33716965,-0.1348521,-0.1374943,0.13219342,0.16918822,0.3111315,-0.21526481,0.07505165,-0.17796317,0.058179583,-0.10823588,-0.069763064,-0.031842113,-0.22824802,-0.029870354,0.21958621,0.19683936,-0.19989324,-0.21263881,-0.52002484,-0.20283371,0.014122758,0.047119208,0.052322075,-0.3054662,0.39867267,0.010962972,0.09405391,0.19500327,0.14039744,-0.35816833,-0.24679801,0.082979485,0.2873408,0.11829635,-0.14316122,-0.09768159,-0.13609877,0.18697476,0.27705988,-0.24892089,-0.33608466,0.28441128,0.42274532,0.107677646,-0.35951707,0.27439195,0.071044266,-0.21100159,0.15133917,-0.07683939,0.1939719,-0.05354823,-0.108854055
Hard_Trance,0.25717902,-0.42726427,-0.0741169,0.12430038,-0.25364336,-0.16214015,-0.2242264,0.17413943,-0.1659127,0.31150436,0.1524559,-0.19805852,-0.09668922,0.19359449,0.039663956,0.518996,-0.09837434,0.35646787,-0.021663733,0.07461072,0.601953,-0.070232145,0.5852116,-0.50065416,0.0019616142,0.10414055,0.03582564,-0.3420812,-0.1482786,-0.3545921,-0.23086332,-0.3311279,0.08994187,0.020892872,-0.041676402,0.506053,0.04536024,-0.23890525,0.3913011,-0.28065956,-0.38245752,-0.11622046,-0.1597005,0.31704724,0.12485262,0.3318216,-0.22798222,-0.25660822,0.56162316,-0.037284236,-0.5321854,0.005659306,0.34318134,0.22610177,-0.14390442,-0.30503148,-0.058475673,0.04290518,0.24259496,0.042030152,0.2298341,0.2331553,0.18730107,0.16653647
Beat,0.030011859,-0.46946514,0.563284,-0.138061,0.2398149,0.2595756,-0.25180578,0.21267061,-0.15487231,-0.13773648,0.0042354017,0.14618401,-0.24604793,0.060971577,0.086797945,0.26179844,-0.09838227,-0.027698275,0.08788207,0.22409913,0.5541409,0.14118785,-0.12914659,-0.19940235,-0.09918068,0.41227388,-0.22017205,-0.10862783,0.119380966,-0.12520868,0.08035119,0.35135633,0.11141816,0.27365628,0.2387956,-0.06579987,-0.11519332,0.16798785,0.07883089,0.020304048,-0.14246158,-0.06366087,-0.24423715,0.07724552,-0.18400022,0.087667644,-0.08727636,-0.034597494,-0.17869145,-0.057893038,0.09142013,0.09308261,0.279791,0.2633,-0.30140772,0.008278307,0.13869432,0.18924145,-0.042715922,0.014550698,0.27857035,-0.06254477,0.27782947,-0.3230512
Religious,0.17194803,-0.14794259,0.08974761,0.5763217,0.018812392,-0.11921148,-0.17696363,-0.08867507,-0.35788676,-0.18315093,0.21624923,-0.3719706,-0.50010866,0.006883044,0.07131281,0.07392694,-0.24894127,-0.2601225,-0.1325594,0.49497727,0.42386535,0.29061183,0.112586446,-0.19129574,0.06911125,0.2447063,0.45523974,-0.41541734,0.062144168,0.34523013,-0.116534926,0.10735746,-0.12826216,0.12206002,-0.12873033,-0.3642078,-0.38474545,-0.01352376,-0.37969702,0.19059715,-0.0005226843,0.5119839,-0.22852631,-0.0071823606,0.051805973,-0.09045441,0.06101859,-0.1365373,-0.004337666,0.14400905,0.29101267,-0.102647126,0.23466328,0.008091079,0.15005986,0.3333085,0.2630382,0.20914502,0.119701184,0.15028009,-0.2659779,-0.31965536,-0.11287003,0.019422013
Darkwave,0.22774066,-0.55616486,0.26995662,0.36897585,0.22438663,-0.39594674,0.17864208,-0.31374457,-0.18754025,-0.160481,0.084287204,-0.023385342,0.41246697,0.20588425,-0.009263782,0.3890863,0.018679967,-0.116420336,-0.09052125,0.1941049,0.09731749,0.059964053,0.39480594,0.15303415,-0.21014293,0.17082977,0.004188508,-0.05334462,-0.10519903,-0.46601856,0.04931782,0.09680398,-0.19079469,-0.16855581,-0.2950041,0.083369516,0.18556365,-0.060077433,0.0971976,0.029942684,0.19176932,-0.23383562,-0.07180818,0.1167326,-0.3017814,-0.20974165,0.08736987,-0.38159588,0.24510269,-0.24947694,-0.36098585,-0.1259889,0.1471389,0.39125988,-0.1309261,0.064378336,0.23577973,-0.36677518,-0.29313576,0.21403635,-0.03200593,-0.17982545,0.30860907,0.078591324
Latin_Jazz,0.087641075,-0.13656664,0.14025742,0.08528904,-0.20593224,-0.0408735,-0.06673849,-0.075346716,-0.24250035,-0.17942081,0.10727995,-0.065656826,0.014212693,0.41239494,0.25642344,0.14277922,-0.071248874,0.2732392,0.15544213,0.48868868,0.6049364,0.5200914,0.16484423,0.30906412,-0.28316325,0.20278382,-0.18177015,-0.3287403,0.58809465,-0.23623013,0.21148539,0.061168883,0.14017594,0.34270203,0.15199609,-0.011400456,0.16700481,0.17140636,-0.25545895,-0.16065387,-0.14128341,0.19594142,-0.06587133,0.25332147,0.16678426,-0.28317198,-0.07186114,0.07761323,-0.24021356,-0.082736135,0.26250985,-0.27943382,0.30751786,0.15132438,-0.29440072,-0.21139021,-0.44707462,-0.05110273,-0.005953942,0.1028333,-0.2887686,0.22385241,-0.3644703,-0.21562354
Spoken_Word,0.30214077,-0.1052881,0.1478503,0.19325918,0.23476456,0.020145329,-0.08655801,0.17498137,-0.457937,0.010488213,0.3242145,-0.5104116,0.023071952,-0.028812142,0.18839325,0.29804984,-0.18568467,0.11940396,-0.35001305,0.44762358,0.040488012,0.42634422,0.42905232,-0.42873713,0.32448614,0.20764928,-0.037383016,0.23759328,0.10374771,-0.084637,0.12122901,0.04539455,-0.43376926,0.0107114585,-0.0039418517,-0.42726114,-0.021434616,-0.120662905,-0.019831032,-0.08475783,-0.013926713,0.094148844,-0.27042732,0.049498335,0.03576787,0.03606086,-0.02112024,-0.37752426,-0.09639762,0.38921463,0.0046069496,-0.1754946,0.16459657,-0.16485283,-0.04059106,0.049043413,0.10054505,-0.18167533,0.044941463,-0.06810977,0.04815678,0.034496218,-0.063411705,-0.37151176
Cha-Cha,0.011293991,0.10841663,0.16309467,0.33808026,-0.2152793,-0.14740129,-0.10746748,0.082537934,-0.27074125,0.04210767,0.16897506,0.3422567,0.16651215,0.6034561,0.30120435,0.06157522,-0.1775232,-0.15385364,-0.06906572,0.37680462,0.90127325,0.15781675,-0.059508376,0.06006748,-0.093953215,0.3314939,-0.24184546,-0.38723776,0.3203419,-0.23982564,0.2744446,0.1839288,0.43075064,0.26450092,0.09591653,0.04780856,0.11331465,0.11121057,-0.39419678,0.12853743,-0.067499496,0.020047134,-0.10410757,0.47988474,0.44469562,-0.28186822,0.068815276,0.028841222,-0.15212466,-0.24716343,-0.0075171883,-0.117088,0.43498898,-0.11860444,-0.47701758,-0.1383431,-0.0063928,0.0423038,-0.31725377,-0.16168326,-0.25072324,0.37460342,-0.07284326,-0.5033697
Power_Pop,0.28162587,-0.41595858,0.49164826,-0.16292158,0.03931517,0.054105926,-0.22016478,-0.0009420271,-0.042083085,-0.16475198,-0.11718975,-0.100315936,-0.08722631,-0.016624572,0.22102316,0.073349275,-0.19550374,0.029051907,-0.3607306,0.12616768,0.29718634,-0.08451685,0.19094257,-0.23903358,-0.20241745,0.3921632,-0.18786831,0.020825109,-0.22732393,-0.13232346,0.20065859,0.3495062,0.303998,0.11814123,0.16990392,-0.038139418,-0.14289738,0.126359,0.018146662,0.046687856,-0.16170688,-0.16210715,-0.39247423,-0.0047357283,-0.030168278,-0.18730406,-0.013430217,-0.31276783,-0.17710817,-0.16235629,0.029919514,-0.08124975,0.1830415,0.5033217,-0.01900266,-0.1940368,0.0034653938,0.012578465,-0.17004447,0.081965,0.25888667,-0.2280897,0.38613123,0.122034356
New_Age,0.17053144,-0.25328466,-0.024395492,0.16924192,0.12804028,-0.1328018,0.07391085,-0.21754575,-0.44404712,-0.18015762,0.07960367,0.02162914,-0.17683706,0.048424,0.21857525,0.105367005,0.038056746,0.29931688,-0.16156866,0.19787209,0.13291427,0.25213355,0.28689772,-0.1451136,-0.21314941,0.3775544,0.036605537,-0.101792574,-0.14626509,0.062270567,0.16641861,0.16556208,0.18874179,-0.18331356,-0.4909263,0.025947234,0.04820645,-0.21044005,0.1665471,-0.026417194,-0.22715814,0.010112698,-0.12032359,-0.060514424,0.18217213,-0.20534813,-0.14892572,-0.09612534,0.08121671,0.31445497,-0.30931413,-0.054878626,0.26624903,0.061491705,-0.06722013,0.093614206,0.49105507,0.029387083,-0.24726363,0.16663611,0.021122398,0.24041162,-0.32141224,0.12879932
Soul-Jazz,0.15258794,-0.30016685,0.12623487,0.106662154,0.06711082,-0.22887318,-0.21336944,0.056578096,-0.5531119,-0.18303397,0.09622708,-0.17306185,-0.121899396,-0.033688806,0.35635632,0.32037386,0.05133552,0.36869863,0.046801623,0.26304695,0.20900445,0.38679498,-0.039597597,0.18827108,-0.04209694,0.20103773,-0.2559767,-0.4023232,0.29259467,-0.16754587,-0.23949502,-0.00746984,0.050746124,0.073962055,0.15469451,0.089753695,0.18355292,0.13494262,0.030246615,-0.09288989,0.032359272,0.2639683,0.109550335,0.07665457,0.20117769,-0.4009012,-0.1054255,-0.08014087,-0.4514183,0.06752891,-0.023374612,-0.12562831,0.15670152,0.20564663,-0.10482881,0.07718351,-0.27464974,0.08713109,0.08430781,0.20317282,-0.09309947,0.27763268,0.28945452,-0.08901077
Gospel,0.4859454,0.18112601,0.43924567,0.022662101,-0.07468414,-0.09558466,-0.42791066,-0.08472084,-0.28696772,0.18329373,0.054792132,-0.44706142,-0.10373568,-0.17634326,-0.43477857,0.22931957,-0.010370468,-0.22525078,0.01430652,0.65806353,0.3529615,0.08723225,0.18543692,-0.044018395,-0.08160848,0.2636033,0.03563922,-0.1371284,0.0117799165,0.119936526,-0.47139138,-0.270985,0.022778759,0.009410755,-0.17009772,-0.027582444,-0.06598124,0.09599324,-0.27071303,0.10561806,0.04997591,-0.012484508,-0.0114904875,0.15665753,0.38976607,-0.43089908,-0.08936623,0.10590542,-0.1153283,0.11838779,0.21593861,-0.1328897,0.39600527,-0.056923382,-0.25216535,0.22653456,0.3923163,-0.036429815,-0.004626439,0.14128946,-0.016271427,-0.034191795,0.09616308,0.0150205735
Grindcore,-0.11140839,-0.19943127,0.12557982,0.1441129,0.023423322,-0.26297367,0.22397576,0.2549315,-0.09629681,-0.08573759,0.1370305,-0.17487603,-0.27652818,0.01284634,-0.14715905,0.3141371,0.06330069,-0.14774151,-0.77063125,-0.004675713,0.2168082,-0.010052984,0.44056666,-0.35991755,-0.48222145,0.23383324,-0.20081,0.106878206,-0.49757072,-0.4632061,-0.1553935,0.3607218,0.032873217,0.3539358,-0.22161466,0.042503666,0.19821613,-0.08495043,0.22569111,0.22735536,-0.40129206,0.2805456,0.0021125628,0.24079,0.21050805,-0.25220343,-0.011702296,-0.044765424,-0.2769194,0.1587746,-0.29072946,0.0056589283,-0.05775126,0.30472225,0.08391767,-0.31801072,0.051581513,-0.3363025,0.048485562,0.21207266,0.48395056,-0.11540624,0.54219097,-0.27692857
African,0.020287436,0.26843402,-0.018644042,0.08478269,-0.1960488,0.32553932,0.040333845,-0.16634364,-0.424841,0.049236305,0.28492916,-0.32320732,0.13294673,-0.09040944,0.06796741,0.45865056,0.16331618,0.30040848,-0.36357015,0.29963133,0.28287724,0.10572315,-0.10824251,-0.22834778,-0.031715997,0.47621024,0.06739829,-0.16640292,0.084958084,-0.42125583,-0.13397992,-0.07768666,0.25563115,0.12309699,0.15082544,0.1210075,-0.16736811,0.6657717,-0.5749853,-0.0291184,-0.04081962,0.0033319874,-0.13255416,0.5222515,0.17014317,-0.1070634,0.43630302,0.24441451,-0.043298766,0.05108949,-0.34036493,-0.1759437,0.497842,-0.17282298,-0.26844728,-0.06323808,0.037957553,0.59043807,-0.33058456,0.14056374,-0.23425172,-0.051262908,-0.13545084,-0.028007139
Dubstep,0.35435665,-0.22877577,-0.24374574,0.3540581,0.14050078,0.038748167,-0.25367266,0.21273306,-0.19894023,-0.14851893,-0.2930537,-0.048083916,-0.2082882,0.053055618,-0.13108328,0.70875007,0.28827503,0.15369791,-0.0015858092,0.045707572,0.16848876,0.14267421,0.3091611,-0.6282346,-0.1701781,-0.0004763572,0.018304849,-0.36110166,0.035322793,-0.6022165,0.09126955,-0.018312057,0.15344095,-0.057869304,-0.26522592,0.21100777,0.19395985,0.048522606,0.1821874,0.17095661,-0.1462992,-0.17645757,-0.106234215,-0.10015883,-0.21692821,-0.020654127,-0.19874828,-0.19233847,0.020255307,0.0681393,-0.344547,0.13029334,0.12934364,0.35023794,0.32515553,-0.110776685,-0.06983439,-0.07004611,0.042675335,-0.075703636,-0.14465496,0.2825315,-0.054171152,-0.1686161
Future_Jazz,-0.019737383,-0.19249599,0.08202148,0.2511517,-0.022319509,0.19170696,-0.0032171714,0.10633142,-0.2651263,0.027414734,-0.050278544,-0.0947778,-0.35937735,0.18486263,0.10890038,0.2020784,0.043145012,0.21106651,-0.05193758,0.2756059,0.22034404,0.26671666,0.40856126,0.07119615,-0.25081795,0.028759254,-0.112113684,-0.24158022,0.04068958,-0.17142233,0.1255566,-0.26994637,-0.13455771,0.05240268,-0.30024227,0.14513978,0.16636118,0.12184231,0.1468992,-0.037150454,0.055671517,-0.2548228,-0.12877727,0.090425186,0.19574198,-0.24313788,-0.23368102,-0.027140515,-0.025744567,0.12275696,-0.20584922,0.01672131,0.2085329,0.83659714,0.10539048,-0.36319476,0.034976352,0.073158406,-0.21228431,0.11001897,-0.029984085,0.15497796,-0.305925,-0.09108216
Emo,0.38414738,-0.3256251,-0.03781266,0.28343308,-0.023038305,-0.1154203,-0.08889082,0.20830406,-0.069763884,-0.24143144,0.27964148,-0.44858408,-0.2464107,0.09697597,-0.2344016,0.02977883,-0.233346,0.02666182,-0.59062177,-0.0076811593,0.2898959,0.032020144,0.0056041414,-0.35183084,-0.078039974,0.18493092,-0.17561479,-0.055738322,-0.37743348,-0.47742283,0.12059168,0.3693305,0.18957701,0.2878897,-0.04037597,0.11573407,-0.04107875,0.22849499,-0.010770186,0.08468805,-0.17268859,0.11854625,-0.037729274,-0.08774595,-0.15420529,-0.06889846,-0.011031511,-0.20558429,-0.29708138,-0.22506571,0.024828156,0.046762567,0.17787457,0.48376182,-0.274596,-0.20809212,-0.057087943,-0.19613731,0.07580896,0.4371488,0.47470325,-0.0028241896,0.49884793,0.35285053
Stoner_Rock,0.32772067,-0.01846765,0.4734518,-0.019041909,0.09105606,0.31788123,0.39889905,0.04133039,0.058158223,-0.30163357,0.27265418,-0.08924591,-0.48537526,0.044210345,0.27014092,0.57624316,-0.25992697,-0.46318755,-0.408214,0.16786765,0.34842023,-0.022326788,0.28577685,-0.22322106,-0.054206952,0.11418101,-0.2244995,-0.06219878,0.06607376,-0.09030529,0.05526885,0.217031,0.1645399,0.43535507,-0.20517269,0.19271061,0.24631622,0.08781646,0.045187313,-0.02049789,-0.12921855,0.44961518,0.1488824,0.052899104,-0.32146895,-0.0011038771,-0.15796575,0.14396384,-0.10180201,0.15437177,-0.2701958,-0.18558477,0.06227242,0.55808055,-0.2101418,0.010236309,0.1863361,-0.23819885,-0.077049874,0.40511274,0.10521669,-0.111212626,0.3901519,0.32103828
Jungle,0.1268791,-0.16182622,-0.23853467,0.23154438,0.34416673,-0.001467824,-0.25752327,0.058100317,-0.04478987,-0.4522176,0.21280754,0.10441841,-0.16019501,-0.005690129,-0.286159,0.5517804,0.0884326,0.2011152,0.013330879,0.0030618468,0.2977089,0.039597843,0.34522548,-0.63845325,-0.29065737,0.03470998,-0.051388454,-0.40636733,-0.42331603,-0.62045556,-0.07085981,0.052023664,-0.15875162,-0.02953448,-0.3002045,0.27885717,-0.021055128,0.1334818,-0.28819656,-0.22322913,-0.38425377,-0.045755412,0.013806025,0.00096190354,-0.10010285,-0.20382963,-0.28465632,-0.048818603,0.05076467,0.09667901,-0.45325577,0.17675553,0.2102588,0.7516703,0.24316822,-0.1828167,-0.2036517,-0.36076006,-0.15785062,-0.16140576,-0.06300786,0.09016393,-0.027233902,-0.006065471
Jazz-Rock,0.18233833,-0.22604689,0.4328374,-0.19932972,0.16089395,-0.034031436,0.14392316,0.043141875,-0.28041852,0.18831925,-0.061455857,0.0041113403,-0.3269032,0.012168034,0.08225229,0.31016207,-0.08701575,0.5000159,-0.21382111,0.12219607,0.18757561,0.2659528,0.21153839,0.26747,0.11311206,0.33279413,-0.27182928,-0.53228664,0.2886764,-0.5253738,-0.05572366,0.046409823,0.3028959,0.10417517,0.021201381,-0.18458197,-0.04668255,-0.0072322343,-0.03721118,-0.060552314,-0.087836824,0.30175206,0.1619499,-0.1316962,0.07169689,-0.4539673,-0.027462954,-0.12220901,-0.04051593,0.13675538,-0.14800635,-0.42717013,0.061954085,0.05222178,0.010065356,-0.025836775,-0.2931306,-0.2520009,-0.11434731,0.19092378,-0.1098228,-0.041494757,0.2326734,-0.08025921
Synthwave,0.072474755,-0.5434905,0.035852846,0.4238446,-0.045185525,0.04891307,0.12838992,0.18482219,-0.25968638,0.0007001021,0.13763925,-0.103663124,0.2874464,-0.1459543,0.1902649,0.32716978,0.13093816,0.09916911,-0.0012151094,0.4960713,0.16182739,0.11896492,0.3212138,-0.10143963,-0.2824767,0.1000604,0.24456117,0.22629997,-0.09837668,-0.43102372,-0.09895309,0.29518825,0.16986036,-0.06108412,-0.2666585,0.13940051,0.12628089,-0.030321304,0.2408187,0.12278933,0.21285506,-0.18308201,-0.2494386,-0.11365976,-0.4599,-0.12736991,-0.086134404,-0.2846559,0.32745317,0.08713377,-0.20285985,-0.23864985,0.07602102,0.46314257,-0.2567881,-0.034900885,0.09511963,-0.06906425,-0.16506782,0.100034505,-0.11217652,-0.036945123,0.2105971,-0.10729683
Glitch,0.14697023,-0.24588469,0.08088892,0.38433197,0.23623694,-0.023931779,0.12715994,0.17946717,-0.21402712,0.0005646371,0.08059245,-0.013125917,0.048153315,0.1259527,-0.0069135306,0.48143426,0.19608162,0.14744954,-0.21255276,0.30980846,0.13145237,0.010108622,0.3448774,-0.45338413,-0.24992506,-0.118744105,0.07772135,-0.18901601,-0.0007291636,-0.34249035,0.20373142,0.023605071,0.073575266,0.0048028626,-0.1866563,0.11390285,-0.16346584,0.10289601,0.3101154,0.13019761,0.10726193,-0.019311918,-0.01437821,-0.072420515,-0.11417395,-0.24729213,-0.10937134,-0.047714215,0.19626172,0.14165924,-0.25870338,-0.10517471,0.3082123,0.43363658,0.05823149,-0.3180668,0.19272384,-0.10636191,0.00088719913,0.014757023,0.19898431,0.045559652,-0.106613494,0.02393236
Goth_Rock,0.06553139,-0.49369305,0.3852629,0.18108045,0.22135095,0.03948881,0.2468629,-0.37471235,-0.0059952037,-0.2996134,0.09432783,-0.40223494,0.07707327,0.106441915,0.04708785,0.37343523,-0.22394483,0.0530263,-0.16413699,0.01917544,0.40393013,-0.13144839,0.44635403,-0.1747238,-0.26406097,0.2346723,0.022682404,0.19672018,-0.15433337,-0.43857706,0.052649654,0.05898347,-0.021815402,0.12384949,-0.028122587,-0.03498669,0.014857899,-0.081863776,0.30040064,0.1613723,0.31423685,-0.09658796,-0.17730199,-0.24557894,-0.14428182,-0.035065107,-0.2949415,-0.32612905,-0.20749798,0.011162475,-0.17398602,-0.31361648,-0.09015051,0.13794117,-0.15163495,-0.048253458,0.2932141,-0.049983256,-0.53366685,0.20079404,-0.10290654,-0.09750003,0.5650294,-0.011812559
Ska,0.50220615,-0.31846943,0.18152674,0.06928986,0.056551985,-0.066529915,-0.22279185,-0.18313532,-0.2282402,-0.1412334,-0.16777384,-0.17862688,-0.11704887,0.08363376,0.14451353,0.34460208,-0.09935254,0.04266714,-0.21918896,0.34018487,0.56618315,-0.093155116,-0.41355443,-0.45001623,-0.22445785,0.4067353,-0.06572627,0.2136551,-0.05815958,-0.34785882,0.19066882,0.08484465,-0.15385018,0.14313956,0.31582278,0.24735808,0.19834028,0.16697693,0.054489482,-0.062501915,-0.03486072,0.10703151,-0.19085667,0.091423996,0.08893155,-0.3734749,0.27319098,-0.06959481,-0.21923137,0.0049964995,0.12461056,0.0069468236,-0.26761958,0.29633462,0.21612354,-0.46414155,-0.010296292,0.011935477,-0.13063057,0.36905906,0.28701946,-0.14464837,0.25267237,-0.03503682
Field_Recording,0.33701548,0.025492053,0.13147034,0.37558377,0.13317208,-0.16299807,0.009516617,0.22270049,-0.3293807,0.2151467,0.103828885,-0.1828418,0.03646091,0.22504541,0.13105604,0.24827003,-0.045220226,0.17207685,-0.3632333,0.14862569,0.05402941,0.32062897,0.18381627,-0.3214583,-0.25564507,0.24110784,-0.08550992,0.25317797,-0.120899744,-0.1054422,0.32997197,0.035391163,-0.31376436,-0.055095367,-0.31080946,-0.3577933,-0.33757767,-0.18765818,-0.036889285,-0.055061433,-0.11232936,0.22861421,-0.029329529,0.1090868,0.05776034,-0.013321456,-0.16468045,-0.21626702,0.055326544,0.37458277,-0.36096212,-0.067011185,0.24515943,0.118621804,-0.15754412,-0.11928823,0.5813778,-0.038413182,-0.20277151,0.10723234,-0.0009875878,0.09912803,-0.17577097,-0.038299516
Choral,-0.17790934,-0.11516713,0.11365024,0.01673929,-0.014624019,-0.4816134,-0.2691167,-0.19161701,-1.0158434,-0.14269623,-0.100971155,-0.35925186,-0.32982826,-0.092405386,-0.07749927,0.1518838,-0.2364482,-0.4659769,-0.21503142,0.7177952,0.26305464,0.2103475,0.092462696,-0.15348269,0.11629885,0.07688553,0.21322736,-0.72022986,-0.003802604,0.32122782,-0.23392785,0.03522945,-0.22527754,-0.058637023,-0.46593204,-0.21642311,-0.55477345,-0.08671841,-0.2700613,0.30310458,-0.35183975,0.08606439,-0.25900647,0.25571707,-0.052591987,-0.04552943,-0.12637047,-0.19389226,0.013662934,-0.12410409,0.49650958,-0.18789816,0.11870867,0.16146447,-0.331971,0.121292435,0.43253896,-0.03551826,0.018582704,0.064838685,-0.07526905,-0.34645686,-0.17052028,-0.29223728
Rockabilly,0.18045829,-0.31774044,0.7575698,-0.14709295,0.12318242,-0.09588149,-0.5769343,0.0749944,-0.012795254,-0.25915125,-0.018087465,0.111016005,-0.46979704,0.27336472,-0.19228436,0.22428532,0.10331751,0.12433558,-0.039673973,-0.11217334,0.57865137,0.09304705,0.10808241,-0.3600323,-0.12484745,0.36562932,-0.09432829,0.18477269,0.25609145,-0.041344874,-0.07724873,-0.11159434,-0.03603299,0.1938877,-0.11898834,0.4530249,0.01693445,-0.16281751,-0.10374242,-0.03362086,0.025019046,0.054599505,-0.04665421,-0.17781551,0.2546206,-0.22616614,-0.25696564,0.033808354,-0.39123395,0.050540123,0.23551564,-0.123232394,0.26979846,0.11341493,-0.3230672,0.16593446,0.3979926,0.1332777,-0.17361051,-0.079346806,0.13862412,-0.1995451,0.38581285,-0.14093791
Orchestra,-0.15706357,0.0612261,0.0009939108,-0.03856356,-0.03731802,-0.7616641,-0.26223868,-0.8868526,-1.0426896,0.0037054028,0.17163777,-0.38943598,-0.048592024,-0.30247775,0.13960338,0.33790323,-0.59672785,-0.11859848,-0.15964659,0.38735482,0.36742923,0.41385478,0.29802322,-0.25287998,0.30208722,0.34562105,-0.17089868,-0.39869145,0.17439476,0.22992882,-0.12569486,0.06079493,0.015894119,0.14992467,-0.3922253,0.057989795,-0.6915214,-0.4035163,-0.24000639,0.5614223,-0.18247055,0.31705022,0.19274159,-0.1478743,0.08655274,0.20783967,-0.3815729,-0.3564437,0.19629177,-0.16163075,0.21619175,0.014493349,0.25007588,0.41872612,-0.35786405,-0.25799435,0.31755745,-0.2384577,-0.21879314,-0.06466415,-0.35569733,-0.40332344,-0.277368,-0.39264694
Samba,0.117056265,-0.038223743,0.08266553,0.34955248,-0.24470621,-0.1770056,-0.15665987,-0.11058465,0.082660615,-0.1638139,-0.22105803,-0.19248076,-0.17238133,0.5012403,0.42176795,-0.031414952,0.03297028,-0.041264717,-0.09878512,0.57986295,0.47122386,0.37462085,0.043037817,0.1799363,0.11167825,0.27373594,-0.06455591,-0.06626819,0.47066587,-0.22021857,0.4183755,0.41451007,0.04773842,0.2997885,0.36294425,0.24089222,0.15783067,0.1582493,-0.40110427,0.022489784,-0.17818882,-0.12847736,-0.41748327,0.18391286,0.24529828,-0.076097235,-0.0024274013,0.07503342,-0.14644459,0.29173878,0.08842294,0.08706369,0.741213,-0.049808275,-0.3590915,-0.36172292,-0.4450477,-0.022919938,-0.24200045,0.06405106,-0.4710321,0.3011869,0.19272737,-0.20826818
Eurodance,0.052538615,-0.43789604,0.09136792,0.102205664,-0.24698116,0.21021894,-0.3857711,0.14989875,-0.29445645,0.038185216,0.076893695,-0.08262612,0.048271745,0.060153376,-0.009448909,0.07420046,-0.22118907,0.061716523,0.035047222,0.2959621,0.37700063,-0.31812534,0.6259984,-0.44535452,-0.13508317,0.30360523,-0.013875961,-0.38644522,0.12691219,-0.26877636,-0.19559644,-0.12046047,0.3027055,0.10679742,-0.041767675,0.2132507,0.30954367,0.08765784,0.2464589,-0.1931636,-0.35621652,0.07508421,-0.273358,0.10633021,0.24732064,0.27430153,0.010588465,-0.3268135,0.25261635,0.028083041,-0.37811673,0.23012368,0.12146603,0.24415661,0.0173275,-0.032413483,-0.17907135,0.08174425,0.13779482,0.11635134,-0.15975745,-0.083339326,-0.12652439,0.22003794
RnB/Swing,0.159989,-0.23452127,0.18081784,0.22934815,0.09156919,0.17466289,-0.47545215,0.30255753,-0.17624332,-0.0038377936,-0.20545822,-0.25787362,0.10519293,-0.06090932,-0.018176783,0.33492938,-0.23911288,-0.06978623,0.11029567,0.30984998,0.4617948,0.11385695,0.45266908,-0.19470285,-0.24419518,0.16549373,-0.1842886,-0.33245257,-0.15012091,-0.19075523,0.15461057,0.06711968,0.14680965,-0.015043286,-0.10027346,0.43595994,0.107245095,0.35709867,0.24509966,-0.053780302,-0.004572088,-0.25315887,-0.15121026,-0.11770733,0.2511596,0.09257776,0.039277766,-0.17055428,-0.014660316,0.14195453,-0.12737569,0.2666501,0.004016873,0.017239656,-0.016534809,0.0075091105,-0.111938536,0.04628349,0.08185112,0.37225285,-0.3086993,0.10907079,0.051594146,0.026036397
Cumbia,0.2604407,-0.030348226,-0.10947178,0.1313921,-0.12731028,-0.4721595,0.16291125,0.24097948,-0.14508414,-0.2925983,-0.10711521,0.24398327,0.108985074,0.51587373,0.17091985,0.16438183,-0.42104524,-0.14406385,-0.26050144,0.5710673,0.6680152,0.06945474,0.27278104,-0.2593438,-0.035998795,0.21990232,-0.083157875,-0.36893323,0.41021284,-0.50964856,0.08905594,-0.021469086,0.5153962,-0.011798062,0.27506453,0.1468295,0.16498299,-0.0916938,-0.35884756,0.36455235,0.15197198,-0.2308101,-0.39007765,0.3715207,0.41974664,-0.20115377,0.4082208,0.362177,-0.49275696,-0.13538511,0.18588762,-0.18749976,0.15205428,0.12131,-0.3928519,-0.24881978,-0.021483118,0.3409782,-0.27639455,-0.23987429,-0.27226812,0.4961379,0.055610005,-0.55682117
Opera,-0.31440967,-0.048281524,0.098287925,0.021399036,-0.057806153,-0.27241957,0.13474113,-0.4282295,-0.83575624,0.15745789,0.19003695,-0.31048012,-0.15453258,-0.4256652,0.45603326,0.052268066,-0.34516287,-0.04692085,-0.15489969,0.5385334,0.5055618,0.26903802,0.19641684,-0.3695025,0.24102822,0.25001395,0.051967107,-0.20999861,0.42230833,0.027957043,0.02682022,0.21213876,0.05468261,-0.18720649,-0.2587955,-0.00021641444,-0.395384,-0.036961842,-0.36807558,0.43472573,-0.45996487,0.07354716,0.2633006,-0.009377894,-0.26481882,-0.13476393,-0.35653993,-0.17987645,0.24139622,-0.04384291,0.27958664,0.30659094,0.16880628,0.27643812,-0.21140212,0.13218,0.29515678,-0.2041536,0.15653059,-0.06852848,-0.3609523,-0.2438967,-0.099329375,-0.11937994
Garage_House,0.36298528,-0.33037105,-0.12231431,0.16420473,-0.20403716,0.37426305,-0.34656096,0.2345996,-0.46099138,0.07549224,0.08091907,-0.17255269,-0.30906385,0.18345965,-0.13969289,0.43840307,-0.1515411,0.050577898,-0.010300296,0.09101001,0.33963332,0.04610028,0.5184611,-0.18713713,-0.26016486,0.2303462,-0.17629246,-0.16577525,-0.108783044,-0.23203266,0.1352268,-0.15770175,-0.018955044,-0.2944207,-0.20595519,0.2883224,0.15569519,-0.010169302,0.35557908,0.26962098,-0.071567036,-0.32343763,0.06744184,0.0994055,0.100554146,-0.045883298,-0.008206529,-0.013011616,-0.12507342,-0.15597983,-0.22041288,0.03858019,0.36169446,0.37775195,0.32818496,-0.15154283,-0.13082956,0.013767014,0.243828,0.08960467,-0.36681312,0.105117135,-0.03825687,-0.11431554
Free_Improvisation,0.09671572,-0.30559376,0.11698576,0.04716842,-0.005877362,0.22469415,0.3717007,-0.0058177738,-0.52352893,0.18060875,0.18616071,0.013884147,-0.10443429,0.32244587,-0.0972925,0.28044298,0.46164608,0.5014176,-0.34896237,0.13841279,-0.35323292,0.51595396,0.48419446,-0.19182666,-0.22106639,0.18897066,-0.27704284,-0.36536485,0.10623808,-0.28673926,0.20500946,0.064277425,0.12592773,0.04674382,0.28882322,0.13942541,-0.15211949,-0.07011133,-0.14227754,-0.020120172,-0.28981844,0.26603672,0.08356969,-0.103778996,0.042840574,-0.22424878,-0.093886554,0.012605512,-0.11981673,0.22923902,0.114142545,-0.12140347,0.007924096,0.253927,-0.28983662,-0.29780915,0.26806,-0.39087135,0.090523824,0.32295263,-0.12024389,0.10508381,0.065338135,-0.13246602
Glam,0.39030263,-0.37946928,0.26696333,-0.026147714,-0.07123848,0.02774413,-1.2328892e-06,0.12133045,0.015982274,-0.15931848,-0.079086624,-0.0397507,-0.16185103,-0.16836774,0.053077497,0.26373723,0.08712757,-0.04657633,-0.15652984,-0.1271417,0.5544318,-0.08025751,0.39415014,-0.08599592,-0.08697703,0.33911312,-0.32427916,-0.15537839,0.15095162,-0.24818441,-0.027017333,0.29815617,0.078157045,0.27657756,-0.08177814,0.13917403,-0.118960254,0.27288067,0.006805546,-0.0792781,-0.14972228,-0.07549812,-0.0075427894,0.048964523,-0.008569376,-0.011028404,-0.07354062,-0.30249402,-0.2901815,0.19788426,0.0019445842,-0.23232543,-0.20862253,0.43271708,-0.07380326,0.057570584,0.081356876,0.10432387,-0.39202917,-0.032184616,0.07664416,-0.37493196,0.39886776,0.0767256
Rumba,0.044755667,0.3426242,0.17098556,0.26000872,0.1712073,0.034139812,0.027843487,-0.04654877,-0.42722085,-0.06395216,0.27462903,0.05466111,0.2435698,0.32606262,0.27388537,0.20083663,0.16633202,-0.08421493,-0.018157871,0.40185192,0.6536538,-0.003763157,-0.098766446,-0.053616494,-0.06648268,0.29605743,-0.11224985,-0.2595908,0.5977728,-0.32770094,-0.1699868,0.069200106,0.35846433,0.1431569,-0.024800425,-0.09621151,-0.114044204,0.5867395,-0.61507094,0.16109759,-0.47909105,-0.18477637,-0.4003732,0.3464045,0.30438542,-0.1305333,0.23231883,-0.05477696,-0.1344363,-0.5008971,-0.11517395,0.0122248465,0.34103435,0.034184724,-0.371744,-0.13742043,-0.17024148,0.2873957,0.044423737,0.16844514,-0.33412522,0.5404638,-0.092422836,-0.40084383
Electro_House,0.17441201,-0.50100046,-0.2534487,0.051210664,-0.15061189,0.20083578,-0.3919571,0.16385981,-0.23430477,0.2044255,0.07162141,0.009153503,-0.053118605,0.31925038,-0.2458272,0.4506477,-0.16590452,0.061323345,-0.045108624,-0.0037484942,0.40810224,-0.07555598,0.37475076,-0.2502923,-0.06250565,0.32636404,0.03785955,-0.4753904,-0.106560834,-0.43276978,0.2997186,0.07157533,0.08885938,-0.23167814,-0.38271865,0.2570797,0.1264712,0.19870232,0.27503416,0.20716968,-0.09341545,-0.339649,-0.2943547,-0.024836117,-0.005590232,-0.17191531,-0.11804285,-0.09442153,0.16325179,0.038136594,-0.36680016,0.0016311018,0.3469414,0.07751927,0.041428942,-0.17669217,-0.076260075,0.011771548,0.34819117,-0.09508203,-0.012498356,0.08137621,-3.7016456e-05,-0.07028582
Krautrock,0.40614367,-0.2994725,0.43228534,-0.06325895,0.21452336,0.15941781,0.33339876,0.13745767,-0.2308916,-0.30041456,0.14824691,-0.10687298,-0.17075264,0.09534618,-0.093444854,0.34797615,-0.056968894,0.17083646,-0.27335614,-0.035831124,0.20410523,0.15116468,0.19768536,-0.12259899,-0.0030657325,0.009324066,-0.035530914,-0.058472026,0.055427454,-0.25259364,-0.030620731,0.12911119,0.3488035,0.07170283,-0.1401025,-0.13796885,0.19110449,-0.02482613,0.09588232,0.20023644,-0.1131102,0.17607032,-0.08634626,-0.1702635,-0.231505,-0.30254018,-0.09182579,-0.16468474,0.2820395,0.27226314,-0.34171352,-0.15391548,0.19712785,0.34808967,-0.08443293,-0.065152176,0.20451742,0.120210685,-0.21460924,0.40186092,-0.1786431,0.18106447,0.122490846,0.02411183
Surf,0.25252023,-0.408084,0.66658205,-0.011586799,0.17754723,0.17415945,-0.25382292,0.004724087,-0.21986113,-0.3116038,-0.011641121,-0.10434627,-0.11130944,0.20266315,-0.013166635,0.2076069,-0.023786103,-0.11011682,-0.15323208,-0.15966466,0.39089608,-0.121950656,-0.041822586,-0.31711298,-0.12001163,0.26288846,-0.18837503,-0.120199636,0.3317802,0.01085518,0.20809303,0.29462647,0.3843357,0.23775215,-0.10988917,0.15913646,-0.11078315,-0.08930414,0.15519592,-0.15334585,-0.019329896,-0.030251643,-0.120095946,-0.019306896,-0.1866093,-0.27806252,0.12523456,-0.16605303,-0.17291367,0.10860677,0.19243112,0.11738744,0.23560114,0.23270544,-0.24871294,-0.21134508,-0.0025738205,0.121387534,-0.13636988,-0.021660786,0.35430637,-0.18664,0.22029175,-0.37236628
Comedy,0.10299052,-0.2081772,0.3485098,0.21218431,0.24023397,0.057464447,0.15877683,0.37558186,-0.088204935,-0.44125146,0.2761874,-0.20846483,0.0006496023,0.009020031,-0.01830865,0.375114,-0.32345477,0.049006395,-0.50685567,0.34074908,0.27993882,0.22266223,0.3670044,-0.19966899,0.64658386,0.34350863,-0.32021782,-0.10822923,0.21786405,-0.008428918,0.16532648,0.29490224,-0.4020288,-0.20250589,-0.13708565,-0.39382926,-0.055439655,-0.100018464,-0.34535286,-0.22219816,-0.10493938,0.008547898,-0.20575976,0.027983978,0.5647596,0.0805213,-0.14853038,-0.1300486,0.05590751,0.0928814,0.094246894,0.14446579,-0.08145444,0.24998112,-0.094135776,0.16735592,0.22442974,-0.100614056,0.0019328678,-0.32511684,-0.09330308,-0.04925593,-0.06889892,-0.42591184
