style,0,1,2,3,4,5,6,7,8,9,10,11,12,13,14,15,16,17,18,19,20,21,22,23,24,25,26,27,28,29,30,31,32,33,34,35,36,37,38,39,40,41,42,43,44,45,46,47,48,49,50,51,52,53,54,55,56,57,58,59,60,61,62,63
Experimental,-0.81820667,-0.18756817,-0.49171776,2.1326768,-2.2015274,0.33459675,0.046480928,1.3461977,1.1459131,0.1727213,0.15052411,0.13498612,0.5001006,-0.5569821,-0.36454234,-1.4877385,0.6737004,0.84773535,-0.36472216,-2.6197772,0.2193196,-0.5880176,-1.7225431,1.0831877,1.2515861,-2.4633083,0.87817395,0.84528506,-0.89112616,0.22506161,-2.0318344,-0.6583988,0.7081556,-0.7637831,-1.9184422,1.3228832,2.1195347,0.25297225,0.36707342,0.6888571,0.2903368,0.92842984,-0.84542406,-0.07573687,-2.030649,0.6054677,-1.149567,1.4156004,1.7878219,-0.47919735,-2.105848,1.3444495,-0.5246455,-1.321233,1.8332943,-0.7987359,1.0915717,1.0064874,-2.2251978,-0.41348943,-0.43945134,-0.03280745,-0.30035728,-0.09982605
House,-0.05749433,-0.040915497,0.19169703,-0.9159898,-0.65662247,1.3862867,-1.0327513,1.4783438,-0.4440524,-1.3540145,2.4500642,1.3383155,1.4617462,-0.53240407,-0.055317834,-2.72778,-0.08441312,-0.6391529,0.15953618,-0.8526297,-0.98987544,-0.07525292,1.5170937,0.23035197,-0.22629385,0.4829254,1.0308846,0.67264926,-0.0032545424,-0.33748412,0.36856735,-0.37437105,-0.26140743,-1.5864556,-0.4821225,1.6706905,-0.7250648,-0.09110647,0.4901389,-0.5812438,0.3929353,-0.50927883,1.3733292,1.2835542,-1.797156,-0.59291387,1.2635282,-1.6840345,-0.9582866,0.2897955,0.44035596,0.8635194,1.0738833,1.7174631,-1.4604155,-0.44181955,0.32418284,-0.9307647,2.0544329,-1.0512124,1.4588405,0.4621464,-0.3867584,0.6927022
Pop_Rock,0.8468108,1.4408551,-0.010112919,-0.61689883,1.4779587,-0.6998708,-0.00028954766,0.67642015,0.13877752,0.57286483,1.0296614,1.1914651,1.2171696,-0.38050553,-1.9771547,0.39140815,-2.7666328,0.8014805,0.23492578,-0.5879428,-0.72291857,-1.2315335,0.24234198,-1.4733828,-1.2303879,-0.48110393,0.8299361,1.1852506,0.05560231,-0.97190833,1.042284,-0.57721394,-1.1422163,0.68413836,-0.20523466,-0.284661,-0.47820917,0.6963329,0.4846721,-0.057946105,1.4787105,0.67408276,-0.9967636,0.492488,1.9893222,-0.17965776,-0.9824333,0.46019202,-1.9709979,-0.44293296,0.8295223,-1.707905,0.19813673,0.44900203,0.34419546,1.1146023,0.9294221,-0.010620936,1.1909117,-0.7796259,0.07817039,0.58772624,-0.5429711,-0.11493635
Punk,-0.8093346,0.15852861,-1.1486455,-0.866814,0.35681716,-1.0336585,-1.1322768,-1.1463376,1.7412856,0.5339945,0.23748767,1.2587496,-0.22270831,1.1547482,-1.0449609,0.86748487,-2.1126466,0.89090025,2.0003834,-1.1281673,1.5036014,-0.68594885,-0.9697705,-0.034999344,-0.7991304,-2.915357,-0.51655,-1.8584993,-1.0216894,-0.0990128,-2.3808618,-1.0981513,-0.64154905,-1.1485777,1.2671376,1.0017027,0.26181945,0.74927706,0.93171304,-1.7888492,1.3621529,-0.8298121,0.2900801,-1.1080815,1.2157702,0.56780726,-0.09058604,0.016426446,1.3625598,0.53334415,-0.39567536,-0.7182312,0.74367803,-0.114106886,1.0581853,0.5836213,-0.43726432,0.11913927,-1.1571748,-0.029796813,-0.30606872,-0.1679801,-0.019993383,-1.5481012
Ambient,-0.46070215,-0.053806353,0.18678162,-0.020748682,-1.0936688,-0.114600554,1.0265315,0.65874255,0.36931062,1.5203489,-0.8064405,0.00959202,0.6712847,-1.5820075,0.73999614,-1.7176054,1.5842403,-0.49831805,-1.7843815,-1.6551703,0.17687973,-0.5473318,-0.47672844,1.4652295,2.2427633,-2.8624032,0.73073256,0.25281578,-0.52768743,-1.7357339,-1.7276206,-0.24546681,1.1188444,1.0817353,-1.1800127,0.9582926,2.173193,0.88163984,0.2765043,1.244324,1.776517,1.0965412,1.4800045,-0.09446484,-1.4696304,1.0285816,0.009399296,0.51935196,0.83714044,-1.8582965,-0.2882528,1.1907388,-0.82804394,-0.1017502,0.5600203,-0.77934694,1.4412282,-0.07096802,0.3029228,1.256708,1.8738018,0.9470703,-2.4788983,0.22471003
Techno,-0.8662927,-0.5581505,1.4391048,0.082849935,-1.695969,-0.33759218,0.113982186,-0.10654116,0.92411727,0.14545052,0.36865935,1.4319069,-0.03255332,-0.5612377,0.6228077,-2.1003048,0.6763108,-1.9953418,-0.46567026,-1.3338926,0.0066883527,-0.94508255,-1.0804877,2.5087337,1.10219,-0.46795106,1.3520137,-1.2960539,-0.71991384,0.13731705,0.45624268,-1.3153588,-0.25660494,-1.4444155,-1.0183176,1.7670012,0.642276,0.09563449,1.4931053,-0.565872,0.23773812,-0.3900505,1.460197,2.0000753,-1.8592951,-0.29748517,0.5229541,-1.0417799,-0.40624857,-0.2912198,1.2070384,0.06280789,-0.91762614,1.3169265,-1.7143754,-1.5872742,-0.18168886,-0.76425934,-0.53762543,0.35081685,-0.06305769,0.4977621,-0.49140596,1.0734107
Vocal,0.07858687,0.2913424,-0.16157983,0.53014433,1.7608098,-0.28926224,-0.80404365,0.21476255,-0.45255536,0.95318204,0.013712222,-0.07549698,0.29291266,0.21400014,0.2190747,1.0069205,-0.8777963,0.6185118,0.33393392,1.6634761,-0.54071146,0.880308,1.8623055,-1.4087707,0.22434439,1.6114737,1.5975256,1.1067786,0.1001525,-2.1821458,0.92799026,0.0055515463,-0.1940963,0.86868376,-0.042960413,-1.129194,-0.8644929,-0.5090819,0.7315205,0.30931696,0.0029897399,-0.4960695,-1.4936062,1.086127,0.69037485,-0.28551355,-0.20437752,0.24194582,-0.52957875,-0.03205426,1.6040941,-1.6785679,0.027747385,-0.52536595,-0.09841994,1.6627214,0.39066932,-0.06906808,1.0368491,0.6478072,0.123904206,-0.26933625,0.73661155,1.4646741
Hardcore,-1.0189793,-1.8231326,1.0028348,-0.55968255,0.6911771,-0.2555144,0.054250274,0.39766902,1.1347023,-1.1125321,0.90952384,-1.2509576,0.8759043,-1.472982,-0.12145798,0.2524772,-0.945732,0.16582033,1.451282,-1.3371936,0.62017155,-0.16347803,-3.3522959,2.6750472,-0.23837128,-2.4880211,-1.5630325,0.18405767,-0.106254585,1.692506,-1.0613041,-1.9393765,0.27198195,-0.8978069,1.0088506,0.90473115,-0.50407946,0.21775606,1.9523478,1.3113921,-0.9700088,-2.1525624,0.1195629,-0.64230156,-0.38567176,-0.6025233,0.29623988,-0.5967889,-0.3664965,0.14106739,0.9029269,0.599029,0.98709965,0.17444476,0.135635,-2.203682,-2.5121682,-0.41836688,-1.8036698,0.9243779,0.46983358,-1.2531772,-1.3979039,-0.7785398
Synth-pop,-0.3022731,-0.24092928,-1.0884234,0.554973,0.38090807,0.92630625,-0.62156856,1.8148744,-1.5346638,-0.1481982,1.0007071,1.087161,-1.2170787,-1.8781841,0.04194836,-1.3318095,-0.5624571,-0.5917177,0.11960771,-1.7399412,-0.6830101,-1.713822,-1.1389813,0.4018796,-0.47028464,0.6755621,1.8492599,0.75317395,0.14798096,-0.65541816,0.56187534,-1.2462046,-0.7585063,-0.556992,0.13811296,0.9196657,-1.2526582,0.6388937,0.229848,-1.4953355,0.7659854,0.23368105,0.36569855,0.74998885,0.19086595,-0.2776087,-0.56119925,0.18683943,-0.37367254,-0.96644557,1.8766025,-0.6791194,0.94339293,0.22476508,0.44050342,1.4878176,0.9418655,0.16147467,0.45672852,-1.2228876,1.1335527,2.3022087,0.26408368,0.85569704
Alternative_Rock,-1.3110231,0.6759344,-1.0938324,0.28918132,0.055189945,-1.0748796,0.26504204,-0.30870807,1.8255183,-0.5865805,0.29571894,1.1734387,0.60307574,-0.36370662,-0.7420653,0.04565916,-2.255087,-0.39047563,0.55510795,-1.4574159,-0.45020437,-1.497461,-2.089092,-0.79574937,-1.286226,-1.5696278,0.16508606,0.62760985,0.42924494,0.03301218,-0.5347215,-0.28722438,-0.5877857,0.43590206,0.85201484,0.56245834,-0.6868992,-0.14862262,0.3351832,-0.78560203,1.7599454,-1.3595587,-0.26462716,-1.3891457,-0.17068598,-0.010519376,0.825241,-0.0120811155,-0.01647777,-0.5436216,-0.6409368,0.037356216,0.2133658,-0.92627853,0.6300018,1.1506839,1.042901,1.3589075,-0.3931811,-0.36512023,-0.15939786,1.8721616,-0.24441545,-0.6489842
Electro,-0.09791672,-0.24435472,-0.25898167,0.19527258,-0.3836179,0.66438246,-0.584651,0.30999672,-0.6542471,-0.29246083,0.979175,0.51600575,-0.6183953,-1.0669812,-0.747674,-1.7200164,-0.90182996,-1.1866767,-0.18938205,-3.0956926,-0.6762937,0.31098148,-0.93074137,1.7695947,0.18690397,0.3798248,1.038732,-0.26049787,-0.031237943,0.29964143,-0.3187221,0.2258649,0.07091561,-1.38141,-0.6190978,1.5224487,0.5265157,0.09366799,0.43563592,1.2062287,1.1419936,-0.66078246,-0.17235146,0.8829531,-1.1635643,0.0067257974,0.5246505,-1.2668585,-0.07427598,-1.5196525,0.3063843,0.9312491,-0.6941306,0.1387982,-0.41030392,-0.79000366,1.3983802,0.21947058,-0.07052947,-0.5186549,1.1813058,1.1430169,-0.5177231,1.17895
Ballad,1.0044769,-0.521455,-0.41486377,0.22551233,1.0046697,-0.23414347,0.093581386,0.29760107,0.34199965,-0.47333223,1.1382728,0.45183364,0.6969032,0.9494534,-0.53718823,-0.18723643,-0.56245357,0.5128463,0.46146613,0.8846627,-0.96520984,-0.7206611,1.1010453,-1.0935358,-0.8991043,3.164081,0.69166404,1.1472731,-0.3678035,-0.9113389,1.187615,0.9854954,-1.3599368,0.2469414,-1.9874796,-0.8902729,-0.5039676,1.0245675,-0.40313637,-0.18796094,1.3247732,-1.4139662,-1.3162596,-0.033541854,1.9980887,-0.7942854,-0.74854314,0.87552744,-1.8020715,-0.7591245,0.3246304,-1.1402943,-0.08247593,0.21545838,0.2254445,0.7227121,0.7548962,-0.8092319,1.5941501,-1.0959882,0.17652352,-0.013339093,0.22001222,1.808971
Indie_Rock,-0.7878515,1.2370042,-1.1525462,0.8037856,0.27172104,-0.4856916,-1.2385786,0.8563273,3.492188,0.53644025,0.087451264,0.7684482,-0.81238645,0.22685404,-0.6303039,-0.66729146,-1.5349044,-0.2470842,0.606302,-1.4214907,0.1245089,-0.3093863,-1.7480289,-0.17129675,-0.7644164,-0.77052385,-0.7109044,0.2276086,-0.33947527,-2.1907744,-0.48102015,-1.1296217,-0.9347001,-0.0011562825,0.34489724,0.09405195,-0.2948068,0.9042437,0.7755664,-1.3174189,-0.18194582,-0.46797398,0.23698434,-0.5194293,1.0916759,0.9413623,0.63277555,0.20866616,-0.24121654,-1.2456884,-0.4383343,0.09131492,-0.29322264,-0.67237234,1.6725671,-1.1781603,1.1235029,1.1142176,0.16063501,-1.5019722,0.76504725,1.6429377,0.102510385,-1.5455902
Disco,0.9230727,2.2850132,-0.5057463,0.5270032,-0.5230163,0.62025803,-0.1870905,-0.72440195,-1.5019376,-0.35059747,0.35692203,1.8532543,0.9847249,-1.040361,-0.7001724,-0.184195,-1.4036384,-0.69612664,0.4007665,-0.504493,-2.0848248,-1.1419691,0.87037784,0.5775667,-0.09848258,1.0684203,1.6400086,0.5113343,-0.20402704,-0.99438953,1.2045208,0.21406369,0.13978828,0.08595156,-0.8636475,0.20953758,-1.5050931,0.92676353,-0.71011597,-1.3269088,0.59539866,0.47570232,-1.4892192,0.61814535,-0.21741453,-1.1052542,-0.6542935,-0.7616694,-1.0300338,-0.35587618,1.5247364,-0.12592998,0.010095635,0.5220579,-0.35611156,0.52201355,0.5269117,-0.36478972,0.70055693,-1.8292687,0.29416585,0.5853645,1.3741218,1.3039333
Soul,0.8651171,1.3273524,0.20960608,-0.30644485,0.9022156,0.46575183,-1.5580456,0.088295504,-0.7958259,-1.478506,-0.75793713,2.0025961,0.25947055,-0.71801776,-0.21940365,-1.4679686,-2.455822,0.90723884,-0.036119133,0.21943381,-1.0120369,-0.926986,2.1155367,-0.39044768,-2.0693653,1.3139795,0.13413507,1.2549348,0.50804645,-1.6462457,1.6392584,0.9318382,0.8762898,1.0241135,0.5599901,-0.47430485,-0.34608814,0.39872763,-0.5325472,0.24617876,0.4225896,0.19095044,-0.92733127,0.051861845,2.2881906,-0.6002393,-0.5317928,-0.94936764,0.1321007,-0.83015853,-0.39295223,-0.98012847,-0.44388798,1.3786827,0.83890426,0.71909046,-0.65522254,1.0908362,2.132072,-0.55325615,0.33633828,0.32545257,0.575494,1.0277922
Folk,-1.3791094,1.1778975,-0.09525037,0.72211003,0.23921953,-0.5355553,0.31008738,0.5888421,1.5598334,0.14324725,-0.03569506,1.1531163,-0.86635,-0.025040397,-0.5457539,1.6128623,0.5905483,-0.7113806,-0.006350521,0.7366715,0.40520167,0.62811804,1.098705,-1.7853055,2.1479733,0.2873298,-0.92840385,1.370444,-0.05954418,0.44930205,0.1818319,0.69335717,1.2432328,1.7471354,-0.12179319,0.0871205,-0.88868475,0.19348761,0.011628499,-0.07864162,-0.28949755,0.81616193,-0.026843296,-0.730898,0.6566016,0.41662437,-1.2224507,1.9127903,-0.8239016,-0.4415894,-0.6682957,0.42036304,0.7764298,-0.34828013,0.9099377,0.9429601,0.9249928,-0.7206681,0.82498384,0.85828465,-0.59695995,-0.40731978,0.10888484,0.6023962
Downtempo,-0.9264705,0.8260042,-0.5701478,-0.011025147,-0.8953014,1.4861829,-1.548192,1.0295446,0.9804152,0.09720239,0.46611243,1.8510532,1.5184326,-1.903841,0.4049132,-1.705284,0.39520264,-0.51304746,-2.667507,-1.4828959,-1.654964,-0.88847697,-0.57991594,0.8271773,0.61047703,0.30689326,1.3395475,-0.03447026,-0.20904113,0.6240735,0.38931674,0.07503554,1.4495072,-0.21272697,-0.98026484,1.6753161,-0.28842804,0.11682113,-0.64463603,0.6071805,-1.3610817,0.21792963,-0.29658896,1.6167505,-1.2355924,1.1493902,1.1915566,-0.236697,-0.2834036,-0.28308785,0.34399423,1.8516272,-1.3399007,-0.23582682,-0.7252865,0.4951186,2.112253,-0.19558136,1.2113905,-0.52322304,0.29854727,0.82174766,-1.0479416,1.2947794
Psychedelic_Rock,0.2134201,2.7053645,-0.65738326,-0.11856356,-1.2252755,0.25059682,0.54757696,-0.5406795,2.3431647,-0.05386322,0.7406843,0.48639974,-1.5071576,1.1201307,-0.13680454,0.6808086,-1.0178015,2.2106693,-0.09074281,-0.040231846,-0.8839283,-0.95862025,-0.95600545,0.09404353,-0.13222593,-2.3427472,-1.0097606,0.6488746,-0.8165322,-1.0604572,-1.1026894,-2.1649344,0.44788507,0.1576278,1.2685469,-0.7995807,-0.66501623,0.829251,-0.7222154,0.96023434,1.7124952,0.6869691,-0.8935248,-1.8477983,0.24561097,0.38320535,0.34435257,0.20049042,-0.32224235,-1.3713098,-0.77723134,0.39392525,0.4165714,-0.8764969,2.9043212,1.4285429,0.018910028,0.71312296,-0.13275339,-0.66904587,1.0198659,0.78636354,0.36951318,-0.07781886
Rock_&_Roll,0.30650517,1.7274679,-0.012900976,-0.8384937,0.71138895,-0.94306266,0.017753024,-0.10947641,1.1609716,-0.5952312,-0.56530803,0.5875547,-0.37259856,0.2908033,-0.71759516,1.0254409,-3.223216,0.70220613,0.82718295,1.4745435,-0.40681,-0.50166047,-0.9413166,-0.7433357,-2.1104617,0.7202146,-0.14021462,-0.17694421,-0.74861616,-0.243689,0.81493616,-1.219079,-0.6533109,0.29107627,1.3904971,-0.9704931,0.24671447,0.08719396,0.6116756,-0.54069376,-0.60648894,0.02304155,-1.1519172,0.24975194,2.3270016,-0.2574933,0.29121527,0.10027312,-0.78969496,-1.4568185,0.16126393,-1.3105466,0.65484303,0.62640506,1.8691543,3.0337274,-0.14880414,-0.18156947,0.12806684,-0.670457,-0.50027084,-2.006077,-0.18754308,-0.0649337
Funk,1.0077808,2.051546,-0.13927767,1.4118638,1.2957336,0.6456588,-1.4849907,0.46847332,-1.1742015,-0.29746643,-0.3595369,2.0181723,1.086728,1.2168996,-1.9981588,-1.4815369,-0.27711374,1.3109887,-0.27543786,-1.3237798,-3.2611053,-2.2187345,0.90193063,-1.1962402,-0.49835894,0.92301106,-0.6016819,-0.894341,0.7463834,-1.338412,1.7025433,-0.6090482,1.4913151,0.7698039,0.316006,-1.2333819,-1.343256,0.39188147,0.38138664,-0.94210345,0.0025197002,0.22412589,-0.11250575,1.0243165,0.33603743,-0.41298535,0.09254828,-0.117050685,-0.26722404,0.5208289,0.07724703,-1.0078368,-1.1275918,0.33463928,0.45620683,0.7077587,0.6597257,-0.020935567,0.12456944,-0.99828005,0.60412556,-0.6325593,-0.16358037,0.803221
Industrial,-1.0762471,-0.5490503,-0.90901357,0.18034382,-1.7071127,0.040240884,1.0410659,-0.030771367,0.3367769,1.0782982,-0.0622738,0.1333504,0.5688536,-0.46209627,1.9060243,-0.56118816,1.9999363,-0.4178969,0.43985474,-3.135366,0.7802652,0.09643546,-2.6856272,1.4478595,-0.40784422,-2.7453134,0.5424692,-1.5018417,-1.4522403,0.6414063,-1.408447,0.33755937,-0.48989853,-0.7225354,0.9203837,1.9776764,2.0443275,0.3816937,1.0390129,0.66984165,0.35603476,0.9624882,0.4018359,1.1426207,-0.8250482,2.2845192,-0.6692183,-0.27230725,-1.0919564,-1.2401224,0.31490546,2.3127673,1.7688663,0.056243442,2.0922885,-1.2024665,-0.23642227,0.78827244,-1.3380239,0.6660013,-0.44313642,-0.16993786,-0.81383693,0.16413426
Soundtrack,-0.98025984,-0.5030309,-0.951952,0.2530166,0.287481,1.4293174,0.45459157,0.29003346,-0.5664933,0.18552707,-0.58131236,1.4999409,0.7419772,0.114308484,0.23627728,0.6774251,0.40780914,1.7677087,-0.7272691,1.2373,-0.43659946,-0.75904953,0.6212271,1.2100772,0.84027153,-0.8613126,0.24253477,0.80063415,-2.0284808,-0.18204907,0.601759,2.3819213,0.9805116,0.1501921,0.16554333,-2.2636669,-0.08702049,-1.472682,1.0348202,1.3224647,1.220829,0.76350206,0.38434985,1.8041929,1.6875694,-1.7039999,0.30115163,0.8837067,-0.26555,-0.17082964,-0.10755762,0.017813446,-0.3325561,-1.3092767,-0.40568647,1.4684064,2.8644826,0.53589845,0.0963792,-0.89147294,0.3061594,0.7532518,1.1027895,1.2782551
Hard_Rock,1.5565438,-0.014239454,0.45400703,-1.3930501,-0.622142,-1.2058201,0.51335496,0.14231746,1.8115805,1.3203675,1.9215412,-0.39337426,0.3367266,-0.19833107,-1.0546405,0.92937714,-2.5760295,0.5368564,0.06963739,-0.8033089,0.63494086,-1.5418215,-1.8995044,-0.62896794,-2.1478188,-0.8132444,-1.3731309,-0.10263691,0.7190793,-0.14899881,0.17745794,0.0037128709,0.049098708,-0.66482365,2.1859453,-0.7719467,-0.46649498,1.80226,-0.14570184,-0.833217,0.7546262,-0.46616685,-1.8714411,0.49233037,1.791361,-0.92294884,-0.28386858,0.3761254,-0.30451256,0.7885069,-0.11224857,-1.2053945,0.50714,-0.73811156,1.1803632,0.9797803,-0.25206134,1.4324952,-1.154086,-0.16455983,0.062667474,0.9455102,0.9969309,-0.077616975
Trance,0.31844223,-0.8693683,0.67156214,-1.7978908,0.10662487,0.5446433,-0.101351425,0.9726966,-0.21522355,-0.6141304,2.21763,-0.8505501,0.5751008,-0.74417096,1.0760236,-0.6149132,0.8390981,-2.3129041,-0.26299083,-1.1315548,-0.15892887,0.32021376,0.46483344,2.4600232,-0.66033405,0.8188496,-0.6343358,1.451049,-1.6960748,-0.40162104,0.38021702,-0.21643667,-1.7757468,-1.061642,-0.92333597,2.5686176,-0.7979757,1.4866681,0.50638723,-1.0060978,-0.5101296,-0.9117649,0.20073429,1.5611329,-1.4981002,0.21873617,1.2801458,-0.795078,-1.2405831,0.23262006,0.92013836,-0.44484687,-0.7218663,0.12530547,-2.6881359,-1.0585383,0.21647435,-1.4363117,-1.1453581,-1.0885592,1.6393175,0.7235451,-1.2433082,0.56618637
Noise,0.15583745,0.13833173,-1.1883368,2.129297,-0.5928553,0.04774901,0.41741726,1.5918323,3.03962,0.8406736,-1.3866037,-0.51574457,-0.53191936,-1.3824041,-0.23636506,-0.875403,1.0881537,1.4795054,0.3409336,-1.0363293,2.1967788,-0.34831876,-1.5583663,2.5844388,0.5996398,-2.5112464,-1.9014698,-1.4545981,0.40907833,1.1868218,-2.321778,-1.1236881,1.1629701,-1.3846695,0.24170348,1.8941132,2.239408,-1.3690723,0.73127824,0.88090986,1.4250132,0.12848851,-1.0607792,-0.25392592,-2.3386817,1.6393015,-1.2656642,0.08122847,-0.29454148,-0.9339121,-0.39261642,1.1489687,0.6178645,-0.39867464,-0.09028537,0.996334,-0.25322995,0.713637,-2.1805243,1.3999635,0.13827555,0.14375393,-0.74814343,-1.0022988
Folk_Rock,-1.0062742,1.0556729,0.81766444,0.92426074,0.7874901,-0.67827255,0.8800716,0.8901475,1.8062245,1.1896715,0.7457498,0.10807364,-1.1758802,0.6002157,-1.888502,1.7518152,-2.2980592,0.47699183,-0.21115512,-0.9354358,-0.39571148,-0.42928067,-0.54451996,-0.36426806,0.13299315,-0.16400586,0.0034753068,0.3054795,-0.3153736,-0.5949778,0.36739647,0.07177291,0.7764907,0.83486027,0.31103334,-0.22520469,-0.748427,0.77269584,-0.78886265,-0.14570506,1.03078,-0.23676138,-0.9616212,-0.23528557,1.8495784,0.52475405,0.16048855,0.036314968,-0.43770206,-0.31076825,-1.5144145,-1.0413591,0.05301857,-0.9530499,2.0891745,2.7076907,-0.020890398,0.7914027,0.3532873,-0.4235855,0.4854033,1.2515899,0.17273551,-0.576808
Deep_House,-0.5472778,-0.7663522,-0.112622894,0.5441434,-0.37556133,0.6323734,-0.34769455,1.7839891,-0.45654622,-0.41443056,0.85110027,-0.032637175,0.38404667,-1.7571336,0.47655758,-2.5833101,0.04328988,-0.5996793,-1.3014228,-1.4125938,-2.4641082,0.044386957,0.8840843,0.7796123,0.3308037,0.47757986,1.542649,0.64167815,0.57625353,-0.12699617,0.19164251,0.55516046,0.087589465,-1.083751,-0.143701,1.7776781,-0.29292428,0.5817512,0.43667752,-1.464219,-0.62690705,1.130286,1.7237887,0.7077221,-1.4837971,-0.9806146,1.0362197,-2.3360524,0.12613559,-0.6112242,0.3841182,0.6184155,-2.0441265,0.34855792,-0.33506146,-1.4701511,0.068779446,-0.8873044,0.6122718,-1.4788517,0.118228726,-1.3021866,-0.89671314,1.3044212
Tech_House,-0.9126292,0.16241424,0.20081067,0.74056435,-1.3412932,-0.34446585,-0.6691235,1.3157332,-1.3502369,0.2890987,1.4917713,-0.5297598,-0.14172721,-1.6254234,1.3399317,-0.51813656,0.4457787,-0.91673416,-0.5345936,-0.7592941,-0.5940173,0.25317937,0.99527264,1.6652042,1.2243323,-1.1878514,0.7545042,0.17356856,0.050721373,0.19298188,1.0210096,-0.030617926,-1.0235173,-1.018167,-1.0002072,1.9749753,-0.40297252,0.90491027,0.27704057,-1.2206149,0.3446358,-1.1947553,0.8622985,1.331484,-1.6999108,0.09573884,1.9098455,-0.6544207,-0.5579869,0.023919461,0.1309148,0.45795107,-1.2417283,2.166427,-0.7782496,-1.5587726,0.7591249,-0.4463726,0.97702855,-0.86422026,1.4410926,-0.5276309,-0.93787235,0.6733353
Minimal,0.29119644,-0.3030397,-0.4331186,0.9458833,-1.9979694,-0.652611,0.53876936,0.25409928,0.45191592,-0.40966,-1.2755778,-0.34835654,-0.63631666,-1.9518992,0.99734706,-0.66326827,0.683677,-0.91760004,-0.931588,-1.0965104,-0.32218853,1.0605232,-0.64734995,1.2665926,1.3043787,-1.2663151,0.865564,-0.071367376,-0.69280463,-1.1084836,-1.4770077,-0.3250614,1.3380593,0.2036965,-0.30808437,1.4862199,2.4229689,0.6608386,0.61166906,-0.87339,0.49553737,0.028597053,0.7142643,1.1398239,-1.9057992,1.1842608,-0.18943606,-0.70115423,0.31841472,-1.7461032,0.03165663,2.893358,0.06545389,-1.3335627,0.6431946,-0.19335704,1.3559153,0.66617954,-1.570159,-0.25067005,0.49228176,1.346539,-0.24501726,0.9943089
Chanson,0.08391613,1.332258,-1.1328766,-0.21003748,1.0881954,0.1958915,-0.41649476,0.46324325,-0.575577,-0.5423299,-0.8001179,1.0944985,0.121062726,0.10472373,0.6697161,1.0322226,-0.70257014,0.7509163,-0.073339805,0.2545427,-1.0584027,0.33297837,0.80554205,-1.1842921,0.27409577,1.3168808,0.8429256,0.12103697,0.56294537,-1.0746055,-0.15523297,0.4922603,0.21249792,0.81312287,0.05266274,-0.5328174,-0.83257556,1.03837,0.17685373,0.8062961,0.8045873,-0.39250407,-1.9060491,0.55868787,2.2892582,0.2867173,0.11087312,0.82356715,-0.435197,0.7692052,0.63754576,-1.4688042,1.7988545,-0.25850612,0.5664748,0.94951415,1.1984273,-0.7640625,1.2970859,-0.8482598,-0.39277646,-0.7019481,0.2812606,0.12820402
New_Wave,0.1146715,2.3425534,-2.1026785,1.1049644,-0.816523,-1.1842655,-0.52211416,1.082725,0.4947249,1.4518121,0.058218308,0.77964586,-0.3724078,-1.4188956,-0.46128622,-1.0580347,-2.0155716,-0.38082713,0.37716195,-1.7464905,-1.1015304,-0.22336619,-0.26320422,1.4346821,-0.03912788,0.39802355,0.32542673,-1.2419014,-0.54596645,0.024153946,0.8310318,-1.5212978,-0.73344,-1.316431,1.4092818,0.5052382,-0.71813726,0.7269248,1.9412851,-0.49309635,2.4825897,-0.14586408,-0.004545268,-0.61344093,1.1340752,0.94438297,-0.41656986,1.3434756,-0.8532825,-0.595716,-0.11678244,-0.43313506,0.96137315,-0.71223015,1.1264781,0.1960237,0.77750486,2.0823348,0.098801956,-0.91157794,-0.10721829,1.4350357,-0.20620951,0.4015033
Abstract,-0.39055574,0.23032232,-0.7078992,0.25277275,-1.6124614,0.9915682,-0.29408458,2.0601218,0.44389176,1.3247979,-1.2943633,1.0459901,-1.4200777,-0.9946032,0.9117614,-2.017668,1.2637573,0.4765867,-0.54578376,-2.3393795,0.4748855,0.37210268,-1.9974964,1.0458444,2.3006616,-1.5941802,1.8600068,0.7985744,-0.32584596,0.40409833,-1.748575,0.3338571,1.6249409,0.6252549,-0.43466613,-0.35575217,1.4964007,0.18482248,-0.4980752,1.1863638,0.7771994,-0.42546982,0.87413144,1.5863212,-2.8253472,1.3399938,-0.27780616,-0.2872718,-0.22327088,-1.3531735,-0.7884226,2.5751648,-1.1070744,0.46525434,0.5125173,-0.45888183,0.8614056,1.3620648,-1.6211939,1.4784627,0.74688613,-0.5287319,-0.3259571,-0.5005913
Garage_Rock,-0.26491225,2.3478348,-0.47259852,-0.0073823133,-0.1428534,0.35221717,-0.12590003,0.3163233,2.2517414,0.058038052,-1.5095487,-1.1368918,-1.1515845,1.0590997,-2.4234614,1.2680005,-2.7053804,2.0009909,1.1471211,-1.8370423,0.48544863,-0.5442396,-0.36961684,-0.6668969,-1.5787852,-0.7054296,-0.50334084,1.236897,0.09959015,0.8023088,-0.08136557,-1.6107359,-1.3235378,-0.025183402,1.4984959,0.006813746,-0.69738793,0.042493466,1.4444666,-0.9953899,0.06087434,0.47259852,0.26735651,-0.17042705,2.3935997,0.44100663,0.96073586,0.39289242,0.16797346,-1.5266808,0.5117871,-0.12233011,-0.20569465,-1.0134088,2.1743505,1.4545152,0.36380306,1.1621513,-1.2256284,0.44508177,-0.023660105,-0.11866551,-0.47855312,-0.5129564
Heavy_Metal,1.4591805,-0.046236146,-0.026144061,-1.1806029,0.46417677,0.45089847,0.71536654,-0.8676063,0.91577864,1.1074816,0.77187693,0.39093506,0.4934771,-0.018115107,-1.0946547,0.64650244,-0.8454491,0.02107843,0.8552801,-0.47577736,1.2116807,-1.2107661,-0.92735714,-0.36588225,-1.5394535,-3.0649436,-2.0500398,-1.1852512,-0.37502232,1.4241675,0.045634054,-1.675542,-0.9185207,-0.9496747,0.2992508,-0.10214322,-0.19234952,0.51080835,1.9144405,-0.31335032,-0.83661306,-0.6284704,-1.158264,-0.35343567,-0.0039174836,-0.58358103,0.6246122,-0.037049368,-0.6228039,0.8782427,-1.9595726,-0.15164806,1.5823935,-0.53076804,1.3286554,2.2713516,-0.9230119,1.0049617,-1.3074291,1.8765109,0.6769822,1.155976,-0.026771883,0.55453014
Romantic,-0.63738996,-0.6706431,1.2053862,0.467013,-0.7822988,-0.89881325,0.9221783,-1.5896763,-0.54692256,-1.0332236,-1.6976372,0.66066366,-0.55091095,0.014453721,1.2209294,1.720083,1.3433048,-0.8722401,-0.97667545,2.0005891,-0.48966447,3.1051483,-0.028640514,-0.7212632,1.0106502,1.4110177,1.2057186,-0.24323355,-0.09662475,-2.3385022,0.32103592,-0.16974631,-1.8632269,-0.3553579,0.2897434,-1.6984806,1.8871508,1.020101,0.7142759,1.456863,-1.1515971,1.2787571,1.8847343,-0.8197794,1.3082798,-0.71647567,-0.68522686,2.1083772,1.1678846,1.4582939,0.15483032,-0.14721054,0.83093905,-0.20388584,-1.7951595,1.7335947,-0.33215627,0.8200435,0.4947641,-0.17665417,0.22606735,-0.34636006,1.0902574,-0.5926721
Rhythm_&_Blues,1.3092413,0.6165978,0.3659018,0.41168103,0.06625175,0.14353323,-2.028697,0.1194412,0.75173986,-0.7714873,-0.27665284,0.038730655,-0.38862163,0.67439866,-0.8621599,0.77032256,-1.3471882,1.5747262,1.7499318,-0.26883402,-0.6577588,-1.9666806,1.5081364,-0.87708837,-0.85004705,0.8355637,0.82612723,0.8876216,-1.058417,-2.1487155,1.139835,0.020833865,-0.0012288273,-0.35884058,0.5488704,-0.7243031,-0.9939368,-0.28232712,-0.2845265,0.26602313,-0.5188796,0.71425724,-1.8632592,0.60673326,2.81923,0.16996945,-0.18028834,-0.018886909,-0.6459696,0.47314087,-0.2223373,-0.8487397,-1.8609754,0.6928296,-0.4315418,1.6501144,0.5392955,-0.0026756888,1.3513227,-0.6756269,-1.5874537,-1.521793,0.6029677,0.36951998
Easy_Listening,0.34414124,0.3176636,-0.3311339,0.21364239,0.7483259,1.6272501,-0.6139706,-0.989973,-1.4587226,-0.46052587,-1.5926495,-1.1386878,0.44708544,0.774027,2.468291,0.30709997,0.31815597,2.415488,-2.1082225,0.48340753,-1.4441814,1.1248829,1.0056633,-0.96683216,0.7962814,1.4880447,0.8168736,2.0036266,-0.4458763,-0.9858427,0.28877553,0.4401331,2.2673862,1.8001254,-0.49065393,-2.5886571,-0.14080037,-0.59978145,1.3392671,-0.5303532,-0.2093734,0.566213,-1.0580894,-0.27849483,1.658476,-1.0259901,0.3834129,0.45832023,-1.2281016,-0.27726093,-0.28129685,-2.126123,-1.278694,-0.6501092,0.20670682,1.763117,-0.13380519,-0.55374545,0.854591,1.4353939,-1.4568828,-1.0728117,1.6762447,0.65413487
Prog_Rock,-0.028788378,1.7014532,-0.464622,-0.8643777,-0.52103037,-1.0374131,1.3607405,-0.039375477,2.3106613,1.6766031,-0.9632107,0.044078294,-2.4432118,-0.07699051,-0.8362606,-0.47326547,-0.9021845,1.4358052,-1.0894138,-0.40088338,-1.4799478,-1.4744923,-0.87868655,-0.59748405,-0.6338877,-2.8721786,-0.75010496,0.18738507,0.3956285,0.26801604,-1.1739933,0.7645692,0.16486421,-0.06605217,0.44357005,-1.6795685,-0.40175122,0.72213477,0.81606716,-0.6445607,-0.4976165,-0.11625197,-0.57931256,-1.1323817,-0.1678701,0.35407677,-0.24371602,1.0526664,-0.75704587,0.49369138,-0.7910214,-1.7263281,-0.4655902,-0.95781934,2.2622337,1.0776547,-0.31719306,1.3682735,0.23145789,-0.8117063,0.9098595,0.9963077,1.1672523,1.5819067
Euro_House,1.3995978,1.3713534,0.4270689,-1.5992594,2.2134714,-0.8685605,0.17946668,0.89266765,-0.46603537,-1.8416418,4.62259,-0.13811448,1.1340042,-1.3576388,0.22819856,-1.1817467,-0.44078457,-0.9381379,-0.046499394,0.4300289,-1.5240163,-0.96761274,0.85141236,2.124314,-1.4218988,2.2158651,1.2120569,0.79795325,1.1079998,0.1942012,0.36917216,0.85113764,-2.0352497,-0.25200018,-0.44234207,0.19266868,-0.45026073,1.7627364,-0.2756964,-0.85007256,0.9053524,-1.9886631,0.93859154,2.1332474,-1.4126179,-2.5489569,0.4084066,-1.3548801,-0.28021744,0.5171843,2.3492463,-0.7771627,1.1714867,2.0350926,-2.882467,-0.5741909,1.4147708,0.36008862,0.4864607,-0.874724,0.060573123,0.17203873,0.19909179,-1.185994
Drone,-0.86018145,1.6775296,0.41077137,0.53365284,-1.2657531,1.3455026,2.32417,3.270176,1.7245283,0.628028,-1.0521845,-0.7868967,-1.5700207,-1.0609372,1.7687366,-1.3388766,2.4915755,-0.53195494,-1.0317355,-1.4453843,1.2752324,0.21966527,-1.900071,0.057803307,1.4073079,-1.2580172,-0.532184,-1.5367534,-1.4719145,-0.73963094,-2.8489413,-0.7176039,2.076942,-1.1971407,-1.0830649,0.55090714,2.1078792,-1.0334445,0.4351072,0.7243723,0.65332854,-0.37479737,0.50164783,0.8851891,-1.8425984,1.1501667,-0.48647302,0.5834254,1.441563,-0.96730775,-0.9084135,1.5709733,0.116609976,-0.7628356,2.4331033,-0.6433576,-0.3252395,0.91478145,-0.14876956,0.8233763,-0.59827673,0.04302596,0.15098761,-0.2024845
Country,-0.14269744,-0.24093463,0.11731336,0.42937553,1.7890135,-0.6751199,0.70652264,-0.43608543,1.0173906,-0.9113213,-0.04097212,0.16232377,-2.2082083,1.2456638,-0.34783134,0.021248206,-2.0552204,-0.67762244,0.17525187,1.2463511,0.8673667,-0.16796507,0.83516026,-1.292314,-0.13501783,0.35476416,1.0720557,1.4764513,0.18453027,-0.52225065,1.2097014,-1.5393479,-0.15866071,0.7858023,-0.25489005,0.17051229,-1.3593129,-0.9033596,-1.3325008,0.20258035,-0.23365083,0.5919007,-1.5764675,0.5031288,2.9931881,1.0130655,0.9032578,1.2198207,-0.015033907,0.9367596,-0.6804152,-0.886076,-0.48336065,0.50269186,1.1808896,1.4707743,1.3209944,-0.21175191,-0.009602661,0.18845035,0.69225466,-1.4221815,0.38993528,0.1332284
Schlager,0.6370561,1.0590549,0.29350305,-0.46623698,1.5365037,0.28704405,-1.2474091,-0.57918787,-0.78741556,-0.0034225099,0.076941766,-0.23690619,-1.5919234,-0.041653212,-0.49703902,1.0242406,-0.75650173,0.30291152,1.389177,1.0771521,-0.7977637,0.9695156,1.1610731,-0.80240023,0.22683895,2.4816043,0.4206173,0.6630128,0.57908565,0.053282745,-0.07765238,-0.8020083,-0.45094272,0.3122913,-0.9853349,-1.5256245,0.11533063,1.0182934,1.1427752,1.114162,0.9926133,-0.1355849,-1.2184016,-0.26925328,1.8356079,0.50399363,0.018771721,-0.74390495,-0.6967472,1.0900794,0.36194605,-1.7347518,1.0354114,0.3340145,-0.7894525,1.602758,1.2119853,-1.0023774,0.8653979,0.18431531,-0.68334967,-0.20667712,1.3179479,1.2192593
Breakbeat,-1.0065335,-0.6039591,0.45327663,-1.1930052,-1.5706383,0.75951993,-2.0267239,0.16359037,0.709322,0.30920333,1.0063603,1.5985162,1.286013,0.32497713,0.4494128,-1.8754592,0.560592,-1.2265992,-0.40407658,-1.9352674,0.3032874,-0.3967211,0.27761346,2.485033,-0.088766545,-0.7371687,1.8883996,0.23465236,0.45170033,-0.06025822,-0.64401233,1.013843,0.28899232,-0.045757335,0.081903964,2.4029849,0.99123704,-0.88152486,-0.23946296,-0.63033986,-0.4789226,-0.57467115,-0.3160611,1.6313192,-2.1843684,-1.1982735,1.0405366,-1.369124,0.49063218,0.37412938,1.44852,-0.16319937,-0.645045,0.91264653,-1.584374,-1.0072327,-0.14652146,0.052856825,-0.2650485,-0.96454805,1.461517,-0.5323179,-0.6308254,0.6890371
Black_Metal,-0.43309376,0.089248784,-0.30950683,-1.3456467,-0.054153867,0.15432884,0.49886113,0.98769057,0.8053046,-0.30164236,-0.846463,-1.8970599,-0.5038895,-0.19296438,0.33514404,2.339357,1.5481404,0.19136374,1.5334145,0.50512826,1.2734513,-1.1557455,-3.0414183,-0.16257231,-1.320153,-1.9295181,-1.3395296,-2.254482,-1.2413895,1.1077397,-2.2720199,-0.22109771,-0.3821289,-1.4398781,-0.37251508,0.78973734,0.40782157,0.5795616,1.228309,0.9663398,0.564263,-0.6951237,-1.2071757,-0.26994678,-0.78125465,0.9865116,-1.4633058,-0.4584234,0.74820715,0.45477447,-2.1211271,1.8575294,-0.5586402,-1.2029003,0.79217726,-0.7596431,-0.9626364,1.5068916,-1.2340182,2.3273323,0.89065176,1.074128,-0.07528991,0.21650892
Progressive_House,-0.20875756,-0.99062955,0.8980634,-0.27212724,-0.45109913,0.6724143,1.2932414,0.65253913,-0.33791554,-2.3631442,1.1448442,-0.79446256,1.223476,-0.8465619,0.9476202,-1.1642157,-0.20718947,-2.370187,-1.8090807,-0.5143789,-1.0235869,-0.6804191,0.05462399,0.52400726,-0.38179275,0.40650728,1.2457312,0.5963871,-0.58589315,0.13186038,-0.30119452,0.34569794,-1.309676,-0.49811834,-0.94770074,1.8066164,-1.6381071,0.591116,1.465584,-1.0269384,-0.15809363,-0.33422947,0.44938624,2.3831134,-1.357122,-1.6781509,2.2179503,-0.8548996,-1.1825606,-0.039273806,0.648449,0.4529967,0.3712898,1.992284,-1.3034636,-1.9792589,0.69610584,-0.15190426,0.38065577,-0.80705136,1.3709584,0.5636856,-1.8502773,0.33983675
Dub,-0.34115782,-0.2429716,-1.3871909,0.24524453,-2.2131274,0.15545544,-0.5193797,1.2976195,0.77302206,-0.9579184,-0.22264646,1.6253322,-0.23918432,0.57827973,-0.42602986,-2.3549657,-0.27677014,0.03479346,-0.44093573,-2.0598304,-1.3213444,-1.387519,-0.5491763,1.2161013,1.0370729,-0.19963434,0.44924033,-0.2761569,0.79017854,1.456301,-0.238076,0.1887286,1.5876492,0.9400102,0.6568857,1.0034412,0.57277125,0.46057564,0.21915889,-0.52514833,0.17833953,-0.1764917,-0.024521539,0.3910258,-0.9997584,-0.73996717,-0.0019177897,0.40857556,0.66549224,-1.5172867,-0.081858456,2.5814755,-2.2825902,0.69765633,-0.40915474,-1.8012223,-1.2724363,0.13309062,1.4534113,-0.76505697,0.9964283,0.67818534,-0.6777365,-0.31591806
Acoustic,-0.1780318,0.6717756,-0.27046716,1.5883694,0.5776879,0.26548767,-0.0395855,1.1259265,1.9831245,1.1904038,0.41343373,0.7798073,-0.9495821,0.30950657,0.14660142,-0.030929983,-1.1847724,-0.5493218,-0.39100868,0.72402996,-0.055100862,-1.0999079,-0.87067884,-1.1194389,-0.2280828,-0.8943887,-0.15018038,1.660238,-0.04119448,0.68283474,-1.4614788,-0.25867274,-0.015199542,0.22452778,0.9043954,0.046501823,-0.19595319,0.20610331,0.0964097,-0.15826795,1.4076263,0.94989514,-0.19792806,0.25243077,1.5320609,0.7139166,-0.006708183,0.50543696,-0.13828735,-0.11259376,-0.60969216,-0.0019870508,-0.2821309,-0.7214623,1.2206085,1.1003058,0.7757152,1.0934899,0.5789173,-0.36565995,0.819249,0.596832,0.186359,-0.29825756
Death_Metal,-0.31401935,0.40979388,-0.6695716,-1.429234,0.70629823,-0.20832,0.5453784,-0.9728948,0.2198553,0.564315,1.0894269,-1.3275832,0.9545941,-0.5601669,-0.39964715,1.3540066,0.28074932,-0.5166658,0.5289847,-0.5896948,1.4481405,-1.2351553,-0.6406173,0.5454897,-0.6810838,-2.5447402,-2.1211421,-2.0611322,1.3407285,0.78196746,-0.69814533,-0.77726316,0.15725128,-2.9102702,0.0986932,0.18258384,-0.4907628,0.5681832,1.7545271,0.48885232,-0.07343027,0.2657653,-1.660778,-0.5618279,-0.5606785,1.1529316,-0.91252536,-0.10472348,1.1751945,-0.25095764,-1.8092946,0.962754,1.3245693,-0.3748435,0.80415696,-0.3774512,-2.8060265,-0.24289255,-1.9346986,2.8698754,-0.07291904,-0.8286805,0.7991949,-0.48238534
Blues_Rock,0.7285887,1.8441985,0.54217046,0.45521504,0.8818103,-1.1251107,-0.052305166,-0.1299665,1.4286964,-0.02645809,-0.07156866,0.9030123,-1.3069777,1.0565144,-0.86507094,1.5358628,-3.7351925,0.63617206,1.050201,-0.81863695,0.12568153,-1.3675202,0.591743,-0.7091166,-1.9656221,-1.2107649,-1.5648186,1.5647236,-0.264669,-1.3391175,0.89523816,-0.5672112,0.26194718,1.0777397,-1.0975114,-1.2516983,-0.80436033,1.0974339,0.019322934,-0.20942767,0.75965416,0.8047055,-1.3182802,-0.5440213,1.1162803,0.045848496,0.03178466,0.7985689,-0.4066851,0.8734427,-0.45903024,-0.8207668,-0.61752486,-0.7185036,0.96016985,2.2356036,-0.9442593,1.7523465,-0.3082907,-0.6734769,0.8433932,-1.0866904,-0.095205694,0.70853555
Europop,0.77374864,-0.6158955,-0.46718788,-0.75355494,1.7580825,1.4370761,-0.0886421,0.63511676,-0.12651496,-0.019688088,2.8114967,0.8969672,1.0580331,-2.1322718,-0.66041684,0.10684385,-1.7725866,-1.1974268,0.6991985,0.8671025,-2.231332,-1.2041334,1.8636909,-0.68480694,-1.0655398,2.4028158,1.6413456,0.556715,-0.42981714,-0.5171154,1.4207941,0.19720824,-2.16418,0.7866755,0.34216532,0.59915394,-0.97423524,2.1767306,0.26780155,0.45273545,0.98186684,-0.370338,0.7435139,0.5261906,0.18957022,-0.58248866,0.88800806,-0.27004594,-0.31190982,1.3209684,1.0654331,-1.6638448,1.5847796,1.8087791,-0.76776695,0.34688643,-0.581392,-0.90424633,0.7858967,-2.5900786,-0.27793565,1.4251715,0.24035807,-0.59451514
Soft_Rock,1.0560098,1.7696292,-0.17138183,-0.9524805,1.2021841,-0.21956134,-0.058561057,1.6414815,0.26301864,0.024929274,1.0528551,0.86519676,-0.060077194,0.1754125,-0.83873415,0.9123683,-1.9809519,-0.13867001,0.8641625,0.4848305,-2.2838328,-1.1200782,1.423484,-2.0719008,-1.3678564,0.66577446,0.62766415,2.3360884,0.06704203,-1.2447929,1.0997491,-0.45463553,0.6760539,-0.17916302,0.43483186,-0.75935453,-1.1348572,0.84185815,0.45563227,-0.7419153,0.6389658,-0.8992752,-0.7975023,-0.1870346,1.887823,-0.38838992,0.16243452,1.1121931,-0.6219706,0.4565024,0.11372382,-1.1010449,-0.2057372,-0.23861842,0.15851998,1.963151,0.58881915,0.052335773,0.3500939,-1.7941562,0.5310254,1.0003444,0.6046007,0.49795017
IDM,-1.9605205,-1.0882152,-0.6965549,0.44134903,-2.5842254,1.2130469,0.34744743,0.7424033,1.4376116,0.028174385,-0.6091523,0.33540958,1.2436613,-1.8097031,1.131447,-2.4887884,1.5943413,-0.35445178,-0.25511876,-1.9802479,1.0716826,0.4359846,-0.6696999,1.9079708,0.97763115,-0.7231811,1.1817939,0.7055223,-0.70989466,1.044622,-0.01195082,-0.21326555,2.6295319,-0.36753386,0.7262288,1.661661,2.3732264,0.29680154,0.019344185,-0.3799553,0.677002,-1.3717504,0.75784683,1.7785825,-3.6410296,0.77998704,-0.8228876,-0.7198808,0.06424689,-1.3593234,0.81180847,0.69905776,-1.7096877,0.04259869,1.5195838,-0.986063,-0.38161057,0.78232163,-1.1733141,-0.1616425,2.868905,0.42418027,-0.503705,0.64202106
Acid,-1.7441674,-0.22405364,1.7071624,-0.5768332,-1.8260491,-0.89949757,-0.6703632,0.57909346,-0.45774353,0.014027695,0.021416485,-0.22604346,-0.15838507,-0.34232116,1.2638417,-1.7576623,1.5559305,-1.689929,-0.47744736,-0.9448357,-1.298273,-0.010128287,-0.042013604,3.6645062,-0.84101135,-1.5211734,0.63843566,0.062118836,0.7066928,0.05516738,0.21605806,-1.7966523,0.9514411,-0.6258564,0.27115145,2.2460136,0.3681065,-1.363385,0.9931628,-0.27968657,0.28486666,-0.8428913,0.29377308,2.1624546,-1.7214301,-0.35353905,1.1950638,-0.5123296,0.706117,-0.31912112,1.0372552,1.3364248,0.20538157,0.5130072,0.06881012,-1.8588634,0.8360418,-0.608365,-1.1086204,-0.39687377,0.7742567,-0.9048463,-1.476389,-0.4238664
Classical,0.051585022,-1.4012471,-0.21587123,0.9727262,0.22527413,0.4284845,1.51395,0.46859014,-0.8341453,0.43518066,-0.69954556,0.18906045,0.8678514,0.33817378,-0.3689092,0.6611695,2.0633373,-0.22423983,-0.85702425,0.63073087,-0.2255936,2.829688,0.17218046,-1.6389732,1.1175193,0.49754918,-0.46425936,0.40100002,0.3596328,-0.71114916,-1.4630752,0.6123737,-1.2413442,-0.14375903,1.2267269,-1.6844754,1.337954,-0.2915808,0.42471278,0.112668864,0.32767656,1.0393832,0.8326542,0.9238362,0.3334564,0.11015099,0.34255552,0.92852664,-0.1124525,1.7506747,-0.057296388,-0.9889776,-0.86929,-0.9821654,0.8539479,1.4704642,0.7556083,-0.8597818,-0.47797307,0.11052301,1.4115529,-1.2397747,2.0950577,-0.25251025
Classic_Rock,1.6994126,1.1456617,0.40503147,-1.0847927,0.79174864,-1.1925341,0.09718945,-0.16920294,1.05152,1.3481274,0.45488384,1.6070833,-0.52675265,0.5027879,-1.5138298,0.83392596,-1.9635954,0.96041656,0.6740264,-0.10939863,-0.6789187,-1.9640799,0.113552175,-0.31748372,-1.5169615,-0.3424692,0.034613676,1.3322221,1.5270554,-1.5242516,0.7708534,0.24746388,-0.69278616,0.8964654,0.09627224,-0.27396476,-0.5794724,1.6365007,0.6209054,-0.10373094,0.5153095,-0.49327254,-1.2332263,-0.4406425,2.7812748,-0.10784747,1.4335713,0.9019347,-1.7903974,0.45170268,0.6480437,0.48522606,0.47984126,0.41004416,2.039717,2.5107021,-0.06831714,1.0381325,0.30209512,-1.2754418,-0.4911608,0.20974384,0.47953942,0.065014794
Swing,0.57370216,0.117785744,-1.8146025,1.498873,1.1812409,-0.25915158,-1.5077413,-0.87355465,-1.4631261,-1.0634319,-1.0711324,0.36312807,-0.110360846,0.0328295,0.7720751,-0.054615296,0.94626886,1.9506544,-0.33061022,3.1672282,0.3694802,0.8288942,1.1127708,-0.5685049,0.48484272,1.0968027,0.6555903,0.9012071,0.30063802,-0.0959911,1.4687446,1.18845,-0.35039392,-0.16326584,1.3201338,-1.376959,-0.40203997,1.1530079,0.33826718,0.2982547,0.12256556,0.5568978,-0.74582237,1.1017195,1.9318691,-0.5443848,1.0279812,1.5336771,-0.7299546,-0.23290099,-1.2443647,-1.8232218,-1.843428,-0.44204482,-1.9438024,1.4379945,-1.3351243,-1.2553523,0.9830704,2.1289227,-2.3082294,-2.154379,-0.1183767,0.6729034
Drum_n_Bass,-2.0059476,-1.1736213,0.21361396,-0.9545533,-1.5993352,0.46192172,-1.221394,0.4611729,1.1470983,0.12994401,0.66258174,0.06577864,1.6526698,0.22707197,0.4919557,-2.7815123,0.69990456,-0.7449818,-1.0010873,-1.5247735,-1.2479032,0.5090983,-0.69071174,2.5459728,-0.18669386,-0.6090904,1.5319169,0.27148497,-0.6074671,0.8594132,1.2324244,-0.50009316,0.29050007,0.13898885,-0.7832383,1.6246191,0.2377135,-0.8868071,0.17237839,1.2290411,-1.2858856,-0.8411469,0.14447235,1.4785484,-2.772962,-0.25979617,0.49380437,-0.09955842,0.67045414,-2.2834158,1.0907673,0.32578307,-0.8443093,0.6832727,-2.055568,-1.0882968,-0.9756978,1.1760516,0.25539052,0.19703665,2.4517465,-0.48228875,-1.1705106,-0.33949497
Progressive_Trance,-0.93710655,0.23893748,1.0733765,-0.6046627,-2.4205372,0.13917994,0.05906973,-0.065951094,-0.54071224,-0.5580683,3.3010442,-1.9125785,-0.24679148,-0.6845336,-0.09552579,-0.63485575,-0.083123244,-1.8747953,-0.80068016,0.35082036,-0.62166125,-0.75583106,0.21628585,2.3105083,0.25802043,0.43455657,1.0827103,1.1123486,-0.8566861,-0.6402801,1.0657847,0.76578385,-0.83771414,-0.88237274,-0.626064,1.3939731,-0.019260745,0.39980078,0.9087003,-0.14603208,0.38860032,-0.39335108,0.43426937,1.4740071,-2.2742095,-0.23200437,2.3094945,-1.1876827,0.10315457,1.0939188,1.1746206,0.40560064,-0.65626115,-0.3493881,-1.1215745,-1.4570749,-0.8936972,-1.9956708,1.3913746,-0.31181273,0.720577,0.1473743,-1.6536088,-0.1569133
Thrash,1.0550987,-0.4907997,0.6317015,-0.38455465,-0.8648765,0.6694841,0.58364004,-0.8484178,-0.005191307,2.1016173,0.25161305,-0.85181737,0.29323128,1.1578032,-1.1844693,1.6342548,-1.8121849,-0.1286931,1.1971799,1.1741297,1.0865265,-0.7882444,-3.1271884,0.64073867,-2.0264356,-3.1460867,-0.9146982,-2.063319,0.53686506,1.8929602,-0.57004213,-0.21734267,-0.18827964,-1.1895092,0.6934539,-0.25092092,0.784468,0.30530655,0.44398132,-1.1449745,0.56651616,-0.2925085,-0.79168606,-1.0281172,-0.22539587,0.31576145,-0.04132656,-0.7305802,0.1679474,-0.30096754,-1.0406007,-0.11714098,1.2946486,-0.75618327,-0.69169915,0.4112682,-1.6989385,0.23590301,-1.9289604,1.4127442,-0.49526078,-0.7495938,1.319582,-0.17094971
Post-Punk,-1.2933285,1.621871,-3.1343007,0.24330723,-0.40719566,-0.50751317,-0.9970738,-0.40281743,0.92121416,-0.044076752,0.115994185,-0.99377865,-2.0356355,-1.9236786,-1.0806663,-0.38595453,-1.837028,1.0478821,0.6966432,-2.2277472,0.79856884,0.70098233,-2.0664597,-0.22484022,0.3192085,-3.2374792,-0.8194087,-2.2417524,-0.71532154,0.05911896,-1.1636378,-1.3902775,-0.29849952,-1.2041011,0.011626523,0.60122794,0.62715745,-0.06381377,-0.5483658,-1.0113046,1.2756594,1.1732856,0.7191231,-0.046934746,1.1122954,-0.12175156,1.0336845,-0.2463399,0.24959995,-0.10121587,0.039437775,0.8511131,1.0361185,-0.7231094,2.1272337,0.1962382,0.9446288,1.2022202,-0.56021625,-0.4768664,-0.7167729,2.838272,0.21755749,-0.63308454
Indie_Pop,-1.6353955,1.50905,-2.0158207,1.2055544,0.09238297,-0.2508337,-0.7449901,1.0503534,1.1131862,0.00012302941,0.9382603,0.908003,-0.18329726,0.25332147,-1.6788961,-0.3262207,-1.0133555,0.016980313,-0.70364076,-0.28377372,-0.21652508,-0.32986873,-0.015073197,-0.6580681,-1.4998189,-0.0012507315,2.583318,0.51377064,-1.0622637,0.08171462,-1.1288917,-0.28499165,0.413858,0.52563876,-0.62590766,0.15223503,-0.6156008,0.40506816,0.33136588,-0.5191117,1.8355217,-0.2750911,1.1683953,0.40484357,0.5501304,1.2748874,0.27646545,0.60855055,-1.5634433,-1.0253723,0.82684445,1.0124891,-0.893641,-0.10359051,0.077179804,0.21418597,1.4316459,1.8096423,-0.044248912,-1.5125587,0.4112689,1.756224,-1.050962,-0.8652771
Dark_Ambient,-0.67790884,-1.3466271,-0.8684711,-0.16183229,-1.8886552,0.32995558,1.7248231,1.3589418,-0.10828006,0.68226874,-1.147607,-1.1576558,-0.87460846,-0.6843727,1.3268504,-1.1105815,2.2868993,-0.8912244,-0.16654186,-0.96841854,1.0821116,-0.6689313,-2.4421792,1.4805394,2.1478474,-1.9007933,0.8906468,-0.413157,-0.7223618,-0.16915163,-1.3566537,-0.82292014,2.6167314,-1.0341631,-1.1004937,1.3767369,2.483947,0.62622523,-0.09644166,1.2088103,1.1716169,0.21278176,1.6842936,-0.5314433,-1.0802562,3.1539805,0.25894707,1.5897197,1.3295735,-0.2711408,-0.16981877,1.9574275,0.90349734,0.0039270488,-0.3838347,0.47486454,0.7582203,1.0632744,-2.0689874,1.0127062,0.9574915,1.2661592,-0.3376199,1.3609374
Baroque,0.031911973,-0.2527321,2.439815,-0.7582196,-0.5869972,-1.5771908,0.93179905,-0.83924145,-1.517108,1.765793,-1.5077884,-1.5466435,0.42943263,-1.2415118,-0.5294064,0.48156166,2.1284282,0.2575188,-0.98895633,1.5652581,0.061861895,2.9202588,-1.1138245,-1.1288692,1.0315286,-0.16425988,-0.38243842,0.4570945,0.26159468,-2.0344322,-0.55216634,0.007334745,-2.093149,0.68885446,-0.41376418,-0.6764188,0.1587179,-2.0290892,-0.5493883,0.05367841,-1.4150003,-0.5414571,1.5061129,-1.5735205,1.0018138,-0.36036226,0.67413795,0.45142785,-0.21088329,2.1918142,0.52838546,1.8832155,-0.34007353,-0.058260173,0.055854138,1.2858214,1.5904307,1.2573508,0.9047275,1.4206867,-0.31933722,-1.1259339,2.5512555,-2.0575488
Big_Band,-0.57895863,-0.32331383,-0.5336167,0.08361157,0.56340516,0.4197077,-1.4974165,-2.220256,-2.156823,-0.23873305,-2.8128464,-0.9969388,-0.31492,-0.06887523,0.47847325,0.47182935,1.3286074,1.2894274,0.43883908,1.1847576,0.32147446,0.39597133,0.300137,-0.49080303,0.25552228,0.42554206,0.19437797,0.62221646,-0.38624546,-1.5334746,0.22484282,0.2786932,1.1013814,1.6730335,-0.3287606,-2.646793,-0.48817158,0.18647815,-1.1771101,0.9539755,-0.5231553,1.0548465,-0.3705247,0.8419083,1.9179975,-0.89331734,0.51973885,1.1513455,-0.51744086,0.5919543,-0.99637204,-1.24836,-0.04213453,-0.46462804,0.21786658,0.99613607,-0.20829473,-2.2301095,1.6979817,0.99085414,-0.11400798,-2.1950412,0.10426225,1.823292
Doom_Metal,-0.9922299,-1.3494408,-0.81555796,-1.2644678,-0.9759448,0.4928246,0.6412959,1.1099638,2.1288195,1.2743211,-1.1193398,-1.2534634,-0.8234692,-0.07783244,-0.5922816,1.8236955,0.5611632,0.88005006,0.5283471,0.41620162,-0.4148727,-1.0907872,-3.0558872,-0.08585873,-1.0110251,-2.9296405,-2.5791984,-2.1249208,0.1634787,0.10609064,-0.19454406,0.5024235,-1.0245997,-1.2950184,-0.33449608,0.95379317,0.874667,0.18439063,-0.16951539,-0.32807094,0.2432429,1.2171901,-0.16200519,-2.1084585,-1.6344203,0.79217577,0.6561801,-0.6692126,1.6478558,1.2146822,-0.8811111,0.5092776,0.87506795,-1.0421982,2.5230758,0.05782332,-1.479513,1.6446137,-2.0694823,2.1645148,1.5533245,0.3643485,-0.08226835,-0.7057173
Holiday,0.23569149,-0.20918457,0.58532816,0.14135191,0.3812826,-0.4060965,0.17872967,-0.2908786,-0.56813174,0.8396284,0.17938918,1.1186002,-0.17853794,-0.6744076,-0.22608125,0.4084236,-0.70010364,0.7262832,0.6317773,1.7632998,-0.42933702,1.6223401,0.14232415,-2.4582822,-0.5863112,2.275784,1.1192791,1.0269877,-0.59199893,-0.35871494,0.9628385,-0.29911485,0.4684065,-0.25991002,0.007981639,0.3461209,-0.32892966,-1.0892696,-0.11468653,0.9098661,0.67874694,-0.8659692,-0.28689763,-1.0743057,2.3936715,-0.46579224,-0.8367992,0.6136958,0.4978447,1.0042595,0.4976373,-0.472387,0.054976765,0.006653828,-0.12458209,0.76961404,0.17949708,-0.9845259,1.0287532,1.1387228,-0.05551495,-0.8321276,0.22192049,0.15950176
Modern,0.6157851,-1.3324649,-1.63951,-0.27841473,0.63239753,-0.7688675,3.205744,-0.6281351,-0.61541486,0.9322789,-1.695403,-0.22509134,0.11456179,-0.6908207,0.80962294,0.9471213,1.6984326,-0.6555334,-1.070436,0.39125705,-0.11894396,3.0156467,0.13880157,-0.6533457,0.6347348,0.44878805,-0.6711561,0.27848765,0.03414216,-1.4302049,-0.74427867,0.5407649,-0.9734182,-0.64144886,-0.98149204,-1.1420816,0.3236411,-0.9016218,0.30820313,1.5572203,0.48054478,1.4269289,0.20289809,-0.6144062,-0.35916096,0.23644148,-0.24361812,1.8751719,-0.8904206,1.7078298,0.4933472,0.8005337,-1.7117378,-2.193203,-1.4911106,2.244232,0.557989,0.17774642,-0.8197713,0.30485117,0.6983806,-1.7075585,1.6695397,-0.57874817
Breaks,-1.60847,-0.14604706,-0.10924567,-1.2908654,-1.0300407,0.47848624,-1.1464946,0.06598874,0.29167297,-0.6962958,0.9914867,1.3069587,1.0525311,-0.47488692,0.066247135,-2.0838284,0.6891728,-1.2495474,-1.1871054,-2.2165794,0.026734838,-0.82089984,-0.16566157,1.6860591,1.185013,-0.93657374,1.3996698,1.4563324,0.43274492,-0.2570964,1.148933,0.5283307,0.8259877,-0.6309999,0.55792814,1.2550889,0.6361084,0.049501114,0.6873665,-0.22938354,-0.6475548,-0.12606491,0.62792295,1.717862,-2.3578842,-0.35993323,0.6751952,-1.2075984,0.76739144,-1.7201029,-0.24116653,0.15822001,-0.93711,1.1591231,-1.9452288,-1.1126724,-0.3334976,-0.036485404,0.47379956,-1.27662,0.4314793,-0.21388654,-0.685382,0.8580462
Country_Rock,0.90163976,1.4391158,0.44755197,0.56140006,0.17165107,-0.6376851,0.12017435,0.9818938,1.9043378,0.35092327,1.7430023,1.5367122,-1.6223152,0.9990272,-0.088794716,1.245457,-1.9767674,0.3381491,1.2646369,0.41044304,0.14262328,-0.19730015,-0.03450754,-2.0718608,-2.2149088,-0.55851364,-0.18572132,0.4774445,0.13177383,-0.12275071,0.47931576,-0.0951969,-0.6487899,1.7208754,1.1310593,0.13115308,-1.1700993,1.5340511,0.13620442,-0.4913588,0.7985535,0.5192879,-0.5101928,0.10427514,2.3946288,0.7079639,1.2093778,1.1468828,-1.1889526,0.20737252,-0.11850677,-1.2939007,-1.2495806,-0.37691462,1.410077,1.0600572,1.0120213,1.5449625,0.79985356,0.35687703,-0.61473036,-1.0316302,0.019122768,0.5222019
Avantgarde,-1.0184879,0.39007455,0.45404342,0.7850616,-0.72400063,0.6606685,0.95588726,-0.70830536,2.151953,1.8372798,-0.49945927,0.098517224,-1.9578023,-1.5389701,-0.23084082,-0.9279177,-0.8105778,2.4338288,-0.48385248,-0.83077645,-0.26598337,-0.6764371,-1.6108873,-0.743596,0.6988923,-1.9045196,-0.8897391,-1.78281,0.44994706,-0.26669672,-1.937903,-0.21894632,2.276453,-0.38802022,0.014153596,-0.15564892,0.4450632,0.5341328,0.20404159,-0.26676348,0.7768005,0.3730924,0.42113045,-0.41814238,-0.88932717,2.2387698,-0.4183471,1.4588156,-0.44198802,-0.7081623,-1.8558902,0.9999001,1.2301706,-2.3824553,2.0704286,0.6615633,0.7996909,0.6597116,-1.0891436,0.35489383,-0.39512318,0.5618564,-0.027806167,-1.2595689
Hard_Trance,0.08781564,-1.4361835,1.6411704,-1.4865617,-2.1269147,-0.162439,-0.3556261,-0.6154406,-0.59978354,-0.50753367,1.7573664,-1.577947,-0.07590773,-0.77840304,0.57170016,0.04495655,0.59835654,-1.0598551,-1.087076,-0.51592547,0.7608211,-0.6798167,-0.07315506,1.5178014,-0.9489343,0.65112,0.6469744,2.7727966,-0.74908096,1.05429,0.14143859,0.023217574,-2.6783035,-0.73645395,1.1091008,2.6603816,0.20008259,0.23863082,1.0501722,-0.28704065,0.15961269,-1.0793742,1.3070593,1.672682,-2.2483902,-1.7828474,2.6742609,-0.49212584,-1.4351059,1.4048824,2.4422226,-0.8430961,0.8432423,1.7231592,-2.2702515,-2.4048882,-0.5122578,-0.8376809,-0.7254406,1.4165107,-0.6092051,1.3081062,0.47071585,-0.8648446
Lo-Fi,-0.82075524,1.9410542,-1.6253463,1.5543295,0.2022739,-0.38337076,1.67883,0.6963321,2.4002862,0.21843955,-0.21334602,0.27704123,-0.895765,-0.71784526,-0.35277647,0.18109179,-0.48423365,1.1750157,0.61252433,-1.3057356,0.49422744,-0.5646881,-1.5600727,-0.38057846,0.6994576,-2.1753025,0.6589467,-0.3323052,-1.0774192,-0.12044447,-1.471038,-0.77901727,0.62254316,-0.45633224,1.0524673,1.2200902,1.3586388,-0.17283921,-0.54563856,0.12841664,0.8749062,-1.0615846,-0.34551126,-1.08949,-0.21479252,1.4262478,0.99637914,1.1359934,0.3427013,-2.13359,-0.35369524,0.22434781,-0.61034256,0.39609993,1.7549591,-0.6253868,1.1443046,2.0383763,-1.483494,-0.115756385,0.14898263,0.5186523,-0.26929575,-1.3671604
Leftfield,-1.1426041,0.48663363,-0.62088907,1.0754613,-0.8157268,0.35912737,-0.57695615,1.504337,0.5946281,-0.4664039,-0.4960241,1.3251836,-0.6129838,-0.8439594,-0.15274651,-1.9697684,0.32774773,0.0816334,-0.89807296,-2.6848338,-1.1446005,0.57205623,-1.0505836,0.27035326,0.3778054,-1.6380864,0.78791034,-0.14624523,-0.7377859,-0.55334353,-1.0168743,0.4075166,2.036722,0.4811654,-0.223985,0.76022846,1.1630341,0.28475767,0.7066878,-0.3304019,0.7712195,0.48638347,0.039053634,0.5469504,-2.4206107,1.3882169,-0.58667976,0.060045354,0.95907974,-2.0654645,-0.22631308,0.99573433,-0.9719043,-0.077496886,-0.2345993,-0.63933533,1.2063211,0.7996575,-0.05849628,-1.4854587,0.84005374,0.61588144,-1.8571321,1.3551315
Art_Rock,-0.091538966,2.0874882,-1.5020609,1.1051519,-0.59676945,-0.03960098,1.2284184,0.6043563,1.1894127,1.0925579,-0.7543896,2.1857188,-1.6437546,-0.7915525,-1.0117881,0.87930393,-0.7677517,0.54313534,-0.22280642,-1.4681169,0.31071907,-0.3122664,-1.1443808,0.053050518,-0.38365024,-1.8017461,-0.14342782,0.3378819,-0.66618454,-0.46445194,-1.4165611,-0.6277315,0.24050072,-0.12055343,0.53778756,-0.88034576,0.124104835,1.9356307,-0.29083234,-0.8891605,1.0366342,0.40594596,-0.86147004,-0.5272241,0.6656621,0.3435857,-0.21184398,-0.35440922,-0.6228053,-0.7344882,-2.2081244,-0.07450137,-0.06438298,-2.093376,1.6416261,0.49042493,-0.49141228,1.3000541,-0.8618403,-0.43640584,0.8144789,2.2757406,-0.12338075,-0.097481966
Post_Rock,-2.2510724,1.2101643,-0.97218573,-0.059188433,-0.93508756,0.5411927,0.778819,0.32609016,1.4628417,1.1943405,0.35819587,-0.23057629,-0.8169556,-0.54769266,0.14514896,0.4650544,0.8549123,1.3362563,-1.9555401,-1.3198673,0.758033,-0.8290187,-3.0975513,-0.4974602,0.58864206,-2.442969,-0.6286202,0.29834065,-0.38322574,-0.036385737,-2.6386821,-0.6385518,0.88076055,-1.6091125,-0.7141103,1.2724314,0.28445095,0.45155793,0.6500864,-1.0094688,0.1389834,1.746511,-0.53498125,-1.4906303,-1.405694,0.99679416,-0.07305982,0.6157017,-0.5498308,-1.7410938,-0.7481085,0.69772816,-1.2733737,-0.6944694,0.8144154,0.94065773,-0.32945538,1.9092563,-1.5442793,0.24523576,0.15261525,1.3482522,-0.43621624,-2.0659864
Fusion,-0.6771617,1.1377896,-0.7640746,0.6192652,1.0463678,-0.59703636,-1.4685347,-0.035391524,-0.85270303,1.2189363,-0.9125519,1.5889473,0.42360145,0.64903194,0.77290297,-1.0686672,1.1889578,2.296495,-3.1496615,-0.5105758,-1.8598318,-0.21260497,-0.22916244,-0.07204983,-0.005367848,-0.9548437,-1.9239217,0.99639237,-0.65409565,-0.7087382,-0.99450845,0.8666019,2.5237994,0.44829398,-0.38047272,-1.3971461,-0.3152209,0.9038486,-2.0633664,-0.016720429,-0.23582703,0.95755476,-1.2158797,-0.17605194,0.14005929,-0.27416244,0.32844612,-0.5789897,-1.1683629,0.3295238,-1.8534076,0.73144275,-1.5243878,-2.2182279,0.7162586,1.005055,-2.1918783,-0.14894365,0.7878739,-0.9669804,-0.15694183,-0.18162513,1.483743,1.8511024
Contemporary_Jazz,-0.17106897,0.60253865,0.14158154,2.0253975,1.5580413,1.3908609,-1.0631266,-0.6153452,-1.2416577,-0.5435014,-1.6938082,1.4051876,-1.0119038,-0.39412263,0.50358534,-1.5969507,2.1254063,0.9581108,-1.0369829,1.3114576,-2.1191266,0.2078116,0.52550036,-0.10865005,0.3297661,-1.2330705,0.43212098,0.6534789,0.7038518,-1.0498239,-1.5727962,1.4063554,1.7138638,0.5290292,-0.60564876,-1.0065526,-0.28854483,0.22684248,-1.4012073,0.4899348,-1.1276175,0.038652837,-0.7087011,0.011851084,-0.24174646,-0.57656646,-1.1844864,1.6722363,-0.8632438,0.17775701,-1.2478045,-0.2344322,-2.6018822,-2.2243328,0.38494653,2.3906493,-0.8346248,-0.70218515,1.7525281,-0.107796595,-0.02260053,-0.4884272,-0.08062636,0.23902832
Jazz-Funk,0.17789017,-0.029325945,-2.1033096,1.7013932,0.0020567395,0.041806895,-0.52878636,0.2952726,-1.994192,-1.5543745,-1.8869741,1.1041806,0.278122,-0.72318685,-0.42419606,-1.0159111,-0.3034202,2.8923478,-0.39820108,0.027254412,-3.0345318,-0.72196627,0.86436045,0.9870381,-1.8729684,-0.071859695,-0.34483355,0.53972256,1.1322742,-1.8573176,1.1654422,1.0075636,3.3369234,1.3531253,1.3504902,-2.300537,-1.9263211,-0.2714343,-1.3262205,0.93605715,-1.7282383,0.5461062,-1.4020561,-1.50606,-0.7584729,-0.36810645,-0.20425949,0.4703553,-1.5131739,0.6995134,-0.2869649,-1.0254018,-1.4860941,-0.67013323,-0.6992299,2.2154915,-0.09516101,-0.23141117,1.419389,0.43594873,-0.5225487,-0.44885057,-0.7813779,1.2836989
Instrumental,-0.3909215,0.7873901,-0.4683869,0.89588684,-0.37236932,2.1947458,-0.35712165,-0.69537365,0.94385415,0.38227817,-1.9551735,0.53453124,1.001923,-0.011414041,-0.38535696,-2.0566795,0.8888447,1.4882555,-0.10477815,-0.06577292,0.47662497,1.2552958,-0.05827109,0.81400645,-0.14405039,-0.6055654,2.0578692,0.54621905,-0.648643,-0.6525969,1.093858,1.900501,1.9809834,1.5496314,-0.04193061,-1.8565573,-1.3426529,0.3962026,0.29615936,0.9916547,0.8933732,0.14530946,-1.0667459,-0.7275026,0.013368571,1.0029154,0.07106923,-0.024684645,2.4698048,-0.22231503,0.0406903,1.6047083,-1.9724147,-0.3155739,-0.23004586,0.14725892,0.0076192943,-0.8876078,1.3644253,-0.2821951,0.3576288,-0.8160337,-0.58951706,0.3160791
Reggae,-0.5967458,0.89243764,-1.0343646,-0.39436933,0.58193713,0.024265822,-0.3797994,0.717192,-1.4662336,1.1364175,0.1377981,0.9619687,1.5578492,1.0119385,-1.1636186,-1.1715899,-2.1026835,0.7423252,2.2934234,-1.5394081,-0.6550788,-0.86608845,0.15229735,1.0169647,0.045125253,1.665909,-0.60488987,-0.024105124,0.052710038,0.079997905,1.5890127,-0.67633915,-0.40532324,0.86416215,1.1235247,0.97323495,-0.44333723,0.6732275,-0.97921306,-1.7471086,-2.1132598,0.37758347,0.03002392,-0.058316015,1.6108947,-1.2020519,-1.3825588,-1.5490067,0.7335717,0.20289789,-0.8426143,-0.19366498,-0.75555813,0.08029,-0.007073426,0.30882475,0.10442314,0.47472346,2.1106505,-1.1058396,-0.35433412,0.3479478,-0.22715737,0.028819567
Beat,-0.29083413,2.0099726,-0.27072555,0.16504815,-1.1021366,-0.79082155,-0.7384116,-0.8706755,1.1183273,0.14063539,-1.5330929,1.0607004,-0.48602477,0.7417172,0.5418086,1.226481,-0.72296876,2.9262757,0.9508126,1.6797358,-0.7763786,-1.8808115,0.17317155,-1.3599327,-0.6171131,0.9689751,0.39182717,1.0998824,0.010817524,-1.6404003,1.5037826,-1.2190804,0.25729883,0.8733652,0.23409663,-0.96941155,0.5384109,0.7141595,0.64239156,-1.1643142,1.0253599,-0.17279322,-1.7533069,-0.35231885,2.7391865,0.22904125,0.46040684,-0.8726706,1.1898922,0.5600085,0.8535026,-1.70263,0.80845463,-0.09363201,1.552949,0.86804485,-0.4308261,1.054842,-0.106661335,-0.4836083,-1.2351604,-1.234801,-0.7334576,0.83413017
Theme,-0.34271413,0.53207403,-0.4979964,-1.35283,0.52477235,0.561137,1.1062899,0.40558225,-1.8447706,-0.12116868,0.23900898,2.4803667,0.6382629,-0.7747501,-0.044207603,0.26725945,0.70512307,0.35720953,-0.32507935,0.8382323,-0.6892102,-0.17470853,0.050839927,-0.39546767,0.4842034,0.7922274,0.93137175,1.3502804,0.03406802,-1.5373,0.44616824,0.31331378,-0.6226745,0.287387,-0.54525656,-2.616971,1.4628692,-0.651739,0.6294738,1.3579121,-0.042727627,0.41539156,-1.3620106,0.45378044,1.7094839,-0.2198397,0.89399153,0.44894367,0.03223215,-0.64877367,0.3368007,-2.1590254,-0.97391796,-2.1418705,-0.5685084,0.9467113,-0.023472667,-0.569998,0.19920976,0.26950297,-1.5788155,-0.64193153,1.4482379,2.1594875
Score,-0.74975157,0.062285215,-0.14373536,0.123542204,-2.561439,0.9920168,-0.017632231,0.353369,-0.851185,-0.13185509,-1.0174643,1.0773143,0.8999376,-1.0345349,1.3155994,-2.478811,0.3137095,-0.026913792,-0.56087637,1.0017108,0.72211754,0.9831879,-1.1406567,0.16717497,1.5148368,0.77270204,-0.90243757,0.7808984,-0.42243266,-2.6998043,0.28690436,1.6748035,0.7566778,1.0181314,-0.93095016,-2.9395971,0.19959311,0.89261854,-0.0038997717,0.18323022,-1.1306217,0.37324157,-0.9363783,0.38831845,0.51841056,1.2182612,0.025361126,1.0119469,0.1956834,-0.7466817,0.86331826,-0.9060428,-1.6014252,-2.920832,0.7840793,1.2796888,1.4137096,-1.7054617,0.37313595,1.3358327,0.54062,0.024039183,2.0063362,0.033844307
Gospel,0.53077817,0.4601149,1.3829488,1.7853549,1.2066388,0.049319413,0.43718946,0.42555317,-0.5824693,-0.24679148,0.00926208,1.1600176,-0.062093735,0.29040465,-0.9288305,0.2534821,-0.628294,0.44580644,0.27168828,1.8271418,0.06481671,1.0744183,0.24515553,-1.3008331,-0.24482577,2.201471,-0.22353058,1.3755178,0.32916647,-1.554726,0.73539925,0.20311178,0.70276153,1.1355298,-0.295421,0.45272875,-2.2663386,-0.04041288,-0.5988467,0.9077264,-0.20598921,0.4823513,-0.43152288,0.011939583,2.9448926,0.726256,-1.1260853,0.897924,-0.9979132,1.0035285,-0.7832772,0.46424142,-1.2639176,0.85829574,0.17788117,1.40793,-0.0012388609,1.547073,0.74293345,-0.6362569,-0.61584926,-1.0214016,-0.10744033,1.6577682
Dance-pop,-0.0056235604,0.3727782,-0.53207695,-0.3448369,1.0143377,0.40826458,-1.4744018,1.3169134,-1.3569939,0.8414926,2.1267624,0.06702967,1.6529385,-2.3611999,0.20826006,-1.233878,-0.086730935,-1.7398582,0.029186111,-0.4101794,-0.5585784,-1.8356457,0.80788887,-1.2077368,-1.0001603,2.5965388,1.4680154,0.7268007,-1.1829731,-0.61940825,1.2560252,0.75102574,-1.3053509,-0.6481472,-0.4494427,1.4089748,-0.39124623,0.3971423,-0.5121744,-1.610226,1.3927944,-1.5726343,-0.7063427,1.060702,-0.27518916,-0.6898157,1.5610301,-2.057778,-0.437358,-0.99093753,0.7185362,0.09776057,1.3966613,1.7037994,-2.3085716,-0.6580102,0.9361564,0.44278908,0.7691342,-1.791122,0.38821116,2.0993047,-0.014107421,-0.2096844
Religious,0.671782,-0.47758937,0.06308661,0.21672007,0.6586132,-1.159966,0.1750393,-0.9627855,-0.19713144,0.1296011,0.4834268,1.6018511,-1.5488858,0.10874216,-0.062510855,2.0214393,0.13635935,-0.50101924,-1.9581968,1.3173505,0.4183424,1.2470922,1.1141186,-1.0186138,-0.18834592,1.1209788,-1.2702231,2.01869,0.3164462,-1.1605549,-1.0172553,1.2268051,0.2896362,0.78818196,-0.47222143,-1.0573658,1.2968029,-0.51080763,-1.2831837,0.64327854,0.4776891,0.06600576,0.7692979,0.6828922,0.76392573,-0.12701866,-2.475693,1.0557396,1.542849,1.6451504,-0.15200908,1.0884063,-0.6193651,1.3765898,2.1054912,1.672413,0.90331006,-0.026770415,0.34258288,0.7117071,-1.418576,-0.6387568,1.8817793,-0.117041856
Contemporary,-0.85833067,-0.34355378,0.1078558,2.027863,-1.3246171,-0.64408094,1.8759913,0.9932914,-0.82825714,1.7913992,-1.1763393,0.45050174,-0.31785706,-1.0757805,1.4480014,0.5793499,3.3082733,-0.58968276,-2.0414414,0.17272305,-1.5049285,1.5681473,0.4070325,-1.0852629,2.2773697,-0.99573773,-0.19591014,0.14731184,-0.32357705,0.30130637,-1.2585754,0.9084848,-0.35241896,0.056421466,-0.0961057,-2.4194148,1.1729425,-0.5996527,-0.26979107,2.221827,-0.022535516,0.20210494,-0.16991003,-0.30613977,-0.059477143,1.1367902,0.048820384,1.7364595,0.9568242,-0.382178,-1.0804076,0.57931995,-1.1684322,-0.6825325,-0.9780386,2.1880827,0.9795978,0.09523748,0.82444876,1.2569026,0.37503448,-0.46394315,1.5416138,-0.5243329
EBM,-0.3458998,-0.020412402,-1.6243825,-0.50653845,-0.77662015,-1.210741,-0.59496313,0.9413957,-1.7224125,1.0366749,-0.1050399,-0.4844693,-0.8101611,-1.1347085,0.20666113,-1.5718623,-1.0893102,-1.8963196,0.42817798,-1.3891544,1.8054357,0.18786645,-0.7227637,1.9788057,0.6793396,-2.6743648,1.0256871,-1.5125269,-0.7865792,-1.5122963,0.7108654,-0.7634908,1.0496521,-1.7931498,1.0467429,2.2549791,1.3786824,-0.8332312,2.4336715,0.3883719,1.4593503,-0.60238284,0.92291,1.2832403,-2.8119996,-0.36019078,0.1690997,1.5368714,-0.26553303,0.6527827,1.0852348,2.0867815,0.9477417,-0.8315364,0.60184467,-2.1234455,0.29107907,0.30931848,-1.6414498,-0.48504376,-0.05656894,2.0543492,0.055708297,-0.0024724605
Contemporary_R&B,0.4030251,1.5725648,-0.013986691,1.4724456,1.3441972,0.8202068,-1.8422513,1.5327399,-0.32834652,-0.55820596,2.4387755,-1.3957523,1.6191227,-1.1781263,-0.7159263,-1.6652398,-0.91955256,-2.9729116,0.80758756,-1.6392286,-1.6547213,-1.8760077,1.0422227,-1.056878,-0.35732841,1.8376136,1.8627601,1.4647118,1.0131834,-0.30017462,0.43207684,1.0422039,-0.77350265,-0.04507856,0.5166344,-2.296747,-1.9377042,-0.20310146,-1.2145269,-0.21601564,-0.76811105,0.20910849,0.2381279,0.05079599,1.1255064,0.74467534,-1.3975862,-1.6906201,-1.0066304,0.87390316,1.6205077,0.6985509,-0.31108525,2.1266272,-1.9451725,0.19050056,0.49792522,-0.33063015,1.4693362,-0.7246973,1.0370042,0.52947897,-0.11159596,1.1330779
Emo,-1.870483,0.8053623,-1.9498084,0.39774436,-0.85028875,1.5707173,-0.21995112,-0.69440824,2.4634054,0.61998755,1.4513277,-0.13645867,0.5964677,0.057345375,-0.69522625,1.4202968,-1.3046381,-0.7683977,0.8804128,-0.94182605,1.4706748,1.2589711,-0.20979567,0.20546205,-2.8498673,-1.7331038,-0.5596669,-0.9763849,-0.3364931,2.0561728,-2.5554667,-1.1907134,-0.43134615,-1.1778913,-0.04007492,0.46002403,-0.13361871,-0.9973285,-0.0522422,-0.94460833,0.06779394,-1.368723,0.5416107,-3.0703473,0.39978716,0.44856787,-0.09354713,-0.13394658,-0.83827657,-0.82772267,-0.9965425,0.08232113,0.2498036,-1.0089437,0.9563493,-0.83272445,0.05689827,0.6509377,-0.9366613,0.82311213,0.10105701,0.8660421,-0.38299906,-1.6518822
Modern_Classical,-0.70698136,-1.671844,-1.1556921,0.53158605,-0.7892583,0.75565624,1.8461215,1.8211405,0.2635675,0.37848708,-0.96756697,1.1324036,-0.38097632,-1.4786363,1.8623205,-1.4585782,1.0130621,-1.7705339,-1.5726643,0.52771574,-1.0135438,1.1014614,-1.5396563,1.2067069,2.1955707,-1.2203281,0.14992408,0.5164041,-1.0340068,-0.67673045,-0.7527529,0.8449352,0.5361999,-0.21980917,-1.1913348,-1.1013417,0.9942159,-0.9214411,0.11690054,1.2548054,1.8198198,1.3735328,-0.67401177,0.044223897,-1.3951262,1.1857506,0.5722575,1.8416903,-0.64373434,-0.7476655,-0.72499394,1.0619864,-0.35380256,-0.9499096,0.8101957,0.14834838,0.9069387,0.4636495,-0.22531052,0.6400253,1.2304024,0.42264754,0.7525502,0.8211113
Rockabilly,-0.089155376,1.0050225,1.0896491,-0.33295724,0.18290949,0.008385795,-1.4108737,-0.6266039,0.53678846,-0.59966034,-0.4518519,0.40600058,-0.788975,0.2235403,-0.8999835,2.1650174,-2.72728,0.9370601,2.6988509,0.18755426,1.4622357,-0.7646134,-0.47680974,-0.54436207,0.3040655,0.51705796,0.37138188,-0.2600509,0.40727496,-0.8240534,1.6926233,-1.6861953,-0.5127201,0.43635872,0.9145605,-0.72124445,0.44406945,0.3843699,0.47979388,-0.6562169,1.0871433,-0.6814673,-1.2236503,0.92711204,3.6546211,0.00994192,1.3636715,0.2816696,0.04261995,-0.8712787,-0.8295174,-0.4789742,-1.0511141,0.38051337,0.7413056,1.631831,0.21836232,0.19032046,0.16390145,0.8362555,0.64690995,-0.5774077,0.33757925,-0.59467185
Power_Pop,0.7192558,1.0960281,-0.2169062,1.2203573,0.5176832,-0.5429924,-0.75319046,0.70579344,1.1147792,-0.6078393,0.8436827,0.22004868,-0.19657521,-0.16869783,-0.6288448,1.0059584,-3.0137544,0.7431967,0.94202083,-1.4943813,0.26668844,-0.90973926,-0.92676944,-0.35516122,-2.281668,-0.8665443,0.45805985,0.8301917,-0.8569987,-0.09214947,-0.1786767,-1.706076,-0.51227707,0.37528515,0.85915196,-0.025820559,0.49214584,0.42845565,0.78292537,-1.7895964,0.16449827,-1.4133718,-1.1358613,-1.1135299,3.0464225,-0.7900822,0.40687653,-0.6045162,-0.6516791,0.29166982,1.1363181,-0.43850604,1.0232716,-0.6907916,0.63691413,1.2625177,0.43772998,0.89316267,0.59536517,-1.4372022,0.39672285,2.051376,-0.18112548,-0.66664505
Grindcore,-1.0097266,-1.0762038,-0.27507034,-0.052011333,-0.033984613,1.4821607,-1.10221,-0.66664904,0.2676705,0.9396712,-1.2580647,-1.8409965,-0.9098663,-0.91635317,0.8680344,0.8051977,0.4254164,0.69721144,1.6987185,-0.61521435,2.0380652,-1.5933805,-2.04266,0.187115,-2.0937378,-2.8382998,-1.7085799,-1.9927189,-0.37719783,2.3222861,-2.7940264,-1.4339843,0.44860354,0.31307432,-0.058497585,1.1666888,0.8974215,-0.76527625,1.685574,0.255584,-0.8358602,-1.027606,0.97810465,-0.5779201,-0.8693013,0.5375196,-0.16147384,-0.72791326,0.9772098,-0.8214504,-1.6941609,-0.03621592,1.9299582,0.34437662,0.07572953,-0.6340915,-2.5651302,1.0509623,-1.9395913,0.27543482,-0.12734728,-0.77712095,2.2322228,-1.1736487
Tribal,-0.3601289,0.070203684,0.554172,-0.5681992,-0.7196075,1.1536658,0.47507364,0.35188594,0.24561895,0.4357367,-0.07821018,-0.3133181,-0.7233434,-0.17922178,0.78680956,-1.114969,0.25893503,-0.778021,-0.78709555,-1.2279685,-1.6066412,-0.21314187,0.08692334,1.7418829,1.5179094,-1.2372754,0.1854862,0.6931465,-0.48444864,0.21642403,0.045181148,0.0068957377,1.1919805,0.25068516,-0.06657354,2.5064998,0.7659158,-0.63812464,0.010999623,-0.19933294,0.45266795,0.9183092,0.33495015,2.3722875,-3.308556,-0.61325717,-0.30356687,-0.85981363,0.52236927,0.18220994,0.60787433,0.6928143,-0.95330614,-0.92873603,-0.28066343,-1.2774019,0.33555698,0.06782358,1.1347091,0.44928354,0.5257312,0.91588086,-0.5481311,0.11857994
Shoegaze,-0.45043322,0.90865767,-2.820179,0.671024,-0.48188692,0.6293044,-0.3472389,0.23858884,3.1429987,-0.2779678,1.0069641,-0.76133907,-2.0418022,0.023294989,-1.5609858,0.8059596,-0.4496886,0.12686634,-2.6743171,-2.4442034,0.66169035,-1.7293959,-2.8344188,1.0751635,0.5853543,-2.489826,1.0539687,-0.08085533,-1.7566618,0.46977106,-1.679584,-0.026029771,0.14981554,-0.8643331,0.16605107,-0.24721442,1.4980514,0.37716588,0.43229565,-1.6526407,1.6224312,0.15072198,1.1528711,-2.176679,-1.0995314,1.7386389,0.18285993,0.078849435,0.5129277,-0.6655041,0.3458005,0.8575787,-0.60006416,-2.0359309,1.7433766,-1.302339,1.3051481,1.5980527,-1.2200661,0.14282608,-0.3193752,0.85015166,-1.5321466,-0.78150964
Pop_Rap,0.9126141,-0.21905331,1.4324974,-0.5525476,2.589036,2.0155492,0.5477479,-0.95636016,-0.004116381,0.30309534,2.5409074,1.161778,0.16625704,-0.8856906,-1.4812982,-2.054268,-0.38430834,-1.6018051,1.416135,-0.3733468,-2.1356766,-1.826065,1.083168,0.0774914,-2.5711777,1.5130547,1.559247,1.0552531,0.5681431,0.15812461,1.9894162,1.8294678,-2.0698035,-0.14019588,0.62909365,0.32615587,-0.62491053,-0.27262205,-0.7791165,-1.540769,-1.0148286,-1.8428771,-0.28984174,0.75761235,0.2516249,0.7527236,0.73942006,-0.36915675,0.13104263,-0.1222554,1.1753423,0.22659014,1.8941892,1.1395822,-2.0843637,-1.6864427,1.4695593,0.901046,2.148805,-2.20046,0.75347847,1.2104645,-0.163333,0.38818452
Jungle,-0.6680785,-1.728262,0.3911058,-2.3156784,-1.9576614,1.3784822,-0.9155566,-0.5818629,0.42086345,0.17829357,-0.010366349,0.55342484,2.6136243,0.16276997,-0.30852687,-1.4223024,0.26418048,-2.2417705,0.12057084,-2.2093005,0.9026449,-0.61214495,-0.6253145,3.1228735,-0.7086119,-0.15399484,0.012664125,0.851414,0.18716268,1.5977082,-0.05657701,-1.1328368,1.5677589,0.3196075,0.40541145,1.8935467,0.6868269,-0.691025,-0.23352145,0.3178264,0.06315085,-0.5170898,1.0069221,2.2396088,-1.7000715,0.5170063,-0.685205,-1.3969927,-0.27868748,-0.4181386,-0.11845692,0.09536975,-0.8591736,1.8876793,-2.0850978,-2.3753474,0.7337406,-1.223678,0.98139113,-0.14913529,-0.047221832,-2.001688,-0.27879348,-0.48529097
Opera,-0.1382402,-0.01874282,0.5698989,-0.442574,-0.70955825,-0.50132656,1.1003844,-0.78504115,-0.9738163,0.25568682,-0.763325,0.0736774,-0.36799812,-1.2782222,0.35679057,1.5679007,1.2411984,-0.3330276,-2.1509886,0.93968236,0.81568104,1.2658844,1.1211437,-1.3421215,1.3218576,1.378715,0.59406275,0.2855339,1.2658396,-0.94096327,-0.87925047,1.3422862,-1.7413483,-0.2837199,-0.08439892,-1.2049689,0.8165446,-0.8282156,1.1045557,1.6124823,0.49898058,0.47454464,-0.2234514,-0.55102015,0.8971568,-0.1538968,-0.26042286,1.4649129,0.09958937,1.5295914,-0.0073399763,0.3057067,-0.16230296,-0.853969,-0.11308704,0.9083377,0.3977873,-1.0430838,-0.30167082,0.9168858,-0.012463316,-0.7374033,1.9267955,-0.4618305
Hip_Hop,-1.0886973,-0.9260543,-0.1609285,-0.41858855,0.5183142,1.7878863,-0.9543917,-0.10014744,0.59286857,0.011160539,0.8786378,1.2638073,1.5576646,-0.92267704,0.20291558,-2.3023138,-0.80332315,-0.18543832,-0.23057881,-2.5371232,-0.82521164,-1.2450014,-0.6350853,0.03903978,-0.07523014,1.0895966,1.3006823,0.16452493,0.64921236,0.10716035,0.38085932,-0.18395188,1.1028445,0.14087868,-0.105330765,0.5639475,0.32358092,-0.99860007,-0.863773,-0.6254929,0.035406683,0.5998097,-0.25815535,0.6206465,-1.243178,0.44849876,0.0076977555,-0.44531208,0.1404237,-0.51917726,0.42268217,1.4794163,0.2893946,1.8832151,-2.1749043,-1.5522975,-0.23611794,0.54901624,-0.12353578,-2.0640457,1.8821244,0.53609884,-0.73465806,0.97999406
African,1.0579411,1.1245685,-0.29030272,0.3724435,-0.3140593,-1.064361,1.093978,-0.05032211,-1.3434415,-0.4238866,-0.9469663,0.56848,-1.324101,2.3235872,-0.082341954,-1.8311659,-1.1677809,0.54588133,-1.985195,-0.5903924,-1.67553,-0.025621722,0.94714755,-0.32125047,1.2986898,0.42899278,0.047715414,-2.3091984,-1.4816787,0.12627722,0.6077947,1.6345656,1.955964,1.6012201,-0.48563275,0.6566651,-1.0597961,0.72504574,-2.9569378,0.18569154,-1.7176048,0.8376006,0.9093192,-1.2175742,0.23981267,-1.5301659,-1.8259043,-0.34568352,-0.13918933,0.16005503,0.37191504,0.18469451,1.1367097,1.5121093,-0.20604259,-0.5740313,-0.26217815,-0.102267414,1.597365,0.3338617,-0.6803051,-1.3398727,0.30259135,0.6747174
Spoken_Word,0.4570134,0.59180164,-0.79543734,1.9841236,-0.59921247,0.07036385,1.2870204,0.16771054,1.7292279,0.5749962,-0.8344339,0.6140224,-1.309356,-0.16951661,-0.49826282,-0.26715556,0.6286795,0.3999308,0.4593402,-0.94616234,-0.052212015,1.144626,-1.5475258,-0.12634334,2.1750405,-0.8379009,0.64945626,0.31521678,0.4873702,-0.719095,-1.2717203,0.78731024,0.21069591,1.4943205,0.36574373,-0.42941976,-0.3120103,-1.7565554,0.03020333,1.5466428,0.995405,-0.6816281,-0.30207008,1.6586446,0.031584892,0.7662329,-1.1730442,1.165238,0.76504976,-0.0596258,-0.7312795,0.9155571,0.9207721,-0.6881414,0.62582374,0.9749014,-1.0581385,-1.7918042,-0.78010505,-0.07152755,-1.0848733,-0.67620844,0.8730953,0.56272006
New_Age,-1.666415,-0.05247936,0.11457226,0.40504608,-2.1444826,0.6129606,1.5997703,2.1912227,-0.28387135,1.0683231,-0.99544054,1.0315642,0.1588033,-0.16136922,0.29978898,-0.4380918,0.44005033,-0.51877654,-1.6884134,1.0377188,-0.97716355,0.34290364,-0.54138637,0.46347108,2.2259269,0.47981402,0.7171731,1.26865,-0.8801849,-1.4021859,-2.9759276,1.0670557,1.5802599,-0.69425446,-0.96376127,-0.87396634,0.21557161,0.659297,-0.84746194,-0.41338387,-0.21357706,1.4469252,-0.5406352,0.8802465,-1.8743877,1.2619296,-0.51406753,2.5668437,-1.2033951,0.25286457,0.21082023,1.2897345,-1.5950696,0.45215747,0.770413,0.6380518,1.1485139,-0.7159264,-0.033483345,0.5612492,0.33720684,1.9478668,0.20379426,0.62458694
Bolero,-0.62838286,0.9365374,-0.22906178,0.12627447,0.22971646,2.1187732,-2.065572,-0.66590303,-2.3421032,0.17629421,-2.7426436,-1.5975697,-1.7093072,1.4988906,2.166782,1.1855663,-0.4170446,1.062311,0.12116716,2.6446822,1.7427404,1.5254793,1.540596,-1.0247238,0.1205423,-0.48721308,-0.14943914,-0.6315836,0.4457961,1.6658635,2.059986,-1.8510593,0.91536343,-0.85470706,0.36083785,-1.3285198,0.5343906,2.0144422,0.99167985,1.0619423,-1.3280734,-0.016369063,-0.45147642,-2.5955985,0.8039907,-2.5229309,-1.5843273,-2.5661473,-0.40700656,2.2026722,-1.0263937,-1.9242816,-0.6431761,1.8792866,-0.84750104,0.18821953,1.5979693,-3.637652,-0.28568426,-0.9228686,-2.4552376,-0.41628367,-1.9534056,0.24804929
Trip_Hop,-1.3474189,0.090538114,-1.9072809,1.0131397,-0.3579054,1.603306,-0.96025896,0.20994394,1.1567681,0.429481,0.37768522,1.8424692,0.6121567,-0.112375505,-0.009986404,-2.1691258,-0.2344579,-1.180979,0.020707756,-2.205631,-0.7245711,-1.0793256,-1.0511787,1.3997344,0.062241476,0.16129422,0.6873714,1.044161,-0.33659396,-0.7830594,-0.1592744,1.0815537,2.3469417,-0.28965497,-0.2608676,-0.44263947,1.2560649,-0.05284031,0.48616645,-0.35860783,-0.54359144,0.79427594,0.4523729,-0.12163156,-3.0869856,0.07329901,-0.12528934,-0.81888926,0.12976068,-1.3136358,-0.4092597,0.8252904,-1.2075461,0.75203997,-0.53727,0.063758254,1.2050031,0.2444852,0.77409786,-1.0227859,1.4250704,-0.20596786,-2.458256,0.20912305
Stoner_Rock,-0.44268864,2.2577274,1.19301,-2.0378184,-0.18225807,0.083992705,1.6735855,0.15225132,2.667931,0.05070206,0.56610507,-0.9226086,-1.2842467,0.72945297,-1.0039763,2.5213745,-0.18508598,2.0107718,-0.5780876,-1.4631884,1.1074934,-1.6894697,-2.6164649,0.8350845,-1.7831513,-3.0876756,-2.2938237,-0.81250817,1.2473989,0.20922787,-0.51433575,-0.72155637,0.14333205,-0.6900872,0.47773334,-0.5417797,0.775436,-0.1787252,1.0948951,-0.98003507,0.59235287,-0.29783085,-0.31949788,-0.83871984,0.27604038,0.6651402,0.17202353,-0.43312308,0.28001347,1.1608114,-1.9906579,0.07923754,0.600956,-0.700491,0.7861995,0.19468443,-0.9521492,2.645323,0.3647401,-0.12487145,-1.0217245,-0.5401853,-1.1816905,-1.175064
Oi,-0.16675894,0.53074104,0.24015555,-0.45655707,-0.053597443,-0.21818706,0.35646302,-0.6905504,-0.10472675,1.1853553,-0.5673856,-0.18770993,0.4267424,1.1731149,-0.43332532,2.8243916,-3.174311,-0.22900371,2.1998236,0.07842073,0.8422449,0.015705887,-0.29731113,0.51844347,-1.9066138,-2.0559554,-1.3403285,-1.2902408,0.41596597,1.898044,0.79430896,-1.7964458,-1.3060936,-0.23801357,-0.046273462,1.0684992,0.9441134,-0.5930288,1.2964774,-1.1493883,-0.9612968,-0.95136166,-0.62689817,-0.58133096,1.6299584,1.3357372,-0.16798636,0.7352591,-0.061908133,0.17243885,-0.85351306,0.8288082,1.3007303,-0.34184945,0.45819756,0.21093588,-1.0587567,0.57641745,0.11498281,0.71282643,-1.0399367,0.10310296,1.5403568,-0.08813845
Soul-Jazz,-0.87092716,1.3242306,0.07893374,1.0185981,0.89313895,0.8862265,-2.0831137,-2.0982885,-1.4190078,-0.86680377,-2.4851282,0.9348542,1.1349432,0.86491317,-0.8913322,-1.2305549,0.1335474,1.9958662,0.15779656,0.99172276,-3.2576168,-0.25216886,1.6739932,-0.20043254,-0.27968684,-0.6244114,0.7338418,1.3654861,-0.011679378,-1.3379993,0.15705658,2.0622501,1.5866116,0.4599412,0.14906947,-1.4100068,-0.72788465,0.38458273,-1.5237424,0.053211488,-0.699534,0.63084996,-0.6257533,0.8293429,1.3519589,0.6684372,0.52708757,0.48703822,-1.7283655,0.23929553,-0.8435144,-1.913937,-1.9924744,0.11312212,-0.099898,0.8683904,-1.5632168,-0.56287,1.5443711,0.17289457,-0.1973792,-0.5727737,0.2782994,1.9521594
Garage_House,0.15327051,-1.298192,1.2261106,-0.11428758,0.6757176,0.34295928,-1.6000516,0.11324378,-0.20903505,-1.0968633,1.6459503,0.30864146,1.1506596,-0.86090696,-0.69321245,-0.30423233,-0.27522245,-0.6086641,-0.89135283,-1.1888589,-2.1486833,-1.4088527,1.11954,1.021679,-0.56108063,0.66830933,0.6410922,0.045213446,1.0051628,-0.7958276,1.243022,1.7577791,-1.169604,-0.36218747,-0.9329529,2.0179563,-0.86739755,0.49732834,-0.6864016,-0.81953835,0.0027544186,-0.5827571,1.1170157,0.9772346,-1.0200804,-0.1257486,0.36631095,-1.6198423,0.09276197,0.19141197,0.38208026,-0.113791525,-0.27018636,2.838431,-2.1739614,-0.5191896,0.17608322,-0.9015921,1.3088702,-0.49295408,1.3943435,0.2978923,-0.4073982,0.18808644
Comedy,-0.88484037,1.0718677,0.13741277,0.092073396,0.79285645,0.23415487,0.8901689,-0.47783092,0.48238412,-0.015377072,0.5541978,0.9756143,-0.31866038,-0.9081648,1.2315301,0.053653527,-1.1289351,1.2321033,2.154088,0.26092297,0.46744907,0.57847065,0.64476126,0.08467842,-0.031389914,0.8186483,0.64537704,0.22735603,0.56812006,0.17508201,-0.64045805,0.034745492,-1.1076405,1.9197929,0.021553848,-0.6985875,-1.0257813,-0.37705278,-0.39302704,0.7037426,0.7873629,-1.0321089,0.08430125,0.5484497,1.1317374,1.5879635,-1.6962937,1.4355192,0.16511926,-0.050696433,-1.0961438,-1.3672712,1.3934077,-0.16634938,-0.16123608,0.5751074,0.8484329,-2.1380837,-2.315566,0.42681476,-0.4529931,-0.6312054,1.6729519,0.99520785
Ska,0.89820033,0.7610857,-2.1244175,-0.90242004,1.4970063,-0.5539273,-0.846337,-1.5309674,0.73992604,-0.39917248,0.29296023,0.25486997,0.3981399,0.84444195,-0.84473085,-0.2564528,-2.5551515,0.77604467,2.520762,-0.50750667,-1.250089,0.5396151,0.5510201,0.5891288,-1.3577867,-0.0021226837,-0.6265228,-1.4734895,-0.3499444,1.5434477,0.378386,-1.6427549,0.08356574,1.6761059,0.4666177,0.5488575,-0.17602447,0.41772795,-0.23973174,-1.8781095,-0.891844,0.07612017,-0.2489133,-0.43976715,2.457167,-1.3352559,-0.7148155,-0.17779145,-0.0960569,-0.9113496,0.85388625,0.3843111,-0.52041876,-1.4963024,0.5147031,0.4367872,0.15183821,0.5694583,0.1574087,-0.62799895,0.06203905,-0.8744574,0.07848275,0.33184922
Jazz-Rock,-0.429812,2.4306326,0.72472626,0.86511636,0.40772846,-0.17367049,-0.08840085,-0.63892144,0.8255487,0.6714327,-1.3993379,1.2211903,-1.419339,0.16355622,-1.1176062,-0.7564552,-0.42906034,1.7865068,-0.049119655,0.44532746,-2.0936995,0.025143832,0.48401874,0.10463779,-0.2176752,-1.4398581,-0.3854543,0.80520916,0.7997817,-1.1762247,-1.3459481,0.7854848,1.4427845,-0.22973499,0.0032215274,-3.0275924,-2.172409,0.97143537,-0.5428373,-0.29003564,0.058740143,1.4524887,-1.6831794,-0.57325256,1.3967589,-2.0145133,0.34015507,0.5475084,-1.0696357,-0.31665558,-1.7519252,-0.78784794,0.297568,-2.0056057,2.065521,0.8779433,-0.87857985,1.2848256,0.6600987,1.7664952,-0.47438246,0.30824578,0.5835915,0.55371463
Darkwave,-0.2887288,0.5913772,-1.275598,1.1869248,-0.71583956,0.116759285,-0.24522878,0.77941436,-1.1450454,-0.7114266,-0.1386267,-0.38515902,-0.4852964,-1.2454213,-0.44060034,-1.4331677,1.994144,-0.82711244,-0.15554544,-2.2274776,0.1537445,-0.07014371,-1.9852186,0.45202473,1.5869793,-1.9939792,0.059652876,-2.1281111,-1.3678015,-0.35242727,-0.2976259,0.66627747,-0.86710864,-1.9523516,0.59711087,2.052567,2.6868951,1.0977658,3.4243524,-1.1903348,2.3293457,-0.9130153,0.63254243,0.79063743,-1.088109,2.1548972,-0.6891217,1.9108542,0.447857,-0.90365905,0.9728874,1.5293998,-0.83993,-0.9860671,2.435022,-0.29526,0.28830534,-0.19918005,-1.1570994,1.0036403,0.7852317,3.5817552,-0.8419513,-1.2363281
Roots_Reggae,-0.49008763,-0.5660125,-0.66149795,-1.7597333,1.139944,-0.3805647,-0.62852037,-1.372415,-1.3359681,-0.08626549,0.43873295,0.7378447,1.1319718,0.75860536,-0.54079914,-0.7008715,-2.0448847,0.28623798,1.1843162,-1.4918057,-1.6561689,0.139924,0.7503718,0.03986917,1.4683635,0.021897143,-1.1768018,-1.1902274,0.064897664,0.71983916,-0.16880323,-1.2248225,-0.3012275,1.9511409,0.23669857,1.3791002,0.49277666,-0.20578144,-1.4345231,-1.2334999,-1.3760372,0.16124007,-0.42171648,-0.08822685,0.57349306,0.050359383,-0.8277405,-0.9990032,0.8725794,0.28052625,-0.37882867,1.307982,-1.405202,0.5500824,-0.6502907,0.70924675,0.36180687,2.306406,1.8587487,-0.34807292,-0.9097813,-0.85318774,-0.4855269,0.08267921
Salsa,0.88197774,0.26863876,-0.70843667,-2.2769783,1.0746496,1.1283649,-0.9121711,-0.19499013,-1.6093802,-0.14786606,-1.7384404,-0.64095837,-0.10721272,1.8066093,1.7119778,-0.31279588,2.002855,-0.30036032,0.35735622,-0.40959623,-2.333675,0.6292624,0.6014302,-1.949012,-0.5662437,-0.4877679,-1.6665884,-0.41941434,1.0329307,-0.37329462,3.4412847,-0.7758912,-0.5412546,0.7903526,0.26430458,-1.3775846,-1.5891584,2.6553853,-0.67637765,-0.9086976,-0.7624115,0.46978986,-0.7240478,-1.9125466,0.119903415,-0.77970296,-2.8726137,-1.6489573,-0.49857664,-0.09306153,0.45734867,-2.029075,0.3250468,2.767986,-1.1648751,-2.7191749,-0.7090357,-0.40023044,0.620896,-1.2359467,-2.4513745,-1.261485,0.20993312,-0.48101106
Goth_Rock,-0.13832296,2.5984614,-1.3916267,0.17112464,0.5612949,-1.0727104,0.23656628,0.21997534,-0.057893667,0.2696639,0.6821971,0.52731055,-0.5895522,0.215075,0.43606615,0.9065937,-1.2831928,0.46664572,-0.529007,-0.3709378,1.1382935,-1.0265883,-3.6306276,1.0124022,-1.1094539,-1.209692,0.66666037,-1.7525057,-0.042117905,-0.31877193,-0.17809491,-0.06660577,-0.96683097,-1.7933459,0.74583596,1.1621863,1.9270165,0.5098665,1.3721629,-1.363533,-0.15839218,-0.9453107,0.708234,-0.3903831,1.3334324,0.26417568,-0.16251002,1.2630434,0.3450991,0.15719073,0.13734676,1.3686355,0.52927977,-2.1131384,1.9307706,0.61351377,0.59788275,0.9120752,-1.8034714,0.5443878,1.1881862,2.6521783,0.15438242,0.54628867
Choral,0.37132603,-1.3672405,2.4606378,0.36929205,0.31169727,-1.0672147,2.1596668,-0.25257972,-0.14852273,-1.9907176,-1.6153162,-0.85041064,0.0071342434,-0.8030856,-1.0635558,1.8895873,1.7426335,-0.4937988,-1.673104,1.3608671,-0.25623488,3.3868535,0.23490049,-1.7969873,2.0225291,0.26521173,0.2135369,0.33036143,-0.9040948,-1.2375592,-0.58768463,0.14673573,-2.0176091,-0.38223454,-0.31263134,-1.5223107,0.1251092,-0.522018,-0.18780959,0.010961844,0.4406574,0.30898234,0.42510992,-1.0760041,1.6979735,1.0654238,-2.62947,-0.17414625,0.32449788,2.8149695,0.58882767,1.0254408,-1.4394453,1.1678182,-0.21481879,0.17345755,0.9266097,-1.5179919,-1.5576245,1.1757545,1.1116498,1.2216133,2.4252002,-0.79460484
Latin_Jazz,-0.025498962,0.5433041,-0.36913836,0.021312807,0.20597352,0.42090663,-1.4785025,-2.2010098,-2.049767,0.73981494,-2.449354,-0.7956742,0.677643,1.9080702,0.8136866,-1.6805182,-0.016501812,2.8923383,-0.984032,2.3063512,-2.1953127,0.26545152,1.3513759,0.89958626,0.4315239,0.7084821,0.34473038,0.2363926,0.5361387,-1.6157327,1.9160107,0.9370397,2.821122,-1.135855,-0.13960885,-2.1964443,-0.88491017,1.1048673,-1.855657,0.49764618,-0.7406931,-0.4567132,-0.88280207,-0.5801688,0.16013661,-2.177956,0.051185858,0.8341817,-0.5958514,0.039128583,-1.9872098,-0.8696705,-1.1000141,-0.78326774,-0.6718386,-0.8958284,0.7057503,-1.7853831,1.6654962,0.20971203,-3.0022614,-1.5771435,-0.5465248,1.7020426
Gangsta,0.39578545,-0.52457255,1.6679767,-0.17867385,0.5161101,2.215289,-0.15039346,-1.0641861,-0.41960132,-1.1760623,2.504533,0.5468797,1.731708,0.44960287,-0.6665193,-2.3370755,0.23290344,-0.74997145,1.7939986,-0.7349467,1.82273,0.5451815,-0.46107695,-1.0905753,-1.8549589,-0.11213235,-0.48269996,0.63471013,1.1035509,-0.6968659,0.35072148,1.3218522,-0.85598254,0.25622356,0.92121285,-0.32248637,0.9351064,-0.9524591,-1.3212204,-1.0948297,-0.7694682,0.3017308,-1.6957166,-0.30604857,0.0935739,1.3078573,-0.5345833,0.08256608,0.43367353,0.5224045,0.31967708,1.4310962,0.09506838,2.461056,-3.7549002,-0.09193962,-0.46300197,1.05555,-0.94315255,-1.1924732,-1.3909886,1.5013238,0.1662345,-0.46343276
Synthwave,0.0028934074,0.87854075,-0.99566805,0.104183026,-0.72322124,0.4837721,-0.048590597,2.0414677,-2.3969696,-0.083483286,-0.33381867,0.4185468,0.27575704,-0.6795623,0.16285972,-1.8931918,0.6176699,-1.081328,-1.2747754,-1.1928128,0.6105324,-0.020192165,-1.7959757,1.8530017,0.23685056,-0.7049843,1.2469413,-1.4877591,-1.2402613,-0.47113103,-0.33547685,-0.9240403,-1.2115102,-1.2575582,0.07576499,0.9825946,2.4994037,0.19787247,1.0476024,-1.0023445,1.3526016,-0.42005372,0.166301,-1.2259074,-2.1965744,1.1383091,0.20885092,0.61419034,-1.4052765,-1.51038,0.4939902,0.64456856,-0.6570159,-0.5768597,1.1382339,-1.1418711,1.6966875,0.5794921,-0.35708356,-0.29766557,0.082638994,1.5541432,-0.43492076,1.0485969
Future_Jazz,-0.9682924,-0.6279908,-0.9894436,1.2715516,-0.84133077,0.8023373,-1.3019223,-0.3115969,0.42687395,-0.7588891,-1.1489846,1.1693525,1.4158276,0.022639617,0.98671174,-2.0397499,1.6129255,1.0222968,-0.2146612,-1.0229167,-2.6630228,-0.10873113,-0.8594837,1.3046601,0.84999067,-1.2910436,1.2848982,0.69782364,0.50938827,-1.1152248,-0.84990793,1.7495779,4.0610695,0.05753103,0.25495464,-0.04174458,-1.2845258,1.770108,-0.5304978,-0.75786704,-0.37755904,0.9686482,-0.42341095,0.6019648,-1.7783338,0.2367318,-0.8489646,-1.2860073,-0.07534888,-0.49800232,-0.4322632,0.6933955,-2.089763,0.41193926,-1.1693795,-1.3538438,1.0772929,-0.8137792,1.7968937,-0.48940286,1.4124972,-0.98080635,-0.8591193,0.6802589
Dubstep,-0.5359802,-1.1929003,0.79294527,-0.6309861,-2.0966854,1.1963727,-1.8283933,-1.0254757,0.47291648,0.47634006,1.081556,-1.2185677,1.7233486,-0.46447435,-0.938855,-3.3426123,1.3262341,-3.2517948,0.41261664,-1.6843989,1.0925761,-0.6556311,-0.86126584,0.65120393,1.4479736,-0.5370488,0.71591806,0.16688466,0.50252026,1.1082757,-0.82202315,-0.47915733,0.48524544,0.22356026,0.009096296,1.1244365,0.819617,-0.7696254,0.29704067,-0.41095182,-0.3997359,-2.4194748,-0.031469107,1.4536273,-2.4538896,0.29156816,-0.36727804,-1.4876665,-0.55882454,-1.6381859,0.6969722,1.7281393,-1.1715534,1.0258359,-1.0765272,-1.8095639,0.64670336,0.40489888,-0.2566092,-1.8161168,1.6161215,-1.1504384,-2.2392163,0.75709975
Glam,0.72789514,-0.08436712,0.42891365,-0.6062446,0.2322921,-1.4409978,-0.36208874,0.66433084,1.2906188,0.085515596,0.7767439,0.33390856,-1.1054904,-0.1306677,-1.0836828,0.98806036,-2.6415474,0.8016968,1.1204698,-1.2886527,-1.1693001,-0.9128167,-0.91154593,-0.67005014,-1.2661072,-0.8591551,-0.4044953,0.2061898,0.09456178,-0.3370229,1.0163567,-1.1690576,-1.5839463,-0.8924736,0.47361702,-1.2449868,0.009832292,0.38717076,1.4056772,-0.6305232,1.3883076,-0.37881273,-0.9848136,-0.5440223,1.6953948,-0.16193765,-0.28655854,0.58619064,-0.5000617,0.09441427,0.026526637,-0.3768209,1.297482,0.32470173,0.9601341,1.7432181,0.030878318,1.7083231,0.42895067,-1.2980679,-0.55241853,0.5900743,0.5943176,0.9785137
Surf,-0.0030469992,0.5173985,-1.1201766,0.30360276,-0.6537565,0.6681964,-0.49882323,-0.9485089,1.7794869,-1.1175445,-1.2036496,0.22434294,-0.48640963,0.19999574,-0.78421503,1.8326954,-2.3950858,2.5156374,0.48202983,-0.14577918,1.2825776,-0.79130226,-0.1167095,-0.5123913,-0.5930489,0.23788801,-0.8531386,-0.18155532,-0.5584837,-0.4547824,0.05411357,-2.1236799,0.019673107,0.47659642,0.7251345,-0.73566616,0.78324807,-0.026645718,0.65539414,-0.68336743,0.08385479,0.4075228,-1.4501309,-1.1240915,1.7430487,0.38728258,1.3638321,0.22410864,0.21511665,-0.9631566,0.16205716,-1.4494108,-0.29610592,0.3120691,0.47290376,1.177644,1.2029057,0.6562084,-0.23016979,-0.3922634,-0.13407326,-0.4246375,-0.83584684,0.7935307
Free_Improvisation,-1.8937179,0.34191543,-0.3192526,2.031211,-0.49972856,-0.58626574,2.1296802,-0.3840915,1.9155972,0.9370635,-3.623832,0.89026344,-2.0797315,-1.1359346,0.5021248,-0.12429639,1.2869178,1.7295702,-0.3245386,-1.0474678,0.33338922,-0.7406613,-0.74869674,0.27189237,1.455948,-1.2552257,-0.6188518,0.523979,-0.2726943,-1.2624727,-3.7886312,0.25802347,1.9188774,0.02455242,-0.7546438,-0.74902964,0.3377074,0.43816373,-1.7130296,1.1607381,0.25677013,1.4122049,0.67833775,0.013588576,-1.2776061,0.16852012,0.1979534,1.216386,0.19895428,0.0018157992,-2.1165974,0.30815548,0.10330226,-1.7908792,0.87583756,0.5406788,-0.87353176,0.47593802,-0.027432133,0.7467309,-0.65784854,-0.610714,1.0183672,0.7957076
Eurodance,1.718461,-0.66481847,0.62544084,-0.7282826,1.133977,0.5324686,-0.23302597,1.4227562,-0.07042463,-1.4906591,2.8281255,-1.6897492,0.45378456,-0.6974244,0.35887638,-0.7752497,-0.32826054,-1.9608943,0.9471978,-0.071612455,-1.2043645,-1.8485402,1.219476,1.3927124,-0.65214354,1.8260673,1.1323092,1.2037938,-0.38697055,0.28708738,-0.39780846,0.44731048,-3.304438,-0.90129304,-0.34922135,1.2312607,-0.65399724,0.89890194,0.15466474,0.29355764,0.18943293,0.14013064,-0.75629133,0.34457108,-0.75628287,-2.694435,0.90055305,-0.31765512,-0.41861507,1.1190754,2.94156,-1.1871792,2.572452,1.5879779,-3.3001516,-1.4850248,0.97861683,-0.7745584,1.3183465,-1.4469588,0.40745565,0.653959,0.28194726,0.13396364
Psy-Trance,-1.0732025,-1.4547105,-0.8677445,-1.5985166,-1.7006685,0.1200672,1.1476727,-0.22977431,-0.5861322,-0.20671727,0.42521814,-1.1503165,-0.1328203,1.5510161,0.7881534,-1.8539947,1.5110751,-1.407262,-1.5350819,-0.5845901,-0.28185454,-0.5970538,-0.34045222,1.8916373,0.15282102,-0.5391657,-0.3130544,1.1088177,-0.51995105,0.053127814,-1.0013347,-0.39318275,-0.44255,-0.8338013,-0.4449738,1.2287617,-0.13345343,-0.035241153,0.6645914,-0.69951165,0.70078814,-0.9359188,1.0278682,1.6751124,-2.3871136,-0.5721661,1.9937375,-0.32156238,0.3014318,0.55206424,1.3976674,-0.3078164,-0.90332353,1.1574259,-0.29874414,-1.3933853,0.90590245,0.13655587,-0.27662477,0.7615917,1.3706442,0.57107127,-2.837487,0.22554241
Field_Recording,-0.5333259,-1.2580165,0.6749481,2.732987,-1.7788733,0.9106869,2.064622,1.6789888,1.8716313,1.581394,-1.552504,0.8526937,-1.8197608,-0.7932119,2.084896,-0.33636835,1.7120109,0.29387468,0.09530656,-0.6859305,-0.35802007,0.6318469,-0.5205132,0.19510669,2.1948717,-0.13219456,-0.569135,0.943395,-0.9660812,-0.058419578,-1.093617,-0.36922595,0.58551955,1.6415952,-0.08719394,0.552132,0.14330828,-1.5619961,-0.9807045,1.416141,0.8499388,-0.07232308,0.6278531,0.7347151,-0.9707927,1.4548848,-0.992094,1.0153211,1.313339,-0.34239215,-0.7021583,1.9260986,-0.42443466,-0.6028215,0.3591749,0.85006124,0.29934382,-0.8448839,-1.5957143,1.7759472,-0.9839954,0.337508,0.3633993,-0.20426282
J-pop,-0.7494286,-0.56154823,-0.43387032,-0.053783994,0.49053547,1.7987251,-0.96571827,0.21111466,-1.407658,-0.22984074,1.6556706,0.46792626,2.701284,-1.3847173,0.9469675,-0.55798346,-1.2336918,-1.9593115,-0.6968967,0.24776775,-0.97887325,-0.71779794,0.13881715,0.8726413,-0.7312471,-0.6833224,0.9172626,0.5444705,-0.3611515,-1.1154255,0.12810941,0.9503383,-0.062322553,-0.75203794,0.030952137,-0.42928723,-0.6724231,0.57371444,0.18400316,0.6410649,0.112580664,-2.082979,-0.06716413,0.5570229,1.2875304,-0.15461381,0.504515,0.42054448,-0.0065681273,-0.8766434,1.1412468,-1.7555214,0.8829111,0.34761837,-0.6426941,0.26979893,0.78539264,1.7104385,0.16239825,-1.8407823,-0.045200676,0.8797227,-0.4818986,-0.16599938
Doo_Wop,1.1165129,1.22589,-0.11998289,0.9157076,1.0040826,0.48054665,-0.13799335,-0.791715,-0.2988485,-1.1742738,-0.4098023,-0.1778479,0.07574301,0.07080812,-0.49423385,0.93468565,-1.4715501,1.474629,1.7129673,1.0339714,0.3316962,-0.22043625,0.24352136,-1.8216906,-0.024297087,0.40537304,0.9963826,1.0901456,-0.06506993,-0.58231115,1.0378603,-0.65069485,-0.29821157,0.75086564,0.8192459,-0.4154024,-0.8633983,0.39683154,0.43387893,-1.0743787,1.5770491,-0.25076285,-0.80499,0.50771886,2.9726987,0.8246183,0.5570344,-0.6091335,1.0872239,0.46907398,0.14668316,-1.0793473,-0.34104815,0.78307694,0.9621478,2.066793,-0.014703996,0.6679844,-0.09658681,-0.32672814,-0.13333465,-2.3531795,0.02132735,1.3156359
Dancehall,0.04099961,-0.9236288,-0.9558975,-1.4566051,1.1428727,1.8912648,0.35457546,-0.6689605,-0.082538426,-0.164463,0.7175226,-0.11012378,1.5822514,-0.31797788,-0.82909405,-1.9664645,-1.2265507,-1.1156603,0.91534245,-0.9964044,-0.011189981,-0.66485935,1.0034665,1.0720274,0.5896809,0.64240366,-0.00640735,-0.89333415,0.8611577,0.42890167,1.0571119,-0.7191443,-0.7818531,1.6224616,-0.5110405,1.3083757,-1.0686079,-0.88421875,-0.7574825,-0.74410284,-1.4201027,0.13671902,0.79420704,0.60823375,-0.36475477,-1.3348963,-1.4810343,-0.011001767,2.262099,-0.83921933,0.51474124,1.7696904,-0.04861997,1.5628068,-1.7180933,-0.76887244,-0.50399387,1.1322395,2.02552,-1.5222,-0.07914713,-0.4769769,-1.1676505,-0.5277208
Happy_Hardcore,-1.5228337,-0.8176158,2.574222,-1.2428815,-0.17819953,0.13449767,-0.5365337,-0.54758036,-0.34387118,-0.0063233883,1.5616643,-0.33314732,1.6883135,-0.81710374,-0.74069685,0.3403306,1.3126103,-2.547695,0.1263128,-0.74639064,0.5713093,-0.9401938,0.8149461,2.670559,-2.473987,1.2362822,-1.0171359,1.5484455,-1.7549735,1.3383377,0.0139709115,-1.2045213,-1.3599576,-1.3402091,-0.52181077,1.0849669,0.9406144,0.17926537,0.33749795,0.7331369,-0.6788695,-1.1765877,0.9139095,2.3687398,-1.47175,-1.0157418,0.98656934,-0.4759693,-0.32236317,-0.8210952,2.33055,-0.864612,2.0452957,1.0235142,-3.1391623,-1.5511858,-0.8245331,-1.6739358,-0.106046826,-0.60620093,-0.22387409,-0.62311435,-0.426118,-0.91486365
Hard_House,0.34306976,-0.39957663,2.28734,-0.6044353,-0.27585045,0.31171778,-0.33003828,-0.23445193,0.1680438,-1.0100693,2.0898743,-1.1837622,0.28276098,-1.4291556,0.17917192,-0.5617444,0.7365551,-1.6609966,-0.2191312,-0.06515273,-0.04121716,-0.32156515,0.48073748,1.572557,-1.0103236,0.17218043,-0.48072484,0.49967787,0.05225276,-0.46633482,0.040742163,-0.65642357,-2.0655131,-1.2119565,-1.037651,1.8390707,1.1985999,0.2334572,-1.0595397,-0.32187262,-0.27886888,-0.930432,0.7100105,1.3774476,-1.3724033,-1.4856002,1.8760514,-1.8142092,-0.1205106,0.3795155,1.7757503,-1.2773831,0.98296344,1.5150269,-2.0175712,-1.8316253,-0.45256758,-2.1744475,-0.025788764,-0.06921823,1.0188825,0.02819184,-1.1251832,0.0814576
Gabber,-0.15346198,-1.4818542,1.2236156,-2.1559575,-0.94035906,0.51643205,-0.7826334,-0.7013767,0.74672997,0.606093,-0.17525764,-0.83716756,1.0821943,0.6901586,0.2755323,-0.7461297,1.0908769,-1.6601727,0.65311635,-1.0617604,2.410354,0.8371534,-0.043865163,3.777169,-0.86642474,-1.4323015,0.11758016,-0.10431048,-0.30962077,0.13498403,-1.1831013,-1.8004057,-0.08536053,-0.028556673,-0.181017,1.7113475,2.0337741,-0.81970644,-0.14381275,2.015094,-0.07134111,-2.2764218,0.6780491,1.050999,-2.4660368,-0.43255588,0.5657537,-0.7836231,-0.29547715,-0.14764322,1.2547138,-1.13728,0.8376611,1.2882504,-1.7688829,-2.0293198,-0.5446926,-1.1323936,-2.2646558,0.84974295,0.3063982,-0.7223461,0.73889655,-1.6139917
Electro_House,-0.27027756,-1.926448,-0.23690452,-0.9649455,-0.5642846,0.4569116,-0.751455,0.33619153,-0.10359414,-1.5129814,3.1789806,-0.40353405,0.008130835,-2.2185547,-0.012878183,-0.97270733,-0.0037360543,-1.9069906,-1.3182346,-1.8483932,0.8273061,-0.95166546,2.4766593,1.0324847,-1.3375537,1.2518704,2.1920934,-0.44441432,-0.13391928,0.030881004,1.2468928,0.31373313,-1.3931371,-1.6890023,-1.0352194,0.83742434,0.2365648,0.8786755,-0.3969887,-0.9090437,0.18459897,-1.2167687,0.16809742,1.0718019,-1.5545642,0.18263434,0.98368007,-1.9372127,-0.19738303,0.6180056,1.1622227,0.3593233,-0.23053885,0.43134275,-2.3901792,-1.3265368,0.94565314,-0.8707681,0.32965073,-0.14080499,0.7234407,1.0632216,-1.5356026,-1.0696881
Novelty,1.3448349,0.88462156,0.020746488,0.34766212,1.3598579,0.24778356,-0.040370822,-1.1561152,0.19969718,-0.35832363,-1.0095285,1.4640782,-0.45401397,-0.7894116,-0.70026547,-0.061045513,-0.9117078,0.7888228,1.5077264,0.39292836,0.91460633,0.61356205,0.8966678,-0.64312583,0.45620757,1.6293962,0.7323353,0.50981545,-0.5488236,-0.78047067,-0.66837233,-0.17917554,-0.56540644,1.7516403,-0.3093941,-0.5116156,-0.26450858,0.2683194,1.1502893,0.012996646,0.6050595,-0.70831263,-1.5804411,0.64041823,2.349101,-0.41311055,0.39801607,0.09916289,-0.063336484,-0.47577378,-0.33330408,-1.235755,1.5119399,0.74086213,-0.44741288,1.1171902,1.1405463,-0.048840627,-0.8296198,-0.7158869,-0.7648598,-0.7931152,0.4674522,0.7128252
Conscious,-0.5360713,1.0665973,-0.97623754,0.18550071,1.2744746,1.3760104,0.7614959,-1.0892093,1.4995257,0.651118,0.416361,1.1908633,2.0931258,0.011474434,0.8066493,-2.9080622,-0.24758634,-0.07161714,0.44145948,-2.1711679,-0.3746032,-0.8783167,1.1458519,-1.0139347,-0.9142577,0.4883791,0.21555033,-0.04505833,0.51022315,-0.631533,0.57489586,1.0449768,0.98018384,0.54669327,1.1332016,0.11846641,0.38116285,-1.650074,-1.1040746,-0.019997658,-0.6842066,0.25585327,-0.1740025,-1.1894374,0.21737099,0.8632762,-0.5654432,-0.08745323,1.3652614,0.6406824,-1.7453594,1.4294156,-1.9050579,0.8728437,-2.2594225,-0.5371461,-0.4960553,-0.42810744,-0.36406678,-0.87832844,0.04790307,0.47537705,-1.4056194,-0.4356892
Cumbia,-1.113002,0.8250163,0.8947147,-0.85371506,0.41489887,2.1975033,0.4692186,1.7165059,-0.86437106,-1.245504,-2.3051035,-0.83864343,-0.25777858,2.4729972,-0.6399601,0.58436364,-3.2133164,0.4343897,1.1470519,0.6329494,-0.105466835,1.2005831,2.1864996,-0.5051594,0.6253609,1.4244727,0.044778828,-1.110938,1.2502209,0.14963333,2.8033013,-0.34445548,1.4409479,-0.6103306,0.011597582,-0.517438,-0.69739574,2.0907605,-1.0897079,-0.15801345,-1.4299442,-1.237679,0.41732934,-1.3733454,-1.787657,-1.3038437,-1.1571194,-2.5498085,1.264608,1.2644674,-0.23654775,-0.53057784,0.5503159,1.5075408,0.12638955,-1.5944784,0.8545977,1.2290467,0.2450894,-0.03876574,-1.9115584,-0.61009103,-0.28643084,-1.8105204
Rumba,-0.2213436,0.7665425,-0.8692706,-0.75878584,0.2217324,1.433833,-0.15947437,-0.23568788,-3.0962102,-0.93546546,-2.562372,-0.8103481,0.72055584,2.2169645,1.2678926,-0.22871356,0.20590177,1.872191,0.47361276,2.0641708,0.42779472,2.0258026,1.9244261,-1.6110005,-0.5512481,1.2681509,-2.1394968,0.6334212,0.6012834,1.0600849,2.31773,-0.6535957,-0.1419322,0.82643825,-0.51377165,-0.07391875,-0.4611515,0.94847965,0.3649381,0.6667888,-0.25480962,-0.7906907,-1.2428576,-0.8227236,-1.0847377,-1.7552341,0.18880454,-0.5673767,-0.48835206,1.0526404,-0.017554909,0.27738458,1.5042924,0.42488778,-0.26987532,-0.35233423,-0.11571707,-1.3056333,2.0370698,-1.0625873,-2.5310738,-1.6380292,-0.6407378,0.7171239
Samba,-1.2539164,-0.7839442,-0.34357348,-0.8117057,-0.17563972,0.18412565,-0.7336316,-0.4249698,-1.6853108,-1.2104255,-2.0328732,-0.3933517,-0.00557091,2.6749868,1.1482137,-1.1765556,-0.5892849,1.2078551,-0.66297144,1.1455578,-1.966541,-0.5294058,2.0621617,0.15538257,0.6917298,1.0351651,0.8698908,-0.7359506,2.131036,1.2084384,2.077011,0.3238767,2.0352218,0.33279178,0.17101671,-2.3510215,-0.52744436,1.4132607,-1.6924975,-0.57382536,0.2140914,1.0310389,-1.329252,-0.5581094,1.1436028,-1.7757055,-0.4722122,-1.5696553,0.19635794,-0.5771575,0.9402109,-0.16102743,0.12850901,-1.1923856,-0.44403368,-0.112691954,0.5933104,-2.7196846,0.7313393,0.6305577,-1.7905264,-1.5709538,0.21515438,1.3714617
Italo-Disco,1.40063,0.6018615,-0.35746202,0.14866365,-0.10235939,-0.7825868,-1.2797406,1.7985573,-1.8243676,-0.76460713,0.96981597,1.1546773,-0.038224746,-1.4606522,0.32585123,-0.93106145,-0.24650535,0.12009584,0.4980247,-0.7420412,-1.7947716,-1.1400005,0.6626367,0.8416343,0.3115692,1.587363,0.80137897,-1.0862246,-0.7840968,-1.1972027,0.87386096,-0.0133990515,-0.9469526,0.08523585,0.09613012,0.16815831,0.5721424,1.8658866,1.2672995,-1.1618649,1.7976248,0.5015278,-0.64863706,0.23905897,-0.4260715,-0.7098281,0.059470277,-0.08271535,-1.4075559,0.011524557,1.3743546,-0.14759023,1.2214878,0.13541867,-1.2934437,0.64126223,1.3768768,-0.36321136,-0.11093033,-1.5740589,0.3107483,1.9009752,1.889113,0.6838232
