style,0,1,2,3,4,5,6,7,8,9,10,11,12,13,14,15,16,17,18,19,20,21,22,23,24,25,26,27,28,29,30,31
Experimental,-1.2389573,2.5247774,0.9649287,1.404318,-2.3481834,0.7588695,-3.9974031,2.4067605,1.5924865,-0.20169571,-0.5392475,0.33477104,-1.9664996,1.1008501,-1.5546272,0.28326556,-2.127969,-0.3450872,-0.008568975,-1.9067183,-0.37281993,-1.3481822,0.2639942,-3.2343235,-1.1167243,0.64686614,-0.30951554,1.0762101,-0.1890957,0.47922233,1.0552679,0.33345187
House,1.0733336,1.0384539,-3.656177,-0.41468585,1.4276,-0.6586048,0.2968856,-0.6520349,0.5109806,0.9955816,-2.4714165,-1.1237508,-0.72898275,-1.1991225,1.2963054,1.6785666,2.0862732,0.599503,-2.3115382,1.0429207,-2.9180355,0.022784153,-0.61922073,-1.850486,-1.6987555,0.8398925,-0.0023758567,0.019658895,0.2023965,0.89179516,1.1811543,-1.0699378
Pop_Rock,0.8043128,1.329874,-2.4264598,1.2422489,-0.036562253,1.0648733,0.18999161,2.0279717,-0.48254707,-0.47943243,1.0065248,1.0000304,1.5193845,0.4269963,2.5363555,-2.2673192,2.2326417,-0.24112497,-1.2230474,1.7111052,0.274789,0.24312344,-0.33469895,1.8101363,0.2562593,-0.99650234,-0.7125358,1.4746304,1.3953239,1.6041304,0.23419438,-1.0633359
Punk,-0.39611495,0.62430954,-0.30330023,3.1068819,1.6804519,0.25732955,-0.94257396,1.1389778,1.998254,1.598211,2.915825,1.3956295,0.10470475,2.5484245,-0.18571934,-1.3394835,-1.215789,0.75685304,1.8659375,0.66848767,3.4722939,0.8159359,0.3831453,-0.8784726,-2.5137935,0.3691622,0.67500883,0.77654785,1.5212011,-0.71403134,-1.433665,0.64932626
Ambient,-0.24770756,1.9030778,1.3525296,-0.5684942,-0.8781099,1.7858837,-2.6018002,1.6022779,2.679578,1.6030209,0.08065418,-0.18202692,-0.88557094,-1.1961038,-1.8011615,1.0304403,-1.7419206,-1.260993,0.7490777,-2.282627,-3.2190192,-0.23868817,-0.39089012,-2.9808726,0.18113215,-0.8933553,0.9917725,-0.7184707,0.43811885,1.4106758,2.2830858,1.1104662
Techno,-0.5978782,1.4721322,-1.1821222,-0.82695633,2.234091,0.6368183,0.27361152,-1.2899394,2.205518,0.83650875,-2.0005865,-0.6304315,-1.1777781,0.7863646,-0.43404487,0.45431876,0.7056182,-0.33975315,0.94540775,-1.2389091,-2.7713835,-0.22412063,0.5043254,-3.5709229,-2.0569782,1.3580828,0.4296144,-2.2505858,0.5984619,-1.554789,1.4865183,-0.42569068
Vocal,-0.55405575,-0.96848005,-1.2227246,-1.5919579,-0.5041848,-0.5435807,0.7518475,0.26223123,-1.0095968,-0.47683442,-0.053898893,1.3749027,-0.04377855,0.895815,2.80904,-0.47331187,0.31388798,-1.4093524,-1.6765852,0.32514814,1.2150043,1.3151389,0.319958,2.9339526,1.5973873,-1.820522,-1.47592,-0.5236895,0.28082004,0.10531932,-0.10506902,-0.3273878
Hardcore,2.38499,1.6285248,0.36248055,2.084525,-0.8702818,1.8445629,2.4402862,-1.2198893,2.032661,-0.358255,-1.3674719,-0.5269067,-1.6798725,1.6560059,-0.43047416,-0.97246844,-2.9134357,0.30956864,0.57579863,-0.22054689,-0.30149987,0.24953875,1.310807,-2.7258768,-3.4288793,2.552706,3.0065475,0.20415132,-0.9100645,0.3017557,-3.2340205,-0.12261919
Synth-pop,0.99842685,1.5747973,-1.3652121,-0.21437901,2.138865,0.11445325,-0.96468747,0.7939931,1.0047139,0.77877945,0.045324266,0.0074990396,-0.56535137,1.2929385,2.469265,-1.118373,1.5398365,-1.296955,-2.0221193,2.1273875,-1.3103722,-1.8960015,-0.46720847,-1.485009,0.2104258,-1.146389,-0.20463169,-0.581535,0.50277245,0.5326831,1.6649415,-1.4853855
Alternative_Rock,1.2129176,2.1630347,-0.8300396,3.38762,0.3083531,-0.7255578,-1.3168522,1.8457556,0.9435588,0.8979027,1.6803966,1.487229,0.31709766,0.95069075,0.80997473,-0.9559562,0.51904035,-0.47035277,0.13937551,0.7357,0.17026648,-0.45230705,-0.49547184,-0.87575674,-0.9319357,-1.8050069,1.514212,-0.31043237,0.49568084,0.85567397,-0.7663741,-0.10718998
Electro,0.41822737,2.110932,-0.2149623,-0.3196156,0.61771435,0.63616,-1.1166759,0.15194541,1.4189172,-0.6131729,-1.0075606,-0.78941923,-0.85822815,0.49336615,1.6343207,1.1041262,1.1189088,-0.64215505,-0.22978528,1.0237247,-2.151778,-1.306385,-0.17721474,-3.3878675,-0.83233935,0.91399425,1.2710491,0.4423262,0.76237273,0.83472943,1.6725903,0.16789973
Ballad,-0.6938977,0.6592195,-1.7506456,-1.6304162,0.08088533,-0.22042292,1.2395421,0.8629633,-0.8482368,0.069627814,0.5222397,0.18098818,1.3723007,1.9858052,2.531235,0.2646853,3.406313,0.12503125,-0.010056555,1.2253262,-0.7044379,1.3730072,0.36811697,2.6554089,1.7074407,-1.56096,-1.5618932,0.7860141,-0.1034659,1.4692701,-0.17056322,-0.85434973
Indie_Rock,-0.36534223,2.7402506,-0.10142893,2.791438,0.74982375,-1.2505593,-1.7194784,0.9261157,1.326276,0.69596136,2.2047846,1.2490857,2.5597172,-0.07889092,0.067204274,-1.8697591,-0.8525241,-0.7789595,-0.654917,1.1153725,0.83678776,-0.9287715,-0.43793395,-1.614833,-1.8876569,-1.2012517,0.07042057,-0.006566952,0.16407539,1.8824855,-0.5873003,-1.1623772
Disco,0.8787852,1.9396931,-0.9116154,-1.8392458,2.4224677,0.88084346,-0.46083352,0.09728121,-0.30445784,0.61207855,-1.3013316,0.11644155,0.7795178,0.583249,2.9359908,-0.19440036,2.386841,-0.99240375,-1.2857935,0.08482066,-0.5747089,0.055385403,-2.3600209,0.9860645,0.050723538,-1.3731347,-1.1671118,0.6004628,1.9543376,0.45260677,0.9916672,-0.5178831
Soul,-0.25989926,0.060226887,-0.1403196,0.37449032,0.39976233,0.1406805,-0.4765776,-1.1144522,-2.2411132,-1.0259938,0.5741296,-0.045819547,0.5066908,-0.7419881,3.5110588,0.06777684,2.9658275,0.6100499,-1.5466467,1.7804682,0.042518355,1.011204,-2.387406,2.2661054,0.39834115,-1.7719005,0.34179544,1.2280002,1.0621992,0.39808124,1.2892815,-2.2390118
Folk,-1.0689961,0.9139967,0.20071653,-0.953501,-0.90030587,-2.4686298,-0.9330837,0.8542502,-1.5232983,0.7173859,1.7770256,1.2920562,-0.30573365,-0.5609835,-0.8725772,-1.9160696,-0.78408825,0.45395082,0.07585015,-0.26559138,-0.619186,0.4005921,-0.024473147,1.8157423,1.5187844,-0.7379933,-0.68732566,0.99094534,-0.45382202,-0.9589552,1.1492223,-0.89502996
Downtempo,-1.2959762,2.3778214,-1.4420536,-1.839168,-0.73950446,0.36567244,-1.5981613,0.80668885,0.3896684,0.7255589,-2.0568805,1.1425691,-0.34449232,-1.6227095,1.4101163,0.6561822,0.59974056,-0.6050071,-0.6978918,-0.4379909,-2.4408212,-1.2743523,-1.3862791,-0.78818434,-1.6383121,1.572756,1.0110347,-1.1321176,0.24020883,1.1308156,2.6004763,-0.43229985
Psychedelic_Rock,-1.2470407,1.6166283,0.30359012,1.7300568,-0.07012976,0.0009709405,-2.5104656,0.49470642,-1.2892046,0.25255173,2.1917646,1.1182826,0.3454723,0.39057675,0.33754957,-0.7832588,-1.8378756,-0.0071634096,1.3177302,-1.6011181,0.1448284,-1.3581357,-0.47816512,0.68892634,-1.8382027,-3.2838557,0.86131907,1.5465066,2.1939337,2.4464831,-1.4787123,-0.5311064
Rock_&_Roll,-1.3757597,0.8913267,-0.432157,3.145568,0.2350673,0.78295535,2.0322106,-0.82924646,-0.54921496,-1.2445405,2.6846645,1.3205009,-0.15933485,0.079810336,3.2051625,-1.4260818,0.09048093,0.25804326,0.6747139,0.34275794,0.709181,0.5255936,-0.08254667,2.640862,-0.48385453,-0.82734823,-0.72320265,1.2938718,1.6360028,0.15623924,-0.21017544,-0.5246201
Funk,0.7454528,0.97331774,-0.49451166,-0.45274642,-0.02679523,2.230113,-1.7186091,1.0271844,-0.86209744,-0.029316708,-0.37143746,-0.22566555,0.5999472,0.8508366,3.2305334,0.9491842,1.5249922,0.8155225,-2.5198758,-0.061873816,-0.35483027,1.1204119,-2.9129827,2.4748356,-1.5564339,-0.42878264,-0.84546435,-0.0012218975,-0.019956892,-0.062238924,-0.13778551,-2.5880618
Industrial,0.94173473,0.1688874,1.3686415,0.34529212,0.50092006,2.3899353,-3.5454893,0.9050983,1.1141607,0.98225105,0.46381012,0.1932252,-2.125936,0.92283213,-0.8967771,-0.07227071,-1.9046849,-3.0189507,1.2750362,-1.1576227,-0.6872628,-2.3425379,2.0061407,-3.0662882,-2.8836856,2.2985501,-0.043391008,-0.7609804,0.22261325,0.06822716,-0.16919024,1.746733
Soundtrack,-1.9973321,0.7535427,0.34011096,-1.6560348,0.29788905,1.8064326,-0.6270751,2.2414305,-0.49263147,-3.7613354,-0.98158467,1.9851136,-1.0192627,-0.07588902,1.4117023,-1.0300386,-0.16903546,-0.40566206,-0.7995076,-0.081102185,-0.87068886,0.16116568,-1.0475494,0.78817165,0.68770754,-1.6573561,1.111332,-1.0549165,0.0021494396,-0.5472509,0.7587342,0.6131363
Hard_Rock,-0.28588262,1.6868744,-0.8050814,3.2258234,1.9849004,-0.01836952,0.5010687,2.588403,-2.0434484,-0.79730946,1.2211698,1.5534768,-0.33529449,1.1693543,0.8490174,-3.0541446,0.6203534,0.8817835,-0.09885171,0.40818983,-0.4432297,0.57467115,0.33211127,0.65851283,-1.2129672,0.4727911,0.4124751,-0.6760403,2.2874417,1.0036616,-3.5310295,-0.844699
Trance,-1.1535023,2.0618975,-2.703729,-0.040335488,1.4899067,0.11192185,2.0944653,0.9108383,2.733004,0.023126034,-4.1015882,-1.4029323,0.63636726,-0.17626224,-0.32836205,0.28779423,2.0227022,-2.157167,-0.8006311,0.44943076,-2.5844092,-0.3265854,1.4835044,-1.3757719,-0.35156468,2.3239603,-0.39416498,0.6376425,-0.4473063,0.11917451,-0.6786828,0.55360395
Noise,0.7647129,0.7538959,2.2859724,2.841084,-1.4161389,-0.45293656,-2.4834445,0.49969202,1.160983,-0.2052822,1.1055322,1.7927018,-3.961555,0.5476385,-3.3289113,-0.5583039,-3.147291,0.5733465,1.4054184,-0.46222037,-1.7159669,-1.2728977,0.007264179,-2.5255744,-3.4341846,1.0687839,0.061163057,0.76081926,0.3887424,-0.4921368,1.2874467,1.1658635
Folk_Rock,-1.1279838,2.2410052,-0.52715653,1.929216,-0.3856303,0.24604838,-1.3887254,1.3719687,-1.893986,0.5768648,2.5995495,0.6893809,1.4439602,0.56815135,1.0381559,-2.2391403,-0.662337,-0.6317838,-0.42225558,0.06088543,0.13634475,0.4959391,0.79583347,1.898846,1.1062012,-1.4677677,1.2664073,0.16788058,1.3659921,0.01555893,-0.23758514,-1.0694258
Deep_House,-0.34578457,2.8653963,-1.5613823,-1.3997015,-0.2749868,0.48767176,-0.3729265,-1.7215593,1.4645902,0.54265285,-3.0344684,-2.3776374,0.8049336,-1.5416397,1.5057385,1.304657,0.8551413,0.124183886,-2.877201,-0.03717515,-1.1063275,-0.7066834,-1.0837091,-2.2323608,-0.60613155,0.20745663,0.9565414,-1.4327686,-0.3351429,-1.1189214,1.4996814,-0.87090933
Tech_House,-0.34016874,1.2385614,-2.4440463,-0.72825843,0.10570964,2.0199502,-0.05970296,-0.8350072,1.4000585,2.4826987,-1.679602,-2.8647869,0.27884966,-2.0121589,-0.24538884,-0.35504517,1.5556127,-0.7132773,-1.2112701,0.109130226,-1.55127,0.5754868,0.49185482,-2.3033416,-1.1115453,1.0113841,-0.106085606,-0.377132,1.4214982,-0.4971854,1.9296904,1.6449424
Minimal,-0.44428283,2.6004014,2.1024292,-1.1011086,0.013935069,0.16909137,-2.5972571,0.93165755,1.1747798,-0.28768435,-0.28862682,-0.9304757,-0.4050672,-0.84071636,-0.8515572,0.8914017,-1.6298573,-1.2092063,-0.47209275,-0.55628,-1.9063145,-2.410867,0.198212,-3.5395212,-1.6523244,-0.83832943,-1.1339185,-0.73998415,0.8316589,-0.7155381,0.9839179,2.3602283
Chanson,-0.32700214,0.14464359,-1.5866145,-0.9522246,0.35333034,-0.6070159,0.69657326,-0.103643745,-0.20465305,-1.2195883,1.7199963,0.78679967,-0.07274722,0.94903433,0.99197185,-0.09040879,-0.2532038,-0.24245872,-1.3050624,0.7640773,0.550255,1.8582325,-0.98090506,1.8500543,2.0371585,-1.1509035,-1.0848278,0.78518414,1.8440477,0.39239156,0.9176338,-0.59041786
New_Wave,0.7010667,1.598099,-0.72585344,1.2987721,0.62135315,0.14856277,-3.081144,-1.1019192,0.3718479,0.3645169,2.0776486,0.16791539,-0.8610938,1.2792422,1.9973015,-2.8572948,0.4070069,-1.6634221,-0.485923,2.061454,-0.57883507,-0.17009911,-1.2927132,-1.6647731,-1.2537091,-0.32912427,-0.63293624,-0.382801,1.7649089,1.5064127,-0.52197367,-0.4671047
Abstract,-0.7490371,2.3270788,1.4159302,0.5978012,-1.3171451,1.6641036,-3.1420448,-0.1685946,1.0184493,-0.19862267,0.14519615,-0.43728563,-2.6545467,-0.9071902,-1.6126013,1.8207959,-2.0292244,-1.3360574,-0.12490233,-1.7591861,-0.7581099,-1.615242,-0.41737863,-2.7700517,-1.5328491,0.09252881,0.65101194,-0.8625709,-0.15478304,1.4249109,3.8530245,0.2236847
Garage_Rock,-0.6834343,0.69118875,0.27956516,4.0680094,-0.49389827,0.82263726,-0.8942286,1.2899913,-0.28957504,-0.09654797,2.6907957,1.7001505,0.91947603,-0.30258214,1.7635764,-1.0867627,-1.9462765,-2.2553668,0.30798075,1.8569726,1.277861,-0.6561334,0.53369135,1.0542543,-2.5106359,-0.92468005,-0.45799407,1.9756356,1.5854974,-0.68763995,-2.2201238,-1.2606388
Heavy_Metal,0.5711724,0.24897346,0.59719306,3.4291072,1.7738711,1.4160619,1.2751095,1.3371742,-1.1255387,-0.22036631,1.5358677,1.2145506,-1.4352806,0.5526827,-0.8485873,-0.6687782,-0.2682851,0.74065506,0.03900449,1.5365982,0.70028377,-0.6918888,0.068467796,-0.14459707,0.15145625,1.0160532,2.9589858,1.1552587,1.9431778,2.1507356,-2.4770007,2.011407
Romantic,-0.8495006,-2.3306305,1.0918264,-1.6289239,-1.1315749,0.4910015,0.46785748,-3.7028644,0.098423585,-1.7103794,0.25568208,-0.34035188,0.07580401,-1.4245896,-1.6257643,-1.8138777,-0.16065876,-0.47846508,0.35951984,1.2733866,1.5444248,0.94346726,2.078543,-0.32004702,4.230718,-3.4463613,0.3929516,-1.9650816,-1.4842093,-1.9396063,0.03266097,-1.1643019
Rhythm_&_Blues,-1.8353598,-0.36166993,-0.8289546,0.08396005,0.1920515,0.18683806,1.4213219,0.3276348,-1.2851827,-1.0655421,0.8040312,-0.77052754,1.1754782,0.10250784,3.1582923,-0.56587964,1.9822999,-1.255916,-0.8396938,-0.4056212,2.595243,1.9336617,-1.5251894,1.7229142,-1.2148138,-0.5737275,-1.1724066,1.9186667,0.87886816,0.5006962,-0.29915315,-2.8923671
Easy_Listening,-2.3305273,-0.47262603,0.73192,-2.0679448,-2.9960072,0.6613446,2.685971,-0.9249203,-1.0663677,-1.8934549,0.23562329,1.171896,-1.112992,0.32148013,1.2240846,1.050172,-1.1063977,-0.48386553,-1.7610475,-0.9995629,-0.3579849,1.2408019,-2.7988827,3.2480948,2.0098073,-1.8996937,-0.97073513,-0.67760944,-0.516167,-0.18441486,-0.80926406,-0.6558613
Prog_Rock,-0.79069304,1.7834189,0.19782531,1.3724611,-0.2385237,1.2025032,-1.2021853,2.1221902,-1.1874272,0.67738914,3.6261935,0.81287163,-0.5327093,0.11813038,-0.72831607,-1.2522085,-1.6900988,0.14501043,-0.8379955,-0.45740488,-0.6273777,-2.1923606,-2.5349479,1.1332097,0.168932,-1.0101291,-0.1692922,-0.13477467,1.3882803,1.0601746,-3.1022491,-0.9866477
Euro_House,4.31505,2.1933212,-2.8786478,0.49037656,1.2424537,-0.6355624,3.7559452,-1.0977952,0.5769857,0.77243704,-2.3045027,0.16684861,2.2438784,0.97992134,1.2574733,2.3657665,3.9924972,-1.7770659,-2.075509,1.2481934,-3.4617374,0.6892512,0.18714793,0.5648866,-0.19462197,1.6519537,-0.24482329,-0.75012136,-0.20948115,0.050791096,0.45780915,0.46637285
Drone,-1.4782884,0.54384476,2.4451005,1.4892795,-1.0860308,-0.6844573,-3.3280091,-0.23205528,0.8341453,1.7629758,0.058590394,-0.41412976,-3.454602,-0.2522686,-2.1625617,-0.5224664,-4.638814,-1.5894798,-1.2269198,-2.8188343,-2.2880187,-1.6497747,1.8112322,-2.7657454,-0.7440461,0.06688422,0.013142166,-1.1104546,-0.88545024,0.63247603,1.4613785,-0.7832087
Country,-1.1735758,0.15945612,-0.6440223,0.3245391,0.40059552,-0.46500134,1.7492572,2.032826,-0.99512595,-0.2638062,3.909173,-0.44260064,1.298571,-1.5471298,2.686361,-0.16428547,0.25316757,-1.0160295,-0.26289427,-1.240695,1.6298018,2.2107003,1.0790782,1.7143612,0.82351476,-0.7672264,-0.08310543,0.46936163,0.15523642,-0.8429649,1.182419,0.02708859
Schlager,-0.74535394,-0.6874429,-1.508537,-2.3448143,0.34612644,0.1694141,1.4889046,-0.5612527,-1.489609,-0.31369996,2.086996,0.8257047,0.8626539,0.48854366,1.8776886,0.4551457,0.058024477,-1.9427576,-1.8724552,2.3812423,0.39789024,2.0226717,-0.59241056,1.7964396,2.0898,0.1139332,-1.99617,1.5924537,0.30596736,0.017301068,-0.41633263,0.11587443
Breakbeat,-0.6502204,0.65914845,-2.0994823,1.0949587,1.8198029,1.1867,0.5198202,-1.0283892,1.9452106,0.6425243,-2.537987,1.1155064,0.6853045,-0.5599215,0.56799865,2.8895519,0.8425731,-0.08860184,-0.6498976,-2.1677098,-1.3906951,-1.3630805,-0.052935477,-2.3826132,-1.913351,1.8240247,1.3016657,-0.31853372,-0.047045566,0.12512982,2.1608837,0.14031205
Black_Metal,0.30122814,0.2613656,2.950577,3.272246,-0.039435744,-1.5755813,-1.1530782,1.1347077,1.1994902,0.83786184,0.2958336,0.3875978,-3.1332872,0.5600541,-0.8063016,-0.10472664,-3.5036821,-0.042398013,-0.92121637,-0.6492717,1.7437538,-2.2724323,2.1495812,0.40907592,0.04602145,2.1180031,1.6752344,-1.7126174,1.6374855,0.9497325,-1.9141701,1.7868588
Progressive_House,0.63339126,0.8947782,-3.6338058,-2.2918925,-0.17112145,0.3167654,0.72846615,0.1527113,2.0323775,0.9983976,-3.709952,-1.8494107,1.8403174,-0.5800304,1.008812,1.0393577,2.1215866,0.0729493,-0.48920655,-0.5029131,-2.8208375,-0.14188218,1.9844413,-2.170175,-1.3348656,0.2786791,0.23023848,-1.4686749,0.60693175,0.839718,-1.1467338,0.08212108
Dub,0.9883285,1.5488733,0.12387972,0.36191335,-0.29591992,0.99921703,-2.4401782,-1.026492,2.0937383,0.56956995,-0.0578575,-0.46511996,0.63026375,-1.5592737,0.14812797,-0.24115631,1.1845442,2.0750077,0.10078799,-1.0854127,-1.9204992,-2.025309,-2.12183,-1.2311966,-2.135067,1.2706462,1.3756152,0.19873993,-1.0079683,-0.6443032,2.1894069,-1.3210146
Acoustic,-0.12839887,1.7219214,-0.70306236,1.0392559,-0.30694348,-0.6929763,-0.93645054,1.6799085,-0.68225926,0.16104317,2.159874,0.16280729,0.12585795,-0.37485194,0.33502567,-1.8786479,-0.8347719,-0.9472149,-0.49760035,-0.119881116,0.21064404,-0.0314405,0.26613805,1.1293553,-1.1797199,-1.6839347,0.8963053,0.042668387,-0.1378182,1.3362161,0.4108876,0.56469643
Death_Metal,-0.70577186,-1.5224893,0.9077457,2.5877054,-0.45596367,0.061024517,-0.09526953,-0.24511284,-1.1833242,1.4370493,0.80006367,0.4127715,-4.64557,1.8652779,-2.248698,-0.42820343,-1.1617266,1.9679023,0.8385079,1.2454443,1.6393039,-0.038345408,2.122263,-1.2677401,-1.4092546,2.9344387,2.009262,-0.82635295,1.0418676,1.4064746,-1.9474448,1.6118859
Blues_Rock,-1.5175622,1.4455762,-1.3428012,3.235232,0.63574314,0.26174715,-0.729356,2.063066,-2.11019,-0.38345036,3.1204557,-0.94093555,-0.1792649,0.16939278,1.4905903,-0.4475352,1.0506023,0.5719048,-0.25263932,0.20883285,1.1803026,0.5322672,-0.6415762,2.3680108,-0.085778035,-1.7423949,0.20411563,2.5248814,0.74123734,0.2232606,-1.8571321,-1.1331989
Europop,2.724568,1.9663001,-3.090692,-0.8692626,2.3153422,0.20502783,1.8934875,-1.5709708,0.79501307,0.18207876,-1.6745721,0.21981736,1.3976601,0.017529154,2.0862586,-1.0295211,2.3992186,-0.55313456,-1.8843586,3.539073,-1.5950545,2.264013,0.40438715,1.1550586,1.7510182,-0.7039407,-0.5465168,0.37528133,-0.27259097,1.8039883,0.86238736,-0.68663037
Soft_Rock,0.2303302,1.9666169,-2.3937278,0.6193399,0.98663354,-0.1545422,0.41646564,1.2091255,-1.0569295,0.06417421,1.3942314,0.21668883,0.77494836,-0.22804902,2.7538936,-1.1726089,1.5037625,-0.89466465,-1.5040873,1.5997525,0.09779389,0.5470988,-0.648677,3.0811489,1.0355215,-1.8894068,-0.5912926,0.075472645,0.90042,1.6658463,-0.65876186,-1.1968323
IDM,-1.7327483,1.2610283,0.017911317,-0.5000781,0.9342735,1.6310012,-2.3149607,-1.1725397,3.7198043,0.15806529,-2.9310007,0.15849572,-1.6865746,-1.2273144,-1.6432033,0.44230804,-1.9810511,-0.4259057,-0.11936481,-0.8958735,-1.4493694,-1.9850554,-0.635412,-3.583575,-3.5746331,-0.3059427,0.7159774,0.49720302,-1.157109,1.054823,3.4469042,1.3625209
Acid,0.570481,-0.38902622,-0.9726213,0.115638025,0.8823205,1.8695033,1.0858326,-0.18209043,2.3427553,0.18623206,-0.9804991,-1.1060817,0.18094477,-0.5524898,-0.7050401,0.12323905,-0.6225116,-1.8900197,-1.5713557,-2.9964292,-2.2774632,-1.844448,-0.37321448,-4.0978336,-2.5652227,1.7542489,0.49680868,-0.3642402,0.84384704,-1.8267336,1.0174123,0.1691184
Classical,0.24709015,-1.6281637,-0.71404165,0.11152351,-1.4388982,0.3903056,-0.117093466,0.3482434,-0.44186625,-2.4555876,1.1044117,0.46651244,-1.3113289,-2.323833,-1.3615819,-0.8062911,-0.25474635,-0.5132902,-1.9625578,-0.5725333,-0.083139986,0.253015,0.43369308,-0.10843472,1.8291557,-2.3851242,-2.0018039,-2.277465,-1.8542286,-0.8183996,-0.9472737,1.4217913
Classic_Rock,-0.01193775,1.1711295,-1.0549395,2.7983265,1.7922606,1.6789104,0.31702372,1.7129042,-2.0514097,0.9589872,3.2140718,0.61109245,1.4581538,-0.20416182,1.3402617,-0.9610181,1.4833341,0.010369012,-0.55807006,1.274258,0.08574141,1.6313239,-0.62173885,2.1103404,0.11469322,-1.7525483,-0.9814845,0.20862603,2.1354241,1.7064,-1.5526834,-0.7872081
Swing,-1.7982433,-2.128675,-0.560541,-2.6106927,-2.6260176,1.8875862,1.6306809,-2.0882928,-0.6456726,-1.1973103,0.6020923,0.17298906,-0.9970692,0.659369,1.0139863,-0.6822478,0.9026797,-0.24621758,0.5555222,-0.8275111,1.5803308,4.6428685,-2.0581877,2.7603288,0.38851032,-1.1077409,0.2563167,-0.3072436,-0.21114281,-1.0108092,0.7423739,0.21472076
Drum_n_Bass,-0.24061675,-0.18517062,-1.1916553,-0.16390377,-0.2352837,1.3094217,0.042823832,-0.6574828,2.7832518,-0.44214153,-3.6784897,0.9742236,0.24001844,-1.1962743,-0.5741902,1.2810239,0.32913446,-0.5524796,0.1890514,-1.602119,-1.9560671,-0.05119802,-0.5468549,-2.478637,-2.6766844,1.7160573,3.2108974,-0.21702746,-0.18557426,-0.0015071176,2.7492766,-0.7174311
Progressive_Trance,-1.1421516,0.43111983,-2.7045398,-0.2910427,1.0089996,-0.73596704,2.553757,-2.1514053,1.5953383,0.71927685,-2.1315467,-1.7686067,0.90326285,-1.6611062,0.3933014,-1.1268753,3.169898,-1.0493331,-0.6861276,-0.6840657,-4.1529307,-1.0933368,1.1610373,-2.1855493,-0.5876153,0.38367176,1.305537,-0.5532946,-0.98699665,0.3435648,0.8039105,2.1901875
Thrash,0.791092,0.5384885,1.9954339,2.3758,0.44361448,-0.19144008,1.9501588,-0.08140308,-1.7888808,1.6817169,0.6991231,2.3967764,-1.3595096,1.8100566,-0.9015853,-1.8034098,0.1971513,1.3125321,2.1787217,-1.2261931,2.3310752,-1.4016107,0.71177256,-1.495059,-0.74136573,1.329617,1.2333305,0.60383695,1.2264646,0.25478825,-2.7017393,1.4248616
Post-Punk,0.5823949,1.1253093,1.4560947,1.2677407,0.6745005,-0.5383526,-3.9810112,1.9166619,1.1881268,-0.55205864,2.7052927,0.7328342,0.8235533,1.04646,-0.7439411,-1.6840345,-1.5323588,-0.48553658,1.0794528,2.380971,0.55875635,-1.3128275,0.07381686,-3.7003744,-1.1864302,-0.4221928,2.1844506,0.089716114,3.5450199,-0.6776302,-1.3279276,-0.49317768
Indie_Pop,0.022549823,1.591088,-1.6399118,0.6745701,-1.2482973,-0.13521925,-2.6984677,1.4435307,1.2839781,0.1383843,1.2367601,0.68026,1.2202106,-0.04997429,1.2921535,-0.15777089,0.5408615,-1.7328033,-0.30302778,2.2602658,-0.92079866,-0.31009236,0.7342259,0.065537244,-2.1505692,-1.709464,-0.103335634,-0.42136702,0.0851234,1.3204036,1.9481295,-0.30157274
Dark_Ambient,-1.7520202,0.53455204,3.0451674,-1.1805092,0.17329545,0.47164252,-2.424305,1.9204053,2.9427495,0.16410819,0.962342,-1.543811,-2.9711776,-0.3799818,-3.8552907,0.21440898,-2.5025334,-1.1034333,1.2228943,-1.2459414,-1.189312,-1.8574746,0.96737105,-3.5148723,-0.04178466,1.2185953,-0.28969324,-0.8447625,0.15825933,1.1165045,1.713361,0.58471066
Baroque,1.4218401,-1.4295189,1.4900111,-1.6524453,-3.2006235,-0.11448623,-0.086148106,0.7153288,-0.88554454,0.2856873,-0.18361348,-1.0343428,-1.3009515,-2.0190663,-0.89719146,1.7033888,0.44673514,-3.0403404,0.470767,0.26858664,1.6958092,-1.8578427,3.3629916,-0.04087744,4.5439053,-1.6558328,-1.2197239,-1.4113592,-0.9806149,-1.3075271,-3.0174742,0.28148773
Big_Band,-2.6574547,-1.6596235,0.76046306,-3.4292328,-0.43671373,-0.078424655,2.0068526,0.13781632,-0.98238367,-1.471554,1.3151193,-0.43007627,-2.251798,0.48455518,0.6607549,0.59075284,0.90013254,0.69083214,-0.2424244,-1.3305805,1.9676147,1.6999333,-3.7557836,1.4530231,1.3477842,-1.8335044,-0.79746157,0.6648779,-0.38821277,-2.032583,-0.696392,0.8990202
Doom_Metal,0.010827351,-0.32672668,2.7149632,3.4163163,0.059228648,0.7637191,-1.9593915,2.623142,0.81065637,2.3121617,-0.044253077,-0.58021677,-2.0159624,-0.194681,-3.5107841,-2.7242284,-2.02385,1.6583833,0.7975926,-0.29436454,1.765796,-3.6643267,2.2489429,0.12681416,-0.60258335,0.48848134,2.0345323,0.4301227,1.8018228,-0.39003566,-2.7434003,0.11472169
Holiday,0.43415746,0.09102276,-0.41248947,-2.3267374,-0.9931309,-0.16815738,0.6627462,-0.060804036,-1.4111648,-1.2089508,0.33977237,0.20070495,-0.127944,-1.0622052,1.9557271,-1.0821077,0.102324545,0.19993708,0.6284533,0.29672295,1.1383069,1.5971776,1.7217617,1.5951637,1.6189578,-0.7934588,-0.89840347,0.74496925,-1.0101492,0.4892489,-0.3444353,-0.6136144
Modern,0.18667139,-1.1045538,-0.6079977,-0.26980495,-3.3783088,0.36997682,-1.0269977,-0.10783639,0.41767177,-4.1621075,-0.52699476,0.3275177,-2.3024795,-0.83175886,-2.1734128,-0.49161935,0.4157807,0.7115194,-0.27733707,-0.7881326,0.7164271,-1.049018,1.2783197,-1.429405,4.124029,-2.7671566,-0.7069515,-0.35350096,-1.3063588,-0.25687334,-0.89750624,1.2231369
Breaks,-0.97557855,1.2173696,-1.8553636,-1.2045237,1.1914717,0.68147916,0.062305376,-0.51082194,1.7812339,-0.13379599,-2.054775,0.16561106,0.7050187,-1.2026691,-0.036191855,1.9559958,1.2549243,-0.2649114,-0.2660213,-1.005944,-1.8817973,-0.50536263,-1.6132488,-2.8951907,-2.8424072,1.0352849,1.6389878,-0.5781811,-0.6510579,0.3992436,2.4747808,-0.468581
Country_Rock,-0.94272375,0.6672251,-1.3374102,2.5221238,0.19281882,-0.36254883,-0.39038524,1.2330139,-1.6979012,0.9086874,3.3308372,-0.16758797,0.3206183,-0.3023909,1.602916,-2.7894256,0.3347064,-1.3748381,-0.5155217,0.54748994,-0.42831698,2.155195,0.08396931,2.4921145,-1.1586798,-0.5775453,-0.10034982,1.6493554,-0.33114812,1.3635119,-0.8443659,-0.7626362
Avantgarde,-1.2239082,1.9346739,2.336709,1.3391882,-1.3808433,1.0327197,-3.2726328,1.4754939,-1.6315274,1.2920672,2.5647583,1.516576,-1.3226578,1.3575704,-2.2900717,-1.1575348,-2.342127,-0.25347948,0.1812269,-0.40213385,0.15941884,-0.8556658,-1.1070305,-1.4147583,-0.8026318,-0.9912732,0.10738677,-0.6049275,0.9730264,0.2638899,0.14810386,0.27343565
Hard_Trance,0.37869203,0.08957778,-3.5052185,-0.74242014,1.6064087,-0.02439288,3.4906657,-3.5217547,1.445723,0.88786286,-2.879623,-1.1343099,0.07983779,0.47791153,-1.5051155,1.415344,0.5551906,-3.1422377,0.47114235,0.12383578,-2.4345126,-0.8699989,3.6541927,-1.8109918,-1.2685806,1.3511472,-0.02644211,-0.99963486,0.6338788,1.5881912,-1.379426,2.059399
Lo-Fi,-0.26260772,1.6343215,0.7973879,3.03433,-1.9130846,-0.6942216,-2.9320312,0.7029456,1.2342248,0.8375659,2.5547154,0.9472399,-0.5730123,0.33798546,-0.38479632,-0.80141675,-2.0177116,-0.71465254,1.1118568,0.35345146,0.16415727,-0.0312939,0.76550716,-2.0662353,-1.6512834,-1.1188403,0.38180366,0.67803115,0.85393286,1.3391801,1.410623,-0.9689643
Leftfield,-0.31222522,2.4111805,0.18331711,-0.16299453,-1.1970989,0.86613846,-3.643421,0.7679558,1.499957,0.054491874,-0.42547995,0.4059303,-0.05091129,-0.54693705,0.52821904,1.2039709,-0.59494394,-0.5173626,-0.49309427,-0.5508512,-2.1669314,-1.2188663,-1.4403014,-2.7761734,-2.1224313,-0.509481,0.39491343,-0.06785807,-0.25877023,0.64334047,2.4121845,-0.7728117
Art_Rock,-0.6197801,2.4902525,-0.22079547,1.9479841,-0.004169153,0.18069045,-3.5118487,0.98538387,-1.38484,-0.20982195,2.107592,1.1859398,-0.6886655,1.0733194,-0.17874677,-1.4597806,-1.8565129,0.27960807,-1.1019826,0.63396806,0.5926975,-1.5639962,-0.9707592,-0.61876035,-0.9010032,-2.382263,0.95026934,0.014600519,1.48282,1.2501036,-0.5159084,0.04456603
Post_Rock,-2.019385,1.3623973,0.44571453,2.0009046,-2.3757424,-0.5277199,-3.3590412,1.3425757,0.998943,0.50849473,1.1706315,1.08923,-0.74676114,-0.02290406,-2.5618377,0.15107243,-2.2369099,1.0317444,1.1177889,-0.15907653,-0.37987334,-1.9369023,1.0018742,-1.6756686,-2.0623899,-0.6485924,1.1244111,-2.2043588,1.2711365,1.4566982,-0.5499484,0.1418826
Fusion,-1.3621647,0.77850646,0.20206021,-1.1030674,-2.303014,0.50536126,-2.689925,0.42525393,-3.1250868,-1.2024038,0.89280427,0.7184784,-0.23633116,0.19462228,-0.51772296,1.5256072,0.5579222,1.4997598,-1.6837487,-2.4680147,-0.22545877,-0.6585044,-3.9077556,2.733688,-1.2238648,-1.2942357,1.1190045,-2.3545015,1.053622,0.08868486,-0.31569305,0.33457816
Contemporary_Jazz,-1.674924,0.9333892,0.44955721,-1.789471,-3.284456,0.83505815,-1.9012395,-0.7466613,-2.0905302,-0.85439545,0.06141861,0.40391538,-1.4222978,-0.6401989,-1.1837659,-0.3486827,1.3625913,-0.4022246,-0.8313159,-1.0003737,0.8830375,0.2473746,-4.4467688,2.577047,0.34899208,-1.6016783,0.7769172,-0.49128634,-1.3540735,-0.6467065,0.9959284,0.82300746
Jazz-Funk,-1.4528319,0.7423713,-0.56019944,-2.2549028,-2.2032666,3.3513777,-1.9921192,0.16491376,-1.7630925,-1.2880907,-0.05988358,-0.34678626,-0.5834997,-0.10482906,0.47268102,1.7860221,1.8816553,0.62897205,-0.89251757,-0.6024365,2.410325,-0.029709801,-4.9243927,2.965574,1.0933434,-0.5896342,0.5572778,0.18061118,0.56598467,-0.46787265,-0.21863122,-2.6973572
Instrumental,-0.679821,-0.9767667,1.3716717,-1.8248961,-1.8730955,2.625841,-1.4504592,1.7699524,0.3415278,0.2186116,-0.8875543,2.3281927,-0.11711838,-1.8168309,1.2447999,0.58647263,-0.18103993,0.41653222,0.24479188,-0.58436,0.87893635,0.57731324,-2.321348,-0.19003522,-0.9915857,-1.9730538,0.061379515,1.4927635,-1.6901453,0.3058009,1.8257042,-0.4333771
Reggae,1.1156281,0.24251291,-1.5189565,0.31994057,1.5521603,-0.41872683,-2.0438657,-1.7190815,0.36928,0.8426292,-0.36205986,0.89768875,1.914357,-1.3575846,3.290494,-0.41306123,1.0144234,0.38860202,-1.8169174,0.44973502,1.6580068,-0.3548101,-1.8656076,1.4965329,-0.3987744,2.1490893,0.80928266,1.0978036,-0.3878801,-0.8200902,-0.7549608,-1.2709019
Beat,-1.5567099,-1.6820539,-1.6695026,0.880332,1.3836241,0.37877232,0.43871686,-0.28566095,0.19494683,-0.854092,3.350848,0.5385296,-0.9487453,0.9884847,1.9312989,-0.7425505,-1.4683079,1.3835933,-0.42664474,0.5850894,0.49225506,1.5788355,-1.0984396,2.6186123,-1.5192972,-3.3339338,-1.7839438,1.035728,0.96277124,0.045898706,-0.84929585,-3.0749738
Theme,-2.1098897,-1.944665,-0.43900317,-1.4252824,0.5068919,1.865931,-0.30414242,-0.41057134,-0.6619623,-2.416373,0.9716071,2.184845,-1.4733312,0.36093,1.6732455,-0.4858313,1.1069325,-0.72249377,-0.72984284,-0.493668,-0.5540398,0.25497037,-1.4103676,1.8375287,2.2817721,-1.2043006,-0.6964761,-1.2633222,-0.46610066,1.3353757,0.8268746,-0.3722839
Score,-3.552644,-0.956303,1.3799355,-0.48485005,-0.36088878,2.8832855,0.028079312,0.78958565,0.29408818,-0.7702938,-0.07429795,1.7532148,-1.0475503,0.6104199,-1.3330188,-1.0431185,1.0248384,-1.9176358,-1.7649033,-1.8128701,0.35017118,-1.3474162,-2.2048564,0.36080372,2.4149725,-1.9670795,-1.7825935,-1.3643354,-1.8377312,0.770509,1.7749628,0.73880696
Gospel,-0.845412,1.1744573,-0.088320024,-1.5705613,-0.22326493,-0.21550831,-0.80878055,0.91687644,-2.9653819,-0.6909644,0.080340974,-1.1901966,0.42681494,-1.7397481,0.8633642,-1.213038,1.5404054,-0.9714521,0.056764312,0.5946714,1.4377099,2.7468317,0.93905586,3.598997,0.3453027,-0.6067339,-2.0563054,1.1237528,-0.81563926,-0.51188654,0.11748734,-1.0598029
Dance-pop,1.6376263,0.9600405,-2.1361601,-1.6249411,1.9731504,-1.38672,1.3183591,0.4081417,1.0116633,0.73021215,-3.0229504,0.7415399,0.88736844,0.27466774,2.2413027,0.13573419,3.329158,-1.3239956,-1.1779662,3.1137407,-1.7174934,-0.505735,0.93084115,-0.35109302,-0.9463856,0.7177872,0.033024084,-0.6397651,0.700672,1.4958695,2.11111,-0.16870672
Religious,-0.030740598,0.77159685,2.7487574,-1.3360732,-0.38578886,-2.3231292,-0.25576594,0.049035996,-3.4921627,-2.5005808,2.6664574,-0.9013817,0.005839285,-1.3231853,0.08480914,0.0031619994,0.9707121,0.72506434,-0.16822487,0.10301944,-0.9460198,0.30323446,1.526443,1.5558248,2.249671,-2.4607852,-2.1488981,-0.29840183,-1.5545554,-0.12787506,-0.2673202,0.49328318
Contemporary,-0.18943366,0.19640508,0.9341342,-1.2444229,-2.4908764,1.2702926,-1.8396361,0.07081555,-0.6629967,-1.5841101,1.2530963,0.5626338,-3.1878822,-2.719095,-1.94957,-0.39068875,-1.3984138,-0.59409904,-0.60262865,-0.86852235,-0.21151954,-0.98264533,-0.47340342,-0.18923575,3.5132267,-1.4543763,0.23700464,-2.4617205,-1.1782635,-0.24859089,1.4965832,0.5969164
EBM,1.5272487,-0.00656802,1.2958889,0.5374526,1.5772943,-0.28504577,-2.431106,-0.48027015,1.8981038,-0.86051875,-0.06206943,-0.7424149,-0.44106472,1.543864,-1.5523224,-1.456545,0.9701592,-0.6896392,-1.0295324,-1.1142379,-1.4909357,-1.3898845,-0.026437601,-6.461364,-1.8748448,1.6739062,-0.8522404,-1.0868616,2.1531737,1.7103655,0.48420525,2.3000422
Contemporary_R&B,2.3099768,1.3305693,-0.8598749,-1.7439908,1.6615027,-0.5107551,1.5743374,2.277178,-0.32163537,1.2236756,-1.0913917,-0.991861,1.3085248,-1.3769996,2.661848,2.1505942,3.3746643,-2.5477023,-2.3680835,1.8011993,1.0516888,-0.12954463,-1.2080663,0.7043334,-0.54696786,0.019114299,0.48375872,-0.41304934,-1.5079829,1.8762382,1.0737599,-2.5589151
Emo,-0.44170976,1.9195911,-1.1219445,2.8550453,-1.2096072,-1.8779079,-0.16315433,0.45750698,1.0581021,1.3284996,0.70811534,3.208415,-0.11485835,0.5284086,-1.5393347,0.013026168,-1.024035,-1.4459383,1.8579237,3.3351138,2.1229098,-1.7663031,1.4634155,-1.1953219,-1.6650606,0.6998595,2.2673197,0.42175654,-0.33457118,0.3694636,-1.4095135,1.2084656
Modern_Classical,-1.2747202,0.7271355,0.31272742,-0.80089295,-1.0629693,0.94090676,-2.2510302,1.3441312,1.241262,-1.3485404,0.09727495,0.06853969,-3.0503862,-1.1477813,-1.5067965,-1.3890935,-0.782044,-1.5302033,-0.2913197,-1.8728654,-1.4988375,-1.9119805,-0.3844995,-1.6383144,1.5455098,-1.3359438,0.2348671,-1.528015,0.116347246,1.1482793,2.4427524,0.96785617
Rockabilly,-2.0420916,-0.44914082,-0.050643586,2.166465,1.2330064,-0.005812012,1.2174731,0.44798014,-1.047708,0.66993684,1.9803102,0.75273746,0.25119334,-0.14027493,3.2602446,-2.206188,0.19469884,-0.29925334,-0.16040647,1.5796086,2.7330506,2.2521915,-0.119727656,-0.08446642,0.31277493,-1.5286083,-0.012128813,2.1240206,0.71241164,-1.3855295,-1.2781419,-1.3412685
Power_Pop,0.5827845,1.0853057,-1.6732043,3.040258,1.0098988,-1.43382,0.5685253,1.0257765,-0.32602176,-1.077826,2.8992183,1.0486532,1.6554962,1.1766764,2.4102955,-1.4033796,0.7639813,-0.060972746,-1.0682951,2.6544178,0.6002769,-0.70059246,-0.029529069,-0.73024344,-1.6980621,-1.6979342,0.9398667,0.629353,1.7286971,0.44280273,-1.545562,-0.88515216
Grindcore,0.85009366,0.41321352,3.3568065,1.718216,-0.37102923,-0.7801195,2.5197272,1.126579,0.029114474,1.5090827,1.622266,0.30243334,-2.5357912,1.8579817,-2.536079,1.332945,-2.810401,-0.60955894,0.48040125,0.22348858,3.315727,-2.0128314,-0.16920324,-2.0102484,-2.8113968,2.5872014,1.5727309,0.5654833,0.46108508,-1.044103,-1.628596,-0.108603224
Tribal,0.12169012,1.7206248,-0.33337277,-0.8714947,0.71966314,-0.8393524,-1.4417697,-1.4124506,1.6572846,0.026389275,-2.030563,-1.0130756,-0.15328734,-0.86025995,-1.302284,0.509736,-0.43840137,-1.0525025,-0.70523983,-2.820223,-2.4468558,-1.8642343,-1.0311224,-1.1468918,-0.39165547,0.2793024,1.5367099,0.05287547,1.1420131,-0.17654765,1.5259725,1.114131
Shoegaze,-2.136781,1.7178466,1.1747788,2.2734716,-3.3487918,-0.010008739,-3.1526442,2.3152635,3.246218,1.0453827,1.7049421,-0.27445143,0.8194707,1.9295894,-1.0110685,-0.64313644,-1.2769877,-1.425435,1.0013155,0.34553382,-1.4713491,-3.0559258,0.20773838,-2.0949943,-3.287525,-1.0338712,1.7759346,-0.35982794,0.82589763,1.0045314,-1.0088086,-0.36985973
Pop_Rap,3.030843,0.49873286,-2.1644084,-0.5211125,2.3094542,-0.0982907,0.75766677,-0.5563208,-0.96452516,1.7072201,-1.9771883,1.9390296,1.6179608,-0.44734877,2.9771936,1.305082,4.099216,-1.4213382,-0.3208292,2.5888636,-0.9346208,1.307335,1.0194528,-0.33563602,0.23476537,0.6129717,1.0316241,-0.07948566,-1.5654342,2.125432,1.1474781,-0.74753755
Jungle,0.95167315,1.4093798,-2.7141373,-1.3922912,0.81129384,0.6028887,2.0962584,-0.6312545,3.494089,0.7634484,-1.9984603,0.2573628,-1.5494767,-1.0613939,-0.8522873,1.8918881,0.6653116,-0.42666537,2.125101,-2.5182567,0.6096757,-1.8599032,-1.2002966,-2.3919103,-2.9357626,3.1076314,1.0533139,1.6334991,-1.2084291,-0.07505892,1.5912462,-0.0096417535
Opera,-0.4046619,-2.1067693,0.41182992,-0.8324656,-0.8772333,-0.21534105,1.1272848,-0.52312094,-1.8999662,-1.9459193,0.8639367,1.08088,-1.458726,-1.4456975,-1.5629833,0.20460935,0.51618344,0.077310994,0.27236694,0.4525132,-0.43155995,0.57142633,2.2688189,-0.21721064,3.9377358,-1.9257783,-1.4177951,-0.4572795,0.50139004,-0.7555901,0.47397548,1.6369534
Hip_Hop,0.90738696,1.1768848,-1.106603,-0.78602624,1.3054268,0.017299276,-0.9321003,-0.080766976,1.0604463,0.8375577,-1.8315369,1.3055345,-0.12745358,-0.91858685,1.4756559,2.2204468,1.5851213,0.5598863,0.16487399,0.26772818,-0.36031184,-0.4133499,-0.9958749,-2.380582,-1.6107714,0.9302385,0.6246102,-0.22016145,-1.1827596,1.13827,2.174683,-1.9122808
African,0.7162531,-0.59283936,1.9998761,-2.4971461,-0.80221313,-0.05778095,-3.1336524,-2.5429459,-1.7176925,1.4320154,0.35628453,-1.3299274,2.0975132,0.41503882,0.2787597,1.3426759,0.6303519,1.7625309,0.23586293,-2.4681551,-1.2027358,1.8028091,-0.86025184,1.0159905,0.82075727,1.2872121,-0.21370691,1.7984116,0.66776884,0.68040425,-0.45247218,-2.2420485
Spoken_Word,1.5973912,1.2106668,0.8004818,-0.20604144,0.23693939,0.18311194,-1.5573796,-0.0352358,-1.3170948,-1.1594856,1.6390668,1.7367537,-2.1712527,0.31223452,-0.9960781,-1.081795,-1.6186445,-0.9451426,0.53391486,-2.596326,0.87014425,0.37360287,-0.060208198,-0.75891554,0.15354615,-1.0601684,-1.3482497,0.3434152,-1.4333987,-0.41466692,1.6641972,-0.25188953
New_Age,-3.1707141,2.1159515,-0.061936684,-1.4656686,-0.7953612,-0.19461516,-3.1431365,0.5334707,0.8567011,0.24007075,-0.1165675,-0.8269705,-1.1449662,-1.1063265,-2.3017042,-0.22647169,0.35472074,0.017180143,-0.7049898,-1.8866171,-1.2515994,-1.4539533,-0.42862725,0.4213669,1.7852781,-1.3620852,-2.3414962,-2.5403976,-0.908521,1.5802988,1.8217701,0.28103095
Bolero,-1.4421245,-1.7231239,1.1124455,-4.4367323,1.4547768,2.0931582,2.6685457,-3.0497255,0.12073161,-1.6954887,-0.024871679,-0.3007746,1.4326288,-1.2667387,-0.73501813,1.3536664,-3.2419684,3.537269,-0.7784618,3.3801184,1.6433295,2.1231394,-0.99426234,3.6144576,-2.36071,0.64472,-1.1601999,2.5066674,0.8664406,-1.0613648,-1.8829057,2.4753568
Trip_Hop,-1.1954297,2.1912293,-1.1248912,-0.06994313,-0.65021724,0.717373,-2.308569,0.3391791,2.23782,0.5277207,-0.9548565,0.7802938,-0.036903884,-1.1762735,0.75451165,1.89359,0.8768332,-0.051059205,0.03757053,-0.56066656,-1.403335,-1.3189117,-2.479188,-2.0326989,-1.8057683,-0.13385426,1.2551787,-0.037732296,-1.7779502,1.4640027,2.1913292,-1.2042843
Stoner_Rock,-1.1561394,-0.9372695,0.729458,5.1821995,-0.86432904,0.84625906,-0.7199576,1.1013044,-0.82126665,1.5992789,3.3362086,0.9417425,0.51746076,0.31697074,-0.85799086,0.47907543,-2.5453663,1.5204933,0.28546038,-1.6671731,-0.615715,-1.2752163,1.4503298,-0.8436623,-1.4870468,0.39952528,1.7802439,-0.105610676,0.91752267,0.3345604,-4.259799,-1.9294754
Oi,1.613343,-0.4363094,0.036793996,3.1376333,-0.046857167,-0.84813416,1.5531415,-0.92337865,-1.621868,1.2372607,3.9728425,0.011675219,-0.37970817,-0.24688949,0.60557514,-1.4475627,0.73234844,-0.0640428,1.1702693,1.6010102,2.8957596,-0.89618057,1.0465443,-0.8772368,0.20660341,2.1494122,0.5242316,1.7984599,1.721773,-1.0571018,-2.79115,0.6960457
Soul-Jazz,-2.1257374,-0.18001282,0.40250844,-2.262396,-1.0192626,1.154664,-0.9258944,-0.36537322,-1.6703537,-0.47544932,0.24852471,0.08095349,0.0188184,0.0019476733,1.485992,1.4056802,2.325067,-0.5086584,-0.72048724,-0.9874949,0.7469276,2.0747344,-5.292036,3.299478,-0.93521184,-2.3020208,0.38568905,-0.69215894,-0.09544393,-0.25776556,0.08990457,-0.7251798
Garage_House,1.0186981,1.4386489,-1.9301414,-1.0833881,0.54579014,1.0407368,1.4614587,-0.4819037,-0.27370024,2.658184,-3.0628047,-1.2709377,1.131417,-1.327699,1.1210403,2.1053364,3.5039997,-0.43275702,0.020366821,1.1709027,-1.8272126,-0.06740403,0.6712183,-0.35923824,-0.16949281,0.8828,1.2416403,0.27223644,0.4157592,-0.4194474,1.3944621,-1.8536952
Comedy,0.6866121,2.0229366,-0.17293642,-0.23898184,1.3907939,0.9205543,0.41444838,1.1143088,-1.384349,-0.10119862,1.5988477,1.8939193,-1.4511763,2.2621121,0.35219482,0.4362167,-0.48267213,-0.6798195,0.23930672,0.20651363,1.764959,1.9803102,0.6704526,0.6868352,1.5849612,-0.004806398,-2.3522031,1.8343296,-1.4639963,-1.3131418,1.0602359,0.3082946
Ska,1.3764144,0.52744484,0.17824128,0.6675704,0.96884805,-0.4422583,-0.17573948,-0.71469504,0.10108099,-0.24303573,2.067881,2.035109,1.743431,0.25216198,2.889763,-0.3052369,0.5985838,0.5046589,0.97972304,1.2094325,0.54578894,0.56591636,-2.1293783,1.2508619,-1.972463,1.6867902,1.4212782,1.2183192,1.1288648,-1.6310757,-1.4810259,0.11394144
Jazz-Rock,-1.3651036,1.1890048,0.61270946,0.41433477,-1.0197539,1.3313485,-2.34068,0.30057123,-2.9441426,0.09415434,1.4224612,0.97489154,-0.83367044,0.6965176,-0.053389393,-1.7431778,-0.753136,0.8224351,-1.8563582,-0.9573725,1.2165372,1.004764,-4.5067863,2.3381467,0.23795994,-2.6237833,0.9472699,-0.24263494,0.60684675,1.2682502,-2.2912145,-1.0650686
Darkwave,0.11432114,0.235154,3.109267,1.8370998,0.50216985,1.7180293,-4.597936,0.20142183,3.732835,0.34157076,0.5658528,-0.5559353,-0.64995253,1.585866,-0.2473491,-2.4144778,-0.27805033,-0.6648307,-0.9075284,2.0733647,-2.9739697,-1.6346339,1.3770002,-3.2493439,-0.76732993,-0.0829954,-0.16731708,-1.5251893,0.3587583,0.6125532,1.2225486,2.8504
Roots_Reggae,1.9069545,0.71132135,-0.033344425,0.07065014,0.5795881,-1.7135614,-2.4244123,-0.96973854,1.9013333,-0.53491867,0.9337738,-0.17807485,0.9231746,-2.5058413,2.1522846,1.9428134,1.3734195,0.033351693,1.1810306,-0.113944575,1.391617,0.47459406,-1.6367399,1.6787885,-0.36782792,2.9687755,1.6925018,1.0738866,0.69703615,-1.6561285,-0.7501476,-0.37065133
Salsa,2.8631809,-2.3745842,1.3154161,-2.2606323,1.4638723,1.2266796,3.0128481,-3.8304565,0.95590144,2.3024116,0.7806973,-0.95705867,2.4513166,0.0010430106,-1.7754015,2.7551055,0.9919884,2.8697062,-1.5223353,1.4178497,1.4637982,-0.46542382,-2.5909967,2.917876,-0.2556178,0.21261136,-1.9066381,0.14239039,1.0874879,0.84131783,-0.57855034,-2.4561543
Goth_Rock,-1.3118396,0.09490736,1.4279058,3.0159035,0.9861058,-0.786782,-2.4377553,1.4506835,-0.2063417,0.3989901,2.9269094,0.69907653,-0.1259698,1.9684137,0.92833996,-1.842975,0.16472422,-0.31509382,-1.2642392,1.102477,-0.102070294,-2.423811,0.59950787,-2.7077296,-0.9224288,-0.155981,0.345357,-1.2591759,0.7851707,0.4108728,-1.9968122,2.2499971
Choral,0.8151856,-1.1379517,0.8560541,-1.295007,-2.466402,-0.47259808,2.3356628,0.29416582,-0.7851038,-1.7760419,1.7856662,-1.5141892,1.3256286,-3.388418,-2.7586687,-1.7565237,2.2718754,-0.06465631,0.08869764,-1.063346,2.3543313,-1.7972864,2.9146159,0.12535971,2.5856113,-1.6436422,-4.2827597,-1.649942,-0.59611577,-1.3458008,0.48952618,0.73056656
Latin_Jazz,-2.868046,-1.2878201,0.16477554,-4.171309,-1.8719656,1.5816405,-0.3659333,-2.8370204,-0.8830793,-0.5833853,-1.1868432,-0.5824512,0.03635605,1.4529041,0.8236397,1.0857751,1.0312717,2.9300466,-0.933549,-1.6403301,1.944523,1.1671718,-4.3847237,2.9134414,-0.07848481,-1.0144771,-0.07630463,0.8223817,-0.12546586,0.92117345,-1.3012661,0.21086368
Gangsta,1.7356725,-0.7243927,-0.16959794,0.6816935,2.6877537,-1.2310034,0.1303823,-0.10190563,-0.8185344,0.39790353,-1.3878375,1.650015,-0.5266379,-2.22611,-0.507351,1.3955973,4.201165,-0.48264304,1.0572668,0.59664273,2.0928621,0.4681824,0.03380115,-0.9774561,-1.6005054,1.5849308,-1.7814822,1.2640663,-2.9468825,3.5454192,0.016639693,-0.5873073
Synthwave,-0.85054487,-0.025278604,0.6474946,0.9821932,-0.45132947,0.5862696,-2.6973417,0.089748934,3.27094,0.7275238,-0.2175375,-0.18938157,-1.231605,0.93824494,0.92802876,-0.27508548,0.7998839,-1.963332,-1.1610868,0.47407067,-1.6290772,-1.9575692,-0.5844116,-3.4422412,-0.47076598,0.55860215,-1.2477044,-1.2364414,1.64399,1.3879586,1.2483562,1.2808965
Future_Jazz,-1.2314584,1.7469299,-1.1329285,-2.6524212,-1.7253025,1.9928241,-2.2493687,-0.24947116,0.9002985,2.1065376,-1.7054514,-0.47882804,-0.35247192,-1.024713,0.51395106,2.9121332,0.88781774,-0.099569,-0.5826748,-1.8444858,-0.7376716,-2.044723,-3.8849764,-0.48474172,-1.8485253,-1.230172,1.0899504,0.10444335,-1.4053786,0.010986176,1.777446,-0.75124496
Dubstep,0.67165715,0.87703615,-0.55350846,-1.063115,1.9700345,0.23382434,0.8603866,1.0665522,3.9784536,0.7129013,-2.5441232,-0.8113788,-0.5434433,-1.6991003,1.2713848,2.1302276,0.32288307,-0.06661363,0.31423488,-1.2637566,-0.5472931,-0.57854444,0.5899452,-2.566628,-4.031219,1.7747236,2.1157267,-0.85263896,-1.5900561,1.0192542,2.5486157,1.4762739
Glam,0.9182773,1.6238337,-1.163335,2.5304964,1.3139542,0.938893,0.21119006,0.626782,-0.96089834,0.00015205501,3.1316702,-0.2179892,0.2606192,1.0113897,2.4022274,-1.6765373,0.85086364,-0.22645847,0.1391845,1.2025788,0.6937748,-0.06752577,0.43340403,-0.24255478,0.6164654,-0.64294475,-0.4818709,0.30390382,2.0613554,1.3436707,-2.7557812,-1.7758099
Surf,-2.4852607,-0.022750143,0.024903813,1.825504,-0.3003874,-0.25486916,0.5423281,0.2861771,0.8811978,-1.3591369,2.3909826,1.4343524,0.2813812,0.40772668,2.2301352,-0.26273224,-1.4610918,0.38602173,1.0217612,1.0530126,1.5025512,0.46400702,-0.4815778,0.153946,-0.880342,-1.3907113,-0.412157,1.9547046,1.5160915,0.007907148,-1.3867688,-1.8833121
Free_Improvisation,-2.2663772,1.4453081,1.9632512,-0.4381493,-1.6895789,-0.20922187,-3.9856195,1.3951957,-1.8857254,0.40822384,2.1027212,-0.3031275,-2.9093478,0.3326841,-3.241528,0.8800745,-2.959554,-0.048368327,0.1833794,-2.1404557,1.205287,-0.14558358,-1.918592,-0.6682761,-0.4816948,-3.125046,0.61779195,-0.56431764,-0.7507773,-1.4476339,-0.19276386,-0.36871335
Eurodance,2.9275832,0.7876923,-2.8765545,-0.7797174,1.9170775,-1.6331731,3.5146928,-1.0808283,1.4947695,1.13529,-3.2465584,-0.20654456,1.3371327,1.2813363,1.8335685,1.5272113,2.4966927,-1.802113,-1.8219428,0.8993462,-2.360667,0.76543313,1.3004031,-1.0175437,2.1344917,1.5665996,0.54379874,0.3800097,0.6732064,2.0278883,-0.8959377,-0.7764358
Psy-Trance,-0.62877846,-1.0046985,-2.2103326,-0.30925432,0.7929984,1.1733149,-0.03949088,0.024790082,4.491675,0.007553704,-0.8996939,-2.111261,0.27375934,-1.4983823,-1.748916,1.5363166,0.26350364,-0.903173,-0.020641629,-1.3519807,-3.2453074,-1.2253996,0.58788085,-0.9564761,-1.4281384,0.9432515,0.9865347,-1.7992468,0.4415897,0.8819109,-0.7688673,1.1307938
Field_Recording,0.65562725,2.5861712,1.8026836,-0.5532474,-0.7924149,0.17231332,-2.2438986,0.440696,-0.03810757,-0.85488087,0.22791772,-0.39290315,-2.9027123,-0.9526906,-2.7774696,-0.882495,-2.9173467,-0.9922385,0.4656764,-2.7245615,-0.31543818,-1.0158468,1.3599561,0.09480102,0.029383829,-1.0418379,-0.5286505,-0.09754147,-1.5599161,-1.8345141,3.4895892,-0.23060519
J-pop,0.25905082,1.5605394,-1.0040736,0.102459714,1.3216054,0.32630092,1.1852983,-0.17614633,1.5186863,-1.0682627,-1.1457007,0.83748996,-0.15121989,0.7400607,1.34567,-0.34760165,2.076836,-1.8395715,-0.51614726,1.8828355,0.50389844,0.59788895,-0.41951796,0.40375078,-0.26194867,-0.16019876,1.7616781,-2.9899094,0.20994607,2.0146947,1.2681909,-0.24204333
Doo_Wop,0.25307664,-0.54155564,0.19165806,0.010631317,0.5243989,0.53238076,1.3271772,1.2923,-0.37294546,-0.66491765,1.9879872,-0.4220196,-1.3371825,-0.5627809,3.3114312,-0.34119785,-0.45794028,-0.9120421,0.6998855,1.2674075,1.0870974,2.8411126,-0.16909774,2.160969,-1.0316361,-2.3554044,-1.0329508,2.0970147,0.79134756,-0.75471693,-0.696321,-1.5501286
Dancehall,3.4049406,-0.04717972,-0.06399343,-0.8697572,1.9067838,-1.1716958,-0.7744682,-1.4260017,2.2959268,1.9344877,-1.8845606,0.87931144,1.4377596,-2.2363517,1.7008227,0.7324852,2.28889,0.93680036,1.0910953,-0.64489514,0.8950327,1.7275466,-0.561969,-0.27988955,-0.074207574,2.2086546,1.9152457,0.18660618,-0.5161513,-0.22694293,1.5598079,-0.8422313
Happy_Hardcore,1.0808141,-0.82682264,-2.020144,-0.81166905,1.7366885,0.018697558,5.3127694,-1.941969,2.2504952,0.022518456,-2.7911267,1.1212522,0.39865762,-0.16708402,-1.4395137,-0.25178102,1.133945,-2.7008932,1.1797955,0.5118046,-1.6619114,-0.73040164,1.4994135,-2.247714,-1.879297,3.6060355,-0.15405567,0.60219,-0.7098205,-0.21752651,0.18677728,-1.1191291
Hard_House,0.6601794,0.34941116,-1.319383,0.15728033,2.7464714,-0.1875417,4.907394,-1.2782472,1.571794,1.3141404,-2.7139482,-1.3129787,1.1122904,-0.59032124,-0.4610793,0.93966246,2.002511,-0.5241968,-0.21114837,-0.4317634,-2.3169467,-0.19224043,1.8765577,-2.18776,-0.02492487,1.4598275,-0.16394785,0.046701536,0.33726284,0.1918606,-0.51595277,-0.20749149
Gabber,0.8995636,-0.08522922,-0.08774723,1.4218694,1.5917125,0.36933884,3.8686435,-1.2498198,3.545152,0.014142174,-2.0725682,1.0049708,-1.0910255,1.4705184,-3.1589637,2.795724,-1.0117861,-1.2091593,1.488457,-2.3340926,-0.67263925,-0.16299629,1.4041837,-3.1246874,-2.0872538,3.0447981,-0.09351277,1.0980781,-0.2077226,-0.18391792,0.7803334,1.4900222
Electro_House,0.24949461,0.2591046,-2.5996425,-0.35655227,0.96705806,-0.94543946,2.161941,-0.14679322,2.5164413,0.13738053,-2.5999,-1.6462492,1.0269392,-0.42809293,0.34234282,1.5461187,3.6711862,-0.09879373,-0.78769916,2.4651253,-1.7723341,-1.1015402,2.6503785,-2.5965776,-0.5549663,1.5810332,0.60317504,-0.86018354,0.11196188,0.4609208,2.38262,0.5429886
Novelty,-0.08834544,0.5172342,0.33414334,-0.30818805,0.811274,-0.42533705,1.349302,0.6958139,-1.1523387,-1.2261041,1.716032,2.3382416,-0.05769596,0.70073646,1.6484599,-0.2450758,-0.4317127,-0.86352026,-0.16211925,1.0079402,1.0065202,3.1505044,-0.6971302,0.32926363,0.66231674,-0.4701683,-2.201337,1.1927166,0.66303074,-0.18121982,0.54316753,-0.80511206
Conscious,0.8209809,0.49446154,0.1490161,0.14968,0.34592998,-0.77616864,-2.197914,1.9202117,-0.6708091,0.4358079,-1.1558976,2.8167725,0.6528157,-1.6121601,0.16531965,2.4663317,2.1877766,1.6194298,0.40341166,-0.6032437,1.5977012,0.78697765,-1.1044245,-1.3778392,-0.95815116,0.27580422,0.4627542,-0.031692743,-2.8191276,0.14242418,1.0165204,-2.478291
Cumbia,-0.17255262,-0.26820606,1.7040313,0.9320541,0.846083,0.46571115,-0.33728537,-2.6035187,2.0394266,1.4549072,-1.9809343,-1.4057962,3.103585,-0.32976398,-0.5139712,1.3715228,-1.3072221,3.0109923,-2.784985,3.1492262,1.3214988,2.7644744,-0.6338486,2.3005347,0.6547473,0.05734314,-0.059953514,3.6337242,0.00860812,-0.37647003,-1.1019466,-0.8885001
Rumba,0.3515407,-3.4858766,-1.3785714,-2.5174184,-0.87197846,0.2742127,0.7688116,-2.278632,1.3287853,-1.3479019,-1.2747521,-0.1862048,-0.21342795,0.5691415,-1.2667271,1.3048942,0.049647406,3.809723,-1.6622007,0.49568367,1.2054462,0.6741303,-1.8900435,3.6468077,0.5677005,0.49495998,-1.965499,3.8542597,1.0355912,-0.89706093,-0.55919594,0.50521314
Samba,-2.843734,-1.7551135,0.20146678,-2.9705276,1.0403003,0.7660504,0.6470541,-3.1512222,-0.79964566,0.25132623,-0.84317803,0.46422106,1.0460086,1.6607273,1.8601832,1.3725718,-0.13874203,3.3121312,-2.2419055,-0.48355854,0.7726027,0.49006274,-2.2953036,2.7925043,1.020543,0.537299,0.90279424,0.9047266,-0.51961404,-0.77428555,-0.28235096,-0.9492866
Italo-Disco,1.1718916,1.3048371,-0.871599,-0.58437103,1.1128331,0.7655892,-0.7047893,-0.6221747,0.39056087,0.39450458,-1.3825355,0.6695102,0.27654624,2.1907048,1.6069084,-0.3847024,2.0498934,-1.4485711,-2.6208315,2.1374657,-2.531643,-0.60976577,-1.1284108,-0.77120215,1.0004982,-0.034922045,-2.4908245,-0.37946153,2.2238514,0.23111667,0.39575496,-0.42253536
RnB/Swing,2.5649683,1.5503672,-1.949724,-1.391634,1.8699158,-0.22675577,1.822832,1.3676409,-0.22141577,1.1080647,-2.1810246,0.4947222,1.6083896,-1.2481722,2.5248282,2.0304189,3.4807217,-1.3867693,-1.3771536,1.8400549,-0.23395613,0.28513315,-0.8094592,0.10885761,-0.39158958,0.58417475,0.7945232,0.016294012,-1.5816416,1.6426018,0.5020861,-1.8828825
Bop,-1.3442867,-1.35107,-0.06434991,-3.1523395,-1.9541845,-0.88032633,2.221011,-2.0678997,-1.9714247,-2.1192174,0.5143158,-0.66604537,-3.435583,-0.32512054,0.37800837,0.30837184,1.1634228,-1.726533,0.42151317,-1.2262961,2.8352196,1.3707865,-3.4415824,2.499054,-0.25188982,0.15189923,0.9208124,0.317519,-0.87915254,-0.6110276,-1.3149863,1.6375445
Free_Jazz,-0.56366575,0.4719628,1.2079458,-0.83448994,-3.2289445,0.21490821,-2.6442752,-0.07313155,-2.1231873,-0.5859693,1.102164,0.27616554,-1.9746467,0.64311904,-2.6171465,0.5818369,-1.9953421,-0.742861,-0.56986916,-2.8896565,2.111937,0.0492751,-3.3235948,-0.89815724,-1.2085919,-0.92636627,1.0654584,-0.09704336,0.76547486,-0.1566155,-0.73024046,-0.16827434
Boogie,0.5555093,-0.1299699,0.09124012,-1.7640368,1.547855,1.4104563,-1.6088997,-0.76948285,-1.8343762,-0.98077184,-1.0876882,-1.1846808,1.4112016,-0.06042276,2.5050764,0.051203266,3.5445728,-0.38623238,-2.18381,0.6531699,0.38813868,-0.009435401,-1.4910083,0.9065359,-0.5925592,0.077645645,-1.7350338,-0.7446746,2.1079519,1.2578757,0.96476007,-2.8995326
Hindustani,-1.8924011,-0.81729835,1.3269352,-0.38345483,0.14338541,-0.9212946,0.16472016,-0.54297334,0.89518285,-1.936077,-0.25630447,1.7521461,2.1413615,-1.4402598,-0.586972,-0.40190506,-0.23458,-1.7901858,-2.0470185,-4.5206857,-0.2251346,-2.7609706,-1.8213484,2.0749426,3.1780858,2.282772,-0.34999594,1.5409924,-0.22026248,0.51720625,-0.8066222,-0.90192556
Pop_Punk,1.0455165,1.3924006,-0.62252873,2.3604805,0.14565372,-0.74399227,0.5929464,-0.14521334,0.86146975,-0.08227688,1.7105858,2.0613313,1.6921263,1.1090152,0.93942845,-1.743927,0.27330685,-0.28879738,0.9859784,2.83324,1.7383227,0.6908561,0.93405896,-1.0794402,-1.5028133,0.290118,1.1538565,-0.83855504,0.18642619,0.16128601,-1.4336753,-0.9554529
Vaporwave,-0.23750362,0.75885963,2.2133894,-0.36663592,-1.015778,1.1177183,-0.6462302,-0.096028544,1.7232671,-0.63041896,-2.281367,0.84431726,-1.7014498,-2.1377382,0.15822718,0.98907477,-0.42503765,-1.7922558,0.051451813,0.7312494,-1.6833509,-2.9300988,0.13336089,-1.9915564,-2.6115737,-0.5195417,-0.48674583,-1.0489337,0.6743268,2.290718,3.7793195,-1.389243
Progressive_Metal,-0.810971,-0.1007045,1.2939188,1.4273837,-0.80797136,1.0621622,-0.5609197,1.9858068,-1.2578468,0.8388333,0.25696364,0.5536562,-0.9926421,0.36617398,-2.40393,-0.54952276,-1.5198156,2.9403672,-1.1800412,0.04485833,1.8964536,-1.7133092,0.1863974,-0.5674297,0.33727887,1.3691844,2.49487,-1.5849665,1.4073172,2.2669368,-3.805223,0.3116763
Kaykyoku,-0.30605477,0.44794264,1.1755098,-0.49378735,1.6736907,2.2960525,0.6830105,-0.74040854,0.050644178,-4.0724945,2.0277758,-2.7542105,-0.50434464,2.4361563,2.509567,0.42871165,1.1123468,-1.507051,-3.241651,2.6547334,1.3455607,1.5002257,-1.133484,4.2653675,-0.61301637,-0.75981504,-1.5046935,-0.7499771,0.9155068,2.9252927,0.11937748,1.099945
Latin,0.43614578,1.3671802,-2.520792,-2.392939,0.4106801,0.460312,0.18748422,-1.4850152,0.29677758,2.2648513,-2.7244363,0.06611583,1.6029031,0.52980393,1.396224,2.0138338,2.1697462,1.0774895,-1.5766203,1.0711614,-1.2027606,0.2523058,-1.4173418,1.040896,0.2347747,0.8637718,0.46968773,0.22400764,0.07051499,0.5667644,0.8561999,-0.56482875
Dub_Techno,-0.30252162,0.80950856,-0.62296444,-0.97941923,-1.169027,0.3886647,-2.441476,-1.141561,2.536418,0.434836,-1.3679755,-2.3281224,-0.9170114,-2.5580256,-0.19693004,0.8487841,-1.2584234,0.12408994,0.2778443,-2.1647158,-1.5639527,-1.7703726,1.2859662,-2.5744658,-2.0225184,0.937768,-0.19433297,0.1589155,1.0567765,-1.04213,1.7462387,1.0752646
Italodance,2.5409188,0.802283,-2.4809406,-1.250565,1.8971503,-0.54112035,3.9391701,-1.4986622,2.0592597,1.8898026,-2.677877,-0.41627926,1.6052577,-0.09343159,0.06698815,0.48800397,2.0412977,-1.6329764,-1.3441113,1.8997105,-2.6203635,-0.099117294,0.6708289,-1.4579554,1.9665524,1.1006451,-0.65571946,0.03940654,0.7179545,0.7215577,-1.4132147,-0.38215783
Krautrock,-1.2423731,1.5562732,0.7370239,1.9846462,-1.3506736,1.0861907,-4.537718,0.58588064,0.3250191,0.85062194,1.458429,0.47258326,-0.23441665,0.25240234,-1.5652622,-0.37764156,-2.4096665,0.32002607,-1.211665,-0.7990661,-1.054411,-2.3076317,-1.6683013,-1.1137545,-0.6698638,-1.5569575,-0.39675534,0.0032472091,2.4689636,1.3147527,-0.43256652,-1.1067274
Parody,1.3720971,1.1644746,-0.9493419,0.99337226,0.85378784,-0.11690189,0.96986675,-0.0597903,-1.4496628,0.0778885,2.3194072,2.1362903,-1.0937209,1.6311924,1.7552257,-0.37937388,-1.0414461,0.34640455,-0.92114353,0.37544316,1.121151,1.084156,0.31435546,-0.41591695,1.022365,0.32180586,-1.2494901,1.1178969,0.07176169,0.5402999,0.3544876,-0.3686723
Cha-Cha,-1.8916281,-3.2483194,-0.28442374,-3.5039272,0.17110877,0.48563987,1.5911099,-4.0389676,2.597896,1.419907,-0.45084336,-1.3931682,-0.1998588,2.4081273,0.54621506,3.4251056,-0.9324752,1.6023782,-0.16474839,1.660537,3.055311,1.2657654,-0.81137794,2.855296,1.9405551,-0.9881809,-2.0727425,2.090213,0.24393815,-0.8380892,-2.5883546,-0.16379093
Space_Rock,-1.7761788,1.39704,0.93695676,2.8361676,-0.79851913,1.8513219,-3.646424,1.6309808,0.4641909,0.018551975,0.7649186,0.6846948,-0.40896526,-0.41270423,-1.8056252,-0.986799,-2.428017,0.7551667,-0.24823487,0.64808947,-1.5979004,-1.610833,-0.324626,-0.2496481,-1.1608093,-1.1400611,0.34499308,0.21481737,1.7037843,1.3940201,-1.8527396,-1.109272
Glitch,-0.110784605,0.8876434,0.4730641,-0.18318193,-1.5348564,1.2190415,-2.1005805,0.76537776,2.9173229,0.03376668,-0.8422557,0.0043744165,-2.6275942,-0.54587096,-1.1116699,2.0473468,-1.7757778,-1.0910563,0.8722018,-2.3312168,-1.0480466,-1.1449566,0.59163886,-4.446027,-2.7598155,0.8702738,1.0748092,-1.1207218,-1.1367489,0.20173393,3.67436,-0.26079705
AOR,0.8505585,1.9767396,-0.78439283,0.5396685,1.1224166,2.0516024,0.47274303,0.7919643,-2.2511885,0.6866557,2.4237726,-1.3183917,0.5230647,0.098785825,2.6309288,-1.4201531,2.2155344,0.053732075,-1.0019749,1.0061381,0.29112664,-0.60479397,-0.28971705,3.049598,0.91685337,-2.4978137,0.053464632,-1.3021797,1.79298,2.7106676,-1.366639,-1.0047133
MPB,-1.5278698,0.028299253,0.7785569,-0.71440274,0.52078944,0.4339168,-0.9885967,-1.273128,-1.1257937,1.410223,1.5467852,-1.3309196,-0.026558137,1.6196055,1.3349701,1.5333619,-0.10963469,-0.2688078,-2.1067994,0.30111971,0.7788794,-1.0117389,-2.209211,4.1667786,1.1234822,-0.79150444,1.6955899,1.8319405,0.3075927,0.14116652,0.4551212,-1.252017
Bollywood,-2.4288023,-3.856352,2.3957748,0.8688767,1.5425476,-0.06724111,-0.074717045,0.35471934,1.8615888,-1.8498864,1.0748426,-0.33020082,1.1062541,1.5888164,-1.6256793,1.0036978,2.7906585,-1.4900469,-0.6897819,-1.3896079,-1.1933624,1.0823455,-0.7003731,1.4811912,3.7562237,-0.7684238,0.13049819,1.9180639,-1.9544431,0.9884834,0.18285775,-2.901294
Smooth_Jazz,-1.3691375,0.7543145,-0.053520463,-3.364666,-1.8290157,0.7936689,-0.88076687,0.328391,-1.1467193,0.118363954,-0.2590402,-0.5158055,-1.4834602,-0.1003451,2.2075355,-0.046272926,1.9620155,-0.2796886,-1.0911582,-1.1586396,0.69796884,0.28929615,-3.9766643,2.5615644,0.8002726,-2.3556247,0.37019396,-1.129916,-0.878733,1.3663481,0.26727504,-0.5763232
Hi_NRG,1.900674,0.82511246,-2.3069992,-0.51028776,1.4225482,1.2840925,0.9645044,-0.8310894,0.9574572,0.17371312,-1.7217366,-0.12557979,0.25802374,1.4234706,1.233357,0.49037543,2.7952878,-1.5391127,-1.462525,2.555029,-1.4839652,0.5346445,-0.024336994,-1.011755,1.7500714,1.5534358,-1.2876679,-0.46173596,2.1668415,0.66740984,-0.26759672,-1.1897076
Acid_House,0.50138915,2.1671696,-1.1822226,-0.19478296,0.51197827,0.7657614,0.25869295,-1.5138159,-0.00023742908,1.2645414,-2.1575308,-0.4962358,0.12856215,-0.18018724,1.0079141,0.92319435,1.1405832,-0.45541316,-0.7149295,-0.00861071,-1.6052332,-0.25556174,-0.32378247,-3.2267988,-1.5812811,0.8160332,-0.44063228,0.15930913,1.1683902,-0.027951686,0.5943591,0.3108718
Metalcore,0.8113744,-0.059753217,-0.08079431,1.2270399,0.73441815,-0.53988594,1.2852792,1.127608,0.60432976,1.0779663,-0.1964919,2.1255977,-1.1461549,1.1018056,-2.365953,-0.044840198,-0.4745864,1.5694427,1.0495868,1.3639655,2.4960377,-1.437506,1.336808,-1.2759823,-1.4163864,1.9931556,1.9317346,-2.0093465,-0.24774453,-0.45392329,-2.8211644,1.4024214
UK_Garage,1.8099035,1.4005663,-2.762322,-0.8767547,-0.78661084,-0.47313833,0.6114861,-0.66932553,1.356724,0.026701225,-3.8463864,-0.8805179,0.071119234,-1.8550729,0.74741024,0.40290326,2.9804907,1.3391161,0.6037019,-1.4540751,0.09512752,-0.82330596,1.4300921,-2.3838153,-2.0948875,0.85886604,1.7259905,0.030727763,-0.7842224,0.6753589,2.8939948,-0.7016342
Sludge_Metal,-1.7959207,0.32144162,2.7598364,3.5751886,-1.0430895,-1.096703,0.25705317,0.6339557,0.5683122,2.1549299,-0.19963196,0.37879735,-1.8263819,1.4322724,-3.4183419,0.7065662,-2.3219075,0.048754334,1.7797053,0.3861788,0.61987084,-0.814737,1.0158824,-0.524826,-1.5065321,0.47943696,2.1728694,-0.3667822,1.2271379,0.36423373,-4.6508193,0.31488878
Post-Hardcore,-0.08319304,-0.33874947,0.015343927,2.3566704,-1.609366,-0.5125626,0.6869353,-0.35828626,0.29114377,1.890655,0.6643035,1.2435194,1.2213341,1.4886807,-2.3598545,-0.34924626,-2.22629,0.4830889,0.31742203,0.96414435,2.559159,-1.4135988,1.8398703,-2.0918622,-3.4065118,-0.39716625,2.6940358,-1.2048409,0.023735033,0.8879482,-3.2717583,0.69731337
Hardcore_Hip-Hop,1.934173,-1.1148268,2.5936708,1.2704842,1.9191917,-0.23696057,0.2490115,0.98951215,-0.40740767,1.6312734,-0.7365086,3.2012098,-0.68697834,-1.5565448,-1.3313302,1.9426644,1.570212,1.1596653,2.024674,0.8148566,1.3422757,1.0060161,-0.008473992,-1.5564239,-1.8792689,0.28291884,1.1862547,-0.4576697,-3.340887,0.8919746,-0.2435076,-0.9798023
Orchestra,-1.3273631,-2.727115,0.62284815,0.5886268,0.54426575,0.5169381,0.31182483,-2.0705538,1.6643159,-2.092359,-2.81378,-1.0260984,-0.6811541,-3.709137,-3.841037,1.3704112,-0.9282734,-2.9284184,0.24841948,-0.16255417,2.45475,2.2443142,2.8253694,-2.2492428,5.2954617,-1.3230782,0.032857567,0.707561,-1.6019678,-2.441091,-4.972835,3.4076197
Cool_Jazz,-2.0810635,-1.2479736,-0.014138259,-2.4996948,-2.3030584,0.6571011,0.42170706,-0.28122056,-0.84847236,-1.1733536,0.33130187,0.16024669,-1.5272403,0.96743584,0.124849625,1.0584239,2.0294082,-0.7212787,0.041069046,-1.5800053,1.6915551,1.2845807,-3.5856125,1.3935612,0.5399205,-1.6887043,0.5600241,-0.7878459,-1.1577634,-0.86527824,0.06992947,0.5377686
Power_Electronics,0.45794156,1.136131,3.8447282,0.97057444,0.34289166,-0.41415137,-1.6308929,-0.38771176,1.3281188,0.25139922,-0.55838996,-1.1792796,-2.9329207,2.5953698,-2.8216558,0.25405344,-2.1422532,-1.8892077,0.8128042,-1.8524989,-0.01069878,-0.47546038,1.7565068,-3.1336875,-1.4306909,0.7973903,0.46877754,0.369026,-0.18137066,-0.5001673,1.9495445,0.43136007
Post_Bop,-0.56009966,-1.5070122,0.8451412,-2.5718663,-3.1915085,-0.14920014,-0.22882588,-0.70605224,-1.9214069,-0.6696257,0.9741633,-1.0364571,-3.3467736,0.99708676,-1.6916555,0.7719213,1.0445554,-0.51198393,0.05095633,-1.672872,2.128315,1.553594,-3.992609,1.3220167,-0.26735663,-1.2519426,1.1112477,-0.6831481,-1.1225423,-0.56626904,-1.7194368,0.4680158
Musical,-1.0024028,-1.5923141,-0.2167318,-1.3631576,0.39825994,1.1222645,1.530623,0.8841709,-0.96332526,-2.5484858,1.485482,1.5816659,-0.6135827,0.11990377,0.019264627,-0.43754756,-0.3643077,-1.0700676,-1.2252847,-0.57488114,0.59295577,1.5872021,-0.6524363,1.178739,3.133975,-1.381635,-1.1080078,-0.36639246,-0.5811679,-0.20491685,-0.33510074,-0.669487
Grunge,-0.2244833,1.2662842,-0.08510631,3.6332846,0.78765565,-0.14428067,-0.7877566,0.66861814,-0.37472817,0.2410483,1.5722797,0.9631604,0.9814795,0.47946844,-1.0398602,-1.1891961,-0.76217926,0.425908,1.4079411,1.0636084,1.7880201,-1.1685028,1.880823,-0.8436503,-1.881068,-0.34519383,2.411483,0.5877108,-0.7031163,1.0404233,-2.5691352,-1.1222104
Celtic,0.021799885,0.12784326,1.1517175,-0.296877,-1.3369915,-1.429018,-0.5786151,0.36913127,-1.2916274,-1.6456344,2.1772163,-0.20123456,0.38363147,-0.97479224,-0.4381736,-1.5576915,-0.71756804,-0.48252812,-1.3838018,-0.6582615,-0.62354136,0.5777843,0.556059,1.8349314,1.3706924,-0.2175779,-0.07530675,0.4809679,-1.0264498,0.4404718,0.17044328,2.048668
Story,0.47919768,0.51499075,1.1215478,-0.27978992,1.5190076,-0.18239048,0.5396612,0.071309626,-1.0047089,-2.8956652,1.6287466,1.9000238,-1.1580726,-0.09705617,-0.53448737,-0.50431883,-0.07255866,-2.3754175,-0.15966992,-0.2771365,0.9806367,-0.079167716,1.4191974,1.6285154,3.1277254,-0.6457899,-3.3755076,0.025460772,-2.0440025,-0.4715603,0.34363222,-0.23752606
Breakcore,0.78224915,-0.0033990887,0.7844122,0.032015417,0.3027687,1.5359218,1.2407088,-1.5994465,3.5572472,-0.30881882,-1.887704,1.9307213,-2.100099,1.4917872,-1.5971502,2.5663521,-3.0817912,0.039964966,2.1167288,-3.1642697,-0.7435436,-1.8016893,1.6095529,-4.3920264,-3.719417,3.9915152,1.5956957,-0.66417027,-0.8832962,0.51442856,2.0822804,-1.0221273
Neo-Classical,-1.7428277,-0.8305571,1.3610325,-1.1085905,-1.561045,-0.29022995,-1.0945497,0.57042295,-0.23873495,-1.2026632,0.67963034,0.6288159,-2.0837724,-0.78856766,-1.4208862,-1.8191494,-0.6715224,-1.2135642,-0.6539668,-1.1343106,0.15327394,-2.060788,0.6059275,-1.3741994,3.088389,-1.9695158,0.23924716,-2.1960552,-0.25902936,0.5184732,0.5083019,2.3845105
Polka,-1.240967,-1.3637837,-0.41937184,-1.2965965,-1.7867522,-1.5787393,1.3372626,-1.5428432,-0.22623967,-0.20340753,1.9906002,0.024212686,0.50816923,0.3428025,0.6386056,1.0587664,-0.97674495,2.5794017,-1.0501951,0.7626903,0.48446715,2.2122817,1.6399535,0.74944985,1.8553101,0.9566549,-1.0201918,1.475599,-1.2917055,-2.143762,0.25741804,1.5360303
Boom_Bap,0.3184117,0.5841918,1.6306562,0.57120425,-1.2934476,1.0028352,-1.1559057,0.09884433,-0.6655292,-0.055465143,-1.368136,2.5595043,0.011008095,-3.2942495,0.8395645,3.562537,1.8325291,0.41722643,0.68413234,0.30090544,1.5618436,0.32832065,-1.0384456,-0.93271244,-1.8547629,1.1897335,-0.2312487,-0.16637337,-3.473145,1.5185064,0.51640224,-0.51003057
Merengue,1.7611369,-1.4011691,1.7610409,-1.9172522,1.4015353,-1.0004642,1.9558989,-2.9591353,1.586998,1.0296485,-2.5504165,-0.06956653,1.4900936,-0.24912538,1.7339946,3.447414,-0.8976706,2.9986324,-2.1805289,1.3981559,1.4480999,-0.2461275,0.11836919,1.8013846,0.4006936,0.23705961,-1.0912716,1.5695026,1.3472452,-0.61089694,-1.1324189,0.8771325
Avant-garde_Jazz,-2.031437,0.7148659,1.9931134,-1.277415,-3.7721198,0.8300831,-2.96844,-0.4042073,-2.2502635,-0.6003955,0.56988424,0.6462767,-1.822951,0.69323397,-3.0588753,0.47283044,-1.2989208,-0.5893178,-0.13022046,-2.0120115,0.83861715,-0.0025918442,-3.2755952,-0.5467187,-0.8163201,-0.80971503,0.5289187,-0.7002512,-0.24116792,-0.8676531,-0.11736838,-0.031442564
Tribal_House,0.4965503,1.562646,-2.4148576,-1.6210042,0.88431454,-0.68921894,1.1986495,-0.56103885,0.10837257,1.2135562,-3.23964,-1.8549666,1.0395662,-1.1134553,-0.33820683,0.73999304,3.0765715,0.031186963,-1.3154942,0.8455864,-2.123295,-0.6977972,0.60258204,-0.3105467,-0.039720308,0.5353126,0.88477093,-0.39407304,-0.44076234,-1.1970417,1.0729178,0.33178872
Bossa_Nova,-2.1688483,-1.2483224,-0.8795825,-3.0640717,-1.7895275,1.7089341,0.83817506,-0.88672674,-0.8085682,-0.61971164,0.14887953,0.33209318,-0.08920005,1.0673835,1.3066047,0.34965757,1.4132214,1.3538191,-0.7306437,-0.7137499,1.3452545,-0.4038686,-3.7084265,3.1414642,0.12869987,-1.9361804,1.5516913,-0.38946325,0.31971785,-1.1139055,0.24960756,-0.3934715
Power_Metal,0.31080163,0.22083181,0.39510342,1.7680967,1.0803463,1.6464884,1.5859492,0.21408723,-1.3422914,-0.06836406,1.0738381,0.2350728,-2.357071,0.30335227,0.006300327,-0.70445704,0.08766334,2.164578,0.06449233,-0.06103148,1.5456047,-0.73307383,2.3102584,0.895865,0.77457684,1.9898864,-0.5627235,-2.8155289,0.80628556,1.4450066,-4.0525737,2.586885
Jazzy_Hip-Hop,-0.68473184,0.62404805,0.8857594,-0.9452265,-0.7997682,-1.3244591,-0.9206351,-0.15796605,-1.2134055,0.8645755,-1.7174144,2.552142,0.30920553,-2.4204435,1.1378182,3.2819316,2.1964433,0.82863694,-0.3565327,-0.91872674,0.79601806,-0.33204287,-3.353984,-0.87376356,-2.1225727,0.46434495,0.46555132,-0.0057439967,-3.7141278,2.2846525,0.5120785,-1.966968
Trap,2.3090024,0.106091954,1.2977711,0.038376637,-0.40720478,-1.9959698,-0.047533624,0.6178789,2.42472,0.29071525,-2.413615,0.17853718,-0.13369149,-1.0834357,-0.07190188,1.8322192,1.2775759,0.79217213,0.41626552,0.894637,0.59143156,1.1067152,1.752154,-2.793422,-3.1944313,1.2325611,0.5082354,-1.246139,-2.1863942,3.023381,1.8059703,-0.46027452
Bluegrass,-0.97301674,0.41957745,1.4676813,1.6820271,-1.169263,-1.9537965,0.5394261,1.1476444,-1.7246399,0.30653575,2.0698187,-0.41044447,0.62525976,-1.1156905,0.97368413,-1.6402433,-0.29395792,-0.32224807,-1.3279771,-1.8277533,0.9521971,2.631944,0.5176095,0.893716,1.3379667,-0.6860043,0.78591114,1.5561981,-1.9409945,-0.68058705,-0.206069,0.473191
Mambo,-1.5155444,-3.6539235,0.6964488,-2.7000444,0.49172175,1.5116086,2.3659747,-3.626511,1.6907817,0.7700904,-1.0084981,0.37934262,0.07210262,0.8480612,0.3211739,2.478676,-0.5341556,3.4322634,-0.011020114,-0.18391068,1.1955775,1.8217856,-2.049122,3.2846906,0.66586834,-0.6006597,-1.1854578,0.6625809,0.6830657,-1.4950105,-1.9353796,0.59899896
Speed_Metal,0.44203034,-0.88142395,1.0052071,1.4782968,0.42069796,1.7449389,2.3093889,2.026249,-1.359183,-0.11547871,1.9855964,-0.42519745,-2.44606,-0.075501114,-0.7849007,-1.1572007,-0.35350248,1.9559557,0.4567378,0.9743433,1.714022,-0.29900575,1.4559908,-1.2412609,-0.22002599,3.115159,0.43469974,-0.6156374,1.6051911,-0.43502313,-3.4660656,0.44120786
Broken_Beat,-1.0370896,0.87694544,0.065390974,-2.090876,-1.0253896,0.70177764,-1.5207249,-0.27643946,0.95142025,1.0078743,-2.6928496,-0.10651239,-0.40740547,-0.7093305,0.07109513,2.97685,0.7532996,0.82016754,-0.44147438,-2.1433845,-0.85024285,-0.77727616,-2.7784486,-1.9138856,-2.39745,0.6841986,1.8627955,0.21622783,-0.4928204,-0.40168032,3.155892,-0.9644538
Mod,-0.65224975,1.7315443,-0.7888451,2.3436472,-1.0302895,0.97065115,-0.21039091,-0.677724,0.4878253,-2.0218601,1.7368648,0.85160667,1.352013,1.5762383,2.62182,-0.8396317,0.3804976,-0.32536912,1.1887499,1.3723755,0.9394892,0.31785518,-1.0250133,2.4274554,-1.2057612,-1.8134025,-0.66276234,1.486255,2.365217,-1.3666242,-1.6561475,-3.307705
Musique_Concrte,-0.6386927,1.7212926,2.5000916,0.025107786,-0.76942325,0.35713214,-3.0142019,0.48396933,0.02541269,0.4333186,0.6642362,0.48442653,-4.124917,0.118130736,-3.338215,1.0709497,-3.6002574,-1.3108279,0.35744232,-2.580477,-0.48818034,-0.7451432,0.39181688,-3.0365953,-0.14078782,-1.4248508,-1.3561928,-0.22102618,-0.7962652,-0.5993967,3.0413804,0.13338432
Symphonic_Rock,-0.18894497,1.4902694,-0.71262,1.1004038,-0.31944573,1.3772179,-1.0048513,1.1422812,-1.8820482,-0.39668936,1.2695215,1.3012856,-0.390524,1.0051154,-0.04051593,-1.9445055,0.29983187,0.2471904,-0.6637973,0.3573796,-0.48002908,-0.27690217,0.10183415,0.8737928,1.9763451,-1.607101,-0.32262313,-1.2691355,1.7772014,2.6303885,-2.1983163,0.4283098
Crust,0.2572258,-1.0005621,2.554813,2.5230057,-1.3158138,-1.1446118,1.6497605,-0.92810965,-0.5959449,0.9367058,0.2706941,0.8573556,-1.0588142,0.9246853,-1.79866,-0.4003643,-2.0566792,0.7273879,1.2347857,0.85917354,2.6730762,-0.6407343,2.2463279,-0.937501,-1.1432793,2.7786593,1.7985649,0.65528816,1.7047615,-2.1548338,-2.2546744,0.62749
Math_Rock,0.029308245,1.2451756,-0.31169397,2.138268,-1.9567778,0.57880235,-1.5149622,0.52813965,0.055685896,1.7145029,0.7228885,2.2339656,-0.5181211,1.6041241,-2.6237645,-0.3023153,-2.8642957,0.49658242,0.4061755,0.2919645,1.7998024,-1.3418206,0.02542251,-1.4427129,-2.085772,-1.1355361,2.425001,-1.4911319,0.55167514,0.18635164,-2.3294778,0.075574204
Volksmusik,0.88580567,-1.3948292,0.5796343,-2.0886278,-0.88271433,-1.5467732,1.3897891,0.3118276,0.13451737,-1.1693224,1.1544448,0.9300291,-0.077060826,-0.2890362,-0.019801423,-0.7686555,-1.726032,1.0332894,-1.0142859,0.07245214,-0.052891556,2.8748193,2.44022,-0.19487007,2.349924,0.019328946,-1.8642315,-0.18883254,-0.4625691,-1.343229,0.46142235,0.9510877
Tango,-1.589615,-3.1822367,0.55474204,-3.666383,-0.91023034,0.46406648,1.4768437,-1.7857095,0.7645117,0.58506936,0.72932285,0.36060694,0.23262073,1.30292,0.31265822,1.1804376,-1.3620213,2.3432672,-0.62735707,-0.7423289,-0.05484132,1.5841703,-0.86977726,2.0131664,2.6316452,-0.88611937,0.42332146,0.8765251,0.08754393,-1.3958838,-0.36872995,1.0778257
Psychedelic,-1.716421,0.5957528,1.3235996,-0.78637403,-0.55959666,0.62901586,-3.347129,-0.12057469,-1.2335005,-0.49420035,0.8358823,1.0776178,1.0234734,-0.24717091,1.1799277,1.2387761,-0.54298997,0.5165755,-0.35195088,-1.5574503,0.064072244,-0.91532606,-2.8443284,1.4344064,-1.1773238,-2.0333016,-0.21469095,0.910246,1.4115548,1.2283096,0.6976617,-1.9042703
Arena_Rock,1.00921,2.3885567,-1.966881,2.0263093,2.6116009,1.434056,0.83807814,1.3463542,-2.3838732,0.30215788,1.8610693,-0.42323574,0.100520015,0.2765833,0.81625867,-2.2113883,1.9230629,-0.39406776,-0.45761406,2.0397916,0.6359024,0.18511356,0.4409514,1.5134224,0.79869866,-0.9725837,-0.114904076,-0.031563874,1.4090309,1.5772694,-2.922843,-0.6248949
Reggae-Pop,2.4405925,1.1837363,-2.7902777,0.15637279,2.333804,-0.6170334,0.34047392,-0.7534129,1.3252084,1.089984,-0.7380942,0.64518774,1.8287126,-0.4483273,2.7144191,-0.15175481,3.0848293,0.047817327,-0.81561613,1.8874736,-0.21342713,0.4144222,-0.9940688,1.819497,1.2826679,1.2562039,0.012199706,0.8488708,-0.059982724,0.093063444,-0.015761543,-1.6467043
Ethereal,-0.91894823,1.44714,0.9815389,0.76285326,-1.5073996,-1.0823176,-4.4098105,1.2457316,1.4326657,1.0816258,1.5932926,0.1170307,-0.42372426,-0.18372555,-0.7969962,-1.1349397,-0.9071668,-0.53282446,0.25912762,0.5194804,-1.7143523,-2.1919942,0.7230987,-0.8050013,0.6734089,-1.2892529,0.55878454,-0.82333404,0.48593327,1.9771267,0.22398113,0.5399638
Renaissance,0.08511286,-0.765304,1.1851667,-0.49564397,-2.1066058,-0.83630764,1.1462828,-0.51414526,-2.8538003,-2.2665868,-0.053631596,-1.3019619,0.027211161,-3.3624613,-3.5584567,-2.346602,0.62844473,-0.43381095,-0.2771689,0.27640605,-0.5677726,0.17139837,3.5118303,-0.14793755,1.976343,-1.3799654,-1.7055011,-1.2562641,-0.7179357,-0.66642064,-1.4851644,1.3132386
Acid_Jazz,-0.76564634,1.6253691,-1.5525804,-1.7923412,-0.99545544,0.7522159,-1.0472873,-0.9768389,-0.16079395,1.0757846,-2.7580917,1.1529895,0.5763866,-0.82491165,1.8480057,2.0772684,2.4431205,0.07918494,-0.76300436,-0.8905681,-0.32910654,-0.8235749,-3.9719644,0.17030841,-1.305075,-0.75721234,1.6087734,-0.10542879,-1.2273892,0.2958519,1.3533227,-1.2869354
Neofolk,-0.69745314,1.7344285,2.0856922,1.024271,-1.0870602,-1.1876538,-2.7401738,1.3455019,0.44970313,0.8108697,1.8182949,-0.6621307,-1.2226968,0.6580136,-1.3919507,-1.8398465,-0.8172123,-1.2610494,-0.7611683,-0.3545354,-1.4835032,-1.3351104,0.68666035,-0.53765875,0.82348514,-0.167911,0.36370453,-0.7317328,-0.53397816,0.8178426,1.3628118,1.7346706
Dungeon_Synth,-2.1227062,-0.25523657,4.389452,0.21639417,-1.580617,0.43569565,-1.2751926,1.6859206,1.1125498,1.0495217,-0.60318863,-0.57553405,-1.4778713,-0.18663657,-0.95564085,-2.068689,-1.2050701,-2.1752863,-0.75706613,0.2625648,-2.0676484,-2.9671364,2.8376043,-1.4347657,0.063187875,0.70403016,-0.5571408,-0.7997215,-0.67039794,1.168452,1.3000169,1.9248675
Flamenco,-0.21918821,-0.57912403,0.786526,-2.8614209,0.61872053,-0.85559505,0.18368521,-1.2443563,-0.76544386,0.94625425,-0.25596976,0.4485677,1.167099,0.47290468,-1.3011732,1.6570326,-0.9290016,1.2235368,-1.0652158,0.29861084,-1.0314991,1.4273676,-0.73874587,2.3857102,2.793814,0.052180722,0.6521865,0.25058064,0.40349108,0.59589773,-1.1542656,-0.16402543
Bass_Music,0.9743614,-0.44099426,-0.28090167,-0.9231239,1.113672,0.57476264,-1.3728993,0.05881812,0.959519,0.6100389,-2.7072692,0.54580307,-0.10466451,-2.1477368,0.28595328,2.6788337,0.78649616,1.0599629,-0.060926724,-0.32865402,0.40245622,-0.49978378,1.7374505,-3.2512455,-2.600641,1.5088053,0.32741308,-0.1482676,-1.6868368,1.2159797,3.7006316,-1.3936747
Nu-Disco,0.0027747094,1.6626203,0.2176999,-1.3481841,-0.28142476,0.40156427,-0.88191676,-0.1823408,0.99762404,2.064306,-2.1528296,-1.5812868,0.9242494,0.0047763293,1.617881,1.3625996,2.9169006,-0.44615522,-1.6467743,1.822075,-1.7918124,-0.5044248,-1.2986871,-2.4531624,-0.28244585,0.19301562,-0.94893533,-0.573354,1.8334523,0.57702357,1.5326325,-1.4704801
Ranchera,-1.0102433,-2.0785909,0.4562512,-0.55512655,-0.505516,-2.0048783,4.3552947,-1.3426795,0.6135541,3.0385802,0.5780119,-1.4695393,1.3115932,-0.5281945,-0.51118517,0.2416275,-0.66338253,3.298235,-1.0900173,1.8149285,0.3901266,1.2735155,2.7161117,3.524442,-0.19281287,-1.4075093,-0.025098305,0.9254729,-0.46291512,-1.3245294,-0.10499081,0.9317613
Southern_Rock,-0.8565574,1.399061,-0.16138723,3.4276316,1.3695362,0.085749425,0.9072797,1.8052264,-2.2033358,1.2813191,1.4819931,-0.10237031,0.79727656,-0.9473734,0.60068524,-1.7938277,0.5496627,0.105280675,0.014146843,-0.5980982,1.283194,0.61402416,0.4414549,1.9150077,-0.1352884,-1.3303013,0.99858505,1.1136888,0.6776842,0.09404005,-2.6834955,-0.18067673
Poetry,0.6532454,1.8749992,0.80838305,-0.80744296,0.029943017,-0.10432208,-1.4047438,-0.08592203,-2.1746247,-1.2771677,1.9877285,1.0317609,-1.5613945,0.864483,-1.7117078,0.44337362,-1.2637254,-0.34105685,0.51946354,-0.9082008,0.31685257,0.14146817,0.35149008,0.60614264,0.7922645,-1.0003775,-0.47681028,0.33606064,-1.6339253,-1.1498994,1.4641593,0.2928912
Video_Game_Music,-1.8799348,-1.6167475,0.1748681,0.23462552,0.10343972,3.163318,1.0365034,0.9053936,1.4934253,-1.4066292,-0.743677,1.5626261,-1.494993,-0.10519562,0.12359822,-0.5263729,0.7144279,-1.6044797,-1.6256791,-1.6149485,-0.9839606,-2.0947335,-0.21833599,-2.2606463,2.1550016,0.9019334,0.5764652,-1.2957895,-1.9048175,1.9254903,1.3225828,0.15899839
City_Pop,-1.7181375,1.3975253,1.843877,-3.4454281,2.398634,-0.6845475,-0.092095405,0.765352,-0.7815059,-0.70704234,1.4649149,-2.6117845,-2.0758426,1.640899,2.065058,-1.2419459,2.9039116,0.22180197,-0.4801072,3.504782,-0.4218674,0.33207926,-2.5365217,4.8112097,0.24901834,0.64013785,-0.51264143,-1.2990785,3.471421,2.0509484,0.29735574,-1.5610139
Guaracha,0.4548327,-2.407587,2.6452143,-1.2571217,-0.2268025,0.93025184,2.424148,-3.4257915,1.5482097,1.9966452,-0.9896691,-1.1489143,2.1352444,0.29043812,-1.2867358,2.2245405,-0.9525172,3.8566403,-0.43570408,0.57764256,1.6197593,0.50378215,0.3729332,2.6811619,-0.3389154,-0.42667764,-3.1865573,1.3827181,0.83022666,-0.3242106,-2.9842877,-0.90763384
Berlin-School,-1.436952,1.4504737,0.9419159,0.0128706535,-1.1834116,1.2675353,-2.138291,-0.22427948,1.8891827,-0.563972,-0.90196663,-0.10282372,-1.4850228,-0.17317218,-0.9370576,-1.2475556,-1.326555,-0.5762396,-0.5634112,-1.971333,-3.573486,-2.6274514,-0.38170618,-0.8979262,-0.10748366,-1.3167495,-0.80262524,-1.7067941,1.4907091,1.3111957,0.8345578,0.014088478
Freestyle,1.3841023,1.9611396,-0.72846174,-0.86090696,1.1790875,0.50507003,-0.3921414,-0.42650515,0.121408254,0.9903543,-2.7829494,0.45041695,0.07581035,0.34421003,0.29491147,0.41307342,1.4588479,-0.6798935,-1.3191159,0.6915554,-0.8878523,-0.052910566,-0.6852539,-1.5110343,-0.96104693,0.3552572,-0.4045583,0.070340075,0.08804859,0.66914,2.2991273,-0.7583991
Bossanova,-1.2661476,-0.69288903,-0.39995256,-2.4825027,-0.6677819,1.6295724,0.81905174,-1.5692039,-0.17810676,-0.03217433,-0.03685961,0.4076255,1.084265,0.87205446,1.4717185,0.93837196,0.04450757,2.2979963,-1.2347959,-0.45848513,0.33855838,-0.8267577,-2.3828642,2.821518,-0.08311617,-1.3251688,0.9491184,0.9263266,0.31895405,-0.846711,0.46978095,-0.57126975
Hard_Bop,-1.3520566,-2.0214787,1.046806,-1.972377,-3.1760056,-0.20438235,0.6298084,-1.7090572,-2.257121,-1.3236103,0.23839366,-1.0643221,-2.416672,1.2886089,-0.67130506,0.60223186,2.3056707,0.14199595,0.12414056,-1.9341338,2.5092468,1.158305,-3.2892675,0.9676396,-0.6657648,-0.52029264,0.79353744,-0.71464413,-1.5225286,-2.120758,-1.7565093,-0.26603422
Tech_Trance,-0.19962129,-1.2311026,-1.1048814,-0.6537584,0.728059,0.0016651484,2.408777,-1.3657894,2.0461984,-0.14315377,-0.35246894,-2.0205007,1.3216094,-0.842557,-0.19396898,-0.6205134,1.1457257,-0.5381813,-0.25491798,-1.1753598,-3.615523,-0.4599734,1.7457649,-1.6695443,-0.7899586,0.83844984,0.38343298,-1.215217,0.5365475,0.38664,-0.940445,1.94103
Country_Blues,-1.3616964,0.293744,0.4185253,2.49948,-0.9366953,-1.8868171,0.14557864,0.93760866,-2.2640772,0.2683027,1.8053795,-1.7399464,-0.49324235,-0.95864177,0.9513867,-0.5646334,0.038239483,-0.9171039,-0.5896225,-2.7415922,1.8325194,3.4138443,0.97217155,2.0505738,-0.021939594,-1.0070398,0.2154207,2.0473154,-0.442938,-1.0480187,0.20563246,0.6153217
Concerto,-0.09551187,-2.824865,1.0888538,0.781263,-0.57583946,1.9560504,0.5866434,-2.844287,-0.12831876,-1.7794412,-2.6486585,0.2565418,-1.0445682,-3.1696746,-3.1101363,0.18609194,1.8726623,1.394611,2.274416,-0.106521495,0.83243954,-1.2877225,2.6522818,-0.61823153,2.0186837,-2.2328033,-0.84834576,-1.0739503,0.16983438,-3.0415413,-1.9361582,0.99545187
Minimal_Techno,-0.35567763,1.4485456,0.5849805,-1.0325476,0.041599985,0.44771877,-0.88526374,-0.23218583,1.7079854,0.57339525,-1.0206263,-1.9807845,-0.5490066,-1.4536012,-0.35217306,0.93094623,-1.1555814,0.07003311,-0.32264483,-1.2180691,-2.2949624,-1.2248924,1.2172071,-3.5127897,-1.480441,0.10819921,-0.37029397,-0.64008504,0.38526875,-1.2890029,1.2497588,1.5329683
Chiptune,0.51737034,-0.36750776,0.26470813,-0.006121757,-0.52461237,2.0688016,-0.1908504,0.49354747,3.5502348,-0.374249,-1.1801753,1.6845437,-1.1265985,0.41484138,-0.7871334,0.046729688,-0.8568564,-1.3263636,0.47876334,-0.5025852,-0.12959829,-0.87247986,-0.0037570063,-3.0856264,-1.8906313,1.551733,-0.1583962,-1.147052,0.24529216,1.468867,1.726295,0.6868574
Mandopop,0.72994155,1.1781691,-1.277312,-0.67827296,0.43781078,-0.19074044,1.5007561,-0.3420257,1.2883078,-1.0537682,0.22030945,-1.7003247,-0.3485553,0.5253132,-0.2349985,0.005531935,1.7932167,-1.7296631,-1.4112769,2.668243,-0.11852376,2.1493063,0.29141912,2.6034195,1.3574826,-0.36224166,0.87701917,-1.1538382,0.41427335,3.546257,2.5463278,-0.9696142
Nu_Metal,1.141422,0.47071835,0.04858774,2.4786224,1.4371455,0.29478228,0.27592924,1.386827,0.050175574,-0.09589771,0.607736,1.3175792,0.58269733,0.79512036,-1.5824726,-0.34096986,1.5730072,1.0638295,0.529545,0.31180945,1.4083973,-0.41672924,0.65192217,-1.6793144,-1.0470997,2.1394722,2.6483347,-0.99665314,-1.607631,1.20218,-1.9412903,0.98527
Big_Beat,0.15802357,1.9051625,-2.4529579,-0.49572018,0.5894737,1.7721422,0.112263665,0.18753816,1.223073,-0.27493992,-1.6340034,1.0191516,0.79906654,-0.5945216,1.1305147,0.7972437,1.5107154,-0.31171802,-0.072056554,-0.6797999,-1.1511396,-0.8034637,-1.9861293,-2.396283,-1.8021318,0.701209,1.9435729,0.64664376,-1.3538389,0.7698401,0.7059205,-0.12717482
Dixieland,-1.648253,-1.8784617,0.028330129,-1.2873672,-1.9610683,-0.69625986,1.6567461,-0.1823136,-1.3994997,-1.6561995,0.6872851,0.00803543,-1.7600138,0.81303084,1.2576946,0.765935,0.34124917,0.3871165,-0.54515195,-1.7607012,2.3642619,3.1169147,-1.1213287,1.7186434,1.3369914,-0.20625094,-0.4284557,1.3182037,-0.59399855,-1.9345117,-0.6847057,1.289256
Hip-House,3.0824466,1.1968863,-2.1924336,-1.176086,1.2263904,-0.23861876,1.327765,-0.2163543,0.18729095,1.98518,-3.816054,0.28359538,1.2751715,-0.10353044,0.8311725,1.6730936,3.2222683,-0.10065537,-1.4636388,2.595135,-0.5929184,0.71480644,-0.414596,-1.9886452,-0.40472698,1.2710372,0.04087567,1.5708748,-1.3188996,0.091453984,0.23747803,-1.2208514
Marches,-0.8567876,-2.7590919,0.8971876,-2.4316833,-1.5624223,-0.20380776,1.2416433,-0.24369738,-0.079803295,-1.889493,1.456973,0.32755095,-1.4808098,0.6198071,-1.3296151,-0.31664032,-0.780891,0.6460162,0.0028464817,-0.43261766,-0.007935992,1.315465,2.05686,0.51833314,2.9374964,1.7605479,-1.3171337,-0.25964177,-1.2927791,-2.89609,0.41264978,1.3453171
Afro-Cuban,0.28102705,-1.8913559,0.55090827,-2.9498074,-0.12922676,0.9148725,-0.6173552,-3.2573397,0.08447257,0.48852876,-1.5376676,-0.8484054,1.2856374,0.11179597,-0.72362316,2.4811118,-0.68797946,2.837698,-1.1192136,-1.115618,1.8835461,1.0196778,-2.2222939,3.3653688,-0.14638093,-0.39746985,-0.08827013,0.6854213,0.86033005,-0.61616737,-1.5401825,-0.4573692
Afrobeat,0.13901268,0.47181204,0.891523,-1.592704,-0.32902443,-0.11854636,-3.2898378,-1.038278,-1.6133093,0.10877238,-0.79741144,-0.4499812,1.6508603,-0.16622591,0.24692218,1.4090211,1.1968526,1.566434,-1.4163431,-0.569055,0.019849524,0.013360495,-3.4474683,1.2621326,-0.8704453,0.3670298,0.6422931,1.1921893,0.9291368,-1.0716716,0.17508003,-2.414235
Guaguanc,-0.20690534,-2.652488,2.6072595,-1.2903175,0.96274734,0.7369192,2.9805973,-3.8988385,1.033496,0.49086496,-3.4349942,-1.9573398,0.16745684,-0.3335892,-0.5460485,2.749133,0.24180332,5.001379,-0.7251553,-0.061167657,2.6948168,1.5386955,-0.19965908,2.7988913,-0.22993109,-1.0773318,-1.905917,0.5535775,0.77066875,-0.2702257,-3.3378456,-0.552259
Dream_Pop,-1.2868768,0.5187422,-0.30450878,1.349482,-1.6784105,-1.8998266,-3.6830823,0.7755307,1.8757762,0.8382574,0.73252803,1.3835096,1.5884137,0.09746463,0.6678822,-0.9925588,-0.80557346,-0.5424306,-0.77339846,1.8726703,-1.2514905,-1.537399,1.2295259,-1.2093104,-1.4651814,-2.0814066,0.65438306,-1.0096866,0.5676907,1.991662,0.61177313,-0.70671254
Freetekno,-0.24409308,0.775453,-1.3545086,-0.5250883,1.7861223,2.422625,0.37648916,-2.8893785,1.2726934,1.9480932,-1.0175289,-0.5138979,0.8760725,0.004606293,-4.90736,0.891543,-0.64089316,0.71926653,1.6161423,-2.7224007,-1.5145174,-0.5396122,1.0835112,-2.1873305,-0.6600964,4.8603296,0.3137302,2.0022106,-1.1161952,-1.0794146,-0.95049226,1.6880695
Indian_Classical,-0.854157,-0.17302449,1.3023145,-1.2792292,-0.56081206,-0.69419956,-1.7293193,0.8025176,0.92814285,-1.7864465,-0.38072246,-0.76370835,0.5131091,-0.88644296,-2.5524662,-0.9840106,-0.1285894,0.2974561,0.37687695,-3.002145,-1.2511017,0.22918689,-0.4422787,2.2285445,1.2384251,-1.0453886,1.1322799,0.6088707,-1.5872442,-0.36566305,-0.79543275,-0.533134
Neo_Soul,0.49961755,1.6297766,-0.18462332,-0.95256704,-1.2231566,-0.05690536,-1.77673,0.086607754,-1.397487,0.7360169,-1.9377041,0.097845726,0.49425083,-0.992,2.2030804,1.4792813,3.0005968,0.059902273,-0.48387355,0.51753944,0.5146006,0.60425764,-1.9060298,1.8165605,-1.5296121,-1.0291762,1.285807,-0.031987403,-1.0577053,0.9565156,1.8712214,-2.4012249
Chillwave,-0.76020133,1.1125479,1.3813947,-0.57938147,-1.233051,0.32390913,-1.3544587,1.2331524,3.799974,0.95536304,-1.7971482,-0.05501404,-0.15723903,-0.8150748,1.4773961,0.34794113,1.0083338,-0.3260146,-0.4873772,0.34711456,-1.941178,-1.8219112,-0.7901953,-2.1674402,-1.977332,-0.44124103,-0.84730536,-1.2740217,0.12268156,1.8133057,2.3458722,-0.640244
Thug_Rap,2.6283278,-0.3425672,1.3833761,0.957536,0.8384744,0.3869921,0.36347878,1.3794801,-0.67647535,-0.34082684,-1.7683219,1.8389202,-0.21473362,-2.1005263,0.10571731,2.7726047,2.2474737,0.578791,0.596694,0.80228716,1.747434,1.3686594,0.85456055,-1.2534684,-0.34827292,1.364055,0.36424053,0.20835878,-2.7299824,0.9233484,-0.58931154,-0.5666229
Electric_Blues,-0.917591,-0.16966335,0.13642028,2.629047,-0.58661413,0.040655464,0.07036075,0.0803762,-2.2461655,0.15269215,1.00685,-1.299762,-0.9616751,-1.0762285,0.33945134,-0.503932,0.41841787,-0.94205475,-0.14358102,-2.0834734,1.4666939,1.8676487,-0.3742966,2.3801322,-0.8180134,-1.0898249,0.13362408,1.6045519,0.9086869,-0.5049084,-0.6937969,-1.2569143
Impressionist,-0.31846038,-1.5548073,0.96772766,-0.6763817,-1.6821828,1.2492654,0.40958533,-0.86514306,-0.87883705,-0.8782287,-0.39975318,0.63800836,-1.9042864,-2.0030353,-2.5058715,-0.29474732,0.051344294,-0.34079632,0.037091423,0.76256424,-0.18559393,-0.34644508,0.87536174,-0.6600552,2.5992267,-1.8891761,-0.7356522,-1.4177225,-0.56931096,-1.791355,-1.0884525,2.5222156
Modal,-1.422121,-0.9879127,0.8156915,-2.7636871,-2.8633983,0.5061129,-0.9269465,-0.9354599,-2.2842088,-0.9636146,0.0037053062,-1.1305248,-1.4951931,0.34563544,-2.0723648,-0.15707077,0.90397847,-0.44003034,-0.657596,-1.9298854,2.1987424,0.73579276,-3.8001885,1.2787607,-0.97529167,-0.7412053,1.0427113,-0.70579916,-1.190544,-1.9090365,-1.424049,0.3595646
Radioplay,1.1995319,0.7388509,0.673762,-0.75113195,1.3954303,1.0257133,0.6541735,0.0639971,-1.8147022,-3.0115328,1.8142637,1.6473469,-1.771639,0.32618964,-1.0552422,-0.248965,-1.2604003,-0.6070858,0.4699148,-2.1822813,0.48377162,0.5462378,1.2474166,-0.5034882,0.7808563,-0.24801311,-1.7371849,-0.34866422,-1.0193768,-0.5797976,1.1151984,-0.64507926
Rhythmic_Noise,0.62165934,0.39113832,2.0404036,0.22764888,0.6373644,1.1820312,-1.2134542,0.3441662,1.9401877,-0.3099364,-0.31474498,-0.48389643,-2.6491466,1.331754,-2.7050152,1.1028357,-1.8244698,-1.3742845,0.33853954,-2.107935,-1.5592138,-1.1412628,0.20921992,-3.8251305,-2.2556202,2.0245426,0.18548436,0.5149256,-0.7002965,-0.68192285,2.0909686,0.5106668
Lounge,-2.7447145,0.3720152,-0.5926481,-0.5610375,-1.1491233,1.2718878,-1.3073165,0.2661022,0.74800336,-0.23233509,0.86451644,1.5237978,-0.023780504,-0.27128085,1.6912956,-0.33147103,-0.5096119,0.24267074,-0.43360442,-0.41507214,0.47617874,-0.08309566,-3.092119,1.205493,-0.18588132,-1.9549539,0.1629039,0.2727973,-0.022516493,0.63766456,0.51141495,-0.8868831
Anison,-1.4941491,-0.77811617,1.3486689,-0.34556234,0.7069564,2.9968626,1.5407206,1.7300098,1.4915326,-2.0324357,0.29950052,1.4204285,-0.4572381,2.392302,-0.5010803,-0.5822389,2.437072,-1.3904194,-1.0419854,0.26435846,-0.09101025,-1.8883375,-0.8000892,0.88646686,2.1669323,0.10767656,-0.20913431,-2.9259396,-1.2158602,1.7120614,-0.10108697,-0.93378043
Son,0.53114396,-1.7521932,1.9433815,-1.7812921,0.7145479,0.013483939,1.832155,-3.2332585,0.96631664,0.85223716,-1.4743276,-1.9379663,1.5659893,0.5827955,-1.8857294,2.2843835,-0.61905164,4.725177,-0.47831726,-0.261778,1.5868274,1.5332751,0.28371045,2.5274582,-0.008444913,-0.8127838,-1.3304756,1.0574284,0.7812299,-0.056294866,-3.124442,0.7208078
Organ,-0.73954576,-1.7045486,1.2363026,-1.1928921,-1.1942308,-0.82537055,0.9809289,-0.98974204,-1.0946243,-0.6489298,0.026084825,0.10437455,-0.49615258,-3.688223,-1.24428,-0.3526018,0.28302425,0.3886215,0.25293204,0.081823856,0.97347075,0.27324542,1.0860398,-0.19905297,1.6724142,-2.2454422,-2.4891696,-1.3399682,-0.35735306,-0.49829155,-1.2136401,1.0278138
Lak,-0.105846986,-2.2377412,-2.3584056,-1.3145213,0.77358013,-1.0076163,2.4410498,1.34766,0.30873364,-0.4291846,1.3649346,0.8476093,0.44136518,-0.8744615,-0.9795726,1.3588675,0.10818877,-0.46293938,-1.5539796,0.653527,-0.85337496,0.27228945,1.3370827,2.2823563,2.319889,-0.1496226,0.6203185,0.903706,-0.9628921,1.0310695,1.1653863,-0.66610074
G-Funk,1.7168119,-0.018002952,2.4668906,0.68015826,0.777936,0.051272098,-0.19424772,0.3394989,-1.3035507,-0.3337973,-1.9225793,0.32831776,-0.7328681,-1.5154628,1.1090052,2.2993102,2.5735538,0.6018997,0.29110256,0.63606155,1.5585859,2.159236,0.9999703,-1.2104604,0.013855933,0.27567145,0.008105908,-0.5027675,-1.798737,0.7513013,0.060060978,-1.0136071
Rocksteady,0.9728758,-0.95283014,-0.69424677,0.097816445,-0.05389389,-0.6018913,-0.97884226,-1.8596737,2.116371,0.37671193,1.5215222,-0.093048275,0.46102613,-0.14990146,2.6423771,-0.6941996,1.3386229,1.4022068,1.3352206,-0.49608117,3.07584,0.8702294,-1.7718666,1.7806199,-0.1981127,1.7104337,0.816556,0.9713033,0.6146531,-2.7468526,-1.2712601,-2.213391
Goa_Trance,-1.8145171,0.41444036,-0.5540401,-0.74597013,0.459408,0.73189765,0.5768392,-2.130084,2.7014763,-0.3241506,-0.7918857,-1.6453944,1.217408,-0.49632093,-0.49571168,-0.3361206,0.8010179,-0.80996436,0.7353384,-2.3072245,-3.7699404,-0.6442031,0.5485138,-1.5116254,-1.0593787,1.2533431,0.69133806,-0.66122663,-1.415481,0.732061,-0.8427838,1.6061536
Calypso,0.92768604,-1.8827784,1.3949666,-1.5906589,0.4770403,-0.31285086,-0.13951868,-2.3025217,1.085355,-1.0819532,0.5083106,-1.1542988,1.136929,0.28438497,2.3401692,0.29946715,0.63674945,1.6290294,-0.16006969,-0.53857976,1.1071516,1.3992361,-0.9791713,2.3026829,1.3630706,0.39694247,-0.42313275,2.6586905,0.45884115,-1.5349486,-0.559686,-0.41806155
Atmospheric_Black_Metal,-1.5961239,-1.3092347,2.806374,0.6245479,-1.9026141,-1.8734562,-0.5957155,1.1665946,0.9484581,2.1367507,0.36033037,-0.9835759,-2.1255252,-0.4595473,-1.0746199,-0.92000777,-2.0993042,1.1743096,-0.18738565,-0.1980262,0.13850833,-1.7054899,2.5528526,0.1357607,-0.63134694,1.2606251,1.0221552,-1.1263664,1.1805526,1.6408584,-1.0743052,2.30756
Light_Music,-1.404305,-0.6913241,-0.2152359,-2.4703138,-0.90075123,0.3659124,0.78649634,0.45687777,0.2395178,-1.6899474,0.21412416,1.0382984,-0.3486021,-0.80173737,0.48278162,0.14411119,-0.501496,0.11986875,-0.4372188,0.65522724,1.2847574,1.2267543,-0.22515011,1.45671,2.076081,-1.7739161,-1.352666,-0.40386334,-0.38302675,-0.19709952,0.41610697,0.32344216
Hardstyle,0.9350667,-1.620201,-0.77272606,0.5731384,2.0530548,-1.0333027,3.7255616,-1.4690555,2.7519627,-0.03314768,-2.3808956,-1.5881196,0.23443964,0.9144062,-1.4144453,0.13457464,1.2924631,-1.685079,0.4601944,-0.4172389,-0.99083257,0.012775861,3.150622,-1.840059,-2.0120347,1.745059,-0.3218413,0.24706976,-0.97492737,-0.12053737,-0.6660203,1.1411884
Ragga,3.4137328,0.066894434,-0.8180061,-0.6053462,1.4783022,-0.37318143,-0.11422385,-1.7998976,1.6826175,0.42826444,-2.0402076,0.6716026,1.2179756,-1.1267722,0.86163694,0.73995155,0.9846991,0.86883867,0.5418259,0.21447138,-0.6371035,-0.32584164,0.40552652,0.6282379,-0.009361303,2.9877157,2.216414,1.5472518,-1.3672928,-1.0098627,-0.21379879,-1.1167237
Speedcore,0.4268762,-1.5259945,0.7716679,0.33273506,0.7621861,0.90640473,2.5959966,-2.316552,2.2572925,-0.2984556,-1.4585216,0.52719235,-2.26362,2.0379322,-3.0712056,0.95730036,-1.5215496,-1.5321885,1.8555044,-1.7889581,0.515247,-1.2228,1.5551887,-2.1982577,-2.7524312,2.4617536,0.73107225,0.41120902,-1.0085812,-0.7956463,0.8982465,-0.20910616
Symphony,0.3089892,-2.4052763,1.0822724,-0.4503338,-0.90014213,1.9280394,-0.61833864,-1.0324521,0.27315313,-0.7637497,-2.5090673,0.9484973,-1.9198925,-1.8063531,-1.1038921,1.4858692,0.76105183,1.016075,1.9294316,0.34130704,0.9131641,-1.3187965,4.158763,-0.14651695,3.208983,-1.0832947,-1.9917964,-1.3441213,-0.5517064,-2.618575,-2.3613591,1.4384222
Twist,-1.578728,-2.4607987,-0.8216473,-0.34200412,0.4810962,0.32330972,1.5276481,-0.62784374,0.9510739,-0.83359295,0.81750214,0.8224314,-0.13508222,0.5802137,2.7980359,0.7567476,-1.2160753,0.19838043,-0.2079854,0.9101981,1.2322985,2.2018943,-0.24738385,1.8277326,-0.060043357,-1.4905533,-1.4827069,2.14464,1.332705,-1.4722638,-1.1831554,-1.258018
Deep_Techno,-0.4149839,1.3395243,-0.28807175,-0.8550528,0.18063314,1.0329695,-0.84745586,-0.5538074,1.4824721,1.2257547,-1.3523374,-2.266556,-0.45695734,-2.3799543,-0.5194017,0.27366608,-0.4636901,0.463891,-0.3323852,-1.4965765,-2.2424812,-1.1192526,0.5739843,-2.193634,-1.8181832,0.9912751,-0.64629024,-0.11513649,0.6438223,-1.0526106,0.92524624,1.0915729
Post-Metal,-1.7281195,-1.482149,1.7020823,1.8151203,-2.127682,-1.327679,-0.47885758,0.7460733,1.6041845,2.631075,0.28193644,0.33929574,-1.122758,-0.3168534,-2.923156,-0.24495609,-2.7513258,1.6656963,1.0502533,0.4192057,0.64310753,-2.2144322,1.5405672,-0.6615475,-1.1019378,0.00027335642,2.8481953,-0.30661482,0.66515595,1.1325233,-3.3392227,1.4040331
Space-Age,-2.9033854,-0.3985669,0.70325464,-2.2937376,-2.386723,1.5156438,-1.6569815,-0.6685321,0.117899396,-1.2722082,0.32468984,1.8730534,-1.3605881,-0.70199895,0.2998446,0.694084,-1.6069595,0.39290628,-0.0128739765,-1.5466086,1.9501151,0.31675085,-4.071956,0.8175966,0.007056082,-1.7932723,-0.49547854,0.11217732,-0.7453668,-0.94642085,0.3695694,-0.7090671
Euro-Disco,2.485436,0.26274604,-1.3022802,-0.79116493,0.8865685,0.12446573,0.5374465,-0.5816048,0.86248493,0.48282772,-1.4104742,0.4400627,-0.0003775539,1.8560493,1.621533,-0.021923093,2.3617036,-1.6859052,-1.9854989,2.605057,-2.0325413,0.5036475,-0.020320898,-0.21447645,1.5366776,0.73995626,-2.5137596,0.16669556,2.1506667,0.47224513,-0.027814306,-0.04687654
Piano,0.35045138,-4.470978,0.70604163,0.9182701,-0.6220921,0.3338705,0.7271478,-2.5669463,1.2343615,-0.57831985,-1.9057084,-0.2820607,-1.8518778,-2.4804137,-2.543519,2.4975622,1.3728544,-0.36694825,1.3804684,0.091119625,1.4562681,-1.2000324,2.3506398,-0.9476298,2.8333662,-1.7736435,-0.2417657,-0.7042943,0.13393195,-2.6894493,-3.2299137,2.3203678
Honky_Tonk,-2.068631,-0.48819792,0.80694795,1.1769593,-0.1820587,-1.4870946,2.289946,0.5437647,-0.66969395,0.6370661,1.0649564,-0.36806747,-0.018855616,-1.4279823,1.9649451,-1.2833287,0.18040775,-0.6009278,-0.17162661,-0.5782185,1.088744,3.089994,1.5246555,0.5611573,0.9188904,-0.16022702,0.062458467,1.9042057,-1.6942283,-1.7934073,-0.06694738,0.88046753
Romani,1.0872561,-1.9879439,-2.3238227,-1.8699809,-0.14818937,-2.886069,0.4929327,0.46526474,-0.37486973,-0.14817768,1.0513183,0.63774997,0.30122742,-0.3780705,-0.81301725,0.90150285,0.02077397,-0.92660856,-2.1163998,0.09447414,-0.7723965,1.9050256,0.2592746,1.9556687,1.5896993,0.955865,0.8528426,0.23785111,0.48059016,-0.7705902,0.99140394,1.3707634
Gothic_Metal,-0.78025043,-0.860219,2.9853523,1.5132139,0.73313105,-0.36198303,-0.78695905,0.8167601,-0.021755645,0.23164544,1.4080597,-0.3243894,-1.2512121,1.786487,-0.6868829,-1.1248966,-0.2649692,0.8192803,0.5641139,0.10067974,0.5217321,-1.1511749,2.0802963,-0.70859593,0.9821046,1.6482277,1.3232521,-1.242617,1.1262031,1.7736346,-3.5238037,2.728189
Military,0.53068113,-2.0131223,2.7604685,-1.0553364,-0.37286025,-1.3312253,-0.92948765,0.34462816,0.39742437,-2.4386277,0.7156904,-0.004363031,-2.4317067,1.3032343,-1.4523683,-1.1151409,-0.7353061,0.4368969,-1.1857567,-0.45936012,-0.2922907,1.0375164,2.0817697,-0.2843909,2.5895848,1.3435217,-0.63181686,-0.37140003,-1.5698224,-1.2776508,1.311566,2.508919
Soukous,1.8971826,-1.7802422,1.8738303,-2.8390968,1.6413481,-2.1774383,-2.0155518,-1.7665707,-1.2030987,-0.48453543,-0.83002824,-1.9483318,1.2322228,0.045288518,0.120144844,1.4568794,-0.73913544,1.3665708,-2.0387514,-1.4512227,-0.0015824613,0.8782968,0.7548145,1.4271637,0.30578563,-0.56256455,-0.88862985,0.9756465,1.1681098,-2.2325826,-1.177659,-1.3487685
Hands_Up,1.2500622,-1.5451416,-1.0577332,-0.32512298,2.0510578,-0.8067857,4.5332365,-1.1232411,2.7645614,1.0497047,-2.838478,-1.5790297,1.9850733,0.42542687,0.08019146,-1.7250959,2.555127,-1.412624,-0.61284846,0.069221996,-1.7253172,1.3221035,2.9835525,-1.3009663,-0.30111578,0.18311736,-0.8768871,-1.1218488,0.5532156,0.12483409,-0.3945668,0.96256596
Dialogue,0.008771912,0.058305718,0.78937995,0.097183794,1.9263744,1.4163661,0.25980023,0.20355967,-1.5890771,-2.4762914,1.9688114,1.99716,-1.6736628,0.74507076,-0.47125578,0.09325563,-0.7076543,-0.6995717,-0.3769634,-2.142523,0.7557454,0.9429753,-0.23338044,0.06948411,1.5768144,0.19596466,-1.1815276,0.16475989,-1.2398323,-0.44360968,1.5957943,-0.6104911
Lovers_Rock,1.8431331,-0.5752125,0.15964885,-0.6960009,1.0820043,-0.5320781,-1.6842932,-0.7043821,1.8127043,0.62214905,0.24730973,-0.5771846,0.7215346,-1.9907435,2.6313136,-0.044421643,1.164495,0.09661065,0.61316234,-0.09722113,0.38990238,-0.21790335,-0.56467605,1.7741418,-0.09533641,2.2500243,1.3000096,0.5174391,-0.26814452,-1.7896487,-0.9204411,-1.8703995
Medieval,0.5606491,-0.7392134,1.7715374,-1.6610131,-0.78961957,-1.7553555,-0.9770542,1.5708358,-0.77920717,-0.3238332,1.2631572,-0.84734094,-1.195972,-2.2350898,-2.5426712,-2.5015962,-0.6103343,-0.4726894,-0.3458143,-0.8407448,-0.13536285,-1.1163669,2.6479013,0.029261151,3.3040447,-0.6616697,-1.4126588,-1.1584904,-0.4166119,1.6571668,-0.7777824,1.6756904
Symphonic_Metal,-0.70668083,-1.5398182,2.1053197,-0.29749066,0.5130003,0.3449971,1.3604383,1.8303677,-0.98506767,0.6826212,0.5649472,-0.82739866,-1.6147677,0.8136252,-1.4207007,-0.9213523,0.29268607,1.9052712,-0.4767853,-0.0069989013,1.0889217,-1.8007734,1.9075515,0.02729457,0.88864934,1.041292,0.69526446,-0.7456095,1.1833274,1.7523186,-2.2036738,3.2989373
Chamber_Music,-0.020864332,-3.1246076,1.5689996,1.3090024,-1.5211365,1.902942,0.9803076,-2.3308642,-0.5781144,-0.56796634,-1.8143744,-0.11054142,-0.8401405,-2.0193346,-2.9305055,2.0009105,1.2988904,-0.61721736,0.12800036,0.107960686,0.8164232,-1.4945601,1.6531037,-2.3801441,3.0271392,-2.5953002,0.17982039,-0.22817667,0.055180326,-2.0818965,-2.2109227,2.3985126
Interview,0.7643938,1.1070541,-0.44585386,1.367319,1.1342418,0.75462043,-0.049341895,0.59583354,-2.02418,-0.8658073,1.8369378,0.90523934,-1.289756,1.102457,-0.23166732,-0.106699005,0.07716792,-0.85093266,0.17457573,-0.9262074,-0.08725163,0.8730822,0.31267318,0.13960902,0.32057458,-0.12883987,-0.86480975,0.5382171,-0.9813397,-1.0243778,-0.32834744,0.19179621
Britpop,-0.01682851,1.3262273,-3.1476314,1.3598212,0.2945514,-0.16819043,-0.92754036,0.33448347,-0.16292085,0.63503265,0.6736006,1.6309468,1.1490355,0.3100008,1.1802305,-0.8155996,1.117789,-1.2711126,0.39833966,1.9736973,-0.6649289,-0.038615543,0.39595172,-0.3142427,-1.487191,-0.67419595,1.375949,0.5496223,0.3188229,1.005998,0.17185181,-0.8721147
Grime,1.4206505,-0.40423885,-0.20812747,-0.49094105,0.7763624,0.07815633,-0.981134,0.3916,1.4013697,0.14275786,-2.3187754,-0.22106859,-0.15698089,-2.158346,-0.41239217,2.171389,0.5467401,0.81021017,1.1066437,-0.34743595,0.5126625,-0.24513526,2.0136693,-2.5111225,-2.463418,1.8924675,2.4693618,0.79574955,-1.5403504,0.5255539,2.5793657,-0.95121306
Acid_Rock,-0.6637136,0.5485118,0.34178564,3.3500383,0.12895569,0.6243178,-1.6021255,1.2274429,-0.71936274,0.018367829,2.4303308,-0.072133824,0.32245842,0.10865817,-0.8669868,-0.64083207,-1.2726744,0.6954863,-0.08464941,-0.7147062,-0.26626006,-1.008361,-0.08120268,0.7728872,-0.86066985,-1.0873077,-0.07143383,1.3580638,2.0491762,0.87877905,-2.0845497,-1.8053322
Ragtime,-2.1609902,-1.9678632,0.4782635,-1.3420769,-1.0686678,-0.12604783,2.06316,-0.015745336,-1.2843423,-0.6191907,0.8190268,0.057462145,-1.8064169,-0.34935254,-0.08139141,0.19103184,-0.08447989,-0.13330942,0.24481101,-1.956387,2.3438041,3.7062628,-0.3783751,1.396642,1.8657,0.095594615,-0.17516856,0.04908184,-0.7218929,-2.2082198,0.07591447,1.2091563
